1194 128
1327 -0.08444827 -0.11309582 0.02313101 -0.053731974 0.1469796 0.04101106 -0.035897247 -0.06172449 -0.0145062525 0.13453822 0.08134304 -0.037225347 -0.0056166737 -0.109296754 -0.028539874 0.3206168 -0.049603507 0.067649 -0.1079947 0.02801893 0.09686609 0.03004746 -0.15741411 -0.17762908 0.029486306 -0.1595325 0.12942125 0.027717322 0.014815188 -0.19191743 -0.04746051 -0.17285389 0.045091137 0.1960925 0.03167541 0.067456715 0.005293091 0.06977094 -0.06774699 -0.047763076 0.06328564 0.00033218914 -0.11213075 -0.14885047 0.17980525 0.1535975 -0.00614563 -0.0054289787 -0.0610845 0.08059899 -0.054908425 -0.01956177 -0.108971916 -0.036040165 -0.052633513 0.14048961 0.047710933 -0.1332721 -0.12688296 0.10129808 0.03676221 -0.1728927 0.35802335 0.047557127 0.21212915 -0.05640364 -0.06484859 0.051675424 0.12605588 -0.051056467 0.117603384 0.07676242 -0.089374304 0.2012577 -0.050540373 -0.26216075 0.011915487 -0.10582956 -0.022470007 -0.002064233 -0.24336109 -0.15521069 -0.14951716 0.02261008 0.049221963 -0.068635926 0.095685326 -0.14456338 0.004506643 -0.00025550032 -0.009668978 0.16070388 -0.1074206 -0.058716547 0.052747022 0.10448551 -0.21414363 -0.03515637 -0.23005952 -0.088469304 -0.11429997 -0.02805308 0.061000418 0.042151168 0.1782451 -0.030654198 -0.15137486 -0.18861362 0.07294617 0.11795873 0.00078792527 -0.011294773 0.16098778 0.06126703 -0.054206777 -0.09559361 -0.023826895 0.1470435 0.11262634 0.11733779 -0.12840886 -0.14215522 0.004453471 0.08659934 0.071788095 -0.09929832 -0.055181626 0.04748565
1272 -0.13504702 -0.118127994 0.10953706 -0.07475519 0.029655147 -0.086774066 0.06631129 -0.007042537 -0.090531826 0.16966578 0.08038803 -0.18988547 -0.050986208 -0.17395487 -0.024475282 0.27158165 -0.11863698 0.08386015 -0.08278855 -9.488303e-05 0.06689482 0.063269965 -0.09701427 -0.21115421 0.101075985 -0.11151307 0.15797059 0.017548554 0.049808744 -0.16530937 -0.11032755 -0.06716179 0.04605921 0.12040813 0.16457143 0.12217587 0.026114775 0.04874321 -0.006494018 -0.153177 0.016326578 -0.09099292 -0.16427067 -0.10383833 0.166114 0.08291534 -0.17505231 -0.044353567 -0.082012035 0.0943343 -0.013382725 -0.11873034 -0.0154256765 -0.03552971 0.02270556 0.11107614 0.046036065 -0.18456583 -0.09732348 0.14090517 -0.007775673 -0.1339877 0.17211744 0.024360932 0.2473701 -0.033821344 -0.0013255852 0.10581453 0.087273896 -0.034274295 0.106793486 0.022404375 -0.08742523 0.22661497 -0.016091008 -0.13267978 0.025291799 -0.024670266 0.04339886 -0.010551842 -0.17268373 -0.11763469 -0.13255434 0.049156986 0.12954678 -0.042071674 0.03084364 -0.09227308 -0.057785116 -0.104232654 0.14956772 0.048573755 -0.08029138 0.024631001 -0.079105005 0.03628808 -0.300141 0.07031759 -0.19749832 -0.006102675 0.018930089 -0.03959057 -0.029170502 0.07946546 0.13030143 -0.09771033 -0.18271689 -0.0780039 0.124133386 0.12576652 0.08837599 -0.15996066 0.083836794 -0.0060098544 0.055830497 0.025033062 -0.071647964 0.008472587 0.10033126 0.059764173 -0.0873517 -0.22103222 0.09264492 0.07419324 0.082422175 -0.09484133 -0.0086972555 0.11794973
1407 -0.053563934 -0.14826576 0.043341644 0.0923751 0.05465125 0.006000457 -0.08472847 0.09899236 -0.06263796 0.056628816 -0.00474139 -0.23219985 -0.11987852 0.039180417 -0.04221038 0.29004797 0.0698184 0.1671409 -0.20966268 0.090561576 -0.10957369 -0.050398223 -0.14118321 -0.20614451 0.008725879 -0.14867686 0.0101542445 -0.009195641 -0.026020536 -0.02257996 0.016963094 -0.09026388 0.02876277 0.36289832 0.09766621 0.091093205 -0.05490458 0.19309911 -0.09756666 -0.15197779 0.12071704 0.04304832 -0.14186579 0.027567009 0.18173665 0.22952923 -0.15623114 0.18064421 -0.065168425 0.19354932 -0.004656243 -0.0002253187 -0.0722805 0.0027349994 -0.052141894 0.13585526 0.055336814 -0.18025218 -0.055774897 0.24436106 -0.088272765 -0.065777436 0.21265528 0.001919291 0.27871215 -0.06263735 0.053334918 0.12053702 0.05596796 -0.067947865 -0.008580288 0.11679162 0.045710254 0.16313775 -0.08139312 -0.06678001 -0.1325851 -0.06754728 -0.016758015 0.049773313 -0.14740892 -0.14152226 -0.23186636 0.14814341 -0.005918686 -0.019383013 0.047484636 -0.24969587 -0.05918658 -0.02430478 0.08747349 0.09982308 -0.13761824 0.031053556 -0.2694429 -0.001744123 -0.20695835 -0.06720063 -0.10791252 -0.04527912 0.012052569 0.13524462 0.119658425 0.13781312 0.030295247 0.03576247 -0.23655666 -0.1298957 -0.016574444 -0.025807874 0.014494832 -0.19992007 0.048331365 0.09055703 -0.026483271 0.0013632037 -0.12640218 0.10272473 0.08285833 0.05375377 -0.0723654 -0.074483946 0.11510802 0.119472586 -0.050634816 -0.22549151 0.0031623777 0.041114062
1172 0.0036628325 -0.2016833 0.11503088 0.082420595 0.14226736 -0.07235895 -0.11185174 -0.0040056966 -0.13980168 0.04541584 -0.005805614 -0.17934577 -0.18642516 0.015618612 -0.045035273 0.22099274 0.003435653 0.26901343 -0.22217536 0.20682587 0.020388426 -0.08385208 -0.005203326 -0.13119371 0.01762318 0.039884426 -0.035678394 0.1499873 -0.07352938 -0.16908078 -0.038112238 -0.021337831 0.06980189 0.20630872 0.026491212 0.052252125 -0.05473902 0.17060356 -0.09646939 -0.08869958 0.06814564 0.036687233 -0.27533388 -0.02258169 0.098333694 0.15349773 -0.09788871 -0.018589482 0.072528675 0.35483912 -0.0060093543 -0.05736289 -0.1254583 -0.029921176 -0.023267735 0.17908807 -0.0009288247 -0.12995858 0.07772516 0.33173352 0.033115946 -0.11091675 0.29789534 0.058813065 0.27896464 -0.18265127 0.15945494 0.13128398 0.18374711 -0.12597722 0.008894065 0.15365568 -0.08291046 0.121884674 0.06264438 0.014197079 -0.18436933 -0.11122515 -0.0911516 -0.045072064 -0.1456548 -0.07258605 -0.21113217 0.03947516 0.016265972 0.00770696 -0.0014494649 -0.23501804 -0.115696035 0.009071525 -0.098768875 0.24695139 -0.23715866 0.06417125 -0.24544932 0.015331609 -0.22844347 -0.029389229 -0.21003969 -0.09515399 -0.17058691 -0.10808727 0.11189395 0.11866627 0.13767275 0.0716267 -0.26099947 -0.16471852 -0.0012269946 0.017849384 0.073848315 -0.08766087 0.08054723 -0.05032616 -0.044647522 -0.0165168 -0.09469019 0.019529596 0.19589083 -0.028301554 -0.076455995 0.090033755 0.18876694 0.044573568 -0.099751726 -0.1501707 0.06646391 0.16160256
1116 -0.036431372 -0.16569704 -0.07873813 -0.05727441 0.08213852 -0.014906185 0.091841504 -0.0019171846 -0.038122263 0.17398988 0.10387752 -0.24198158 -0.1682669 -0.07035041 0.06564189 0.2192568 -0.08140811 0.06651801 -0.0037465766 0.017281115 0.03701251 0.062965654 -0.13248383 -0.20502323 -0.049392294 -0.064704776 0.016610458 0.018319469 -0.040737346 -0.0374851 -0.089356154 -0.055208594 0.11090718 0.123878606 0.1661984 0.050258696 -0.02051548 0.13385434 0.064529374 -0.050123386 -0.017550856 -0.08984872 -0.024700059 -0.1522223 0.18211958 0.010595824 -0.09135353 -0.025618112 -0.06898153 0.11395969 -0.050080225 0.07065736 -0.03088194 -0.077631995 0.10493523 -0.012365179 0.11955719 -0.14584051 -0.23284924 0.20488161 0.0872894 -0.062438447 0.17746371 0.06382456 0.11527482 -0.05557538 -0.08852217 0.08785869 -0.01752282 -0.018169124 0.04050021 -0.0048236777 -0.09739009 0.16806763 -0.059690468 -0.13190715 -0.08636487 0.011967298 -0.035079166 0.034456562 -0.32727247 -0.15728953 -0.0038415897 0.24363483 0.21302052 -0.007299517 -0.07840897 -0.10291828 0.010250765 -0.11213735 0.07939842 0.049710516 0.009724197 -0.03358048 -0.057068717 0.018815942 -0.296162 -0.05336239 -0.06419257 -0.15278858 0.005693145 -0.0035475483 -0.0012808988 0.15893067 0.014573974 -0.035347708 -0.054075714 0.008095907 0.07772264 -0.028985921 0.038452085 -0.106554165 0.14757966 0.01997061 0.027831275 0.026189657 -0.015142923 0.019601662 0.017598245 0.15705362 -0.14819399 -0.093197234 -0.02107758 0.22016458 -0.04167903 0.11172847 -0.022677362 0.14896558
1316 0.07180328 -0.06944772 0.006170487 0.043183852 0.011055933 -0.13469757 -0.033621233 0.15768006 -0.13696323 0.22801214 0.1323653 -0.27579236 -0.13960849 -0.053639818 -0.041911893 0.22784303 0.050103784 0.117809035 -0.069158204 0.17571747 0.25358614 -0.027171563 -0.036284044 -0.040370647 0.02094081 -0.04529215 -0.050733276 -0.11213784 -0.14963792 -0.22304268 -0.043655034 -0.08181964 0.11391096 0.17088827 0.21898971 0.056715325 0.017654523 0.17983775 -0.15774143 -0.09816876 -0.0017330342 0.088663824 -0.03423143 -0.08435352 0.39121523 0.15373498 -0.16081549 0.11766773 -0.023046203 0.18164028 0.16124547 -0.15453933 -0.23902589 0.033186156 -0.04856166 0.09165829 0.05881798 -0.059927143 -0.08653363 0.14656416 -0.0807734 -0.13546033 0.34297973 -0.060547117 0.2930921 -0.079673715 0.009747613 0.16078699 0.034636237 -0.1157495 0.010756066 0.06408753 0.0071591362 0.26144135 0.05114517 -0.17967302 0.036794815 -0.008795309 -0.03635952 -0.099162124 -0.07825149 -0.08979227 -0.19299869 -0.1560451 0.12549143 -0.12242801 0.1067728 -0.13021705 0.09867126 0.013924434 0.14218432 0.16543777 -0.09976975 -0.06718739 -0.13635978 0.04761167 -0.2575761 0.09543132 -0.12548453 -0.08384786 0.013290613 -0.15241066 0.022629209 0.06091261 -0.1587558 0.0012851044 -0.18956316 -0.119974494 0.010062574 0.12104297 -0.07191578 -0.21102968 0.05336169 -0.07218692 0.03157903 -0.029278604 0.02423772 -0.104297586 0.22887136 0.12530498 -0.025328003 -0.065337956 -0.13890119 0.06689437 0.0443934 -0.26855728 -0.0060231904 0.05841264
1329 -0.016240511 0.056778792 0.085821055 0.066942 0.11284569 -0.10755715 0.047780015 0.019303843 -0.03911212 0.13617024 0.11762821 -0.2533285 -0.13186958 -0.12285097 0.20423128 0.13380742 -0.2561662 0.17158903 0.046273984 0.16812527 0.14506972 -0.005898264 -0.089735776 -0.2998112 0.0048791184 0.054609157 0.07794231 0.028584965 -0.037363533 -0.14946152 0.00050621614 -0.17348742 -0.028542662 0.19654337 0.10983771 0.08036008 -0.06672473 0.006463397 -0.12066067 0.054154523 -0.05028491 0.08857088 -0.2102485 -0.1461235 0.20202968 0.07085436 -0.15143347 -0.0012341343 0.058935974 0.072639816 0.0005720994 0.031095203 -0.15588395 -0.033807453 -0.03859112 0.07529059 -0.028794888 -0.19926718 -0.079071395 0.0058576674 -0.057952605 0.055141035 0.14848419 -0.06698273 0.23523946 -0.17391689 0.08583304 0.013699179 0.10101904 -0.08677836 0.22155306 -0.071408376 -0.11015797 -0.05232931 -0.11311897 -0.24489434 -0.1342484 -0.1277476 0.105588295 0.024742642 -0.1341857 -0.11696998 -0.12991937 0.034892105 0.06027715 -0.06316321 -0.041690722 -0.03026563 -0.15742809 -0.03302297 0.13885371 0.13673991 -0.062499713 0.0063046464 0.13549647 0.07030437 -0.24890196 0.03032628 -0.2998442 -0.082633816 0.007071301 0.022368489 -0.15865554 -0.029033115 0.025721585 -0.091285706 -0.11063579 0.07340374 -0.104215376 0.06400829 0.0064156274 -0.20996697 0.10244297 -0.055768274 -0.033903413 -0.028822841 -0.03587842 0.03540545 0.023775047 -0.07216984 -0.05522593 0.011146521 0.09123662 0.1381634 -0.18916258 -0.015705131 0.12067185 0.093301445
1306 0.034985516 -0.14569837 0.121854775 0.002444439 -0.059186064 0.16782784 0.14973612 -0.071147524 -0.12551664 0.16567147 0.036974467 -0.0014339406 -0.16209891 0.013956854 0.16115233 0.1434179 -0.17977992 0.05538778 0.062275577 0.13913335 -0.0012127616 -0.0040487368 -0.101701014 -0.27314582 0.06877293 0.044420194 -0.0056217634 0.016871398 0.029095897 -0.0031275009 -0.00032773108 -0.086345844 0.10171261 0.026369875 0.038790025 -0.030975206 0.0785539 0.072279066 0.11846421 -0.1287631 0.0108584175 -0.0686149 0.006464174 -0.21465406 0.12839663 0.14054939 -0.29381543 -0.08961321 -0.13841522 0.08070443 -0.20770882 0.084795475 -0.098162636 0.09910159 0.023455873 0.06321433 0.14310445 -0.012156891 -0.06718136 0.15515041 -0.07331896 -0.01271954 0.36754718 -0.118623726 0.31281132 -0.13078365 -0.14702825 0.04868109 0.019636841 -0.05700407 0.12482636 -0.0045540393 -0.10833498 0.2178729 0.044020258 -0.16588114 0.0065905275 0.0040228884 -0.0517062 -0.06964421 -0.19493002 -0.058588963 -0.1534557 0.15761866 0.17789051 0.0155061195 -0.006785736 -0.063876465 -0.19806372 -0.014198598 0.021013698 0.061568175 0.09243278 -0.09593577 -0.039325036 -0.062710434 -0.13185465 -0.08120918 -0.1277279 -0.1319633 -0.13342413 -0.03444961 -0.07480357 0.04202989 -0.014246924 -0.10459691 -0.22877094 -0.025487436 0.064765856 0.023527076 0.0049622366 -0.0740867 0.0683158 -0.0020423247 0.045150377 -0.059764605 -0.012113668 0.11300699 0.013127948 0.09503206 -0.06529528 -0.11418152 -0.07186039 0.24199691 -0.05927901 0.11419637 0.019095987 0.08273373
1293 -0.05563387 -0.26588216 0.028688429 0.32010242 0.08363851 0.082600564 -0.010817737 -0.09097837 0.009997063 0.031407636 0.06852764 -0.22667834 0.11670081 -0.041680016 0.12828982 0.45886946 -0.12492686 0.016271135 -0.08501183 0.0023642406 0.18765612 -0.013971977 -0.2927961 -0.28237715 0.017755097 -0.063873455 0.032829393 0.04517004 -0.21734768 -0.16833565 -0.019743914 -0.17927049 -0.040108208 0.12844814 0.03190059 -0.0046888213 -0.019689053 0.17112857 0.008948878 -0.038541608 0.07623054 0.048430268 -0.0006922464 0.011256549 0.18295315 0.041178443 -0.16065288 -0.029775118 -0.12994047 0.009882679 0.094433054 -0.16968949 -0.23189233 -0.17073655 0.051194914 0.04869056 0.05579524 -0.22215271 -0.07934501 -0.021619026 -0.1222084 -0.042968377 0.34691167 -0.048813872 0.30031806 -0.12793693 -0.10219082 -0.04870632 0.061812416 -0.049903236 -0.0018515205 0.04426932 -0.06855518 0.16243443 0.07112907 -0.0057467553 0.064077266 -0.05703382 -0.09187405 -0.0008364482 -0.040783245 -0.11757246 -0.14382036 0.051937558 0.07775077 0.081354536 0.03546073 -0.029623048 -0.05558 -0.08599217 0.02788379 0.06280187 -0.037729897 0.029155534 0.0386385 0.17448163 -0.2809673 0.07993948 -0.20904474 -0.060828734 0.016068423 0.02044244 -0.06332575 0.06028865 -0.017492736 0.023494441 -0.20687069 -0.08930901 0.01950476 -0.023141894 0.10883794 -0.18191558 0.20962673 -0.038128335 0.03585748 0.008568237 0.09789996 -0.10876743 0.10611392 0.17210385 -0.15081722 -0.09551522 -0.06822435 -0.07821253 -0.1191323 -0.127565 0.009787888 0.18312086
1404 0.194121 -0.061664175 0.0313061 -0.10936316 0.06308472 0.04047256 0.14677808 -0.064720385 -0.039067976 0.13399155 0.03263344 -0.10556844 -0.18786138 0.014720987 0.15044639 0.25123292 -0.09152085 0.15376118 -0.0076767188 -0.03017513 0.06754297 -0.03984281 -0.17569453 -0.11338225 0.05969171 -0.02381786 0.032265052 0.058685683 -0.08943513 -0.26121908 -0.0613986 -0.10063301 0.09757187 0.10641753 0.103572935 0.07467083 -0.06729016 -0.019994348 -0.0058922814 -0.06805632 0.056160197 -0.03644768 -0.022329656 -0.09256305 0.19631441 0.03168056 -0.1672232 -0.06728348 -0.046324763 -0.029356191 -0.039536912 -0.029474355 -0.0822645 -0.01895098 0.16527916 0.03621135 0.19637947 -0.0891271 -0.09320753 0.17339194 0.06764705 -0.07851034 0.3078584 0.020987082 0.10692158 -0.23687789 -0.11202298 0.056042686 0.09819079 0.04763029 0.046221897 0.13889398 -0.17740904 0.22720248 -0.061702702 -0.08729481 0.05037552 -0.044406403 -0.0823373 0.04134212 -0.3333739 -0.15370208 -0.02620256 0.121993676 0.15320326 0.1817527 -0.041030183 -0.04013103 -0.1470817 0.04328899 0.05681177 0.04287148 -0.09669891 -0.2093955 0.040266674 -0.021715147 -0.23206963 0.034248143 -0.07798884 -0.15139632 -0.015268922 -0.11580739 0.14788246 0.070416965 0.015875751 0.04537402 -0.19505885 0.049706627 0.09587155 0.035042804 0.0023473606 -0.0880158 0.11690824 -0.047891542 -0.07509611 0.026886456 -0.03744544 0.04859358 0.084650375 0.0899675 -0.06275698 -0.12772848 0.13394621 0.10108038 -0.047336966 0.026347233 -0.018212728 0.08511217
1421 -0.06496958 -0.043272823 0.028691903 0.06225118 -0.10727036 0.041670196 0.13439472 0.14014079 -0.10833214 0.093073025 0.2388358 -0.18650298 -0.102116294 -0.02951048 0.09984238 0.31365737 -0.021463191 0.25898057 -0.09124978 -0.10212805 0.029166462 0.0915537 -0.05646191 -0.12364431 -0.20069169 -0.1075969 -0.028700525 -0.038176917 -0.017245634 -0.0066685146 -0.09613689 -0.016548097 0.060140483 0.13472992 0.075110115 0.034457013 0.11451781 0.08852052 0.014319574 -0.15809332 0.025861364 -0.041076098 -0.003033405 -0.04931209 0.19402702 0.1455545 0.0075063473 -0.060749274 -0.15814888 0.07652146 -0.08708834 -0.085728124 -0.110425234 0.12154404 0.005197865 0.15503678 0.03276435 -0.22570635 0.02768837 0.08921343 0.022193858 0.082177356 0.14637676 0.08293492 0.21587591 -0.19786605 -0.087380335 0.12081556 0.1805802 -0.026138553 -0.053827386 0.09117671 -0.11763094 0.20658764 -0.0825752 -0.06805682 -0.046514213 0.023556603 -0.031513046 -0.024663603 -0.12249539 -0.22903381 -0.1486134 0.17072801 0.053014845 -0.047555108 -0.08946526 -0.10143545 0.12695412 -0.095598415 0.048652872 0.0024608031 -0.13719779 -0.11550706 -0.26602444 -0.014315527 -0.16209471 0.06453711 -0.19223422 0.009408448 -0.090638995 0.07645927 -0.122814775 -0.042374272 -0.038728643 -0.057280675 -0.18795176 0.0469782 0.18502586 0.03871146 -0.08719974 -0.26017615 0.16150379 0.079652436 -0.038273524 -0.13487029 0.06463972 -0.15455998 0.13661636 -0.0075074495 0.08962519 -0.017144758 0.03755203 0.20659567 -0.05298887 0.09444335 0.08116668 0.14161338
1308 -0.05680596 -0.02642792 0.047581233 0.0039598006 0.051539566 0.1487425 0.01157033 0.012945678 -0.119449645 0.06308183 0.071888186 -0.055203512 -0.082410805 -0.123242855 0.10212768 0.31675604 -0.18315403 0.0462273 -0.05191731 0.07413653 -0.08899702 0.20659597 -0.14340952 -0.11582859 -0.068622075 0.065256394 0.08461003 0.22067636 0.025613708 -0.10075264 -0.029169362 -0.1279669 0.0075076614 0.012890339 0.08842005 0.022529885 0.10451651 0.05146086 0.021136722 -0.013469454 0.09783551 -0.08982583 -0.1709731 -0.14560084 0.10355855 0.15111758 -0.040341713 -0.08447378 0.11444369 0.046898466 -0.030859604 0.05305056 0.014615344 0.009120251 -0.01462289 0.037509643 0.06618703 -0.120279476 -0.082243025 -0.021751733 -0.07176782 -0.04429889 0.21669093 0.09330096 0.13963093 -0.055315197 -0.061576266 0.08713561 0.04051196 0.017621279 0.07926489 -0.11872378 -0.18092524 0.17592429 0.09848697 -0.19943754 0.024697915 -0.08035898 0.07661948 -0.08351322 -0.23045807 -0.10087508 0.0512554 0.22056581 0.060558215 0.0029334764 0.08943532 -0.06940734 0.056770965 -0.22644033 0.16689909 0.074808806 -0.036619682 -0.059174977 0.030521676 -0.03509511 -0.16311643 -0.05610708 -0.12811802 -0.14661723 -0.07337377 -0.060019653 -0.001250305 0.033350598 0.09027931 -0.054828484 -0.10177817 -0.15668915 0.013762123 0.047029637 0.13712826 -0.23079014 0.22389285 0.08730114 0.063487634 -0.09924266 -0.1458847 0.055877544 0.08878108 0.04438723 -0.10982384 -0.15765025 -0.02636511 0.056822266 -0.1438948 0.005870022 0.023412704 0.13389242
1103 -0.12559074 -0.10273766 -0.13747878 0.044883553 0.20139271 0.14476998 -0.10257861 -0.14988452 -0.14258352 0.042314023 0.068786606 -0.23853756 -0.3020391 -0.097377546 -0.059019007 0.3260768 -0.020511076 -0.018403031 -0.3360519 0.015333022 0.061162714 0.0775257 -0.036666695 -0.08981984 -0.028768716 -0.10210135 0.13303639 -0.0009464516 0.019137232 -0.06425642 0.033718567 -0.073548 0.20916055 0.29095328 0.06554502 0.14321841 0.058655914 0.070299424 0.0147165395 -0.13888855 0.21130523 0.15862738 -0.2195062 -0.12351806 0.19412407 0.16321087 -0.145183 -0.055034686 -0.055655908 0.0582899 -0.047848087 -0.0029384906 -0.064065896 0.013119781 0.103941955 0.12440241 0.0461092 0.08680017 -0.27833968 0.07774359 0.072135925 -0.027525952 0.30497387 -0.015023447 0.27024424 -0.048476253 -0.10125018 0.0838568 -0.021027345 -0.17246297 -0.12256011 0.096298166 0.04368103 0.155547 -0.040572032 -0.009415872 -0.09543358 -0.14243919 -0.04948004 0.10095596 -0.07511096 -0.104455605 0.03741592 0.12267026 0.29665962 0.038596075 0.07311607 -0.16963811 -0.01186346 -0.15289734 0.12697114 0.16057287 -0.13017252 -0.04943849 -0.04541149 0.18559074 -0.017973334 0.17645591 -0.04981277 -0.24392772 0.00028565628 0.031120913 -0.03749344 0.033636294 -0.0297945 -0.07841461 -0.15474829 -0.19736269 -0.00068602763 0.23917592 -0.008508732 0.0055377204 0.16147189 0.061035812 -0.09439489 0.14726807 0.006672807 -0.0037588982 0.10309756 0.04190224 -0.19233297 -0.11983435 -0.07911494 0.07630126 -0.021047719 0.029316446 -0.13295834 0.1781413
1237 -0.0070891976 -0.13527256 0.065850735 -0.18598527 0.056757547 0.06732803 -0.017308058 0.004742666 -0.0809634 0.032489568 0.09585801 -0.25597045 -0.101018384 -0.1332127 -0.041938487 0.22724494 -0.14464651 0.12860824 -0.075878754 0.03688989 0.07023426 0.18890174 -0.079567865 -0.15780407 -0.10307802 0.06904215 0.0086861225 -0.060955696 0.04745253 0.043391775 -0.11551672 -0.06973038 0.036818687 0.12743324 0.018405557 0.01605834 -0.0945576 0.048820138 -0.06742176 -0.032837298 0.010514373 0.083847985 0.042299766 0.123692006 0.27100113 0.054459315 -0.07804194 0.011026 0.0075716064 0.09869465 -0.10424295 -0.019879647 -0.081146896 0.06083446 0.12584175 0.09505545 0.11416212 -0.16590281 -0.06886836 0.040334865 0.05011633 0.00028217238 0.24441758 -0.023378486 0.18333855 0.07622146 -0.05752328 0.098659925 0.008411797 0.0058949655 0.08298473 0.050135337 -0.14899142 0.119617045 0.016363598 -0.14865384 0.09239153 -0.027874226 0.017134957 0.0828707 -0.13884598 -0.10974945 -0.10002256 0.13414653 -0.032445196 -0.014394136 -0.005979949 -0.29679045 0.025880601 -0.15960045 0.16334713 -0.07113108 -0.013683218 -0.1602602 -0.08255114 -0.058015984 -0.15038256 -0.04760819 -0.21441966 -0.10034631 -0.0059972517 -0.06676461 -0.003375137 0.095103055 -0.055912226 -0.005240416 -0.18024917 -0.22205922 -0.06761396 0.18052016 0.114318475 -0.22232653 0.067748494 0.048450895 -0.16747634 -0.029623903 -0.010459372 0.11931338 0.108458504 -0.007997669 -0.1360036 -0.114857525 0.117816545 0.18055557 -0.14934511 0.023088394 0.044423983 0.020640066
1287 0.0251068 -0.0061785597 0.16811857 -0.08374675 0.06529494 0.05204359 -0.14663535 -0.04037462 0.020612804 0.12585776 -0.022736004 -0.2344822 -0.033689473 -0.020083224 0.14039564 0.12712422 -0.15606065 0.04180296 -0.15244992 0.16944534 0.07833196 0.18448687 -0.111161485 -0.20679358 -0.09194329 0.11294752 0.17317273 0.0693952 -0.097134985 -0.010584678 0.014803315 -0.123183645 0.09098987 -0.03501934 0.18307036 0.0003697264 0.0353206 0.018353634 -0.088665396 0.022643425 0.06510905 -0.03981593 -0.07993551 0.009600146 0.13397764 0.14646854 -0.17413671 -0.05926482 -0.037178684 -0.14350747 -0.0022698946 -0.185022 -0.14663173 -0.06917703 0.022138905 0.09540112 0.035593025 -0.29289368 -0.014292295 0.22453813 0.023743922 -0.053525474 0.25016034 0.0988651 0.38740993 0.08051325 -0.10112551 0.30134934 0.18016608 0.07052218 -0.059884418 0.026792808 -0.14061414 0.040397264 0.17572314 -0.23465492 -0.10794415 -0.12368064 0.086292274 -0.21457098 -0.11113738 0.038771167 -0.034371078 0.16523375 0.05100009 -0.09647948 -0.11632266 -0.12207863 0.1463889 0.11447628 0.13878302 0.17194682 -0.018879196 -0.077863105 -0.14504345 -0.02011695 -0.25140834 0.035188932 -0.010085604 -0.03254587 -0.11213729 0.14677687 0.08819819 2.1289667e-05 -0.043931752 0.092613496 -0.26496652 -0.087358736 0.084376335 0.165333 0.26361713 -0.08597428 0.15172412 0.28845936 -0.066577934 0.0119668245 -0.2603257 -0.031549476 0.009565286 0.053866155 -0.21393739 -0.023284316 -0.03729092 0.021742592 -0.15475506 -0.13600966 -0.047069024 0.10541781
1276 0.08688898 -0.2845171 -0.1743353 0.013555446 0.065289885 0.13523676 -0.012177173 -0.28326192 -0.02071526 0.22934622 0.15056434 -0.19496673 -0.05487358 -0.059770618 0.10521622 0.30609876 -0.0037278095 0.029160151 -0.055130444 0.04478232 0.099958435 0.093803726 0.030594409 -0.007989814 -0.198305 -0.027613582 0.1347356 -0.113785826 0.12435374 -0.15446264 -0.11937117 -0.0514419 0.19016664 0.08474457 0.073505566 0.14000039 -0.020592086 0.06382411 -0.038287684 -0.1696198 -0.10599956 -0.014112884 -0.117613874 -0.07977753 0.13205372 0.07821666 -0.10447849 -0.020452017 0.018709548 -0.014062067 -0.062270723 -0.04752847 0.06114733 0.092987515 0.06538384 0.21703462 -0.0019727417 -0.21310304 -0.05620765 0.004128912 -0.15169273 -0.09378638 0.09460155 0.07805419 0.47148353 -0.074328266 0.12082274 0.14660522 0.10652223 -0.091782354 -0.044127893 0.038188014 -0.13956939 0.19495991 -0.0016606589 -0.15741664 0.01606386 -0.095087096 0.023792535 -0.03878183 -0.25099203 -0.008975363 -0.08298664 0.03592374 0.15863222 0.07148434 0.09613199 0.005210423 0.08542468 -0.056274563 0.10073629 0.24839655 -0.018321253 -0.16511884 0.0010120685 -0.15165791 -0.19298393 0.05321807 -0.20119163 -0.069283046 -0.0954803 0.0011412768 -0.12750101 0.23627508 0.14529864 0.08775877 -0.26103628 0.021415481 0.12299376 0.11530635 0.049539283 -0.17430405 0.20566998 -0.033301976 0.17299569 0.027815336 -0.038018517 0.028991882 -0.08772407 0.114414394 -0.20449913 -0.11447804 0.018330628 0.16476883 -0.05923121 0.056336097 -0.044993587 0.22796066
1140 -0.09636543 -0.08562364 0.18762432 -0.06574878 0.04728789 0.036935855 0.09638701 0.016942244 0.02029353 0.1510976 -0.028104728 -0.21565752 -0.087927766 -0.022231186 0.06193345 0.34106565 -0.18914981 0.008800661 -0.0005876745 -0.05005848 -0.012264143 0.0419255 -0.19414985 -0.2281695 -0.017372679 0.09586644 0.17720242 0.1361406 0.06836231 -0.043105442 -0.01668632 -0.06779894 -0.005717339 0.1389094 0.12018462 0.12733066 0.095369555 0.069996394 0.102246225 0.14740108 0.14506486 -0.042232204 -0.0112262275 -0.1916628 0.11743338 0.048886452 -0.25594833 -0.021189092 -0.10405447 -0.09930615 -0.014162501 0.036295388 -0.026550317 0.03682046 -0.024858668 -0.08915033 0.12202458 -0.089759596 -0.072300516 0.041413262 -0.11173385 -0.1229817 0.2718096 0.09206333 0.1331722 -0.10184807 -0.022250263 0.17562144 -0.10755994 -0.12568013 0.15946384 0.026119048 -0.1617281 -0.030104615 0.011927974 -0.113238245 0.03342156 0.015026786 -0.0016800973 0.13102981 -0.1388432 -0.19011945 -0.08848336 0.100974165 0.05325674 -0.048713125 -0.0043992847 -0.04457274 0.02157872 -0.07723835 0.13101055 -0.043968458 -0.026855733 0.075162314 0.11518471 -0.039840747 -0.10525658 -0.04525242 -0.14193353 -0.16703606 -0.026313609 -0.06447516 0.025411455 0.14341855 0.013842864 -0.090018496 -0.14157765 0.015470868 0.0027691268 0.014024521 0.03973772 -0.2802739 0.01637605 -0.030282337 -0.0025610065 -0.12694803 0.030414399 0.05251582 0.059204753 -0.052612245 -0.08191378 -0.12089251 -0.007290147 0.1763164 -0.12234526 0.044258006 -0.18388055 0.12484532
1164 -0.026983831 -0.059800945 0.11867611 -0.022654276 0.07504923 0.07983787 0.08095695 0.045926135 -0.084667966 0.12723714 0.05239486 -0.08407312 -0.09620685 -0.05601027 0.13098468 0.15580255 0.00025318225 0.109438725 -0.058701687 0.16389228 -0.051019974 0.099321514 -0.1315688 -0.1537039 -0.054530025 0.021800697 0.081124835 0.15494029 0.10571777 -0.062677026 -0.05068805 -0.06628709 0.10628952 0.15975282 0.18595682 0.07094638 0.035679244 -0.005877299 -0.13411121 -0.066412576 0.058091234 -0.064841285 0.020918574 -0.079682596 0.20186579 0.13811432 -0.19305567 -0.06602017 0.0011761263 0.010499405 -0.013353221 0.018595748 -0.0605419 -0.14433381 -0.040277 0.01877392 0.08240014 -0.17142048 -0.041152157 -0.09965998 0.046828706 -0.059956808 0.14019948 -0.0425245 0.08272165 -0.18514003 -0.039733563 0.11658885 0.09622528 -0.1256993 0.22031404 0.10150524 -0.22588243 -0.049228292 -0.1765617 -0.20518449 -0.010591833 -0.08067464 -0.120580904 0.007708267 -0.19025695 -0.11755445 -0.09881851 -0.023313839 0.0537406 0.09638494 0.07357611 -0.12615395 0.024380596 -0.059023045 0.22325692 -0.05334964 -0.017095273 -0.1873224 -0.12684473 0.02158805 -0.05074313 -0.27017775 -0.2410895 -0.1466106 0.016121354 0.064133786 -0.10254575 -0.024557427 0.16037846 -0.04396065 -0.18261036 -0.055671312 0.11886296 0.1389574 0.17878926 -0.08677984 0.07255511 -0.009900962 0.06278706 0.017941795 -0.08825952 -0.0516709 0.20442073 -0.09091409 -0.03222704 0.0056142327 0.06448167 0.2082833 -0.17569295 0.10178704 0.090742186 0.05555012
1156 -0.20143181 -0.3654896 0.023506239 -0.03714283 0.11795625 0.008057854 -0.067796715 -0.014800419 -0.041040745 0.07165929 0.00389679 -0.32171345 -0.2035959 -0.05843901 0.102814876 0.20092061 -0.06354799 -0.011402747 0.12899269 0.115572914 0.10242985 -0.03054211 -0.072537355 -0.11932625 -0.06765131 -0.0042829723 0.003173282 0.15772104 -0.16775255 -0.078426056 0.10385385 -0.20571724 0.10420884 0.0845196 0.017568775 0.14615099 -0.034630544 0.012064158 -0.18592635 -0.06459556 -0.010833529 -0.01310474 -0.016909756 -0.06402407 0.15920694 0.054869905 -0.13294224 -0.07606108 0.038186844 0.07250576 0.01539876 -0.12988842 -0.09631382 -0.12839273 -0.23293248 -0.019481292 0.06708989 -0.038286433 -0.2027712 0.10028876 -0.011113779 -0.018848544 0.014486611 0.02571354 0.23110862 -0.05962171 0.0678964 -0.0040549096 0.29091024 -0.10316383 0.10899637 0.15151592 -0.05663897 0.05965068 -0.029043414 -0.1555366 -0.03394389 -0.16571127 0.08783305 0.01989115 0.056176852 -0.28318346 -0.17180008 0.08027075 0.2195615 0.015481306 -0.1946452 -0.1928155 -0.041575007 -0.23290361 0.33424386 0.14966872 0.11856776 0.10128586 -0.02796893 0.04116078 -0.2051073 0.08115692 -0.09145278 -0.10900435 -0.0050910222 -0.02131332 -0.012253907 0.124692135 -0.09937794 -0.034974743 -0.06113673 -0.25195163 -0.020228582 0.037791986 0.055305652 -0.07102166 0.13108522 -0.022097621 -0.18355909 0.07038879 0.029933415 -0.049525708 0.21947917 0.109991774 -0.2035402 -0.021562576 -0.024848409 0.12926434 -0.035937715 -0.03696912 0.081058964 0.09973232
1297 -0.021841394 -0.116607174 0.1292164 -0.055814244 0.11672614 -0.030477783 0.1565625 0.06673197 0.111186296 0.12211371 -0.0023102965 -0.20482461 -0.12756938 0.08317025 0.06438241 0.29466012 -0.096914314 0.13334677 -0.048004318 0.08798278 0.045847997 0.13939199 -0.112938784 -0.22183245 0.02363339 0.010133572 -0.10808747 0.29670158 -0.01927555 -0.013268728 -0.1182228 0.0169443 0.0032166603 0.15919575 0.034748092 0.054904584 -0.04241897 0.10283802 0.032598365 -0.076311395 -0.048627343 -0.097210854 -0.016948853 -0.077501416 0.19235504 0.029076664 -0.10949462 -0.0008182683 0.042860966 -0.037787985 -0.06325211 0.022767685 -0.05418063 -0.044120092 0.16239196 -0.011708043 -0.038618937 0.03090812 -0.051596817 0.15380596 -0.07232958 -0.06921103 0.18915723 -0.032046523 0.09864629 -0.14435495 0.060351025 0.08390345 0.019764842 -0.1636747 0.13013473 -0.005948843 -0.19745785 0.1917256 -0.023528652 -0.2104463 0.030513452 0.09885694 0.089112766 0.08518578 -0.24189778 -0.2781501 -0.0010171207 0.09774821 0.06673797 0.09110244 -0.097143546 -0.07459866 -0.048168965 -0.15537047 -0.03539963 -0.03789825 0.07221203 -0.015406784 0.010850059 -0.048966732 -0.100628205 -0.120290615 -0.24579833 -0.13698342 0.049418528 -0.0019090493 -0.06932561 -0.008529775 0.10987588 -0.017360516 -0.082479246 -0.037048753 -0.028842168 -0.017766485 0.06408717 -0.22029741 0.09851739 0.04562144 -0.11438378 0.032402452 0.10328862 0.08177662 0.014814875 -0.10880154 -0.030768843 -0.07566681 0.011107109 0.21289511 -0.17827496 0.13755186 -0.04321109 0.024672661
1238 0.12817472 0.023214348 0.05655692 -0.07753847 0.018666375 0.06596034 -0.0025523738 0.047065273 -0.047527883 -0.021232177 0.03315838 -0.20161924 -0.02208737 -0.1797871 0.05471568 0.26635128 -0.17852874 0.049812485 0.035726722 -0.012964395 0.18264022 0.04985397 -0.060590677 -0.1404606 -0.012512487 0.026618274 0.016729992 0.07678918 0.016854871 -0.025147548 -0.00035023692 -0.13184415 0.12518394 0.18140453 0.16812271 0.038159743 0.05030135 -0.11240372 -0.062582776 -0.03532867 -0.010477603 -0.020862222 -0.010317212 -0.07786254 0.23392905 0.120339945 -0.1857676 0.0017544418 0.071828976 -0.02197302 -0.07894909 0.08160154 -0.041905705 -0.17290188 0.031250745 -0.03843807 0.06722053 -0.06783864 0.0030198698 0.09189358 -0.03809886 -0.0810062 0.11530053 0.05777111 0.15517893 -0.009084745 -0.113221645 0.08839373 -0.007432684 -0.08594989 0.19392692 -0.08373912 -0.22071438 0.060476135 -0.02276464 -0.15444541 0.039498437 0.030618593 0.07691759 -0.018427115 -0.21433815 -0.1395259 -0.025620751 0.17043835 0.090773866 0.028795447 -0.11426927 -0.113539614 -0.021919949 -0.053019688 0.07305502 -0.12205195 -0.022397421 -0.076110795 0.019907271 -0.093134075 -0.2683573 -0.039341465 -0.124517195 -0.16559406 0.011428681 0.0056188633 0.10713217 -0.069150895 -0.04093769 -0.21761145 -0.04393717 -0.078919046 0.0018067411 0.10057744 0.14053464 -0.23315072 0.11096088 -0.012482047 -0.03316288 -0.12961888 0.06803624 0.061700758 0.076453604 -0.01595611 -0.11873467 -0.14193414 0.013341297 0.19380555 -0.11864787 0.14573051 -0.043123696 0.060447045
1286 -0.08356924 -0.05666576 0.16137983 -0.18087435 0.10636756 -0.030734936 0.1297912 0.00328219 -0.06414296 0.036817625 0.06584648 -0.07521583 -0.1377462 -0.06617089 0.07505163 0.26510125 -0.23558158 0.081712455 0.060324013 -0.018537933 -2.7876207e-05 0.06166561 -0.057950582 -0.21151038 -0.032206822 0.05640374 -0.013381907 0.22411871 -0.09091406 -0.012898208 -0.07168688 -0.1078619 0.08391598 0.18365821 0.120281324 0.036399025 0.014425102 -0.09724529 0.020496286 -0.019837916 -0.0006570269 -0.03107821 -0.088964924 -0.11982407 0.2216344 0.013967976 -0.044052843 0.021975935 0.1305256 0.033261757 -0.046184707 0.07852111 -0.111593485 -0.038143612 0.0051344456 0.00089581776 0.031650428 -0.015345299 -0.0123714795 0.021261973 0.06329535 -0.13505295 0.11079013 -0.02512558 0.12493468 -0.16410707 -0.046466056 0.16837965 -0.036612388 -0.11193124 0.18007733 -0.027761718 -0.12940234 0.025886338 -0.06817575 -0.20549656 0.013163837 -0.0031405636 0.017259015 0.051215466 -0.21834671 -0.21922456 0.020801842 0.10383803 0.117973626 0.024526367 -0.04533251 -0.116522074 -0.06171326 -0.18948334 0.002985892 -0.062922634 0.034678847 -0.078893386 -0.020086125 0.03276016 -0.08424631 -0.056540236 -0.1454419 -0.13375221 0.0009780496 -0.04507921 0.0469431 0.0902441 0.06480247 -0.11328025 -0.09788751 -0.05826265 0.09092005 0.14665298 -0.028387722 -0.1832075 -0.019612797 0.023590524 -0.03451758 -0.017441938 -0.025489196 -0.031343248 0.06114469 -0.05292784 -0.011665607 -0.088959016 0.00013427004 0.17887889 -0.2035784 0.07350001 -0.08145135 0.11788591
1146 0.0053631547 -0.10553285 -0.036589466 0.03676437 0.027111847 0.12201281 0.016433865 0.123296976 0.013124745 -0.012396163 0.021964872 -0.20956524 -0.17456026 -0.0931085 0.12725495 0.31345704 -0.13821645 0.10939404 0.07059712 -0.07422167 -0.035340436 0.004026372 -0.20150475 -0.1859894 -0.09706266 0.13740535 -0.0029042675 0.14616765 -0.032906327 -0.080446854 -0.017449848 -0.13794138 0.1307678 0.120753035 0.12879564 0.012937363 -0.004414938 -0.1304048 -0.11968463 -0.0337179 0.035762616 -0.0637609 0.011597577 -0.065568075 0.15938075 0.117824756 -0.09253149 0.057245895 0.009877384 -0.004834851 0.017992329 0.044980727 0.030690948 0.042391427 -0.003447153 0.011777979 0.035613686 0.025042389 -0.0736226 -0.04302187 -0.027136475 0.0026815017 0.07806251 0.04167185 0.15017374 -0.09672342 0.009916844 0.13589397 -0.02077416 -0.082210675 0.15543275 -0.0019591537 -0.19315645 0.0028265174 -0.040121656 -0.1062832 -0.03236824 0.0031734502 0.09954928 -0.08144319 -0.1982151 -0.051657364 -0.10390198 0.13898037 0.13655686 -0.0007927206 0.13738628 -0.062674336 -0.03434246 -0.1476672 0.16753176 0.006580214 -0.0534279 -0.09845843 0.05775959 0.079615615 -0.18384153 -0.14948262 -0.21034794 -0.062139675 0.015721763 -0.12425334 -0.05125426 0.06293534 0.008616969 0.019299624 -0.09514914 0.027003085 0.010011254 0.13651514 -0.035082504 -0.2639176 0.05203807 -0.08558404 0.044907767 -0.01571482 -0.07487393 -0.01685674 0.11699923 -0.03703393 -0.13589406 -0.20604065 0.017045805 0.17856637 -0.18614762 0.15490906 -0.10320592 0.03659762
1323 0.047952875 -0.12685138 0.008392315 -0.12636156 0.014231851 -0.04564376 -0.06485981 0.03485462 -0.020894831 0.07358321 -0.02938516 -0.06322893 -0.22335957 -0.007226074 0.056473166 0.25304794 -0.19428508 0.117469676 -0.0063630072 0.04036458 -0.02398017 -0.010620807 -0.015355909 -0.15974207 -0.0119985975 0.043587018 -0.13927828 0.13722982 -0.06402248 -0.032147042 -0.10648958 -0.17378119 0.057899766 0.124527484 0.12640026 0.16224414 0.06195657 -0.06924701 -0.16418928 -0.09616019 -0.015675869 -0.027606556 -0.017476691 -0.028608702 0.08114908 0.017257057 -0.2155804 -0.09678041 -0.022861145 0.06662937 -0.0011229005 0.06245549 -0.06986331 -0.04634891 -0.07361638 0.028222285 0.058870055 -0.05567854 -0.13221522 -0.008384775 -0.10108354 -0.057454757 0.1757974 0.030213766 0.19352175 -0.13102317 -0.0031889006 0.105278805 0.1406204 -0.1395742 0.08845087 0.058173362 -0.19617257 0.088327445 0.07355356 -0.14552216 -0.036459766 -0.0024151024 0.10485463 -0.052232556 -0.24007563 -0.10573367 0.10190608 0.16837612 0.020585725 -0.0013653644 -0.023359621 -0.26781356 -0.030521668 -0.16227184 0.16016972 -0.092316106 -0.030405411 0.026084632 -0.055878438 0.016324675 -0.17805465 -0.02277563 -0.16009371 -0.07295181 0.016949337 -0.02666728 -0.028937763 0.05638341 0.033329986 -0.026615743 0.054222915 -0.14441462 0.13383804 0.05536949 0.08636953 -0.16727938 0.05564998 0.01958024 0.05590415 -0.011785677 0.019193351 -0.013518873 0.13678992 0.009920123 -0.028811155 -0.14944322 0.023859058 0.15350619 -0.10969008 -0.07266921 -0.06371953 -0.09346288
1370 0.06816449 0.037308294 0.084199406 -0.031548638 0.11761187 0.066334754 0.11176034 0.025018504 0.010698366 0.09899132 0.11066342 0.014163045 -0.17106809 -0.026040334 0.20471857 0.24073547 -0.14444895 0.15141712 0.04311506 0.08103339 0.018692158 0.009366651 -0.10655772 -0.19999975 -0.10719333 -0.016473154 0.004780093 0.14219345 -0.009795827 -0.031985484 -0.07566733 0.05108239 -0.00076008536 0.048932403 0.09672179 -0.035872806 0.033292074 -0.12207344 0.05337474 0.032021992 0.0324912 -0.14198436 -0.062769204 -0.03121892 0.0936877 0.04174159 -0.07619869 -0.06465067 0.018088622 -0.006845296 -0.013347932 -0.008526525 0.0054240627 0.04530925 -0.046345193 0.029352805 0.11164995 0.034989342 -0.08114132 0.07110639 -0.035423797 -0.103980884 0.21637107 0.06621243 0.09734482 -0.090063274 -0.02909085 0.15774319 0.05728876 -0.084649585 0.11876928 -0.042666502 -0.23135227 0.028936045 -0.054906383 -0.1884086 0.07506433 -0.024126442 0.16197178 0.0064658807 -0.2049056 -0.21492387 -0.16235502 0.16630973 0.09500168 -0.014389165 0.028773796 -0.12136918 -0.05170758 -0.12048664 0.014170297 0.09700325 0.036943696 -0.08887574 -0.044506915 0.016663194 0.043334942 0.11658912 -0.17547436 -0.13761096 -0.1246466 -0.089111336 -0.06585833 0.11137468 -0.0098400535 -0.0049459767 0.00541528 0.021311916 0.07643814 0.086902484 0.13636994 -0.20763867 0.064284846 -0.056311402 -0.10171183 0.03262314 0.08792087 0.07775584 0.12934178 -0.033163562 -0.18330075 -0.14262442 0.032591645 0.3520359 -0.27015102 0.13287665 -0.018663043 0.102396846
1352 0.055832088 -0.031914514 0.10374796 -0.007233171 0.11065819 0.02415535 -0.06996392 -0.0049249446 -0.03460702 0.104842365 0.008280872 -0.1659585 -0.20230274 -0.10934479 0.2244539 0.113663696 -0.09607018 0.076468125 -0.058884498 0.01731836 0.06495914 0.08996013 -0.21307343 -0.20014587 -0.08390575 -0.0072890646 -0.008815567 0.18116856 0.07235225 0.030254057 -0.088857725 -0.101482786 0.060813915 0.30940145 0.13072534 0.03427329 0.069387875 -0.17866674 -0.09232588 0.06427672 -0.009079561 0.03566039 -0.06659212 -0.17233428 0.17278734 -0.013441687 -0.17312816 0.11421774 0.009186959 0.08191523 -0.013348679 0.06040741 0.0041761943 -0.057512872 0.04592743 0.017117972 0.046516135 -1.9357733e-05 -0.11369566 0.056305423 0.007452331 0.046837233 0.08624785 -0.046495397 0.123164 -0.075116314 -0.10604744 0.07231894 0.06314417 -0.18314469 0.24477649 -0.027811468 -0.21215865 0.031715386 -0.11253116 -0.20316327 0.05596216 0.054765344 0.076230995 -0.029342433 -0.024531495 -0.14984924 -0.07844715 0.14423415 0.09764723 -0.013266052 -0.060019717 -0.09837096 -0.06999684 -0.05532639 0.112286 0.010926031 -0.13669527 -0.0017622323 -0.008828815 0.08587077 -0.07685781 -0.0474 -0.030272493 -0.13599586 -0.14332016 -0.015318062 0.014537222 0.072833456 -0.035833906 -0.17588654 -0.09915259 0.046078973 0.112772785 0.08859079 0.024925817 -0.18535075 0.08818658 -0.057373393 -0.06283742 -0.06550066 0.054008238 0.091854125 0.089779064 -0.025204875 -0.044233583 -0.17646705 -0.040513147 0.201378 -0.19131157 0.07576765 0.030767864 0.14812374
1167 -0.007891438 -0.095565856 0.18147007 -0.054456446 -0.029219372 -0.078600466 0.046198163 0.03390491 0.0058041224 -0.005140264 0.07045118 -0.1885499 -0.13477631 -0.0738459 0.11412453 0.2255295 -0.10009184 0.08461872 0.083684474 -0.036159217 0.029159682 0.05750239 -0.2605744 -0.24938409 -0.10411383 0.018083638 0.023995103 0.1972607 -0.098425575 -0.0014272043 0.048177615 -0.01894667 0.039312087 0.12574692 0.11066404 -0.049155403 -0.027226085 0.019923445 -0.09221295 0.15123655 0.006187518 -0.015847955 -0.015076524 -0.104354456 0.08795846 0.038728964 -0.17000814 -0.087505385 0.16705787 0.015643442 -0.048983328 0.06592649 0.008393822 -0.051335797 -0.059585027 -0.12680571 0.03705963 0.028639534 -0.060899206 0.076374546 0.006370503 -0.080766894 0.14503504 0.056449387 0.057048257 -0.09695521 -0.07709003 0.12934226 0.064545274 -0.08483735 0.14079447 0.005762799 -0.32630873 0.04600176 -0.0026154597 -0.19716598 0.04084702 -0.012223474 -0.0009642021 -0.07181838 -0.10113451 -0.23555773 -0.12416768 0.09976974 0.110169016 -0.049161535 0.17337565 -0.10838073 0.11304594 -0.104872085 -0.045056317 0.015673233 0.04961642 -0.083251216 -0.03623504 0.053100873 -0.24240103 -0.060428668 -0.1961096 -0.10045242 -0.007426297 -0.1614308 -0.0022034743 0.083925955 0.050775755 0.026510756 -0.09761236 -0.023389664 -0.013546332 0.055575635 0.05073162 -0.16114795 0.1816197 -0.015861915 0.014804225 -0.10469426 0.052545607 0.098072976 0.067310214 0.047465798 -0.093110055 -0.08572463 -0.05235465 0.18238422 -0.13142152 0.12911284 0.033593725 0.066239245
1197 0.058357224 -0.09711203 0.16326272 -0.09982995 0.08152879 0.02665271 0.034696136 0.04379335 0.023174535 0.106527746 0.09846487 -0.23324987 -0.03244851 -0.053927835 0.04121773 0.24308471 -0.063955516 0.052982543 -0.040549207 -0.008580623 -0.062454075 -0.018919703 -0.09359273 -0.15748955 -0.04164376 0.04441672 -0.021153852 0.10857315 -0.048911322 -0.1462922 -0.016379153 -0.08839277 0.037936814 0.041559707 0.18825251 -0.0050227405 0.07872501 -0.03854106 0.10708917 0.080797344 -0.009270725 -0.102063194 -0.13557996 -0.046703346 0.123082764 0.13984628 -0.17950642 -0.054145075 0.051109742 0.061199166 -0.013153538 0.14898168 -0.029297316 -0.08955339 0.021075971 -0.048793837 0.15546747 -0.073204 -0.056430727 -0.04669371 -0.015525593 -0.0020137187 0.1005864 0.041910775 0.15827176 0.062369246 0.033116736 0.14229715 0.00674856 -0.16638784 0.09773861 -0.04391237 -0.19010931 0.067177184 -0.08131736 -0.17353697 0.06810067 -0.12086464 0.17745449 -0.02016445 -0.20553009 -0.28554013 0.015249737 0.14924368 0.088822305 -0.04598672 0.09595904 -0.10628882 -0.017080564 -0.2702486 0.13738173 -0.028678143 0.009912415 -0.051468708 -0.06392761 -0.00033470808 -0.19249894 -0.07509635 -0.060198504 -0.08219225 -0.1524597 -0.003910726 0.011365879 0.10963837 -0.030064581 -0.14661475 -0.03554825 0.015125662 0.0070548747 0.21445781 -0.039401058 -0.24737737 -0.11113866 0.081161834 -0.05689161 0.055894032 0.008847026 0.09111684 -0.043344904 -0.008255209 -0.07322238 -0.17517504 0.102240086 0.0949481 -0.20461805 0.17561276 -0.055621054 0.07615212
1413 0.10776227 -0.0066053136 0.025935957 -0.12880397 0.026314232 -0.13003126 0.09314848 -0.0069926055 -0.06047575 0.07469603 0.056862682 -0.2559358 -0.1697329 0.06137013 0.1031341 0.22243622 -0.12214631 0.043200508 0.002613398 0.020180242 0.08662992 -0.1227468 -0.14925608 -0.064853996 0.042079277 0.071527444 -0.10720491 0.092495255 -0.03751483 -0.057732638 -0.06370345 -0.19947827 0.074479975 0.18457936 0.027247883 0.007448528 -0.00024888388 0.035397455 0.004729726 -0.051674563 0.03880946 0.017329583 0.0028414913 -0.14795706 0.23276086 0.026836466 -0.17640983 -0.028370406 -0.03999598 0.059153996 -0.0003646243 -0.009017016 -0.15321597 0.05787734 -0.015356054 0.039463867 0.14124511 0.13339408 -0.11797844 0.20755117 0.053670973 0.029384725 0.18070713 0.065852284 0.10407191 -0.16760148 -0.08350521 -0.022711808 -0.02301854 -0.09095697 0.08018148 0.070276305 -0.2671154 0.14291528 0.07559735 -0.23793742 -0.0006928402 -0.052357897 0.04075803 0.034257136 -0.11972454 -0.17251655 0.060427733 0.11611484 0.07502421 0.18751197 0.044696566 -0.081311494 -0.02391798 -0.059557293 0.09166456 0.07396907 0.0017643111 -0.077019244 0.03941784 -0.07089392 0.04698003 -0.11215336 -0.22002357 -0.030023701 0.01331234 -0.0197876 0.09395758 0.14284578 -0.04245099 -0.044646554 -0.19758216 0.0068833567 0.030337457 0.06138388 -0.008807764 -0.16274573 0.099610254 0.14480834 0.07918903 -0.099887736 0.003535771 -0.005871214 0.13160375 0.07014043 -0.22602306 -0.20948601 -0.051555492 0.28299633 -0.08331673 0.090248 -0.07814657 0.115115464
1390 0.15575041 -0.19182174 0.07739965 -0.1381117 0.036031995 0.025358647 0.09167349 0.074275665 0.042097073 0.03844544 0.03733246 -0.15675232 -0.0076790373 -0.010975092 0.21002072 0.23155072 -0.12687872 -0.01609203 -0.0056194654 0.05389629 0.027773166 0.078209184 -0.06536445 -0.137232 -0.1003083 -0.030475462 0.0581988 0.15912864 -0.05466291 0.045374922 -0.09709002 -0.07914705 0.0011449585 0.15365966 0.19752716 0.09108357 0.03299165 -0.06251761 -0.0800654 0.020343225 -0.045784388 -0.040525433 0.016637292 -0.13634352 0.19758342 0.13938878 -0.23605438 0.07296095 0.039320942 0.078064 -0.06270713 0.025787642 0.012098802 -0.06899015 0.015028837 0.061545186 0.07018162 0.031367112 -0.12753844 0.0057014935 -0.104557596 0.0012988969 0.1492646 0.1335741 0.13483292 -0.12081049 -0.029448405 0.10983967 -0.05529981 -0.13016741 0.037935864 -0.016674843 -0.30151677 0.09779435 0.022255944 -0.2240126 0.026333828 0.011570756 0.05888067 -0.07774303 -0.09676792 -0.19848643 0.003365919 0.17332059 0.11393529 0.09375108 -0.14373139 -0.124549344 -0.05031501 -0.07683026 0.05299141 -0.06763012 -0.0761819 -0.1191679 -0.030360805 -0.17722116 -0.13441387 0.0039151963 -0.20643039 -0.18919896 -0.038740728 -0.008119571 0.111495264 -0.029261587 -0.033977315 -0.14073284 -0.054620236 -0.012060122 0.0914922 0.0734626 -0.028402034 -0.17034072 0.068698235 0.008546733 -0.029775497 0.02105342 -0.021098724 0.024402691 0.10181969 -0.10545937 -0.119027644 -0.13873553 0.0022598384 0.10971736 -0.0712149 0.07939739 -0.054643318 0.13754526
1144 0.051028464 -0.09630057 0.09291939 -0.05506109 0.06047684 0.06258882 -0.003212816 0.056966927 -0.002957412 0.079397485 0.15075985 -0.19649196 -0.15584427 -0.13056788 0.029699665 0.26775044 -0.16758905 0.0819513 0.0943895 -0.1015044 0.082028724 0.06312827 -0.15823501 -0.14904986 -0.039803952 -0.040175095 0.047997944 0.26046583 0.028986275 -0.09290672 -0.14087744 0.0046455637 0.08168623 0.09568216 0.05270075 0.18327887 0.017677445 -0.028346205 -0.10891779 -0.020809604 0.029140398 -0.044430144 -0.027402304 -0.09300294 0.06236362 0.006996184 -0.057042453 -0.11609549 -0.040908664 -0.005040052 -0.026491668 0.10088254 -0.047486357 -0.052779272 0.053136572 0.03361147 0.054583278 -0.02311645 0.022839444 0.13185857 0.009728548 -0.03887625 0.17083268 0.082090676 0.14653483 -0.020987717 -0.10051042 0.1838476 0.08215676 0.011519261 0.12474973 -0.082140855 -0.2252976 0.06265612 -0.032020822 -0.22912778 0.081917 -0.04531238 0.11196774 0.020945808 -0.21504936 -0.2119585 -0.050110914 0.12474953 -0.014360792 0.03637124 0.022377664 -0.064294614 0.005077522 -0.062953345 0.07747796 0.0045983517 -0.06151543 -0.09257506 0.01791786 0.10584103 -0.091190875 -0.002030349 -0.120480396 -0.15848285 -0.008863608 -0.061025355 -0.015890358 0.10743863 -0.11179118 -0.059647184 -0.079480365 0.028537067 -0.008823066 0.05044224 0.034192357 -0.11576814 0.15442818 0.13813005 0.021256818 0.041881308 0.022105163 0.045056544 0.13352323 -0.07839839 -0.20043598 0.004378948 0.027969174 0.21454184 -0.21662027 0.124851614 -0.18973546 -0.07058803
1348 -0.032576747 0.007562453 0.15394825 0.18020137 0.08074266 -0.13125554 0.07128785 0.040881317 -0.07819937 0.15180738 0.10144678 -0.1443798 -0.10612185 -0.14511551 0.08717846 0.16412824 -0.26434237 0.008139525 -0.04119815 0.114498734 0.10343067 -0.085022785 -0.0179357 -0.17737794 0.13045016 0.10493057 0.102337286 0.20025457 -0.11636077 -0.1985396 -0.1312763 -0.08613251 0.0019754441 0.14011806 0.14351195 0.099371076 -0.068007514 -0.010144639 -0.1583851 -0.01676684 -0.042622637 0.050424263 -0.11226222 -0.14847021 0.18163286 0.15896975 -0.20524561 -0.08821028 -0.07120031 0.23958096 -0.023390999 -0.020062959 -0.18850687 -0.069173016 0.040393382 0.07749871 -0.030971497 -0.17261583 0.02207368 0.18427908 -0.1007915 0.07820786 0.26644096 -0.0004391249 0.23606539 -0.1480018 0.10399058 0.13355163 0.22311279 0.10274809 0.2904808 -0.09630093 -0.10943522 -0.0022253843 -0.06047269 -0.3239213 -0.041252248 -0.059789635 0.098388866 -0.015295102 -0.12545896 -0.024458809 -0.05477212 0.14631891 0.08415376 0.022279942 -0.18586747 -0.039663084 -0.11925012 -0.09524581 -0.018333029 0.06473709 -0.028311996 -0.014784137 0.07686109 0.19827653 -0.17487068 0.07756219 -0.13158306 -0.034914292 0.06281194 -0.045639507 -0.11565598 -0.026360827 0.0026659505 -0.031738 -0.20518902 0.061549716 -0.09682412 0.11224236 -0.020446867 -0.26281384 0.033592254 -0.013842 -0.14088218 0.021679737 0.040496293 0.15687855 0.04435024 -0.09421564 0.024158342 -0.021939194 0.031665187 0.0021451514 -0.0791931 0.12870625 -0.07297221 0.03620937
1189 -0.02001056 -0.04040542 0.10015612 -0.017150993 0.0146756675 0.009765974 -0.0876722 0.14331275 0.115122736 -0.06952411 0.0022816977 -0.059936043 -0.13018475 -0.029899646 -0.029428245 0.14491524 -0.26067203 0.030764945 -0.025631526 -0.07353619 -0.104844235 -0.018967593 -0.0023404115 -0.20953959 -0.0672392 7.625508e-05 0.001865167 0.19104466 -0.008517408 -0.15905339 -0.038706962 0.060989134 0.12678903 0.19842274 0.1366563 0.1003034 -0.20141673 -0.039015647 0.037965897 0.039163552 -0.012952834 -0.06438696 -0.07149084 -0.089849345 0.16665599 0.131626 -0.22225796 -0.05206465 0.011192071 0.027605705 0.02625124 0.014819975 -0.18561025 0.110026285 0.037817355 0.017411597 0.12805177 0.041939925 0.008640747 0.031547934 -0.05743358 -0.013431494 0.09922404 0.0071722846 0.26151782 -0.0127917295 0.09799841 0.17351893 0.11958378 -0.013352226 -0.00520476 -0.029526822 -0.23726793 0.08690552 -0.002075617 -0.11216061 0.082256936 -0.04309049 -0.017351074 -0.057805113 -0.2720939 -0.24076267 -0.09053971 0.0016362136 0.2088575 0.0358405 -0.022800319 -0.047671203 -0.009855694 -0.067009 0.05187823 0.04597612 0.052470457 -0.19012718 -0.089156605 0.050212488 -0.17458066 -0.08531234 -0.097390555 -0.16060618 -0.007511235 -0.023792183 -0.09910561 0.098672464 0.12683237 -0.16755117 -0.20632304 -0.025795309 0.10336683 0.24086154 0.19998868 -0.17966796 0.09411722 0.038579546 -0.0472148 -0.17089245 0.08037606 0.08687515 0.04300142 -0.03556601 -0.116233446 -0.1237135 -0.08307093 0.11501413 -0.2062325 -0.033167496 -0.04352171 0.05333872
1271 -0.0155790765 -0.071884595 0.17741497 -0.06846943 -0.05652117 0.02126788 0.095518745 -0.046710137 -0.025509167 0.06557307 0.010172354 -0.1257691 -0.232674 -0.13189718 0.099271476 0.24489321 -0.18354629 0.16256395 0.09312408 -0.023843907 0.0010708149 0.08168732 -0.10535898 -0.1385658 0.050525196 0.022233754 -0.0026111386 0.1981148 0.041241433 -0.017061068 -0.07292855 -0.11211666 -0.014818068 0.18213297 0.16405812 0.052016407 0.114448614 0.0137286885 0.016962785 -0.11719914 0.018177541 -0.010206706 -0.01848093 -0.060783684 0.124052644 0.10116028 -0.16263033 -0.15621342 0.07616818 -0.04498519 -0.14870952 0.06930226 -0.14109752 0.025927968 -0.12936331 0.02006787 -0.022853376 0.05282078 -0.03469914 0.064248696 0.012863679 -0.009898615 0.069187686 0.05177551 0.035278607 -0.026368026 0.02827261 0.17389265 -0.01896887 -0.03510094 0.11250041 -0.02929327 -0.15046008 0.032395087 -0.046699807 -0.20279798 0.07696544 -0.04474291 0.14371447 0.045897532 -0.14424519 -0.18556531 -0.11014745 0.13751233 0.18488184 0.0102596525 -0.053011265 -0.120620154 -0.023325814 -0.12726583 0.038483944 -0.0060588913 0.09190297 -0.052324057 0.021133352 -0.003986703 -0.09781568 -0.099267654 -0.17571612 -0.19356287 -0.00583338 -0.17827561 -0.10413183 0.10776072 0.052685842 0.0007622317 -0.17219988 -0.026997358 0.05115188 0.08962469 0.10334961 -0.23520175 -0.019899152 0.040085286 0.034668062 -0.060507946 -0.006221574 0.03702801 0.23083054 -0.09135502 -0.048363827 -0.09740672 0.007744515 0.19612561 -0.075151876 0.081773505 -0.049972396 0.044471018
1367 0.04744207 -0.05499368 0.02936127 0.0048560603 0.051552113 0.06723888 0.06359207 0.11535477 0.102246925 -0.018505272 0.06653336 -0.07534004 -0.123561285 -0.039599244 0.22708783 0.21342741 -0.12720306 0.07329894 -0.020865384 -0.024972528 0.060635816 0.057839863 -0.18487082 -0.17018276 -0.095172234 -0.047385637 0.01948338 0.26037517 -0.08137749 -0.10872469 -0.1522218 -0.06965272 0.060523264 0.16691189 0.05690253 0.0717101 0.061623536 -0.07477429 0.025644263 -0.028357724 0.1204595 -0.039537884 -0.049993288 -0.062357657 0.0909827 -0.03942189 0.0005953528 -0.038395695 0.015174543 0.020775458 -0.088955924 0.122632325 -0.013198508 -0.09981975 -0.024138808 -0.122950695 0.133787 -0.04534225 -0.008528821 0.10889547 -0.070820294 -0.08811996 0.10543516 0.07271626 0.12286992 -0.105721205 -0.13015677 0.18196695 -0.0027567865 -0.15342489 0.14129661 -0.031009505 -0.2139928 0.035489157 -0.034370173 -0.2151184 0.018522581 0.00093452254 0.11677492 -0.10225626 -0.18482757 -0.2984004 -0.09294431 0.041023683 0.08364508 -0.051320564 0.08893825 -0.14428176 0.014092318 -0.12078384 0.052344903 0.004304843 0.043097697 -0.06579313 -0.012997077 -0.042905528 -0.1585084 -0.08557704 -0.103241414 -0.22555234 -0.190022 -0.02293206 0.010436944 0.012294487 -0.005671081 -0.0703009 -0.10696663 0.009483924 0.08920886 0.033968322 0.055910125 -0.2225649 0.041683473 0.10450949 -0.026121695 -0.06730998 -0.022373527 -0.061911885 0.1009586 -0.13124205 -0.09957533 -0.07234414 -0.019043125 0.15556192 -0.18376923 0.18758404 -0.05044138 0.00095966394
1277 -0.020470913 0.0025261657 0.15615334 -0.13538998 0.030535778 -0.014107321 0.10934236 0.015293473 0.060270455 0.15745501 0.09808397 -0.09356644 -0.1504008 -0.09228645 0.03465666 0.24097581 -0.29007778 0.08764368 0.015700717 -0.024159856 -0.010923236 0.041433692 -0.14338234 -0.22828412 -0.058380127 -0.0067852424 -0.054709584 0.064340115 -0.060864538 -0.06518035 0.00506399 -0.1377984 -0.04432731 0.055341713 0.1713143 0.046303734 0.051197592 -0.017157426 -0.022992061 0.052247394 -0.07468139 -0.08375311 -0.01705717 -0.16383788 0.17087995 0.16207206 -0.13950829 -0.044656925 0.036330506 -0.057482287 -0.12230965 0.10517934 -0.13596612 0.050878394 0.13687366 -0.021021936 0.04290348 -0.079151616 -0.007400424 -0.027884118 -0.004454735 0.015721291 0.22420943 -0.020048494 0.047445904 -0.14519739 -0.015642991 0.12769972 0.016659873 -0.17193007 0.007931436 -0.029407406 -0.23580085 0.018774474 0.008924951 -0.09962458 -0.042249553 0.015801068 -0.006044972 -0.00053348835 -0.11764569 -0.22262782 -0.021342369 0.2181728 -0.054618392 -0.056502614 0.052313745 -0.10190714 0.061429203 -0.099536754 0.07872006 -0.032839485 0.08000735 -0.10169061 -0.017613372 -0.051059116 -0.15979746 -0.06575197 -0.09171806 0.0073890244 -0.0703284 -0.03733427 -0.14195997 0.05019271 -0.03822198 -0.026947815 -0.08126902 0.036783468 0.037721273 0.22886868 -0.08345969 -0.13959071 0.07860148 0.04730298 0.0228839 0.063713856 0.09075774 0.18043154 0.1683445 -0.027877599 -0.08003693 -0.2610344 0.10287123 0.1342082 -0.10274526 0.103685625 0.043974664 0.019541152
1128 0.08370646 -0.06732752 0.13344622 -0.029892664 0.087476514 -0.079749726 0.07675997 0.06072047 -0.04989922 0.17027083 0.07423831 -0.118302435 -0.13068004 -0.06621039 -0.028917441 0.17304379 -0.17537877 0.062421344 -0.03775957 -0.029541751 0.08329571 0.08468068 -0.10709913 -0.22085331 -0.09506265 -0.075889744 -0.024365988 0.15894234 0.034097426 -0.122760326 -0.026398791 -0.066381276 0.040979374 0.16952562 0.2138629 0.001298829 -0.0013986268 -0.060444888 0.06962671 -0.115381785 -0.03412425 -0.06454236 0.04071035 -0.10311831 0.11423599 0.080898955 -0.09327896 -0.06606927 -0.041323654 0.04007048 -0.105540186 0.07805704 -0.07423081 -0.05779905 0.027552 0.060881693 0.103712 -0.051648594 -0.16077954 0.087795354 0.02384624 0.09376919 0.12083705 0.037112653 0.059052642 -0.1416817 -0.10871975 0.2060942 0.1268697 0.00915663 0.100698024 -0.024131583 -0.117917635 0.17967916 -0.06836987 -0.22621436 0.014999801 0.0057125445 0.12224644 0.019660123 -0.09692553 -0.13570517 -0.16311899 0.16565157 0.07857666 -0.0705209 -0.031411372 -0.17183983 0.058902513 -0.13398471 0.123254515 -0.05301743 0.016090877 -0.12140676 -0.08606845 0.034963038 -0.12155039 -0.07549116 -0.19493335 -0.08726073 -0.1234135 -0.1887064 -0.025926782 0.034761496 0.047212277 -0.009110061 -0.048514854 0.01295548 0.052847654 0.026273971 0.040995523 -0.18280284 0.043367907 -0.06003562 -0.15656222 -0.019390441 -0.05257417 0.11781005 0.14591154 0.024482671 -0.13123943 -0.032923866 -0.039930094 0.20725323 -0.17774671 0.22054718 -0.060098466 0.019019032
1145 0.05929191 -0.028801294 0.105568685 -0.10725371 -0.032227226 0.06819359 0.065472074 0.11671541 -0.010207321 0.045058295 0.10155403 -0.2189629 -0.210791 0.057362795 0.08051517 0.20508873 -0.07168106 0.058561273 -0.015713446 0.04249042 0.0031482268 0.11551281 -0.12418462 -0.21953289 -0.11505857 -0.020659266 0.02375176 0.18558104 -0.00884104 0.07984685 -0.01807118 0.033448905 0.036783278 0.08537101 0.049579047 0.09208279 -0.017451007 -0.050536245 -0.05420588 -0.040918853 0.08386623 -0.067835696 0.08770855 -0.038443808 0.09754011 0.08605684 -0.08280105 -0.032715395 0.018507551 0.15919152 -0.03673933 0.041047905 -0.13790546 0.076144084 -0.038132943 -0.05934846 0.100053735 -0.021637872 -0.012109405 0.09232294 0.034961045 -0.06838653 0.13438778 0.13635947 0.25094783 -0.12105686 -0.08131209 0.107596114 0.027859865 -0.10138985 0.056811053 0.06010673 -0.28208238 0.092413336 -0.07545487 -0.21297124 0.04993635 -0.038786538 0.18715183 -0.06133897 -0.1067087 -0.18555905 0.011142749 0.10816431 0.10696759 -0.03573909 -0.009503012 -0.21288024 0.022498896 -0.09872148 0.11009021 -0.042956457 0.00022110138 -0.065917045 0.05359917 -0.03896318 -0.050940525 -0.07646604 -0.22811526 -0.032947842 -0.104905985 -0.060646117 0.0031725522 0.05815384 -0.0026205236 -0.076961294 -0.1317321 0.0024540233 0.043501467 0.03698401 0.09348758 -0.23778999 0.041377362 -0.024607169 -0.03208977 0.015831286 0.051709358 0.13251068 0.2694318 0.0010430353 -0.089626536 -0.07352429 0.08560602 0.23073411 -0.113885775 -0.0071562184 -0.011833972 0.0766586
1199 -0.057922192 -0.02244176 0.13223216 0.00024307343 0.116710745 0.026149698 0.16127767 0.05226068 -0.069194086 -0.06676232 0.084395446 -0.21857807 -0.10268908 -0.020108664 0.075398155 0.29058057 -0.17424232 0.110138156 -0.022011908 -0.036036383 0.08723501 0.035361975 -0.17888151 -0.119684406 -0.07333056 -0.022356872 0.05330355 0.21897854 0.098443836 -0.04407392 -0.015947571 -0.0951076 0.05181862 0.1742801 0.018497784 0.035565913 -0.06581995 -0.10161756 0.04527998 0.023847554 0.036965664 -0.024129258 -0.07157029 -0.0107754255 0.15275446 0.1984719 -0.16376582 -0.112871915 0.050493512 0.011149775 -0.08292995 0.14943163 0.029089117 -0.1290357 -0.0035921216 -0.04748263 0.027652832 -0.056400813 -0.014676282 0.056301165 0.10525928 0.0030714504 0.13080713 0.055468652 0.121025875 -0.068925776 -0.023868598 0.13586834 -0.048806433 -0.06834603 0.1272658 -0.049949728 -0.28304106 0.041957505 0.01777291 -0.20562425 -0.007198525 -0.02339088 0.054740086 -0.047257576 -0.08077057 -0.2901334 -0.019353349 0.07760951 -0.010044252 0.012601888 -0.041489 -0.10317477 -0.056840457 -0.06396447 0.008694472 0.086438045 -0.015019191 -0.078256175 -0.061688427 0.060460206 -0.12209953 0.041777674 -0.13032992 -0.15414953 -0.007517005 -0.12869957 -0.07407017 -0.061163887 0.10341114 0.008151843 -0.075300105 0.023373557 0.017008927 0.12976211 0.019988896 -0.32831854 0.0281978 -0.013409586 0.0038509578 0.050360896 -0.010577089 0.05734726 0.091923386 -0.06530633 -0.09897037 0.018914284 0.082438275 0.19163169 -0.24369259 0.1241791 -0.08505351 -0.03246348
1273 0.027392596 -0.02689809 0.050795674 -0.11548648 0.00064367347 0.07345993 0.062348884 0.113703385 -0.013233597 -0.013748341 0.0006090165 -0.12636858 -0.097977884 0.021591868 0.15262358 0.2842547 -0.13015276 -0.017249748 -0.12166989 -0.08198547 0.026231522 0.02287885 -0.12960528 -0.14914599 -0.046088103 0.017113538 -0.036275025 0.197968 -0.08014381 -0.1419866 -0.07295283 -0.07682042 -0.0057278657 0.16224337 0.17382573 0.063290566 0.037138168 -0.022072908 -0.06112078 0.0878154 0.08590089 -0.041335765 -0.041806623 0.026250731 0.17044109 0.08616636 -0.22385904 -0.029096836 0.0012754758 0.011308934 -0.11138325 0.16680667 0.0042077657 -0.019106634 -0.09478038 0.0031308061 0.16254659 0.068840735 -0.055910684 -0.014960692 -0.01429303 -0.008165412 0.13534625 0.07693502 0.2272593 -0.11941706 -0.0022594768 0.0778882 0.122088514 -0.12846471 0.18210855 0.03888637 -0.1615419 0.16412659 -0.06833325 -0.19110869 -0.00036776817 -0.084077485 0.06610356 0.013538426 -0.1579948 -0.25872836 0.0074512362 0.05944693 0.029072458 0.013525697 0.03367216 -0.10195981 -0.03301743 -0.23509197 -0.002850713 0.013187261 0.06560528 0.10461508 -0.0843171 0.0002378319 -0.19463998 0.04445657 -0.12348973 -0.05721202 -0.04422269 -0.122037224 -0.03078607 0.06884461 0.03915284 -0.027601525 -0.07585065 -0.06427263 0.037692014 0.010424049 0.08220417 -0.15545197 0.060576707 -0.015483704 -0.033614643 -0.061537024 -0.014756526 0.034749363 0.08546299 0.05710321 -0.12152833 -0.034229994 0.06767197 0.16826434 -0.17614315 0.06487788 -0.03375894 0.012883698
1368 -0.07162951 -0.08189894 0.019048579 0.011471076 0.1041806 0.123051025 0.011655148 0.093593486 -0.05612498 -0.051543996 0.06497123 -0.18102695 -0.19788429 -0.026482496 0.16649109 0.3105486 -0.23495957 0.21323939 -0.029835353 -0.01750462 0.03532746 0.09156453 -0.09253419 -0.23401348 -0.10719929 0.134186 -0.007618921 0.1510328 -0.056953505 0.015508198 0.013810061 -0.09533099 0.09242458 0.17754793 -0.0027399585 0.067320764 0.106751256 -0.026658645 0.015053946 -0.09587937 -0.0757993 -0.059147593 -0.025785895 0.058851924 0.15316896 0.10830728 -0.12939632 0.15257649 0.0008014529 0.0302573 -0.043385983 0.05792669 -0.061440285 0.006149832 -0.09489318 -0.13852707 0.0013972761 -0.017221667 -0.029715825 0.14212579 0.14228997 -0.028238745 0.17243388 0.07326251 0.14485642 -0.15466988 0.018637095 0.004082287 -0.01573502 -0.23471819 0.28770337 0.024049085 -0.19876903 -0.084351785 -0.15281737 -0.12788825 0.032389916 0.03238045 0.0053528324 -0.09552736 -0.07389654 -0.10514919 -0.07303638 0.059148606 0.07503015 0.012093332 -0.004310142 -0.016513014 -0.08495899 -0.09006972 0.06008083 -0.037622206 0.050082654 -0.053385023 0.036245067 0.059174884 -0.096251644 0.0033991456 -0.102869704 -0.120491676 -0.17548147 -0.026196728 0.0036992228 0.07309949 0.0753871 -0.07812114 -0.077229016 -0.002229419 0.06551684 0.09724186 0.06265124 -0.2537822 0.053978186 -0.063337505 -0.08541036 -0.0358866 0.024305947 0.0637198 0.090150274 -0.031600922 -0.1258777 -0.13666838 -0.04396361 0.19144547 -0.24532306 0.21116574 -0.02998932 0.055953346
1283 -0.13799086 -0.105651796 -0.12557247 0.10025723 0.06683798 0.04439122 0.04280333 0.04940996 -0.068069525 0.25954756 0.16411212 -0.18672821 0.12918025 -0.20380598 0.041391935 0.13801238 0.12073089 0.11852151 -0.034310855 -0.01124194 -0.01016962 -0.0027295917 -0.18265696 -0.09556077 -0.046840873 0.09420971 0.058115974 0.13862363 0.021307902 -0.20617433 0.16753264 -0.12359575 0.15070423 0.09932751 0.09699355 -0.08417084 -0.090720244 -0.068317205 0.04016828 -0.06402081 -0.054666247 -0.04932512 0.07027363 -0.02986564 0.1949056 0.26382095 -0.07743392 -0.07016688 0.2357412 0.006615097 0.100655146 0.02153321 -0.100036494 -0.13669984 0.040804684 0.12326136 0.1270669 -0.32432443 -0.28421488 0.37480184 -0.055547956 -0.11521609 0.30017254 0.02093709 0.2019552 0.005510147 -0.08946665 0.08146702 0.045161676 0.11506928 -0.102449775 -0.015831685 -0.1640429 0.062109932 0.14180438 -0.14235725 -0.06576914 -0.17336649 -0.17348261 0.031918086 -0.037263326 -0.09068526 0.0012062149 0.21806882 0.06264918 0.008886197 -0.11331777 -0.10657202 0.112519264 -0.1512135 0.008319463 0.014637721 -0.11032915 -0.016935995 -0.17730474 -0.16217533 -0.31913918 -0.012278583 0.011524161 -0.04979563 0.016674675 0.07189074 -0.09376272 0.1500056 0.07193174 -0.09099143 -0.31819883 -0.011030881 -0.04255416 0.13205878 0.007866947 -0.19982094 0.007539718 0.17145392 0.035938714 -0.13083594 0.11256751 0.06409632 0.09948777 0.047110427 -0.035568032 -0.04715969 -0.17642988 0.0022940724 -0.034539778 0.10991623 0.08776227 0.2049291
1339 0.072616994 -0.1187212 0.01852141 -0.032540765 0.099122286 0.01466466 0.01767986 -0.027450385 -0.062301584 0.2153497 0.07176011 -0.08736939 -0.11059848 -0.07586385 0.098613 0.22105525 -0.1285137 -0.06992442 -0.009862813 -0.08994907 -0.11052571 0.13344802 -0.2729766 -0.23778464 -0.089616634 0.07655211 0.07084037 0.15960911 -0.026962722 -0.02039724 -0.14280723 0.021030288 -0.02846516 0.21396533 0.13661177 0.12972032 0.023557778 -0.0274556 -0.053653657 0.16080146 -0.09739832 -0.06268181 -0.07906628 0.05256048 0.19576494 0.09797044 -0.31509173 0.026173463 0.09936919 -0.051373225 -0.023572328 -0.039103977 -0.108697 -0.016632346 -0.07708744 -0.033401757 0.08138857 -0.01626823 -0.11663618 -0.0059432103 0.08033733 -0.019046534 0.04535735 -0.03114373 0.1152411 -0.030533895 0.074995294 -0.036214158 0.10369927 -0.19973215 0.16234279 0.008729188 -0.18985069 0.23382607 0.0849082 -0.088373795 0.15769829 -0.040318083 0.027482465 -0.006468198 -0.15026812 -0.19159046 0.020801699 0.1973662 0.020256395 0.11110522 0.06076942 -0.02851501 0.0624733 -0.03129207 -0.010955214 -0.13107291 -0.08322976 -0.11296187 -0.038274262 0.11891569 -0.056931175 -0.0047589913 -0.17112748 -0.09435217 -0.070405856 -0.08254026 -0.10446943 0.03421396 -0.100127265 0.00012877803 -0.098065354 -0.033741657 0.08068347 0.121021055 0.07059452 -0.09802745 -0.040821373 0.066850215 -0.08014077 -0.003487636 0.06907956 0.041356362 -0.0052733375 -0.19381352 -0.28665572 -0.051763106 0.061745264 0.20562282 -0.14196582 0.16916712 -0.10142216 0.17384218
1356 0.06539618 -0.06500804 0.15981975 -0.17052601 0.041932777 0.034048583 0.10336491 -0.025230976 -0.105014764 0.042628404 0.18291856 -0.16960293 -0.036904383 -0.010616938 0.11109727 0.29303253 -0.1252434 0.060091753 0.08587826 -0.0820759 0.15422398 0.105223164 -0.14607836 -0.23861574 -0.0620101 0.0077383006 -0.12756321 0.043541085 0.035683505 -0.029938005 -0.10967146 -0.13211805 -0.035202473 0.091826476 0.09905861 0.0352682 0.006228884 -0.050866544 0.0016285051 0.017989937 0.011554822 -0.01937068 0.023509651 -0.08301461 0.18038085 0.13937484 -0.19127306 -0.056245167 0.037545215 0.0007791336 0.01679092 0.18787605 0.0062731183 -0.22790769 -0.026371889 -0.043834854 0.09745902 0.09023812 -0.08358471 0.073828 -0.0433287 0.036193162 0.2386168 0.004231319 0.021640792 -0.019469 -0.033536043 0.1730082 0.038591668 -0.13235329 0.026245624 0.07798009 -0.099359475 -0.0026004545 -0.07168449 -0.21538234 0.11845775 -0.03796442 0.059231866 0.07881488 -0.17429185 -0.13271748 -0.090188384 0.23297574 0.0074621653 -0.042106267 0.033008587 -0.114188634 0.048368786 -0.11968078 0.08703135 -0.06057186 -0.041804787 -0.083732955 0.012541895 -0.033872936 -0.03444194 -0.13204363 -0.1613358 -0.116685726 0.0044136937 -0.11471407 -0.108660184 0.10491786 -0.018921828 -0.08865759 -0.13971443 -0.035560943 0.06672085 0.2145468 0.005925189 -0.12929527 0.017292216 -0.04056282 -0.052300993 -0.10086011 -0.07072456 0.06918748 0.10701219 -0.022293923 -0.17628953 -0.1935639 -0.007018603 0.12613586 -0.016788835 0.13749936 -0.074172184 0.17334045
1259 -0.04471165 -0.15526903 0.15260758 -0.058419697 -0.021093331 -0.07484861 0.032373942 0.01703329 -0.02253361 0.027521256 0.10898825 -0.11728441 -0.14861886 0.047249094 0.14685647 0.2906932 -0.19184451 0.110003695 0.14294922 -0.117020674 0.013476063 0.046719268 -0.10799677 -0.15216672 0.001273425 0.095794566 0.040270254 0.086344436 0.027874546 -0.08490181 0.032053094 -0.06866927 0.06494691 0.21227792 0.04888446 0.06715139 0.13069877 -0.10359494 -0.048337717 0.040126372 -0.038605865 -0.09785492 0.085111804 -0.024115808 0.19387972 0.12858637 -0.13310103 -0.056178927 0.15685791 -0.14488928 -0.09011676 0.010103727 -0.16287497 -0.091772765 -0.08115277 -0.01439174 -0.0137827005 0.02024541 -0.046850294 0.13277596 -0.0073050126 -0.0663819 0.024894988 -0.028394988 0.18263689 -0.16325441 0.13278863 0.08953046 0.060109988 -0.09421693 0.014496969 -0.07920425 -0.24424078 -0.010765166 -0.054185685 -0.25534913 0.170219 -0.007914188 0.018437766 -0.058430515 -0.10392189 -0.101200625 -0.114606984 0.1327034 0.027279781 0.038555387 0.05139768 -0.24818544 0.091032244 -0.10689471 0.034557015 0.121650115 0.028701141 -0.0853466 0.04871361 -0.109628744 -0.22041862 -0.07971943 -0.06856378 -0.11723597 -0.08163637 -0.11797103 -0.082165435 0.16027384 0.06875962 0.05634895 -0.04422551 -0.081822485 0.116503954 -0.011801135 -0.062085964 -0.11937479 -0.017129917 0.015309736 0.023142125 -0.060675528 0.086571604 0.10676492 0.027464174 -0.00061879284 -0.19251995 -0.1479923 -0.03462128 0.222366 -0.09972435 0.23456287 -0.070819266 0.08499417
1085 -0.08808364 -0.1965617 0.0394611 -0.061406616 0.043835007 -0.009212565 0.072271675 0.0608893 -0.011121844 0.021795597 -0.0049328464 0.054571256 -0.053313896 -0.11668114 0.022462059 0.19311574 -0.27536818 0.1206373 -0.034035217 0.06359208 -0.02289222 0.024078412 -0.0707002 -0.15764755 -0.04897937 -0.020875508 -0.014325311 0.19154978 0.054199237 0.016745502 -0.07210416 -0.058434237 0.04947536 0.030897316 0.0969059 0.067549944 -0.046799075 0.00847548 -0.0052005923 -0.01870847 -0.01473139 -0.030155705 -0.115468204 -0.20556946 0.20448813 0.13224553 -0.149362 0.13704292 0.07148338 -0.008882385 -0.022569453 0.10693916 -0.0664616 -0.047472794 -0.06105133 -0.14436463 0.0862661 0.016813112 -0.13714898 0.16067077 0.03136829 -0.12631574 0.071629114 0.016258964 0.25212148 -0.11468859 9.821831e-05 0.20488904 0.0032279608 -0.12736641 0.087398246 -0.03893511 -0.27663335 0.04732173 -0.06419024 -0.055087138 -0.033796363 -0.03919708 0.06801838 -0.055215348 -0.114792325 -0.28392392 -0.05472681 0.07794125 -0.072362915 0.11899024 -0.07057763 -0.12189897 -0.0075973473 -0.09364321 0.23808321 0.054565284 0.04356773 -0.043699186 -0.036674395 -0.018935608 -0.07030403 -0.028893325 -0.17243154 -0.03167139 0.0025696354 -0.06336597 -0.034166347 0.14045611 -0.16516498 -0.0032790615 -0.15203531 -0.04871998 0.105388805 0.013402792 0.0633954 -0.08466737 0.14975983 0.06915027 -0.0016843635 -0.048497234 0.11476994 0.109019145 0.2223977 -0.010007306 -0.10302331 -0.051188074 -0.07551745 0.3170617 -0.11714866 0.05679524 -0.07404845 0.06698591
1200 0.04736198 -0.0048036464 0.054672685 -0.01743156 0.06773738 -0.058860134 0.078128204 0.030711463 -0.05552121 0.060050298 0.15514344 -0.11144891 0.026614536 -0.05603312 0.092038356 0.25971395 -0.2689253 0.16316213 -0.11200387 0.11082651 0.10512319 0.15013036 -0.11782878 -0.13129917 -0.05420721 -0.050627343 -0.035338614 0.30467656 0.101641424 -0.022022145 0.049096234 -0.07263459 0.14196593 0.11171205 0.115411066 0.1263371 0.07807424 -0.015031012 0.02156613 0.021276493 -0.10806295 -0.06873446 0.085935794 -0.18915473 0.1071578 0.13650592 -0.08708939 0.13123806 0.031656295 0.046784043 0.0016233734 0.122289374 -0.032211598 -0.11984009 -0.03597968 -0.15586202 0.117310844 0.011494205 -0.09505622 0.1486285 -0.08450657 -0.0018721282 0.1704711 0.028972132 0.21234258 -0.018012986 -0.1617419 0.2209521 0.08755067 -0.21452914 0.060599748 0.043030273 -0.14604798 0.12988618 -0.19382349 -0.12918302 0.0403777 0.07311231 0.036881197 -0.059294 -0.022277651 -0.12895286 0.07328336 0.21712269 0.0538626 -0.049549893 -0.027769791 -0.07243477 -0.10279214 -0.07774302 0.052480992 -0.117781416 -0.058957025 -0.21587044 -0.027580462 -0.10579643 -0.15536466 -0.08004512 -0.1609908 -0.05062165 -0.08312792 -0.07124458 0.111893244 -0.01605568 0.042845648 -0.0049827495 -0.1555518 -0.019606968 0.13608271 0.06920417 0.025749302 -0.19087829 0.118757635 -0.058793698 -0.011904904 -0.10370813 0.07569911 0.13291425 0.15333183 -0.081186496 -0.044537336 0.005138677 -0.005354726 0.14276376 -0.07707743 0.026983557 0.08770856 0.12941349
1406 -0.059101366 -0.21965562 0.034240954 -0.01994928 0.05150317 0.10949362 -0.06351178 -0.012494607 -0.044799257 0.051211186 0.107656114 -0.36339304 -0.14375588 -0.013046286 0.09917249 0.18414366 -0.06241239 -0.015287921 0.121794544 0.24356557 -0.025791895 0.07698197 -0.07671332 -0.2257278 -0.14435162 0.08301407 -0.13550082 0.15110415 -0.08672999 -0.11511662 -0.06934479 -0.043993972 0.07929105 -0.00022222717 0.083455004 0.09553159 0.09324758 -0.059716552 -0.08654145 0.06242756 -0.12805133 -0.025290404 -0.033384226 0.033954 0.07358825 0.016865127 -0.25320494 -0.08860246 -0.052027956 -0.16007943 0.093100145 0.04175784 -0.17990927 -0.014931317 -0.016306438 0.055099223 -0.006890707 -0.12832375 -0.040052854 0.06585929 0.0117435455 -0.06566908 0.14457338 0.08876417 0.3621551 0.0690195 -0.12458057 0.41321766 0.2572892 -0.018855978 0.050499145 -0.0013077282 -0.18478538 -0.03726528 0.19958733 -0.11648013 -0.07191189 -0.11128361 0.10592742 -0.17851336 -0.073323645 -0.012727468 0.07278045 0.08555435 0.13638636 -0.16677506 -0.008516017 -0.20176493 0.13948813 0.11940011 0.1916636 0.25305372 -0.053082738 0.018329635 -0.023587657 -0.024017995 -0.25556034 -0.07217925 -0.0054491255 -0.12713222 -0.06659309 0.10624312 0.029862722 0.09882286 -0.023493491 0.07189699 -0.12939106 -0.120451115 -0.029959878 0.010104068 0.16066207 -0.08881411 0.0629416 0.06462159 0.11006273 -0.017701773 -0.18648589 -0.2208344 0.03925653 -0.08592763 -0.10305596 -0.007768837 -0.064249985 0.082500234 -0.2998349 -0.11431246 -0.08634367 0.1153155
1147 0.027666982 -0.036181517 0.1992077 0.06350797 0.031861942 0.052617908 0.021014832 0.030424677 -0.055879742 0.030815348 0.11004361 -0.13889945 -0.16898237 -0.04502455 0.08125455 0.27973658 -0.0466328 0.08764856 -0.036488157 0.056203764 -0.097396225 0.082443595 -0.15725598 -0.07986469 -0.12150019 0.0106428405 0.054301884 0.25675234 -0.06269241 -0.057718027 -0.07768348 -0.14106362 0.08943259 -0.03958083 0.11354295 0.061897416 0.06303977 -0.03818609 0.12722367 -0.039592315 0.074938014 -0.03562119 -0.0800361 -0.141282 0.15269595 0.12480243 -0.15748692 -0.055756826 0.035908505 0.029391702 -0.039976027 0.112595886 -0.018350994 0.035280522 -0.1131707 0.020901637 -0.04555312 0.03964417 -0.10749814 0.13863939 0.025210876 -0.05510619 0.11248088 -0.016358178 0.1950914 -0.013555992 -0.05462496 0.15154026 0.046961807 -0.12850058 0.113833666 0.043022353 -0.19846825 0.010549236 -0.11138608 -0.21249744 0.05884561 0.015143841 0.05233921 -0.06909933 -0.1447404 -0.18474182 -0.0008147383 0.08915037 0.04618887 0.0013803843 -0.02559079 -0.053810738 -0.08575802 0.0018890636 0.047420416 0.016235817 0.026793165 -0.10309244 -0.008851827 0.009523667 -0.09056271 -0.010987836 -0.0025750124 -0.16025597 -0.083282895 -0.117340036 -0.06164982 0.03591741 -0.018818641 -0.09863367 -0.1324073 0.015217439 0.05271004 -0.004295237 0.10135751 -0.23746379 0.014419284 0.06720439 -0.03248838 -0.010404252 0.0658062 0.087065555 0.040658686 -0.02993607 -0.1250407 -0.14997539 0.0684015 0.27851957 -0.22061236 0.040865082 0.038634293 0.055262573
1073 0.05004455 -0.049922284 0.030268697 0.0036061504 0.17064501 0.079549044 0.08015336 0.121249236 -0.076683536 0.09950473 0.015565867 -0.1106411 -0.093431085 -0.13336647 0.11361372 0.19288091 -0.16076574 0.00053293747 0.10233933 0.106058285 -0.009809423 0.08811122 -0.18133569 -0.19115174 -0.12383964 0.093858525 -0.013907299 0.04921177 0.050272334 -0.026584072 -0.050077662 0.03594368 0.012449289 0.0626436 0.19756553 0.054697476 0.10078892 -0.002284854 -0.059541058 0.11368778 -0.023804508 -0.21259896 -0.10852725 -0.16193213 0.2088621 0.09216749 -0.17059706 -0.06828342 -0.0031040474 0.0007701098 -0.048977878 0.12849936 -0.0843466 -0.04321761 -0.120652586 -0.14576727 0.08131054 0.025449723 -0.09609158 0.045282114 -0.027645277 -0.09611961 0.07007274 0.24603792 0.08147887 -0.02337506 -0.020568555 0.045511764 0.06889987 -0.08760334 0.044655256 0.037676085 -0.16862707 0.042743042 -0.041839793 -0.22991985 0.101643294 0.038354006 0.12257851 -0.16275716 -0.13199392 -0.12143647 -0.11402952 0.13798687 0.10448485 -0.047648847 -0.029564194 -0.16783844 -0.00016247504 -0.14225258 0.09166086 -0.07750622 0.0023674194 -0.08080698 -0.021477694 0.119328946 -0.15451269 -0.14619103 -0.14844099 -0.15093146 -0.12061427 -0.1115418 -0.04102865 0.1836306 0.034407973 -0.08386712 -0.03830592 -0.07821787 -0.0012008708 0.059335604 0.029330803 -0.15150195 0.1370907 0.036963988 0.014701486 -0.04303291 0.11900547 0.16684318 0.0430727 0.11050562 -0.096129544 -0.08044425 0.01885802 0.24713603 -0.11706489 0.12484912 -0.1236256 -0.08209011
1262 0.114914596 0.12228073 0.074616365 -0.033211958 0.1442061 -0.10503979 0.008636208 0.053125747 0.011276161 0.20013045 0.2313008 -0.07474147 -0.09511114 -0.026443046 0.020951578 0.23971221 0.00075782597 0.14983131 0.02126918 0.067697965 -0.05132365 0.1689425 -0.091105506 -0.22659768 -0.07864372 -0.045576796 -0.12533599 0.22075817 0.00040620638 -0.043440238 -0.051918253 0.04083361 0.029707367 0.09351173 0.09971579 0.07305961 0.099189594 -0.08164399 -0.11233268 -0.010552216 -0.10445577 0.028105874 -0.0915405 0.0141869085 0.08677797 0.18272729 -0.013201118 -0.039189182 0.0014353642 0.020028392 -0.035426896 0.080682226 0.075871 -0.039676595 0.045288797 0.11590865 0.13662054 -0.12369103 -0.032626502 0.11149775 -0.15733789 0.14315772 0.10807923 0.056100667 0.105067715 -0.09575625 -0.067647204 0.11011823 0.08429096 -0.095982604 0.02774523 0.01102187 -0.2067243 0.1983794 -0.07106267 -0.18411645 0.03343407 0.038449075 -0.031279784 -0.09011736 -0.066782646 -0.28120267 0.11870336 0.06728623 0.09087886 -0.19311827 0.009156317 -0.28100774 0.05143672 -0.12086884 0.06522613 -0.0947827 -0.1702106 -0.17544976 -0.16496754 -0.06855111 -0.20615536 -0.06546635 0.035861596 -0.02709982 -0.08205052 0.028954376 -0.13434175 0.06820749 -0.009569909 -0.081074566 -0.13934784 -0.0039550685 0.039096314 0.10940089 0.04482093 -0.090740964 0.102689505 -0.03402552 -0.027141122 0.032111842 -0.030577183 0.2130451 0.24013434 -0.06679881 -0.12979576 -0.15755302 0.00729722 0.1682996 -0.18647265 0.113877065 0.016806155 -0.030698128
1249 0.03187243 -0.016480563 0.06447794 -0.08520178 -0.049376566 0.0012286316 0.128319 0.13100657 -0.05925844 0.07782652 -0.017583152 -0.21619742 -0.12694313 -0.008787817 0.16131005 0.23198734 -0.22213568 0.03951392 0.073247164 -0.06121726 0.17203605 0.115330294 -0.117084615 -0.19166979 -0.048093386 -0.0052975947 0.005902239 0.13476068 -0.042706806 0.1287046 -0.14600575 0.011947022 0.12936127 0.25312987 0.067832924 0.01720624 -0.01614594 -0.13235408 -0.10460727 -0.02894766 0.08833369 -0.034246415 -0.04083066 -0.034918875 0.15135565 0.08308368 -0.19035903 -0.12285788 0.10519697 0.09222822 -0.024104856 0.04738106 -0.097033136 -0.0061532883 -0.015381614 0.010890817 0.08633944 0.059033122 0.061758503 0.11505909 -0.10819075 -0.008984617 0.22835395 -0.05288576 0.084371686 0.013786199 -0.076851115 0.13788407 -0.016013332 -0.10859631 0.030248594 -0.023749614 -0.2231032 0.17487411 0.111932166 -0.1748963 -0.0047088987 -0.017776694 0.10118885 -0.07943481 -0.17923181 -0.09464902 0.041641608 0.20910409 -0.013438799 0.025053142 0.015286655 -0.01947028 -0.0052446397 -0.15311389 0.028584246 -0.11108546 0.102616645 -0.108038224 -0.052409 -0.036414973 -0.054489072 -0.07054621 -0.17690842 -0.104033485 -0.061533637 -0.105008535 -0.10157726 0.18419534 -0.015719581 0.010550597 -0.0451091 -0.033550795 0.11902461 0.13269758 -0.08327081 -0.10999616 0.1388355 0.024665864 -0.051245116 -0.008911762 0.03116998 0.04522503 0.04498416 -0.038268335 -0.13318256 -0.2014189 0.01923981 0.29705337 -0.12514627 0.08793852 -0.14336708 0.0823179
1055 -0.094566084 -0.12491109 0.07430976 0.2501437 0.17499177 0.032645397 0.122410305 0.0019839716 -0.09409139 0.03622031 0.109563686 -0.048277214 -0.20820051 0.1467796 0.06433082 0.06809875 -0.2697384 -0.054346327 0.0752795 -0.07166524 0.036822326 -0.016583297 -0.056578446 -0.0872776 0.029135395 0.14873062 0.036858443 0.14285646 -0.11575463 -0.041964553 0.017170956 -0.21676648 0.20435262 0.11382334 0.004025208 0.067046806 0.21458672 -0.011570515 0.016506778 -0.0005999429 -0.018214032 0.13001154 -0.12324751 -0.11465959 0.11721332 0.13827766 -0.14833976 0.10684455 0.10334547 0.12104792 0.12234433 0.03142701 -0.014761322 0.14950438 -0.050090123 -0.09253382 -0.07690591 -0.07609527 -0.3794406 0.2132532 0.073427536 -0.04081227 0.17486647 0.07732393 0.2865594 -0.118879385 0.18746923 0.016800705 0.072990604 -0.023890948 -0.087397285 -0.046297457 -0.2528576 0.08562554 0.03634455 -0.047186136 -0.06452759 -0.22822301 0.05414779 0.012587269 0.0039027727 -0.26054585 0.00086737075 0.20415737 0.16440997 -0.16763292 -0.024971778 -0.3371374 -0.06011405 -0.046709247 0.127878 0.18972056 -0.047645133 -0.28168577 -0.040907916 0.03772816 -0.27416122 0.17547311 -0.18988168 -0.15422064 0.13513783 0.061677884 0.096315324 0.066582836 -0.03362924 -0.009130134 -0.21054415 -0.11776028 -0.08155055 0.14016154 -0.037580732 -0.089466006 0.035061102 0.101871535 0.002805962 0.051405855 0.11624174 -0.006139349 0.10994063 0.075191885 -0.1003775 -0.19940124 -0.1098935 -0.065946475 0.06664752 0.16314898 -0.12235064 0.17159952
1101 0.012017578 -0.06817747 0.08023274 -0.1206677 -0.0056497273 0.015468818 0.12876189 0.09537254 -0.099363774 0.033254154 0.08945064 -0.05815273 -0.13121438 -0.052955024 0.15267031 0.20282932 -0.069401704 0.05747928 0.010489639 0.08318447 0.021757305 0.05033056 -0.14673786 -0.17044604 -0.15312473 -0.087881684 -0.048619516 0.31410152 0.040370684 0.0218781 0.0316191 -0.17050667 0.019234663 0.1140421 0.15028498 0.18093745 0.24843183 -0.12981066 -0.014708558 0.118645675 0.034699693 0.09024992 -0.17317417 -0.07010435 0.14880762 0.06575557 -0.25890398 -0.047271404 -0.008586393 -0.014133823 -0.098037995 -0.0976987 0.042248916 -0.016576115 -0.022760374 -0.0066395053 -0.026813827 0.038463745 -0.047492675 0.11076005 -0.2087578 -0.024993328 0.13109638 0.089269966 0.30023342 0.051179226 0.05195856 -0.023174265 -0.030459415 0.03759121 0.006185857 -0.044438455 -0.25276077 0.15143932 0.053739183 -0.14908706 0.04152504 -0.046235286 0.09227606 0.12888882 -0.1217851 -0.3103987 -0.2164718 0.047634818 0.0055621588 -0.03245774 -0.048556443 -0.10658116 0.07699253 -0.1941032 0.09829851 0.067628436 0.071788594 -0.17005463 0.03098616 0.047277212 -0.10867059 -0.12292436 0.031104248 -0.004528057 -0.15547176 -0.0024408395 -0.049854625 0.15422647 0.03347934 -0.012145433 -0.053174417 -0.028167818 0.06966252 0.023470549 0.010572197 -0.19793777 -0.017057132 0.045244664 0.10158468 -0.04201297 -0.2509342 0.07871745 0.06346474 -0.054947313 -0.20367894 -0.042392306 -0.11015074 0.18013111 -0.21109976 0.12655126 -0.043663245 -0.02120328
1398 0.0017637059 0.116870016 -0.040309276 0.12415326 -0.038227554 0.042005014 -0.13020521 0.1902394 -0.098959535 -0.0936159 0.07731316 -0.3111125 -0.08292157 0.06215153 0.04038298 0.25335944 -0.14154989 0.13378966 -0.15184303 0.037582047 -0.004144513 0.0072984537 -0.0118128 -0.1419562 -0.07937484 -0.02171419 0.10724878 0.052320234 0.07728418 -0.16214839 -0.057156954 0.100745544 0.047160096 0.24900818 -0.03761672 -0.08435467 -0.10703156 -0.14712824 0.011202447 0.10368692 0.21626848 -0.18787499 -0.17287765 -0.030570272 0.11079627 0.024198461 -0.16170911 0.008749543 -0.04269751 -0.14173728 0.05605853 -0.087419294 -0.17617385 -0.10673752 0.016249653 0.022136595 0.08120133 -0.11953929 -0.19258356 0.10503231 -0.16192488 -0.2843475 0.36230734 -0.0066131633 0.3578501 -0.14298259 -0.075626746 0.09873455 0.30412674 -0.027704628 0.1513189 0.10517316 0.111227736 0.30160284 -0.006455054 -0.09903964 -0.06252444 0.00013397851 0.01840363 0.04031799 -0.21469215 -0.1705715 0.0011117622 0.2516067 0.2203116 -0.005423752 0.27133805 -0.13970488 0.10484542 -0.035429053 -0.048139706 0.10416864 -0.17718017 0.12056311 -0.054449286 0.1456877 -0.20992365 0.056013435 -0.18781927 -0.21454266 -0.042996738 -0.080300264 -0.09043784 0.25775835 -0.05749161 0.012994022 -0.030795997 -0.17013039 0.32050997 0.06595989 0.115238056 -0.09274499 0.19610944 0.1281112 0.27528998 -0.3219695 0.12120562 -0.02645393 -0.15113728 0.14109987 0.115151644 -0.12525633 -0.09124519 -0.008719583 0.010465508 -0.13511504 -0.15157086 0.06544354
1246 -0.001260291 -0.06942833 0.029414924 0.11421779 0.044710185 0.0512888 0.020920485 0.102648795 -0.08891719 -0.12827419 0.17522505 -0.0909496 -0.06334527 -0.1639237 0.06237902 0.14784579 -0.123289764 0.08644116 0.18522617 -0.005221928 0.015447351 0.13261779 -0.006596647 -0.18271331 -0.036684033 0.1373076 0.006205276 0.22167744 0.08201603 -0.010952338 0.024473017 0.005954295 0.13651188 0.03603337 0.12668256 0.21843195 -0.020572422 -0.096532695 0.013476929 -0.119748846 -0.06572119 0.03225032 -0.08284278 -0.016966524 0.22036146 0.13148563 -0.12066158 0.13963051 0.05052657 0.05005972 -0.10105606 0.04160401 0.07573613 0.008663759 -0.13356629 -0.0064258687 0.05469735 -0.031244257 -0.048619214 0.020372529 0.064044766 0.064911544 0.16521373 -0.118392184 0.3084703 -0.06180051 0.10635599 0.06990998 0.15847565 -0.1482214 -0.00012259549 0.040790927 -0.068545446 0.20806019 -0.11478021 -0.25618693 -0.085673966 0.084415495 0.06923263 -0.08704171 -0.22051959 -0.14428307 0.059754945 0.06898579 0.040605873 -0.05713997 -0.05172014 -0.0634386 0.004981119 -0.19205563 0.037142448 -0.008742889 0.118854426 -0.11270823 -0.06047117 0.097816154 -0.12318197 -0.023495385 -0.14576831 -0.056064647 -0.15576623 -0.082414076 -0.0337694 0.020649388 -0.028466135 0.06451029 -0.07616946 -0.014769629 0.040137693 0.102893524 -0.027493203 -0.21330431 -0.030897517 0.09795636 0.056755915 0.014270698 0.12778132 -0.030978339 0.21817318 -0.059622932 -0.11696585 -0.15338673 0.040693063 0.23519795 -0.2542617 0.19421506 0.0050277617 0.17204207
1089 0.11708447 -0.0136682615 0.14630374 0.06937431 -0.049938384 0.032925945 -0.14564584 0.20054324 -0.052806586 -0.051520295 0.15674736 -0.13468419 0.029933074 0.07635229 0.007503509 0.18724562 -0.036648467 0.056932047 -0.14632842 0.08899981 0.07367841 0.075475946 0.0018428743 -0.2140226 -0.11629824 0.06714308 0.012428228 -0.018795695 -0.08533345 -0.15504356 -0.08015699 0.19060388 0.054631628 0.21411845 0.11922684 0.2120912 -0.07996777 0.14637801 -0.04108715 -0.055339865 0.031818077 -0.031566106 0.0415451 0.10627352 0.08860686 0.006365219 -0.21016884 0.060915112 0.10953553 0.060965538 0.053712137 -0.07800127 -0.057572197 -0.07036486 -2.8910496e-05 0.22019172 0.1813404 0.08169467 0.015348901 -0.03555523 -0.07420006 0.06971544 0.28889033 0.021683741 0.37754452 -0.113778904 -0.15474838 0.13811883 0.23447545 -0.014194148 0.05836802 0.30777335 -0.08718559 0.05272366 -0.10400077 -0.14501688 0.08430829 -0.1571885 -0.006577282 0.053429097 -0.09896711 -0.3297205 -0.16062313 0.449317 0.05434319 -0.06736483 -0.05987884 -0.15117009 0.024521608 -0.2235125 0.15360068 0.07180087 0.01599879 0.0010378996 -0.14817816 0.05563425 -0.25030383 -0.062883615 -0.00032003655 -0.078867815 0.038137525 -0.061626438 -0.105367705 -0.063638136 -0.09506939 -0.06401279 -0.06934975 -0.26070422 -0.21686164 -0.110564664 0.032597315 -0.26053208 0.055881463 0.065585464 -0.0011010239 -0.0278285 -0.033544667 0.1105091 -0.02342695 0.050682154 -0.02138486 -0.18220067 0.09273159 0.066458195 -0.10796594 0.024322614 -0.1211838 0.14728644
1226 0.0056285565 -0.120991275 0.0072229807 -0.05730965 -0.07943856 0.040003203 0.08764541 -0.015313119 0.16673389 -0.004712837 0.12689255 -0.12721229 -0.081360035 -0.053816322 0.27876395 0.158459 -0.052194435 0.09665623 0.028610578 0.007004833 -0.028738836 0.0935841 -0.21681975 -0.20342717 -0.072058305 0.024908097 -0.15851909 0.18003784 -0.02185505 -0.0213586 -0.029981837 -0.13158855 0.17634599 0.07660832 0.023198163 0.054196365 0.03966652 0.020872261 -0.09979372 0.07856263 -0.02925808 -0.15699568 0.08578866 -0.082921535 0.11507605 0.044354126 -0.27966055 -0.030996324 -0.030721476 -0.02026455 -0.11346478 0.14555615 -0.15303326 -0.120067224 0.113764435 -0.11020561 0.0011175949 0.093076594 0.049138002 0.06261978 -0.02668258 -0.04635453 0.14889379 0.043348648 0.1366948 -0.071446225 -0.13572007 0.026894182 0.0947247 -0.10435081 0.023831353 0.079685725 -0.19409736 -0.0059811817 0.0050319596 -0.29328004 0.08694756 -0.11246995 0.09401549 0.03200591 -0.0681634 -0.23840283 -0.03512833 0.1498941 0.13463461 -0.05671991 -0.05609488 -0.043794144 0.06445199 -0.0814845 0.041980557 -0.050675523 -0.03582238 -0.03126642 -0.1097769 -0.06890907 -0.15651023 0.04797817 -0.17209022 -0.3082431 0.038908184 -0.082785524 0.008323429 0.0027785292 -0.05770424 -0.058613203 -0.04423046 -0.066473976 -0.029513478 0.14335568 0.043734826 -0.1820209 0.17076679 -0.05539047 -0.08201403 -0.11956152 -0.040858842 0.048170146 0.20552188 0.011570455 -0.13004097 -0.11123428 -0.043077655 0.048405245 -0.21076624 0.06400338 -0.077883385 0.070886254
1125 0.032161478 0.0023028164 -0.083792135 0.0031712854 0.16599059 0.05728217 -0.043047242 0.025668457 -0.06355345 0.03100739 0.1464686 -0.25659627 -0.10353375 -0.07157401 0.005956451 0.0761627 -0.051967025 0.0076659108 0.045077328 0.020509707 0.10478275 0.18002227 -0.13187169 -0.1235002 -0.041185014 0.15533769 -0.12753937 0.24105568 -0.030907143 -0.039593235 -0.06662755 0.004744231 0.017084925 0.12850186 0.10638928 0.052970786 0.020189783 -0.12455774 -0.07871243 -0.050634593 0.013233756 0.086415485 -0.0045196 -0.02135128 0.12344094 0.14926489 0.0075408183 0.015401422 0.07919591 0.14780138 -0.06978823 0.030267674 -0.09496736 -0.030689035 -0.16331619 0.02819713 0.100029126 -0.00035091306 0.036713127 0.15240404 -0.051579088 -0.14116754 0.15031655 0.018168777 0.16905922 -0.1359626 0.10876479 0.15272595 0.08798075 -0.27663448 0.035122447 0.046124965 -0.17033528 0.05227478 0.0325544 -0.25055423 0.13907702 -0.016612256 0.07029559 0.044002727 -0.21945284 -0.20658398 -0.042840667 0.18467316 0.093203396 0.050241753 -0.03025186 -0.16311747 -0.1897199 -0.20569047 0.15610088 -0.15391417 0.06519062 -0.2910033 -0.018532325 0.066161044 -0.08523842 -0.029202735 -0.20464513 -0.009632412 -0.102966666 -0.06579612 -0.08591684 0.120004155 -0.084284835 0.018886492 -0.24330801 0.07675144 -0.01286109 0.006389096 0.039724156 -0.13689014 -0.073255226 0.14145547 0.034157064 -0.03629741 0.075400315 0.16979739 0.122724056 -0.04622372 -0.050447434 0.15305294 0.016069597 0.07918553 -0.23268075 0.13802052 -0.11139578 0.1362146
1201 -0.12757488 -0.05673165 0.14974475 -0.030453136 0.017345987 0.1335651 -0.08711795 -0.10532805 -0.056784783 0.124129556 -0.034474313 -0.18281743 -0.1890059 0.007680929 -0.13116612 0.40762156 0.07359679 0.10124941 -0.029235968 -0.25513533 -0.02299942 0.12668107 -0.06637926 -0.101934254 -0.07034293 0.078374416 -0.019813 0.0982523 -0.12409303 -0.03727223 0.07341973 -0.057396207 -0.0270844 0.13660133 0.22779699 0.046304617 -0.077521354 -0.13186194 -0.04775382 -0.003521828 -0.033788525 0.06040057 -0.18896091 0.02407533 0.10096071 0.08837642 -0.07709609 -0.11506355 0.06329405 -0.04179837 -0.18336052 -0.022005964 -0.17018743 0.06841075 -0.21732241 -0.09095293 0.08255044 0.1034241 -0.14696048 0.003230014 0.044370756 0.07139767 0.09516328 0.039210927 0.260776 -0.040060107 0.01541266 0.21432498 0.06200849 -0.14439954 -0.011665054 0.025923757 -0.20777978 0.10763274 -0.12517503 -0.16783482 -0.0914379 -0.009965415 -0.07868044 -0.0642449 -0.12053591 -0.23135482 -0.05919501 0.150534 -0.060602006 0.115834534 -0.08638957 -0.004881866 -0.04973417 -0.033784807 0.10366128 -0.08323808 -0.07182698 -0.032241587 -0.020877827 0.120528094 -0.10794742 -0.14085492 -0.185608 -0.027546208 -0.06511929 -0.165053 0.09251175 0.053314097 -0.08106024 0.1684977 -0.26505768 0.0133341225 0.022535106 0.10150966 0.06417097 -0.24124369 0.03136329 0.08768517 -0.014784131 0.20115487 0.06900992 0.14086837 0.17237319 -0.17492759 0.004989962 -0.2231305 0.04130363 0.05947862 -0.21627192 0.111210436 0.064544976 -0.12018989
1325 -0.23647827 -0.12282555 0.14155242 0.02509207 0.15816657 0.0642303 -0.2696887 0.045671307 -0.20479368 0.009829351 0.15092042 -0.26178622 0.1241637 -0.07019347 -0.023169477 0.1721055 -0.01835168 0.29811758 -0.25689965 0.1933936 -0.009281472 0.0912077 -0.34869176 -0.10778975 -0.0362473 -0.18086438 0.09444776 -0.04229891 -0.032667276 -0.2888175 0.077891596 -0.17071405 0.053688426 0.12676479 0.0744912 0.23432635 0.13648061 0.06096076 -0.21948835 -0.03247637 0.1847926 0.1408335 -0.07053405 -0.12607183 0.22444454 0.037223183 -0.041226942 -0.020092202 -0.07608703 0.16075608 0.071365364 -0.030159695 -0.059727464 0.07948773 -0.017845746 0.15816402 -0.16985731 -0.4341002 -0.089284256 0.1728631 -0.0005008662 -0.16370218 0.17990495 0.16215605 0.24498035 0.120799884 -0.07446201 0.14000954 0.15754285 0.06422913 -0.038747467 -0.16043761 0.1762272 0.10602695 0.047758535 -0.06793328 -0.11352134 -0.2314972 -0.06171669 -0.09378669 -0.13618998 -0.09516509 0.10332564 -0.0040537645 0.15017569 0.17503995 -0.05300611 -0.002398827 -0.084186755 0.113788135 -0.05181743 0.11129967 -0.22197357 -0.27135882 -0.0710038 0.21714061 -0.21365342 0.17883231 -0.1935523 -0.027704762 -0.14344856 0.09021879 -0.039385974 0.25285262 0.040793676 -0.04055222 -0.35186368 0.057177197 0.14966549 -0.06474088 -0.098444454 -0.20244098 0.11283926 -0.14110357 -0.11673656 -0.29124078 0.11652506 -0.15706322 0.21634044 0.05797921 -0.4851776 -0.10685975 0.14852548 0.025474735 -0.072685406 -0.15592301 -0.07158736 0.13967691
1190 0.05802014 0.020596677 0.105798624 -0.007038408 -0.0022008491 0.015438072 -0.019621179 0.081739284 -0.03602392 0.054682285 0.15941387 -0.12232142 -0.092738606 -0.059918296 0.023514545 0.31752837 -0.22499296 0.16536966 0.09436943 0.089457534 -0.06904233 0.010054102 -0.04438005 -0.21046808 -0.03630404 0.06858682 -0.068907745 0.16669795 0.07549621 -0.043379825 -0.061516147 -0.100887515 0.114908874 0.059383858 -0.04646279 0.23024759 0.029699914 0.035007834 -0.20015766 -0.09989111 -0.03730791 -0.10627279 0.05696744 -0.11908395 0.15554465 0.1108315 -0.027825823 0.04434511 0.018136783 0.15902334 -0.123881966 0.10337506 -0.045687076 0.04668829 0.029480547 -0.01134254 0.014455324 -0.06415537 -0.10195907 -0.0744459 -0.04013112 0.017699951 0.14584127 -0.111693844 0.046772383 -0.025793253 -0.069015175 0.2033513 -0.0025137388 -0.04270061 0.10255369 0.19626065 -0.19235733 0.029475883 -0.06389474 -0.23613739 0.02676199 0.026157126 0.1787371 -0.05428341 0.06657019 -0.22485313 0.03643509 0.11369539 -0.0069467346 0.053027336 -0.04581563 -0.282295 -0.009877958 -0.04302018 0.038672313 -0.15316829 0.07189443 -0.08712799 -0.13007593 0.08401276 -0.1755715 0.015339387 -0.16063622 0.04072021 -0.027254086 0.016945016 -0.029559169 0.099758364 0.07472771 -0.10438668 -0.05316825 0.031679288 0.080861315 0.28531533 -0.05424809 -0.073713906 0.061613206 0.18081161 0.085332215 -0.14097418 0.06934847 -0.03673985 0.20015326 -0.029567342 0.009249907 -0.13842379 -0.0979971 0.1661683 -0.1408343 0.111392856 -0.11042236 0.28526208
1417 0.07156338 -0.02091096 -0.030395871 0.094760805 -0.022345701 -0.04849204 0.2037256 0.16697928 -0.21477182 -0.18569094 0.0040050847 -0.16937567 -0.12064769 -0.074569605 -0.024996027 0.06400926 -0.065503046 0.040085383 -0.047816508 -0.0020097129 0.16835104 -0.005774454 -0.17447765 -0.33147186 0.059593305 0.0053395834 -0.05192815 0.22814073 0.060537506 -0.03607031 0.11308232 -0.0023220996 0.059374522 0.12400009 0.19505264 0.15887295 0.014887984 -0.068815894 -0.2221738 0.07106118 -0.1447477 0.005782642 -0.035303243 -0.045413967 0.15375401 0.11056731 -0.25015557 -0.0974508 0.091091454 -0.11544486 -0.09392388 0.10612232 -0.050440125 -0.058670335 -0.04398744 -0.10429049 0.035684 -0.024315694 -0.1092361 -0.03485303 -0.16695406 0.054049905 0.19552077 0.07483097 0.16503075 0.059704762 0.04329882 0.12491673 0.13392761 -0.15628067 0.027860973 -0.047848895 -0.17170896 0.09702673 -0.01010671 -0.040186588 0.11068651 -0.012451965 0.1007046 0.039941955 0.08822486 -0.2754489 -0.045756444 0.2526431 0.10486204 0.15680344 0.00042520542 0.022518413 -0.040669467 -0.18320306 0.1306394 -0.11187371 0.0135239335 -0.1340795 -0.021943625 -0.13351093 -0.15728322 -0.09348593 -0.21223402 -0.103316166 -0.122962564 -0.057360172 0.06636821 0.12565324 0.07271495 -0.053690676 -0.25525537 -0.1364993 0.054488298 0.021670777 0.11384223 -0.13869482 0.09664086 -0.14282823 -0.10566395 -0.06600989 0.055013463 -0.031061456 0.0015380911 0.002570425 -0.23782699 -0.11529878 -0.064913996 0.138079 -0.13308737 0.03160113 -0.101251155 -0.016751045
1341 0.16424364 -0.19158143 -0.09902638 0.099547595 0.2053436 0.038123254 -0.10129671 -0.13001971 -0.19408253 8.7550914e-05 0.11934587 0.011862378 -0.12205843 -0.08148443 -0.22307554 0.14484493 0.13314621 0.07119691 -0.115815 0.1274881 0.08060453 -0.10677936 -0.08277445 -0.19598602 0.052821524 -0.15266207 -0.09906541 -0.054122563 -0.017776286 0.07508126 -0.2053329 -0.20583527 0.19032875 0.11153791 0.13521765 0.14725958 0.07631625 -0.083613075 -0.009087689 0.005502906 0.053228155 0.112565696 -0.13428123 0.015956204 -0.006474859 0.31006697 -0.22721699 -0.084865846 -0.080262 -0.074766435 -0.0034104802 0.03241814 0.0203905 0.08771328 0.12067719 0.22519729 0.0440743 -0.19271882 -0.041295346 0.092436 -0.015265369 -0.073710464 0.43807283 -0.017177366 0.31611764 -0.14362316 -0.24800433 0.08547179 0.23450956 -0.22508624 -0.024643455 0.10192487 -0.02948674 0.1273668 0.025580145 0.12723555 -0.11360134 -0.13982214 0.015344792 -0.19693795 -0.18037954 -0.26202375 -0.20495932 0.00060317875 0.06476285 -0.04293723 -0.10813484 0.0009123088 -0.051673383 -0.14768876 0.040278383 0.1683448 0.07306676 0.24791174 -0.13230805 0.0004953025 -0.4176854 0.23968674 -0.15494089 -0.024348315 -0.11491523 -0.20958896 -0.19424449 0.053383395 0.042412397 0.25666353 -0.28355476 -0.14674762 0.13285889 0.0026469475 0.12166818 -0.058309015 0.13706249 0.2214651 0.024293292 0.11198223 -0.064031854 -0.21768948 0.22419836 0.37467214 -0.011207896 -0.18841253 -0.032976672 0.16818409 0.08137352 -0.07797963 -0.15612969 -0.0047147633
1418 0.045835275 -0.055764098 -0.053311 0.010633362 -0.061671197 0.110801645 0.14340436 0.055028282 -0.022986386 -0.0145248305 0.04991893 -0.028475402 -0.11349543 -0.17130774 0.04931101 0.19198628 -0.25604028 0.06484837 0.0033421621 -0.03915261 -0.013724339 -0.0006533027 -0.1298989 -0.11407346 -0.13310306 0.08255142 0.017947445 0.19414862 -0.017130451 -0.09363386 -0.05070279 -0.15579583 0.0885442 0.04388624 0.13426158 0.18829471 -0.02168221 0.046612713 -0.11226259 0.130297 -0.016749535 -0.089328 -0.2294363 0.044453256 0.25117877 0.1132231 -0.17053968 0.0028039985 0.006239165 -0.13358313 -0.014390857 0.26325646 -0.023341727 -0.011550582 -0.1669582 0.026726147 0.1297692 0.020871792 0.01686942 0.078930505 -0.056045957 0.023720099 0.09163548 0.14419852 0.2858002 -0.071215615 -0.059735782 0.09186664 0.15661821 -0.20394236 0.1208738 0.005050589 -0.23038687 -0.0847795 0.050707925 -0.03808989 0.07634965 -0.0011013071 0.08350605 -0.0920455 -0.10131871 -0.15030013 0.11663316 0.06380955 0.058016066 -0.028576104 -0.012077921 -0.08023725 -0.055724896 -0.09009962 0.021093154 -0.05405412 -0.07358338 -0.10406222 -0.105840474 0.028684875 -0.13536468 0.034341577 -0.10696918 -0.031630564 -0.15192087 -0.11073808 0.023667868 0.1561033 -0.06430063 0.090795055 -0.080951594 -0.049061194 0.015349404 0.06371933 0.0877877 -0.15199317 0.12757361 0.080850825 0.028854877 0.2482882 -0.009311094 0.022157406 0.22484054 0.041802958 -0.15121156 -0.15173209 -0.015335017 0.049478244 -0.19157033 0.101448946 -0.133808 -0.010674819
