1194 128
1272 0.06812799 0.13976309 0.06192322 -0.14025351 0.11016671 -0.11474702 0.026395664 0.09568956 -0.06067184 0.11792207 0.13101812 0.15176563 -0.0040933182 -0.2238672 -0.03541647 0.064038664 0.12071784 -0.18345317 -0.11147593 0.038159464 0.010194074 -0.14037597 -0.16764463 -0.12744638 0.075908594 0.08661108 -0.10176289 -0.0060333316 -0.095399015 -0.14674698 -0.025969082 -0.12263289 0.15281804 -0.0842564 0.0017754592 0.10322648 0.13938975 0.17538728 0.13668863 -0.1694247 0.17881884 -0.08078396 -0.075749695 -0.12872821 0.08296106 0.12301244 -0.2749199 -0.152312 -0.1698481 -0.13433051 0.119010985 0.0065842574 0.2761221 0.026151888 -0.14999427 -0.13080452 0.07954864 -0.026059419 -0.07357783 -0.0419166 -0.026220376 0.052859135 0.031338815 -0.06900968 -0.20517987 0.067018 0.11347154 -0.14599065 0.025083467 -0.0006751206 -0.043645237 -0.064496614 0.07173977 -0.012910855 0.13047922 -0.03247645 0.08494559 -0.031526376 -0.120988704 -0.1419052 0.10507198 -0.017322864 -0.098567925 0.078369245 0.053387932 0.069459714 0.06808901 -0.07589175 -0.12340178 -0.037486628 -0.06489621 -0.11093757 0.086158805 0.025452787 -0.06916252 0.13470379 0.054515556 -0.058299873 0.08574494 -0.16703811 -0.10753389 0.05351076 0.09576699 -0.084316425 -0.04812286 0.018169096 0.14400662 0.03685352 -0.06763437 -0.18304594 0.1562499 -0.09830843 0.06518778 -0.0950988 0.003654069 -0.059144206 0.2541955 -0.07567848 -0.015367397 -0.11064232 -0.030065028 -0.13918434 -0.06493661 -0.03337217 -0.13449067 0.06863714 0.0026248174 -0.0257719
1327 -0.005854685 0.11270748 0.13009316 -0.1321615 0.06882605 -0.14100252 0.086841784 0.10413055 -0.034816112 0.1573187 -0.022551758 0.13497463 0.050767556 -0.20696096 0.059960183 0.10415254 0.018086584 -0.06242339 -0.11379833 0.033613436 0.05359654 -0.038578413 -0.2557691 -0.15388772 0.053413518 0.04970136 -0.07047741 -0.00848581 -0.013584748 -0.01183593 -0.048197567 -0.038564913 0.22420453 -0.08990035 0.048250437 0.042450916 0.22954422 0.09283655 0.07453477 -0.20012048 0.123859785 0.03199978 0.064680524 -0.096316665 0.1111109 0.15372087 -0.23552851 -0.06844465 -0.19491005 -0.16398756 0.0822992 0.03447056 0.24415709 0.086458765 -0.120199524 -0.089375824 0.004855139 0.09127952 -0.096285574 -0.12624636 -0.11395298 0.124986835 0.020437313 -0.015951809 -0.17381568 0.12593572 0.06635565 -0.08380536 0.052985135 0.123857565 -0.014445591 -0.19223975 -0.0032654298 -0.087754324 -0.048996937 -0.010911792 0.11017385 -0.0110714445 0.0373588 -0.13927463 -0.11530264 0.059793446 0.016917873 0.08859084 0.094497286 -0.05276988 0.1474861 0.005100077 -0.18407945 -0.008353443 -0.03203123 -0.06951662 0.111345224 0.07700776 0.0371409 0.11576477 -0.048089553 -0.06216181 0.023841515 -0.21561456 -0.15462595 -0.1087675 -0.036318686 -0.0003421143 -0.0071037593 -0.106653616 0.1753928 -0.12705854 -0.08384518 -0.13953799 0.13198474 0.053984538 0.106371455 -0.015562948 0.024618385 -0.0041305693 0.21146584 0.049594924 0.03104528 -0.03577321 -0.019719332 -0.076582015 -0.11147013 0.011946802 -0.21150017 -0.03217877 0.025799716 -0.07225477
1407 -0.11861109 0.007700508 0.0049010143 -0.14183518 0.0143150035 -0.06335896 0.0707571 0.13223015 0.0357365 0.0580428 0.061366845 0.037986968 -0.006492234 -0.3231177 -0.014997802 -0.08609367 -0.066792354 -0.17990158 -0.17540044 -0.035057347 0.025949966 -0.25283837 -0.26803738 -0.062429957 0.022367511 0.141769 -0.01390113 0.027847374 0.013330674 -0.1970197 0.016338522 -0.111214496 0.12919304 0.042715926 0.036347393 0.18191727 0.11514834 0.18183105 0.08694126 -0.075570166 0.25639555 0.054788057 -0.09218215 -0.19513966 0.16608179 0.15736261 -0.2553723 -0.11010152 -0.14901598 -0.19313861 0.0766545 -0.020341082 0.20952722 0.20316824 -0.03068326 -0.0044930894 -0.06713464 0.13283457 0.04791936 -0.23765625 -0.14617315 0.18804702 0.1847162 -0.04850487 -0.09311712 0.07963673 0.07040574 -0.044918846 0.1229823 0.06648914 -0.10081273 0.042202663 -0.08681101 0.008453566 0.04941169 0.12268031 0.13819826 0.019973435 0.038789764 -0.101977915 -0.12952507 -0.014196261 -0.11761239 0.05003019 0.059401926 0.00472331 -0.07612977 0.0061488133 -0.20191295 0.024003435 -0.008718647 -0.12720735 0.12183821 -0.12730166 -0.17258832 0.1275582 0.006656175 -0.082804985 -0.043102913 -0.26167876 -0.1888394 -0.07827336 0.07146806 -0.028270908 0.030604402 0.13254218 0.20638278 0.018063957 -0.19037354 -0.05573779 0.25616792 0.084394924 0.11966534 -0.17424561 0.0038200896 0.028184451 0.13396132 0.018461239 -0.14430684 0.029872077 -0.039059434 -0.10429689 0.014906112 0.07787479 -0.12806375 -0.045957033 0.06148651 -0.06705058
1116 0.04427704 0.12983955 0.03641225 -0.15499352 -0.06217438 -0.15134305 0.0009440421 0.16119805 -0.10985795 0.12785026 0.022074359 0.12956472 0.00017931669 -0.14832747 -0.033154484 0.12633741 0.07960605 -0.17038214 -0.13866699 0.019801458 0.052967094 -0.21569768 -0.18324172 -0.11198355 0.1006801 0.051838793 0.009991728 -0.06846728 0.0074628387 -0.09086221 0.058696035 -0.12754893 0.27747762 0.015676852 -0.030301442 -0.02319994 0.0619907 0.08824772 0.023913573 -0.11630525 0.06924549 0.13912177 -0.044433504 0.013566644 0.12373473 0.033001747 -0.11961442 -0.088742115 -0.15007168 -0.06976262 0.13432369 -0.011270648 0.29654127 0.046563167 -0.10318977 -0.0997867 0.025920857 0.07863253 0.00960917 0.0339329 0.057302386 0.08578152 0.007852493 -0.08399844 -0.061196305 0.050306972 0.074877106 -0.01601173 0.0008134027 0.071218 -0.101263486 -0.16910808 -0.1424041 -0.09046605 0.13241309 -0.06876021 0.11721518 0.0075808656 -0.05433875 -0.090049215 0.006620974 0.0063433237 -0.11059011 0.16674417 0.036104288 0.02950692 -0.013242569 -0.067330554 -0.29133934 0.054325346 -0.042830028 -0.26723307 -0.004294668 -0.05801809 -0.034073967 0.025744757 0.02157143 0.035164453 -0.05175574 -0.24444957 -0.040526323 -0.14653857 -0.0073947166 0.048414294 -0.025930889 -0.06388876 0.11517786 -0.0287227 0.06184059 -0.007206081 0.10803497 -0.04290492 0.17201664 -0.03327721 -0.031545956 -0.01207499 0.17045154 0.067373075 -0.030848546 -0.085110694 -0.054408032 -0.10969208 -0.07004464 0.015573666 -0.1927849 0.079528645 -0.06124445 0.05515003
1172 0.021548467 0.048880905 -0.08749569 -0.19026738 0.03320424 -0.17628582 -0.005682017 0.06572793 -0.020766307 0.06251647 0.13814387 0.09422059 0.029964332 -0.30158842 -0.03393184 -0.019610267 -0.047524054 -0.15183143 -0.26149872 -0.013700902 -0.0007952425 -0.16815223 -0.18611223 -0.04300126 -0.10063746 0.1012471 -0.08837307 -0.04742915 -0.082726575 -0.28467336 -0.058070738 -0.012150111 0.110488676 -0.08218437 0.044435333 0.17966889 0.15089503 0.07790415 0.14949471 -0.105384216 0.29644567 0.05782719 -0.0945883 -0.17072743 0.15879846 0.16031468 -0.2293481 -0.15239932 -0.061376743 -0.11849769 0.14698143 0.09637111 0.1637445 0.144155 0.039317206 0.04384807 0.0055583306 0.034416452 -0.0028784755 -0.14987677 -0.1009225 0.23253834 0.20984735 -0.023248509 -0.14526324 0.02861291 0.14764217 -0.023771502 0.08124195 0.11876181 -0.071066484 -0.020212254 -0.035730507 0.07568998 0.07854407 0.20660518 0.06539656 -0.21761228 0.10552513 -0.07670846 -0.3228263 0.09262371 -0.15109088 -0.004858398 0.054670442 0.08388728 -0.0583369 -0.029654508 -0.10518792 0.07587538 0.04741649 -0.11858546 0.10222289 -0.054037232 -0.14738424 -0.017602934 -0.056254424 -0.049436476 -0.05317083 -0.2740148 -0.32220113 -0.010771264 0.19998102 -0.15238598 -0.008149646 0.0824689 0.14293176 0.027802857 -0.14255598 -0.16417709 0.25232956 0.12736456 0.13550946 -0.16153681 0.13080594 0.03248065 0.16864972 -0.027221913 0.0007089144 -0.05207636 -0.043496627 -0.15873618 -0.22288944 0.14137638 -0.15330426 -0.031685732 0.09356143 -0.10550218
1316 0.1640155 -0.0508468 0.18279532 -0.038829993 0.07308455 -0.08391599 0.15585595 0.12985922 0.03331142 -0.10702977 0.20808795 0.14137962 -0.11253775 -0.059629973 -0.058418807 -0.050401103 -0.0060367184 -0.08671392 -0.20357122 0.019004004 0.14914554 -0.26882237 -0.18524608 -0.06424491 0.017040145 0.16967185 -0.15553401 0.008441113 -0.07557173 -0.09022579 0.044569142 -0.068272114 0.13892485 0.08672187 0.09393314 0.0011918431 0.22741354 0.09708912 0.062303454 -0.05831493 0.14970255 0.1570846 0.16059887 -0.1582337 0.18387668 0.120166905 -0.2870263 -0.01496429 -0.23757197 -0.21231745 0.068489954 0.002694598 0.24975234 -0.0640015 -0.05475571 -0.11046 -0.04707244 -0.07963157 -0.025436155 -0.21858734 0.061759174 0.18490794 0.19723998 0.16075341 -0.271094 0.098560795 0.120027274 -0.16272865 0.07648852 -0.020346472 -0.046024658 -0.038899533 -0.05501394 -0.041506138 0.01819612 0.18035562 0.052933007 -0.23502359 0.017401675 -0.17000338 -0.110501505 0.08420794 -0.14623252 0.040178534 0.04963969 -0.10196518 0.0032702605 -0.1147016 -0.18314637 0.17904522 0.014097041 -0.16116574 0.10759919 -0.031777535 0.012069825 0.093274914 0.18795612 -0.17787519 0.043199684 -0.32233056 -0.18042377 -0.039780676 0.11199126 -0.07069194 0.08486668 0.096177645 0.26813892 0.0019301147 -0.078628026 -0.20271719 0.20484407 0.00947837 0.0680336 -0.06972388 0.08841997 -0.08410858 0.018387118 -0.08105166 -0.02408639 -0.21351512 -0.05009259 -0.13977173 -0.12964228 0.085058205 -0.051008523 -0.03415236 0.059216384 -0.07601436
1329 0.012775297 0.070544094 0.21863982 -0.0101250205 0.03949027 -0.19151016 0.025701316 0.08717547 -0.065235615 0.087394215 0.11739513 0.20640999 -0.074042216 -0.10257059 -0.036381926 0.24652895 0.08317712 -0.24355581 0.01239293 0.009938205 0.060575873 -0.09426354 -0.17958592 -0.11559115 -0.055356536 0.015921894 -0.1955272 -0.038263664 -0.06232289 -0.0685502 0.15653916 -0.12419932 0.20128767 -0.0731982 0.08685835 0.055694934 0.124998 0.042617153 0.036556534 -0.24034986 0.0804498 0.11431035 -0.046556544 -0.039401334 0.1300709 0.0928037 -0.0945262 -0.12579268 -0.13766764 -0.019892823 0.011406017 0.13699308 0.16556132 0.08137083 -0.2119247 -0.054550104 0.029719103 0.044219136 -0.059016705 -0.20825657 0.13441978 -0.07689025 0.18348531 -0.04209929 -0.1993562 0.105046555 0.013131826 -0.10151438 -0.08583478 -0.005476871 -0.0039219186 -0.082284726 -0.11805222 -0.11656366 -0.0008807496 -0.13828602 0.13465899 0.09077763 -0.027777819 -0.011238702 -0.037200157 -0.015532001 -0.110378355 0.0629435 0.06555288 -0.009450648 -0.01683889 -0.1706203 -0.07197948 -0.10608518 -0.03019742 -0.06672784 -0.053447507 0.0017943315 -0.020454599 0.077940926 0.09174588 -0.06378722 -0.17670935 -0.1393648 -0.12721056 0.09064582 -0.060644504 0.035839386 0.18505326 0.06794485 0.104120396 0.042763487 -0.10283911 -0.29002526 0.20719002 -0.14291492 0.1978907 -0.05707878 0.04075136 -0.0561035 0.081025474 -0.025663897 0.13898467 -0.18411097 -0.039429694 -0.10692425 0.007361311 -0.042249963 -0.19446844 0.008312757 0.10227307 0.007759519
1293 0.17724015 0.039351936 0.15621768 -0.19439162 0.13943776 -0.086506516 0.10711406 0.08740583 -0.018066995 0.06307216 0.13124987 0.21980277 0.046578135 -0.23033507 0.24769777 0.1439361 0.01283842 -0.29005706 -0.15508446 0.05072875 -0.071650796 -0.07458069 -0.124185264 -0.16737285 0.04256273 -0.03147637 -0.053473473 0.0710864 -0.021970397 -0.16830598 0.06820659 -0.028285192 0.18964203 -0.054152217 -0.14208142 0.13912779 0.16070981 0.04953303 -0.06398261 -0.06451579 0.11701705 0.24305293 0.09595871 -0.13482057 0.19764584 0.1167402 -0.11466342 -0.10239098 -0.24906807 -0.096713826 0.08142681 -0.012463912 0.23675878 0.06353381 0.13434891 0.013828527 -0.14379793 -0.058707055 -0.0724705 -0.19485575 -0.10775302 0.021015855 0.16916712 -0.0026687463 -0.16683652 -0.022568425 -0.062590525 -0.09451846 -0.02843527 -0.07389024 -0.19477051 -0.041770004 0.0074937954 -0.12333811 0.11203941 0.21561661 0.123078085 -0.08669106 -0.104850255 -0.092347205 0.0030365707 -0.07741063 0.06040478 0.12810123 -0.03663099 0.09168647 0.019683015 0.0062262053 -0.2681283 0.06544406 -0.022013921 -0.20544046 0.15170543 0.046051845 -0.0683322 -0.035052076 0.052255377 -0.07620339 -0.0590924 -0.18789746 -0.08964372 0.064995535 0.24011128 0.07158752 -0.06378575 0.025499843 0.10511146 -0.039138857 -0.055431906 -0.20042227 0.15146644 -0.16810235 -0.092418954 -0.070846185 0.02668129 0.04751415 0.17037271 -0.13354716 -0.012331019 0.041000508 -0.0010355583 -0.07921879 -0.09138705 -0.055596672 -0.31067497 -0.046334755 0.080343954 0.07954729
1306 -0.031286694 0.13107865 0.12110726 -0.1641231 0.08440605 -0.058511525 0.022086903 0.163602 0.009274234 0.08142579 0.0148395235 0.035111714 -0.09486943 -0.17902738 -0.05364138 0.18482047 0.02669486 -0.21950535 -0.19663976 0.11355466 0.07760845 -0.10455022 -0.22935401 -0.09526684 0.08841671 -0.008506066 -0.025035717 -0.22066751 -0.11193688 -0.081710786 0.06996357 0.036284886 0.16742179 -0.06488889 0.015859758 -0.026608787 0.16164985 0.05125145 0.123171166 0.009024046 0.025898878 0.05793714 0.02509647 0.06353101 0.06956785 0.20791724 -0.1222784 -0.12753244 -0.1824917 -0.027859041 0.1825417 -0.064170904 0.23773062 0.055422068 -0.1730765 -0.094198376 0.025598917 0.09385064 -0.09015226 -0.095049776 0.029539729 0.0146063445 0.051191065 -0.042253215 -0.018333877 0.05599655 0.118153185 0.05569014 -0.015391336 0.06731228 0.052400686 -0.10577272 -0.030160906 -0.10158428 0.017615458 -0.028690666 0.18284565 -0.015262938 -0.08373993 -0.15267481 -0.058394283 0.08895969 -0.06583196 0.20269272 0.19230331 -0.00941523 -0.053247906 -0.07499419 -0.2575383 0.19161032 0.09280235 -0.20552416 0.14283226 0.121990085 -0.0501614 0.03634172 0.1149131 0.07127649 0.025947627 -0.14604713 -0.048955396 -0.01237879 -0.0027699175 0.122743994 0.0353227 -0.06255115 0.030749274 0.013650167 -0.07263095 -0.08461841 0.117190555 -0.10014876 0.02170818 -0.111876644 0.0266261 0.052299343 0.15690598 -0.013506963 0.054122057 -0.080588706 0.030452907 -0.0713625 -0.0015101522 0.0053337566 -0.2464541 -0.00881059 0.0029963145 0.052106686
1103 -0.035556983 0.09184017 0.094251856 -0.1636439 0.00739676 0.047352977 -0.013045655 0.16614257 -0.0032632456 0.01409878 -0.06915138 0.10133303 -0.0056221597 -0.17437786 0.08597554 -0.019887786 0.18185335 -0.25247017 -0.16965507 0.07663839 -0.032988023 -0.26234406 -0.06776461 -0.2417669 -0.08221948 -0.15635064 -0.07542902 0.15378109 -0.07805114 -0.07684031 0.16033264 -0.042570762 0.08280862 -0.07656593 0.036211766 0.19089624 0.0946352 0.19667904 -0.03977886 -0.17146063 0.13751538 0.19601557 0.059815153 -0.13390411 0.12911645 0.22254448 -0.14386457 0.13556984 -0.09518123 -0.2180203 0.1571089 0.22938767 0.30205557 0.3059526 0.011197029 -0.20843177 0.08572117 0.05420304 -0.027660152 0.042176947 -0.10371561 0.07687954 0.081556015 -0.03140484 -0.21795687 0.10489023 0.009279943 0.05539736 0.16301443 0.31899995 0.02965025 -0.08774987 -0.03631587 0.068320684 0.103018396 0.048144426 0.2156085 -0.10250831 -0.016178979 0.057181593 0.027471684 -0.058532957 -0.2773476 0.13896951 -0.09415135 -0.06647742 0.095876575 -0.1407783 -0.3167491 0.12746973 -0.1575652 -0.12682721 0.1658467 -0.027303962 -0.2219164 0.15198332 0.061328974 0.014610361 0.05709229 -0.21707088 -0.12908097 -0.012907934 -0.04332792 -0.023972128 -0.030999837 -0.10716841 0.17333715 0.035483185 -0.08416207 0.09259701 0.17020346 0.0018709007 -0.07872033 0.0013460354 0.062291227 -0.020116992 0.10947423 -0.05045464 0.09598296 -0.17172314 -0.030970149 -0.029524831 -0.14819656 0.12691279 -0.12894522 -0.18409744 -0.07851856 -0.09083578
1404 0.09358205 0.13908288 0.0615142 -0.22351702 -0.06089033 -0.17432755 0.0027758277 0.12667832 -0.11091709 0.007642627 0.008559421 0.029569643 0.1090549 -0.13183461 -0.16626419 0.28024465 0.16258624 -0.123598665 -0.27288136 0.010629581 0.0562116 0.013815156 -0.18301535 -0.04064534 0.0034109645 0.036776092 -0.046233136 0.0041238647 -0.051310822 0.04838836 0.012874565 -0.043516263 0.16632085 0.16265602 -0.05537265 -0.085656665 0.23345189 0.018923875 0.124776684 -0.10915909 -0.038209435 0.23826826 0.08123576 0.11764757 0.21491252 0.044697706 -0.15198623 -0.2564743 -0.14518474 -0.035836123 0.23668326 -0.066576615 0.21774253 -0.033773385 -0.0763273 -0.119482286 0.14540865 -0.06976308 -0.010059346 -0.15887326 0.03774278 0.09321759 0.072456986 -0.044035804 -0.05659908 0.15715331 0.027880676 0.08369153 0.07339163 0.040349796 -0.1959213 -0.20111808 -0.07896409 -0.08582233 0.12507248 0.04965471 0.1485985 -0.14825545 0.05020352 -0.11829422 0.04000849 -0.005605697 -0.09316578 0.16919209 0.043854702 0.06865687 0.05795205 0.017124675 -0.22939575 0.092520185 -0.08502079 -0.31642953 -0.013889382 -0.038057953 -0.11964014 -0.08767654 -0.019250523 -0.0037265108 -0.053287063 -0.21484847 -0.1785784 0.003547982 0.049549654 -0.025408585 -0.13474227 -0.13484114 0.10018375 -0.100174405 0.009063187 -0.07783869 0.012807501 -0.054679383 0.07494434 -0.118581645 0.067964636 0.021720624 0.35200375 -0.10079799 -0.06720697 -0.17242499 0.02744525 -0.105374515 0.01987583 -0.054296054 -0.061688196 -0.03960289 0.052861825 0.025839226
1237 0.054696042 0.016640201 0.18219505 -0.041541923 -0.03927993 -0.21262959 -0.096461006 0.2536898 -0.057325054 0.20275709 0.027339911 0.027936522 -0.034468714 -0.11964435 0.059852764 0.121673994 0.09591028 -0.22836582 -0.17027588 0.008899418 0.06376556 -0.14820981 -0.30817497 -0.07976927 -0.00948921 0.0682552 -0.11867957 0.081593096 0.09878593 -0.033449415 0.06683395 -0.06959001 -0.020946208 -0.0576653 -0.008092911 -0.11622173 0.18640006 0.13148049 -0.083464324 0.0015423486 -0.017055187 0.14073905 0.009877419 0.08765318 0.12877944 0.08551188 -0.08335641 -0.009730247 -0.14161329 -0.01711436 0.090256184 0.038535345 0.09735993 0.15487263 0.04094396 -0.022688894 0.08670479 0.23537408 0.022932574 -0.05750931 -0.01058899 -0.046455562 0.031688288 -0.096356586 -0.07737591 -0.004494146 -0.056498177 -0.035645735 0.0061856895 0.0651351 0.021496046 -0.17068437 -0.048904963 -0.08899005 0.04702561 -0.0015154588 0.1443853 0.042665277 0.06591517 -0.16641703 -0.05427514 -0.1077925 -0.16121338 0.20915182 0.023476033 -0.04400849 -0.10797874 -0.09659703 -0.17050521 0.19240859 -0.12685494 -0.19939741 0.011582524 -0.007262913 0.040261768 0.062226318 -0.028618347 0.006977335 0.06223363 -0.26047167 -0.11024573 -0.041277636 0.082778946 -0.08263081 0.13221595 -0.09528377 0.10281665 0.011143981 -0.12878537 -0.16666852 0.27819818 -0.065252095 0.13424295 -0.12835048 -0.06407172 -0.060492724 0.08902014 -0.03305907 0.0037317092 -0.15375507 -0.102085285 -0.023675624 -0.10365286 0.024440993 -0.06303553 -0.0069072125 0.040160242 0.12265844
1308 -0.012162781 0.30342454 0.13113815 -0.028613565 0.012625267 -0.123312406 -0.13755871 0.24357995 -0.037494015 0.19555596 0.0973173 0.1354243 -0.13503239 -0.077593856 -0.04531522 0.11534729 -0.029365635 -0.17408322 -0.0664887 0.012734254 0.11849874 -0.033603195 -0.2578688 -0.104454674 0.0983187 0.075310014 -0.1660438 0.026501402 0.031836137 -0.05881571 -0.006447072 -0.090034895 0.03266823 -0.17381029 0.034747668 -0.120694876 0.071036674 0.16417243 0.05048073 -0.04369605 0.1587912 0.08485456 0.07620063 0.014470333 0.16500334 0.05721227 -0.06962127 -0.10509293 -0.1935554 -0.0906431 0.042224906 0.059482966 0.10445069 0.020316105 -0.1823143 0.079045445 0.115662396 0.10216253 -0.070994295 -0.007288204 -0.109477855 -0.012734445 0.23218288 -0.049720723 0.049354978 0.05918105 0.009164574 -0.047523465 -0.028298007 0.082642384 -0.084061444 -0.12827691 -0.045898043 -0.04414326 0.10419923 -0.11110254 0.1673659 0.035052516 0.08956042 -0.09522646 0.04760747 0.15416156 0.05928164 0.022759335 0.018610982 0.15301405 0.099043734 0.15785949 -0.36917457 0.051659603 -0.028932054 -0.17958678 -0.009537831 0.086436465 -0.017600998 0.14974079 -0.0018165268 0.0885549 -0.14270817 -0.12756732 -0.23155043 0.043706786 0.03271306 -0.04634634 -0.08509726 -0.11301131 0.061735697 0.07054247 0.04294462 -0.12728542 0.039615482 -0.07469394 0.084473126 -0.028175097 0.00971381 -0.08943513 0.18581235 0.016312528 -0.0009161294 -0.04169203 -0.06300681 -0.09030765 -0.111278 0.041247178 -0.101347305 0.12681644 0.020764338 0.00766129
1421 0.108108364 0.01666834 0.1323514 -0.121973515 0.0026105319 0.0039744778 0.13244195 0.2405779 0.01966008 0.1448717 -0.01382678 0.13846606 -0.20330833 -0.045866486 0.01206221 0.1102989 -0.077997595 -0.17970964 -0.13504338 0.23600423 0.07969614 -0.12506297 -0.21942623 -0.0451363 0.03481475 -0.0316983 -0.03019304 0.12768425 0.012423359 -0.11353528 -0.0722809 -0.16665709 0.0963661 -0.03835139 0.056262672 0.0657215 0.24271268 0.03504969 -0.02585652 -0.06892867 0.046691388 0.2918549 -0.025300618 -0.27178884 0.17721336 0.22287454 -0.14143507 -0.12709019 -0.24790671 -0.019606039 -0.0018034009 0.18843113 0.27157104 0.23687626 -0.0035961966 -0.08005545 0.029670889 0.30411726 -0.04708555 -0.09366713 -0.04633342 0.10417596 0.108671255 -0.14307891 -0.002338921 0.3230346 0.07071376 -0.022854125 0.015946303 0.054893136 -0.10786362 -0.15525426 -0.14961845 0.000509871 -0.066984504 -0.0035314867 0.11617033 -0.12943466 0.09758753 -0.09323855 0.00874278 -0.03160936 0.119301945 0.10989792 0.1570822 -0.10912782 -0.034961063 -0.056748096 -0.073460564 0.02119135 -0.16764747 -0.30001226 0.19800729 0.045588702 0.005403708 0.049999364 0.026169827 -0.11423406 0.1385473 -0.13197067 -0.0010954231 -0.010069128 -0.10611033 0.017269572 0.000718004 -0.08397865 0.078583196 -0.06136016 -0.04958215 -0.06312958 0.15990888 0.0023226694 0.035140608 -0.00037370584 0.08756654 -0.059282124 0.1772822 0.041348632 -0.031815242 -0.046204764 -0.15763208 -0.24907139 -0.07552018 -0.08184504 -0.17550564 0.04765457 0.066735424 0.08557039
1276 -0.034577444 0.14239478 0.1368343 -0.16217518 -0.025283933 -0.17229956 0.14554104 0.15797716 -0.12759773 0.011475469 -0.01869537 0.026045568 -0.04725444 -0.15294239 -0.13270031 0.3068399 -0.08934409 -0.13213475 -0.08225985 0.07828777 0.13708727 -0.17476903 -0.13296556 -0.18309791 0.16057588 0.15988612 -0.17678495 0.06427051 0.15272352 -0.08397353 0.15443213 -0.101170994 0.18827501 0.008690824 0.020645395 0.009415058 0.22410406 0.11873861 0.076401815 0.030903095 0.1480649 0.19129579 -0.09207944 -0.15911828 0.035109352 0.1849905 -0.42865545 -0.04798222 -0.14333153 -0.059707858 0.07316083 0.034543276 0.22757797 0.15643233 -0.08666546 -0.20156883 0.07747609 0.09815744 -0.11929042 0.07045374 -0.09859546 -0.077620246 -0.07505147 0.13232324 -0.10608587 0.14846343 0.044747446 -0.14614627 0.027221596 -0.008520247 0.08399549 0.012831945 0.16970299 -0.022349318 0.07950368 0.064244054 0.12794842 -0.10633323 -0.04175922 -0.03923434 -0.0968974 -0.0075726635 -0.0032180764 -0.028463555 -0.0018342355 0.10000176 -0.096801095 -0.037698194 -0.3271843 -0.028241394 -0.022939209 -0.4113145 -0.03708886 0.023921646 -0.081895314 0.0045994776 0.051212363 -0.08264892 0.15312158 -0.16177613 -0.13697514 0.06950504 0.03393667 0.007292555 -0.08281866 0.0054529076 0.2185078 -0.104812555 0.0063022883 -0.09536297 0.05699786 -0.12760311 0.2305916 -0.023091674 0.123398915 -0.036924504 0.06443502 0.004908384 0.013206601 0.07673821 -0.036209296 0.10199646 -0.10507868 0.064517476 -0.10628622 -0.027442846 -0.03772084 -0.085158065
1164 -0.096826866 0.20309338 0.05413925 -0.12578578 -0.03566823 -0.16188225 -0.033197135 0.004394956 -0.119561546 0.1838462 -0.030379962 0.11072925 0.06028214 -0.26059204 -0.07629105 0.08649928 -0.06776704 -0.06174538 -0.03398517 0.0798375 0.090936 -0.16068996 -0.20424905 -0.18944353 0.12954897 0.04113482 -0.04072706 0.019233484 0.13595009 -0.039949875 0.11500311 -0.02309167 0.16095944 -0.084254 0.056353573 0.07062917 0.056416713 -0.055081088 0.043241236 -0.09767213 0.15412366 -0.122196086 0.06021948 0.004412081 -0.00838052 0.021857712 -0.29334033 -0.057723604 -0.13232493 0.02522163 0.06014354 0.14543073 0.1775672 0.06252778 -0.2599099 0.03254385 0.1074512 0.1278012 -0.17236471 0.11561644 0.038000613 0.0013870099 0.027037177 -0.066861376 -0.031407088 -0.03735176 -0.029160509 -0.04733268 0.08476933 0.063641794 0.046351004 0.037949383 -0.07255312 -0.0840204 0.0284753 0.007970254 0.12339593 0.023723826 -0.13670659 -0.13366313 -0.07498122 -0.04299757 0.07825689 0.020136705 0.13658157 0.2114935 0.008386691 -0.07728769 -0.16106406 -0.0753425 -0.123522215 -0.122770235 0.048115503 -0.062701896 -0.014496486 0.11499737 0.08892903 -0.017649414 -0.025767513 -0.24600814 -0.17136356 0.0152790295 0.037267342 0.13705528 -0.043284204 -0.07764836 0.0605997 -0.10512508 -0.060535416 -0.12883781 0.18050723 0.029698422 0.09145922 -0.17242283 -0.0840308 -0.048771713 0.24414927 -0.11856546 -0.03582624 -0.06682066 0.060564607 -0.21518718 -0.0007906232 0.08476037 -0.1278245 0.023026895 -0.03360359 -0.17362218
1287 0.034474585 0.2615125 0.08991253 0.08355029 0.03404503 -0.2434489 0.0820733 0.084673844 0.039321624 0.16534075 0.08646108 0.16384989 0.1946075 -0.35892838 0.019938437 -0.053675663 -0.069425866 -0.16536668 -0.10758988 0.09622965 -0.083766766 -0.031287562 -0.3809247 -0.29450786 0.10545001 0.031873263 0.09093406 0.035022724 0.1931142 -0.06560877 -0.057782225 -0.29714742 0.10152481 -0.059026558 0.03610333 -0.050401106 0.06410041 0.11936023 0.18237263 -0.23169822 0.09268829 0.31303838 -0.1476763 -0.009059827 -0.03379134 0.0045607504 -0.26061887 -0.03801373 -0.21333425 -0.23894514 -0.064234786 0.079078734 0.16236986 0.17294313 0.020293124 -0.053230677 0.05639584 -0.078289784 -0.1342296 0.09849872 0.079454936 -0.08394642 0.030170117 0.07817174 0.025594093 0.021944135 -0.1076176 -0.011800583 0.0027970804 0.075615376 0.057105586 0.033074837 -0.15630423 0.036077343 0.09745253 0.13330239 0.15713741 -0.071358435 -0.080758385 -0.13036887 0.0024898497 -0.013412773 0.042721707 -0.083839394 -0.13180077 0.08974746 0.05760371 -0.026131386 -0.2672624 -0.007834232 -0.1260423 -0.37883893 -0.089600116 0.021244366 -0.022569954 0.033801742 0.10609098 -0.0656447 -0.11147347 -0.2654123 -0.18330385 -0.14934316 0.061874703 0.010359043 0.04511197 0.11631312 -0.11639654 -0.12098863 -0.022809718 -0.14630555 0.065892205 0.046940662 0.08701454 -0.05726531 0.07805349 -0.036403444 0.15416647 0.03231683 0.06500107 0.044217918 -0.037188508 -0.01162487 0.10803475 0.22408572 -0.28560197 0.07738931 0.06254027 -0.1121409
1140 -0.053402293 0.11976741 0.21164493 -0.12671907 0.13780098 -0.12311534 -0.105573036 0.15413962 -0.10913749 0.10358339 0.02994616 0.18379809 -0.050446127 -0.20373562 0.16521135 0.13007411 0.07866159 -0.21090457 -0.1321206 0.117094696 0.013266185 -0.09831291 -0.1982852 -0.03931118 0.0887695 0.041519612 -0.050602887 0.0532059 0.027498415 -0.03418488 0.017138936 -0.01131795 -0.07624899 -0.07664724 -0.064878404 0.0030634534 0.14274521 -0.023164315 0.038011245 0.012994093 0.08350211 0.14074968 -0.016086502 -0.043054935 0.042806786 0.06353389 -0.08490979 -0.14753148 -0.10618687 -0.05474581 0.1200788 0.029753681 0.23267439 0.0016906563 -0.103480674 -0.056647025 0.009979493 0.13686301 -0.07010012 0.04374651 0.051954184 -0.12227717 0.10531957 -0.09274703 -0.11215188 0.15924528 -0.111021005 -0.033823244 0.029268067 0.060377497 -0.061439548 -0.008982661 -0.042735927 -0.14734231 0.05197205 -0.1269819 0.16064817 0.051539894 -0.0796272 -0.08849529 -0.061855424 -0.013390467 0.12539756 0.075303435 0.049534317 0.09249757 -0.046367276 -0.05414057 -0.14353424 0.07558004 -0.10738486 -0.069538504 0.009799481 -0.054365482 -0.011512458 0.045158993 0.016132537 0.10757763 -0.19951357 -0.12921634 -0.21414089 0.061567552 0.015948031 0.10665995 -0.085840195 -0.106934056 0.028731307 0.043093327 -0.015880901 -0.096438825 0.27358726 -0.14340197 0.015340109 -0.1649219 -0.016464632 0.0180619 0.22779922 -0.10123225 0.09231826 -0.0149470875 0.016284162 -0.13101761 -0.16863735 -0.09471033 -0.14676026 -0.006249064 -0.069948085 0.036888927
1156 0.15387644 0.13381189 0.2237675 -0.04332265 -0.075201064 -0.18930875 -0.050567847 -0.03202923 -0.26645678 0.25549802 0.0017353728 0.026876573 -0.08043113 -0.25957838 0.08417943 0.123613395 0.10953107 -0.1581879 -0.027696375 0.043175988 0.015068491 -0.089140624 -0.055544216 -0.1439041 0.1308431 -0.010180238 0.10981335 0.12205636 0.026702324 -0.025656858 0.077373266 -0.028503371 0.15158978 -0.035628464 -0.082958385 0.102098525 0.09646304 -0.019044604 -0.028607909 -0.23174796 0.07649434 0.03030484 -0.038944285 -0.17480129 0.12602419 0.02591735 -0.16494457 0.037473124 -0.13813366 -0.009160385 0.10318035 0.014702877 0.13557689 0.08341101 -0.0037840144 -0.09554401 -0.0060617994 -0.031058777 -0.051380314 -0.037508845 -0.07086066 -0.023358673 0.15915953 -0.0870818 -0.3361575 0.047787387 -0.06171097 -0.28394115 0.064325586 0.2769306 0.101395965 0.022959713 0.033187848 -0.12756932 -0.013318409 -0.0112811765 0.07614628 -0.14975059 0.057752647 -0.021231912 -0.016258445 0.09697338 -0.085666515 0.066804215 -0.042092375 -0.03269588 -0.019235875 -0.085614294 -0.13649791 0.08000578 0.092764355 -0.16764961 0.0012323143 0.000591176 -0.10215144 0.041893877 -0.025177356 0.009892933 0.054316267 -0.2843913 -0.22669205 -0.11803066 0.11357585 -0.02174931 -0.17071126 0.086183965 0.064299844 0.12207169 -0.073499784 0.022035915 0.26638678 -0.020875856 0.22771698 -0.03322105 -0.046674456 -0.22931278 0.01741814 -0.008064648 0.08865529 -0.106049545 -0.047987 -0.051824182 -0.1877632 0.14343262 -0.25409538 0.12563993 -0.0129007865 -0.0008992263
1297 -0.02411359 0.17266834 0.19230771 -0.06607069 0.094129756 -0.12840363 -0.16060115 0.13235834 -0.059884973 0.1612098 0.05752311 -0.082434535 -0.08533794 -0.13550082 0.042903174 0.03992148 0.04020778 -0.0889005 -0.1441435 -0.061820008 0.14393334 -0.06908984 -0.22046764 -0.103873044 0.06874781 0.08081196 -0.080781996 -0.04161592 -0.043458387 0.0121985 0.08053236 -0.06186932 0.018302036 -0.08894564 -0.070575155 -0.13808288 0.19696899 0.009500492 -0.046960335 -0.07512779 0.12588985 0.070676185 0.0058951373 0.08266966 -0.006494027 -0.054350626 -0.041884743 -0.03077681 -0.13688608 -0.008898751 0.06138082 0.012822911 0.15716486 0.07331229 -0.12680316 -0.069522195 0.10290866 0.15923071 -0.14549266 -0.006148232 -0.019625176 -0.08745021 0.13117118 -0.13777864 -0.05286106 0.074986994 0.01383153 -0.059649315 -0.00019882257 0.0449042 0.005974652 -0.123975165 -0.06388061 -0.24258193 0.05701778 -0.23522049 0.15008242 0.11243804 -0.1304832 -0.14767948 -0.013859393 0.11094591 -0.014286047 0.19868837 0.05725822 -0.010675532 -0.06395585 -0.0537749 -0.09909298 0.06170768 -0.07724785 -0.2171504 0.03859497 -0.032949775 0.021448513 0.078558296 0.09987946 -0.012645911 -0.1158418 -0.1744111 -0.14132741 0.04199639 0.035522144 0.1346047 0.020160588 -0.06850016 0.09886683 -0.006406261 -0.1454087 -0.16362038 0.23132536 -0.069277026 0.09633918 -0.15262347 -0.0070000854 -0.042070933 0.0910509 -0.07375346 0.07601101 -0.1369936 -0.0074487613 -0.08350284 -0.031571884 -0.058156963 -0.09650876 0.026306836 0.0042719916 0.054419886
1370 -0.005372241 0.24384545 0.13892747 -0.10716811 0.0028957704 -0.11924311 -0.12964828 0.22964354 -0.049769834 -0.04584037 -0.02472014 0.01613244 -0.13065043 -0.24711262 0.069015466 0.20991392 0.0860257 -0.16244236 -0.12289742 -0.055727582 0.023249079 0.014895539 -0.2055628 -0.09268484 0.05980778 -0.020181926 -0.14126948 0.1055759 -0.062009852 -0.05592632 0.09367429 -0.12600656 0.13426447 -0.09268703 0.064607926 -0.09259921 -0.033046044 -0.07237921 0.16199781 -0.107300624 0.18702452 0.045745168 -0.037253607 0.11934928 -0.005957288 0.061836146 -0.10500523 -0.16543975 -0.10487678 0.08721122 0.1616032 0.12967645 0.24073552 0.04627237 -0.1922106 0.014283857 0.1397235 0.0666812 -0.026553193 0.15142862 -0.025322525 -0.01764537 0.0792738 -0.13322231 0.008621882 -0.06271492 0.031024732 0.0050975564 0.14223789 0.12180673 -0.11107239 -0.05459673 -0.13123752 -0.13358693 -0.08723963 0.0060952003 0.20722717 0.07733152 -0.18217345 -0.079794325 -0.08066334 0.042500015 0.062503934 0.12084746 -0.058743738 -0.044515625 0.0148062315 -0.23878866 -0.100523524 -0.04962941 0.013515594 -0.1723047 0.0031892816 0.032085475 -0.06566041 0.11287789 0.10459946 0.0246304 -0.15577927 -0.18021913 -0.09030672 0.08414633 -0.023480598 -0.025489027 -0.06742552 -0.0745111 0.11155963 -0.051303595 -0.11737196 -0.0636197 0.19664787 -0.13796397 0.09453132 -0.01166502 -0.02181054 -0.098713726 0.09475938 -0.018940086 -0.053553198 -0.09830265 0.058660436 -0.05957092 -0.074889086 -0.12128931 -0.19506037 0.029255629 -0.064395666 -0.011068168
1413 0.08604067 0.20414962 0.07680215 -0.11237582 -0.034667715 -0.04637905 -0.06918157 0.050253212 -0.12017695 0.07001336 0.105498366 0.096119985 -0.07106404 -0.12135554 -0.0025142077 0.12704733 0.100311615 -0.17104293 -0.10143559 -0.030771187 0.12699394 0.099688955 -0.22445527 -0.11835152 0.07841384 -0.067529336 0.06048634 -0.0062410505 0.05380819 0.097552106 0.05577165 0.10800964 0.020865157 -0.039026856 -0.04161374 -0.15093917 0.09842425 0.021175059 0.1270349 -0.1459856 0.03348158 0.055550646 0.019515771 0.014225306 0.11807811 0.031714305 -0.1626255 -0.1780385 -0.1095283 -0.003967464 0.17183259 0.006457627 0.09716946 0.07384317 -0.19908734 0.01395127 0.06625346 0.06159879 -0.058428407 -0.11139979 0.06995576 0.0294581 0.20701091 -0.12005531 0.024785679 0.052721925 -0.10611705 0.056740806 0.0863769 0.12989573 -0.13623942 -0.19716088 -0.058651242 -0.13874349 0.002756381 -0.070949085 0.15539044 -0.056983028 -0.1796992 -0.13699797 -0.07606196 -0.016235014 -0.100874044 0.14518167 0.021277605 0.1831592 -0.04609553 -0.015432977 -0.18151149 0.16311392 -0.066293016 -0.097200915 -0.011963413 -0.07685467 -0.025865063 0.025677448 0.077461585 0.13838401 -0.0938549 -0.1419513 -0.13026471 0.114121445 0.046918303 -0.026017979 0.06845478 -0.053676475 0.11719824 -0.06994645 -0.029728627 -0.11243224 0.12686731 -0.099589415 0.16915457 -0.20293295 -0.1447702 -0.17543171 0.12900643 0.06176385 -0.10680419 -0.17088091 -0.05511649 -0.13787 -0.0016750761 -0.024931734 -0.15483254 -0.021668036 0.028448585 0.13680628
1167 -0.023740806 0.2466174 0.12692523 0.06876981 0.13840173 -0.053040363 -0.08094135 0.19932804 -0.056831416 0.052875977 0.046053655 0.1058701 0.001266584 -0.19695078 -0.03575057 0.08918217 0.060148142 -0.12173348 -0.01036686 -0.030629262 0.04148582 -0.043258395 -0.30662182 -0.06052541 0.13763471 -0.010099656 -0.003980053 0.033646677 0.048488554 -0.05767312 0.16403657 0.09300781 0.14005463 -0.047899276 -0.083704315 0.0023702988 0.087357454 0.08730122 -0.07675498 -0.13240686 0.02934713 0.03516007 -0.01575941 0.0039954265 0.041660126 0.05116977 -0.045251094 -0.03205012 -0.06954634 -0.007004389 0.10131448 -0.0033800707 0.24291715 0.06917301 -0.14094168 0.014191538 0.07985074 0.13669299 -0.0909357 -0.0038017367 -0.041141402 -0.012972844 0.026428476 -0.18758388 -0.061123382 0.09457317 -0.039924525 -0.028117556 0.044787906 0.10835243 -0.07004662 -0.14647183 -0.15865806 -0.0853116 0.08205871 -0.16252598 0.13543525 0.05671936 -0.12019975 -0.009335949 0.08316038 0.15194416 -0.044418816 0.12760498 0.069719255 -0.023848845 -0.060994938 0.0047170017 -0.23036608 0.10403238 -0.04607236 -0.14833783 -0.023446668 -0.0067968727 -0.026870403 0.20253634 0.13113302 -0.0099794455 -0.15518913 -0.15780716 -0.09172526 0.014588064 -0.0053995717 0.051125575 -0.022206131 -0.01850999 0.02264996 0.06196109 0.029212365 -0.18777376 0.11411908 -0.18970802 0.051601026 -0.11012934 -0.08272525 -0.031580046 0.23411313 -0.0030252116 -0.07431978 -0.21463273 0.046811476 -0.055824585 -0.010843322 0.001263212 -0.18020341 0.07673561 -0.035922617 0.13605963
1128 -0.0022691817 0.11418307 0.104612276 -0.072315715 0.045343548 -0.106067136 -0.096992575 0.12142458 -0.050687414 0.14847155 -0.020200655 0.04447316 -0.043610428 -0.17839383 0.101441465 0.15766709 -0.015017485 -0.11557145 -0.0038323475 -0.07466195 0.06848705 -0.021640621 -0.18822296 -0.0878267 0.08150436 0.0017987496 -0.012425825 0.072194524 -0.022145122 -0.062213186 0.03397412 -0.04977356 0.043093417 -0.114494056 -0.040301546 -0.11338066 0.124541074 0.075458206 0.017881975 -0.06832173 0.1479505 0.058753222 0.028054917 -0.036401447 0.021151097 0.09846482 -0.061970495 -0.062459175 -0.12983592 0.091271475 0.16021414 -0.015732963 0.21461795 0.07964253 -0.10537184 0.009270734 0.0792803 0.14127336 -0.1263268 -0.058765773 0.083607376 -0.02693921 0.12309581 -0.09822342 -0.04548851 0.031225182 -0.010811466 -0.08939375 0.15781884 0.033193365 -0.08777634 -0.17380169 -0.07256728 -0.120518886 0.023897393 -0.10201453 0.17965123 0.025634795 -0.15811029 -0.09094992 -0.052991435 -0.051096674 0.09302477 0.16559327 0.090760484 0.07709342 0.013388766 -0.09636006 -0.21563154 -0.074800655 -0.07422702 -0.29119298 0.064392656 0.07596538 -0.03363093 0.09727884 0.11122706 -0.0042810333 -0.10312084 -0.13934588 -0.096722536 0.093998045 -0.10880609 0.0980079 -0.107788935 0.02015839 0.0041298056 -0.0997783 -0.031200452 -0.19198807 0.236052 -0.095442735 0.016950356 -0.12401929 0.073611006 -0.08627105 0.08820358 -0.07177158 0.008238301 -0.08317471 -0.036310278 -0.049001582 -0.03206683 -0.06730715 -0.07571645 -0.0063425815 -0.1606601 -0.0263408
1367 -0.12159491 0.29641828 0.23175791 -0.075131305 -0.07957049 -0.06088597 -0.13438565 0.11248328 -0.10050178 0.13190451 0.015773904 -0.04860439 -0.061530046 -0.15685518 0.103877835 0.13465425 0.12176434 -0.02711053 -0.07409032 0.022440642 -0.03276429 -0.08694104 -0.19121706 -0.11358294 0.15699436 0.028728507 -0.12524778 0.019886285 -0.0024692628 -0.049390808 0.09214926 0.12630394 0.06140325 -0.11718276 -0.042298753 -0.011433135 0.10688381 -0.023303235 0.09650914 -0.05578389 0.07449762 -0.053959012 0.06663791 0.054816686 0.05482289 0.034753483 0.009676243 -0.22907202 -0.14757346 -0.06914439 0.1377601 -0.05116574 0.14415762 0.16274571 -0.011818532 -0.05413437 0.07369804 0.07340797 -0.13958262 -0.051196862 0.013031017 -0.008193518 0.066770166 -0.08851033 0.045771107 0.08390382 0.03582786 0.049682636 0.07979068 0.15669452 0.026091786 -0.112798735 -0.11043455 -0.061945938 0.18436934 -0.16050404 0.092877574 -0.02065968 -0.18307403 -0.07898862 0.06687916 0.12608734 -0.018046048 0.0596932 0.06777718 0.05730352 0.04461527 -0.0037819257 -0.1615145 0.00041130348 -0.14275575 -0.17348114 -0.06729579 0.037550885 -0.052420538 0.26613677 0.18436083 0.024878897 -0.1610526 -0.13680348 -0.07041423 0.02539749 -0.009001662 0.12951824 -0.06801881 -0.10205144 0.0188954 0.021063244 0.018105358 -0.16099532 0.26321733 -0.021746095 0.1562098 -0.21011038 -0.032933783 -0.13228796 0.02438177 0.01569655 -0.045690555 -0.018648671 0.012544736 -0.103008 -0.08802206 -0.09076145 -0.1672443 0.08465515 -0.047685202 -0.021669013
1273 0.05255852 0.12421051 0.111428455 -0.10367343 -0.024091408 -0.037520602 -0.10496827 0.09304652 -0.0013102749 0.11694277 0.08451433 0.046223134 -0.11958009 -0.1957312 0.028156536 0.13666518 0.072375774 -0.13499007 -0.048261136 0.00046586114 0.05784388 -0.104135044 -0.11522656 -0.17079143 0.07223784 0.020718334 0.023464063 0.04680376 -0.042751297 -0.008890718 0.07228799 0.05578191 0.173873 -0.10245296 0.10135096 -0.0023393445 0.1478551 0.031034391 -0.13068792 -0.15540381 0.10609849 0.037527 -0.052094717 -0.0070200358 0.14682849 0.14416063 -0.08142867 -0.0969713 -0.059850473 0.067993574 0.16834635 0.046089303 0.14903209 0.079246946 -0.13751113 -0.0033667518 0.056020305 0.22022228 -0.070846915 0.077490635 0.027690358 -0.004372169 0.18171182 -0.18875593 0.014123077 0.041510995 0.059475545 -0.093952596 0.011330693 0.097582914 -0.074626975 -0.094898716 -0.05584066 -0.111688666 0.07226716 -0.13916975 0.084945895 0.039886165 -0.09007708 -0.1243045 0.10851852 0.006616981 0.065921865 0.054505844 0.038532693 0.1564153 0.06508413 -0.06105949 -0.09717483 0.07369373 -0.013801258 -0.069618285 -0.07724908 -0.12478331 0.031587157 0.075280055 0.24815895 0.11378129 -0.08840733 -0.13950156 -0.20409916 0.08796759 -0.035318267 -0.04031978 -0.032368947 -0.031681694 -0.009289666 0.06706381 -0.13280647 -0.2555639 0.1541752 -0.09603537 0.16136988 -0.19024807 -0.01892875 -0.07535734 0.15709971 -0.07139164 0.06581508 -0.1768129 -0.029682865 -0.10087082 -0.11002029 -0.10529324 -0.18748665 0.025173202 -0.12680477 -0.038349047
1238 -0.114332065 0.16466257 0.19864121 -0.031912334 0.04343103 -0.038688835 -0.14439784 0.10696167 -0.076196924 -0.014219607 0.0792121 0.10638525 -0.23399727 -0.14384754 0.055753384 0.11635188 0.12929493 -0.17509934 -0.017951993 0.04472841 0.23810779 -0.06539808 -0.19356138 -0.068979494 0.087376826 0.08979902 -0.06425556 0.057773583 0.032046635 -0.05691949 0.06658448 0.059745744 0.13347208 -0.048411727 0.03570378 -0.13400166 0.09226736 0.09317742 -0.037544228 -0.03872345 0.08544819 0.12987682 -0.03230316 -0.0008969913 0.13844875 0.015371972 -0.18167055 -0.08118196 -0.057060435 -0.000770137 0.11378057 0.010839139 0.18938354 0.06683157 -0.17027538 0.025427824 0.17526966 0.15735772 -0.058886636 -0.060464382 -0.068372644 0.03547037 0.24500841 -0.0873031 -0.0013624382 0.038977485 -4.496383e-05 -0.07848058 -0.0663656 0.08067226 -0.006516221 -0.059626978 -0.12543121 -0.12634823 -0.0043733693 -0.1389141 0.1655006 0.13760744 -0.13712163 -0.13774307 0.027592013 0.029945765 0.049736507 0.094569996 0.09051365 0.13504958 0.027661797 -0.12825723 -0.22552313 0.09158517 0.0010121415 -0.09324951 0.07949688 0.019197265 -0.017911231 0.1217044 0.006479287 0.10580522 -0.102513105 -0.13469617 -0.21610779 0.058505204 -0.03577813 0.06201436 -0.0745172 -0.08234509 0.012016351 -0.008729608 -0.079328835 -0.13755782 0.23633277 -0.12514515 -0.0030938399 -0.08580877 -0.01006956 -0.12982789 0.1400137 0.11327719 0.029510196 -0.08531671 0.03712536 -0.053990193 -0.100101076 -0.08460311 -0.09368459 0.018428441 -0.073257335 0.056068785
1145 0.027846174 0.1364446 0.1481438 -0.022542516 0.047731582 -0.050537147 -0.0745044 0.13178405 -0.14854409 0.100265995 0.047960486 0.09568711 -0.18326455 -0.26196635 0.11118867 0.1159045 0.016415913 -0.1646028 -0.09958721 0.05138419 0.14353308 -0.008934106 -0.260215 -0.02540478 0.1303283 0.11281167 0.021171248 0.11318418 -0.019639002 -0.10037705 0.095439866 0.09977694 0.08983447 -0.03341631 0.00601589 -0.090998985 0.15050353 0.043047853 0.005546274 0.018904718 0.10352006 0.06343751 -0.015068425 -0.076249324 0.11662096 0.10809045 -0.06860776 -0.05159135 -0.08719373 -0.07031412 0.17797929 -0.06977701 0.17588846 -0.010966941 -0.10457183 -0.0077717463 0.07923611 0.10954331 -0.11477782 0.03535334 -0.11457612 -0.10496066 0.12773484 -0.1467809 -0.04226906 0.13772371 -0.025052892 0.037883315 0.04089574 0.06507953 -0.052711457 -0.0775764 -0.010340651 -0.11700959 0.017266203 -0.23308365 0.10989097 0.055197313 -0.049932145 0.0037746502 -0.008936499 0.05535605 0.10184251 0.11616279 0.03551472 0.016655631 -0.0046350346 -0.14335313 -0.096130215 0.06038277 -0.08971566 -0.15117365 0.1173469 -0.112314604 -0.016816324 0.13265517 0.09859042 0.021474306 -0.048193336 -0.067361504 -0.07066375 0.07203912 0.04286774 -0.018475922 -0.033810977 -0.04264479 -0.009953183 -0.061437037 0.027848678 -0.20998114 0.24608685 -0.080803804 0.097127475 -0.1433896 -0.15286939 -0.10476521 0.24191628 -0.029833851 -0.003407831 -0.1590854 0.1255107 -0.0224125 -0.15138528 -0.00047641993 -0.12817717 0.11408419 -0.032532148 -0.008566949
1249 -0.08965118 0.13637142 0.17571364 -0.0012524759 -0.015202235 -0.12990132 -0.19264922 0.087014675 0.019597054 -0.03722905 0.048781607 0.14866716 -0.11507713 -0.27983677 0.15670344 0.055318203 0.055237442 -0.1921164 -0.08175317 -0.03198756 0.10688116 -0.08846621 -0.24093726 -0.101390764 0.11394264 0.03729222 -0.038180932 0.046106942 0.017196827 -0.014156768 0.04914736 0.062149845 0.05095618 -0.1544317 -0.008850378 -0.03694345 0.20828034 -0.014925142 -0.13375142 0.06994576 -0.0646134 0.07197692 0.13330269 0.029149616 0.047739606 -0.10391531 -0.07186602 -0.05653027 -0.20665081 -0.067417495 0.095832735 0.045073356 0.19295229 0.03266971 -0.09290429 0.06673921 0.17474376 0.02451597 -0.12814729 -0.056179482 -0.010145849 0.021667855 0.18952401 -0.15541126 -0.021502368 0.12726906 0.11620113 -0.059679523 -0.01777291 0.06032371 -0.05749152 -0.13940367 -0.09796531 -0.16723457 -0.0035903822 -0.14388578 0.16099449 -0.003983683 -0.013180867 -0.15195549 0.11423875 -0.0967194 7.9319005e-05 0.094915606 0.04525478 0.07376036 -0.12748168 -0.04391359 -0.16078782 0.0021393492 -0.0046421736 -0.273788 0.006723824 0.052595798 0.024233153 0.05903603 0.0062827007 0.04414603 -0.15616758 -0.20204583 0.010699677 0.08712869 -0.10875391 0.03311221 -0.09803625 -0.03381671 0.06180726 -0.10100961 -0.1577766 -0.13931331 0.20441842 -0.054729056 0.06942555 -0.12516034 0.012381583 -0.22716986 0.032770224 -0.098819986 0.032702807 -0.107055895 -0.07680484 -0.09736249 -0.012697172 -0.04195347 -0.0864659 0.06459543 -0.08723637 0.014497819
1144 0.05339197 0.09618202 0.18178694 -0.005299936 0.04075553 -0.10626276 -0.09215229 0.20728722 0.051596157 0.12420364 0.051467467 0.1693604 -0.18167172 -0.21652023 0.04102781 0.050024193 0.12203843 -0.09869901 -0.02650744 0.062700555 0.095751874 0.02786127 -0.14739552 -0.23362115 0.15186453 -0.015544267 0.072574705 0.09715966 -0.014234855 -0.07275905 -5.3142976e-05 0.01767046 0.06814527 -0.10682962 0.100690916 -0.101609685 0.11957368 0.051894225 -0.009755438 -0.015527853 0.093223386 0.10993839 0.01783195 0.048753455 0.006140796 0.06756802 -0.14185983 -0.08362952 -0.21347925 -0.0032114456 0.032840464 -0.017285248 0.18000335 0.17172936 -0.07763567 -0.048681457 0.016525168 0.0848775 -0.13246883 -0.036349475 0.005451986 0.026421221 0.15798196 -0.22193241 0.040728677 0.09475257 0.00020466154 -0.09486521 0.14968324 0.17038606 -0.050513007 -0.15769322 -0.123507045 -0.116398945 -0.04567439 -0.1964431 0.22998069 -0.024976484 -0.06694293 -0.0758154 0.10212276 0.030893203 0.1068278 0.07744939 0.11225184 0.114659145 -0.025923325 -0.04867484 -0.14661632 0.0438325 -0.008017694 -0.17416117 0.08021236 0.028356526 0.029724248 0.05717676 0.02928863 0.07783525 -0.060972992 -0.18757485 -0.14471287 0.049214505 -0.003826005 0.066006646 -0.12019478 -0.11003089 0.072024055 0.050796475 0.06470279 -0.09793891 0.16960417 -0.057717722 0.042761438 -0.18167986 0.040660217 -0.08070832 0.04330273 -0.20311716 -0.070480265 -0.015051303 0.11762428 -0.11320573 -0.027361866 -0.14654173 -0.17100702 -0.039356966 -0.024937289 -0.017453827
1271 -0.10673105 0.12772281 0.26290616 -0.14102906 0.0846662 -0.10983815 -0.031189099 0.16631031 -0.14286931 0.101384155 0.013416225 0.09126109 -0.12042026 -0.08949088 0.072562635 0.0858403 0.20701922 -0.09310498 -0.049849167 -0.055534646 0.17765252 -0.07709049 -0.20274378 -0.23711674 0.012624466 0.14433812 -0.03620056 0.06302069 0.0025081942 -0.09336229 0.026404401 -0.10375717 0.0198323 -0.17326336 0.0014032988 -0.13513891 0.25904468 0.057693724 0.11305854 -0.09148998 0.050143007 0.097681515 -0.0129624205 0.013034888 0.06760226 -0.08356945 -0.13208085 -0.1004806 -0.094932124 0.09926259 0.11308234 0.03789791 0.154156 -0.02475306 -0.074598975 -0.045599066 0.08489862 0.012252836 -0.010810381 0.014643489 -0.044254612 -0.07252697 0.05312503 -0.10519127 -0.09093825 0.11256458 0.022992034 -0.0723417 0.1699173 0.15306768 0.011612734 -0.11221806 -0.109049775 -0.17632993 0.15618628 -0.16949986 0.23374896 0.1242234 -0.13000914 -0.17537609 0.07460861 -0.056832954 0.013917322 0.13607593 0.02416392 0.12446848 0.018574188 -0.038896967 -0.19580862 0.026850443 -0.17654243 -0.10097928 -0.05620438 -0.066112526 0.05718404 0.09217353 0.16923262 0.012469101 -0.11228223 -0.07924974 -0.1305526 0.008274067 -0.05274291 0.029685942 0.016057292 -0.17812654 0.054094337 0.003925716 -0.03063158 -0.08326706 0.120626986 -0.08605463 0.16494796 -0.1649576 -0.046195652 -0.07884772 0.109198436 -0.045757115 0.021398542 -0.025556412 -0.004544344 -0.16245683 -0.06890729 -0.043275077 -0.026399788 -0.08873153 0.0021256898 0.026604043
1146 -0.025056647 0.17004654 0.1629728 -0.16517758 0.12736662 -0.059098307 -0.174722 0.068897426 0.005167879 0.07597259 -0.012993646 -0.0017804422 -0.019725379 -0.15622358 0.13864933 0.11296332 0.14070421 -0.14806181 0.007921183 -0.08949379 0.17851587 -0.08797874 -0.098321736 -0.13352752 0.032924388 0.07526047 0.009254573 0.09708376 -0.042683806 -0.1346555 0.21122295 0.019309875 0.0682633 -0.11493685 0.03553093 -0.08634018 0.14928806 -0.025562814 0.09341247 -0.12100762 0.041320655 0.041339032 0.07971951 -0.041380566 0.17472091 0.09438693 -0.08332788 -0.1076378 -0.11517065 0.028686833 0.15474679 -0.00051220076 0.15969469 0.07695231 -0.08033656 -0.056025915 0.0536827 0.12705314 -0.16700551 0.018481119 -0.0010351441 0.0446422 0.16477658 0.08464804 -0.05547807 0.029844247 0.011868975 -0.020982312 0.08706404 0.14907195 -0.09232173 -0.056427 -0.0137380175 -0.07306323 0.07019355 -0.14273028 0.16978511 0.07573974 -0.13251272 -0.124505766 0.083503775 -0.07417813 0.031148503 0.03054483 0.041533213 0.15662673 -0.037887044 -0.0058621443 -0.18448055 0.14376794 -0.0211737 -0.19621001 0.052648656 -0.10879882 0.0285714 0.11266887 0.18033616 0.12914678 -0.09794876 -0.18715528 -0.1832173 0.02461684 0.07825226 0.09509864 0.058731385 0.033450924 -0.024283217 -0.0024298953 0.06466433 -0.10653781 0.21724133 -0.09082324 0.10450849 -0.14569105 -0.05943149 -0.020212138 0.09986996 -0.08718083 -0.016857611 -0.1530359 -0.02369797 -0.05798996 -0.054712594 -0.050579075 -0.16117491 0.008774303 0.016585665 0.0257908
1390 -0.05503721 0.07179555 0.25284046 0.07999381 -0.055628408 0.038889743 -0.11573235 0.10285045 -0.053724557 -0.035058167 0.05565219 0.10345592 -0.17471254 -0.16771352 0.089445546 0.1506346 0.06635376 -0.154746 -0.08770491 -0.067748316 0.08695327 0.021878038 -0.21635866 -0.0413596 0.073100425 0.12367182 -0.015529443 0.055972975 -0.018863562 0.13243534 0.092967 0.006483211 0.14332001 -0.02599306 -0.03073235 -0.019859506 0.20126899 0.034037955 0.042043407 0.022519475 0.060657308 0.025567483 -0.07314068 0.06344087 0.03302225 0.11234269 -0.02236834 -0.17120354 -0.08933606 0.025860094 0.119521335 -0.024582516 0.18912525 0.15743853 -0.13761473 0.044769164 0.057682365 0.14150928 0.117815375 0.015374537 -0.10965803 -0.014891656 0.17584397 -0.12460162 -0.016778376 0.10457355 0.10114455 -0.16976808 -0.034916136 0.105498336 -0.068867534 -0.124273404 -0.104083955 -0.22706376 0.008801771 -0.13707858 0.17855716 0.036904342 -0.028642556 -0.13788483 0.02916478 0.045796745 0.029119749 -0.004284732 -0.023101332 0.0043976237 -0.07723849 -0.14663118 -0.21175167 0.052758645 -0.10169905 -0.043960452 -0.038607884 0.0946207 0.06769838 -0.02213462 0.18611471 0.008376975 -0.1944963 -0.1974037 -0.14021587 -0.044180647 -0.0333946 0.033679895 -0.07123003 -0.014462851 0.019051684 -0.12523127 0.0030787534 -0.11522574 0.17256 -0.1318801 0.113040276 -0.15891074 -0.08734946 -0.11703786 0.14811264 -0.039425716 -0.026278147 -0.18254647 0.014478679 -0.06587436 -0.037041612 0.0006661011 -0.16283143 0.04350812 0.011584564 0.030337246
1348 0.09370795 0.09040095 0.20563613 -0.035824027 0.08121085 -0.1839484 -0.05911455 0.039877214 -0.12861739 -0.06191626 0.15782268 0.1177692 -0.25216582 -0.21536611 0.057596955 0.19688971 0.13856235 -0.2345407 -0.048805267 -0.0511264 0.08560373 -0.013983465 -0.026779694 -0.16549273 -0.006420846 0.08299614 -0.088521935 -0.04719509 0.08881359 -0.1099097 0.041107893 -0.1222359 0.12640564 -0.13241889 -0.048655245 -0.06562863 0.09540309 -0.23254605 0.109693184 -0.11247839 0.14781213 0.07808157 0.10934992 -0.2344678 0.096656196 0.022758685 -0.24481921 -0.16567072 -0.2326882 0.024764664 0.009007338 0.13315098 -0.10195941 0.07215091 -0.2625681 0.011236005 -0.11420594 -0.09781843 -0.067759044 -0.12502487 0.09565838 0.14661713 0.18747385 -0.053845067 -0.1687238 0.06907222 -0.0025170918 -0.14988197 -0.024038209 0.09650726 0.085435525 -0.18082401 -0.05212418 0.011943538 -0.02604335 -0.17243792 0.064506605 -0.05635946 -0.03396254 -0.13801745 0.03384571 0.076701164 -0.056432318 -0.012467082 0.044916365 -0.08434362 -0.036763538 -0.1465343 -0.12054378 -0.1321187 -0.09599034 -0.15546119 -0.083688185 -0.07653477 0.04213732 0.050400022 0.1422888 -0.10250787 -0.22264436 -0.11648913 0.08197264 0.26740488 -0.030098734 0.033108383 0.013636069 0.044164494 0.13873374 -0.018620564 0.045357045 -0.30421087 0.26462266 -0.2689061 0.052348007 -0.03848545 -0.0696139 0.007930962 0.14015444 0.014836204 0.018645274 -0.18102294 -0.031157896 -0.12288101 -0.058729026 0.015337832 -0.28856608 -0.056800865 0.08727912 0.021656511
1277 -0.0849129 0.13056526 0.30628031 -0.16331877 0.06319296 -0.15517153 -0.05689994 0.02391483 -0.11813624 0.04433878 0.04483189 0.04334329 -0.08673174 -0.062320694 0.051466763 0.1680642 0.044449195 -0.23473354 -0.09668908 0.003724612 0.020510666 -0.06732075 -0.28086206 -0.15790223 0.112591155 -0.025554553 -0.040648434 0.10818885 0.03295517 -0.03173503 0.10882336 0.08012183 0.07780165 -0.104614 0.11442328 -0.1213226 0.1347252 0.15915868 -0.02478641 0.06120589 0.09285184 0.061954297 0.004484622 -0.012069741 0.124566406 0.095169835 -0.05538018 -0.01798245 -0.068370335 0.030332005 0.04643265 0.015810177 0.11965321 0.1304331 -0.01553729 -0.025292458 0.0935888 0.024729116 -0.14047836 -0.08590958 -0.005992441 -0.044446506 0.0864665 -0.06587811 0.102199115 0.08393657 0.026744723 0.054237936 0.12966359 0.07755402 -0.120746136 -0.08277784 -0.05518802 -0.14966531 0.020836972 -0.11965148 0.14656663 0.08225263 -0.04821317 -0.15830909 0.02081238 -0.04240969 -0.01453798 0.06316905 0.073023945 0.107287966 0.006634887 -0.025501868 -0.14845252 0.053734716 -0.013058053 -0.15905027 0.059879836 -0.036043596 0.0013776565 0.065927014 0.1508893 -0.043070782 -0.15260915 -0.04734432 -0.10164954 0.18863171 -0.06673192 0.021611137 0.015559791 0.011825839 0.004847735 0.0063302866 -0.1716983 -0.20231201 0.34206763 0.00031444707 0.04869701 -0.11106385 0.023498217 -0.09187342 0.15895775 0.026783831 0.114647575 -0.11908804 -0.10603039 -0.21139863 0.027929524 0.049454097 -0.13125272 -0.020842943 -0.08956793 0.011332833
1286 -0.08495716 0.16135235 0.07589435 -0.15169139 0.056137003 -0.01700571 -0.068791576 0.12155455 -0.13482746 0.023741474 0.054096706 0.063912675 -0.07290426 -0.25107577 0.08808443 0.20741338 0.022354878 -0.16015132 -0.12655807 0.05164273 0.08812727 -0.09306093 -0.23471455 -0.038769726 0.117300265 0.0185791 -0.0667696 0.04440599 -0.004665089 0.018006714 0.18523479 0.091508016 -0.009603327 -0.15118308 0.016996076 -0.012003982 0.09466381 -0.034799244 0.20466392 -0.07859706 0.12860443 -0.031157805 0.03242428 0.001990798 0.011123576 0.044768743 -0.020677604 -0.112093255 -0.16623098 0.119993836 0.04087902 -0.0022524237 0.09581147 -0.02061792 -0.18928415 0.04209587 0.0022419344 0.031878687 -0.095913485 0.019509373 0.0010193425 -0.013189745 0.09843253 -0.14888431 -0.06867878 0.10269164 -0.15665574 -0.06134454 0.077998064 0.09868073 -0.05676914 -0.2354022 -0.13446194 -0.15003061 0.073568724 -0.16813354 0.07983242 0.009697404 -0.20078158 -0.07743405 -0.05540647 0.03504159 0.053547934 0.11374707 0.08909114 0.048969466 0.023896618 0.015922064 -0.22151212 0.047615353 -0.11888923 -0.24259612 0.050714917 -0.023883244 -0.021591099 0.16479631 0.20579988 0.05377789 -0.16717769 -0.107632555 -0.090408325 -0.0025835508 -0.022071326 0.014640811 -0.018392568 -0.019516896 0.04784016 0.014059265 -0.009963264 -0.11987602 0.16322748 -0.04358185 0.093530566 -0.11251628 -0.19552886 -0.027233513 0.023959106 -0.046982504 0.006000928 -0.17654508 0.0033323006 -0.11571142 -0.060455024 -0.023806522 -0.17382175 0.1260792 -0.03745245 -0.10294836
1197 -0.076662816 0.20873055 0.1221315 -0.008110892 -0.0834648 -0.120320864 -0.15773861 0.06536962 -0.18777181 0.14101766 0.043537617 0.05102637 0.033459455 -0.11469668 0.104799904 0.1802697 0.14148493 -0.043621242 -0.0749351 -0.07395431 0.16021778 0.032031663 -0.20677254 -0.09981435 0.089953385 -0.074781455 -0.04347017 -0.045650482 0.031000143 -0.07479783 0.06649053 0.0890223 0.09363513 -0.09476497 0.01327712 -0.12510242 0.077110894 -0.0178606 0.097354524 -0.123668306 0.00025739367 0.09925826 0.0067210575 0.069675736 0.05221284 0.051430747 -0.063280806 -0.007803303 0.05082753 -0.082356095 0.15711117 -0.059434395 0.214997 -0.026399143 -0.13219385 0.015069866 0.08985097 0.075205415 -0.1786662 0.038793694 0.056131117 0.0044301683 0.087438874 -0.12501223 -0.01915614 0.11588264 0.006872188 -0.10658492 0.15004158 0.11402483 0.12002897 -0.09318889 -0.15774737 0.020425072 0.09816306 -0.18441439 0.026295044 -0.06369537 -0.16173622 -0.13212068 -0.026336666 -0.019878287 -0.07112216 0.03365651 0.07712221 0.020154351 0.05653715 0.037964765 -0.15595044 0.053974036 -0.12070383 -0.29252678 -0.00061850855 0.011257006 -0.001427775 0.16772017 0.07403873 0.006980439 -0.10131076 -0.15720561 -0.11878016 -0.019787395 -0.04713376 0.093614094 -0.021594511 -0.019367183 0.023649711 -0.14382458 -0.038017403 -0.1721114 0.17380892 -0.04670521 0.0937903 -0.30260608 -0.06880431 0.038170055 0.19288541 0.0030820267 -0.052291956 -0.18654695 -0.037165154 -0.1472267 -0.052350417 0.02203056 -0.2878329 0.07205103 0.024255952 0.1341711
1199 -0.050048094 0.22167252 0.29272935 -0.16773658 -0.07129359 -0.17287448 -0.116122745 0.18246496 -0.03257555 -0.030432157 0.016655805 -0.0057606986 -0.020877274 -0.10420996 0.07347046 0.2722259 -0.020400446 -0.1275594 0.011040666 -0.06001817 0.06731498 -0.07620814 -0.18567139 -0.116284356 0.06494479 -0.10573114 -0.079893924 0.14792171 -0.05740809 -0.0585941 0.14496347 -0.039965075 0.12539177 -0.104427814 -0.024373382 -0.11984096 0.14051078 0.053388625 0.027983718 -0.010138513 0.12539065 -0.07383815 -0.054508526 0.005279498 -0.07570979 -0.014791389 -0.17770652 0.046351038 -0.109008975 0.021547467 0.058132112 0.05222577 0.15504965 0.08551563 -0.15914801 -0.042965196 0.077786975 0.0814486 0.019639274 -0.049852703 0.11060756 0.047065157 0.12489171 -0.07882818 0.004712497 0.05244253 0.0073966407 0.03944702 0.1043842 0.09919901 0.00050580787 -0.10937066 -0.1850237 -0.097699635 0.013720684 -0.021821657 0.2622975 0.100420415 -0.011653029 -0.13797353 -0.01562886 -0.06517262 -0.010308027 0.114473306 -0.0524151 0.099350296 0.012598623 -0.035972748 -0.21145129 0.065333076 -0.054896984 -0.20799093 0.033392902 0.0863048 0.0013597442 0.054206025 0.11038449 0.055485237 -0.21528521 -0.09547658 0.04880591 -0.00966965 -0.07488435 0.036105715 -0.035127502 0.06505093 -0.012171937 -0.09811615 -0.10621898 -0.18610166 0.12340434 -0.063004404 0.14903414 -0.097346835 -0.020775689 0.03428362 0.08971247 -0.040325597 0.020752147 -0.15742749 0.022848504 -0.2318888 0.010649757 -0.051306836 -0.25691715 -0.047478747 -0.08023082 -0.18053393
1189 -0.039154306 0.1850605 0.24133873 -0.111479826 -0.058878895 -0.06826349 -0.05862837 0.047196668 -0.01066445 -0.07304781 -0.056296814 0.19442095 -0.041470684 -0.31111726 0.091267355 -0.04722974 0.04838798 -0.17372265 -0.13544792 -0.038648926 0.07601959 -0.032742307 -0.025058137 -0.2395882 0.030260347 0.05453853 0.07502563 0.023016652 -0.0144959325 -0.058668554 0.11408618 0.0005112619 0.07494711 0.053294323 -0.0036961117 0.047903452 0.1311408 -0.16525322 0.0647003 -0.063821666 0.009163719 0.08111586 -0.019012779 0.078213245 -0.023963649 -0.012176066 -0.10965808 -0.069549955 -0.23807515 -0.18503293 -0.04775426 0.011096163 0.13766877 0.095840044 -0.19358824 0.014537362 0.10909541 0.049803015 -0.11690505 -0.18365633 0.11137548 0.07513581 -0.032587774 -0.041976057 0.0069406875 0.10873171 -0.036845762 0.010066373 0.063125014 0.09249997 0.05032702 -0.08180338 -0.07311056 -0.11683659 0.07846693 -0.057292342 0.07313471 -0.031935833 -0.0298368 -0.19188987 -0.05030597 0.070626296 0.0847745 0.08831193 0.16836295 -0.08501437 -0.10228196 -0.023703396 -0.1413851 0.13372369 -0.057276674 -0.19203399 0.065063514 -0.0025260258 -0.08628566 0.11893573 0.20373642 0.07115438 -0.1540387 -0.241965 -0.12668903 0.01923735 -0.04558425 -0.12798233 -0.1117518 -0.12379147 -0.009982413 0.10437484 0.023293264 -0.12482549 0.20301753 -0.024506737 0.21846709 -0.21490352 -0.005828508 -0.08502717 0.1610489 -0.021405961 -0.015964482 -0.040614303 -0.002234969 -0.26467198 -0.0042087757 -0.075789295 -0.14332776 0.18110241 0.17069982 0.18271075
1147 -0.07253571 0.11124892 0.16843037 -0.13692755 -0.1109294 -0.1432013 -0.044715762 0.34420606 -0.065273374 0.2506994 0.10032006 0.010799564 -0.13828467 -0.18346497 0.029442927 -0.020466622 0.0043193083 -0.047706034 -0.10100425 0.060828887 0.029945735 -0.07002495 -0.19436175 0.031666484 0.119810395 0.03476877 -0.06492274 -0.10428702 -0.004103084 -0.0030379398 -0.008986995 0.0011697095 -0.00025854574 0.09057596 -0.02366908 -0.102579094 0.15989792 0.124891646 0.11477282 0.015235723 0.008513822 0.07641915 -0.026382588 0.024919465 0.098777495 0.07756843 -0.051015962 0.0372721 -0.1648685 -0.07985772 0.012731708 -0.07015739 0.14053033 0.15214537 -0.089481175 -0.018998196 0.023553342 0.05550709 -0.08863555 0.011302079 0.14656122 -0.044533733 0.08267951 0.002253403 0.024096092 0.14971296 0.09003112 -0.06822015 0.13413307 0.02979174 -0.075881496 -0.053203955 -0.14762126 -0.15248355 0.008326109 -0.1878989 0.26031795 0.026293889 -0.009512376 -0.24560034 0.17878185 0.06227728 -0.045996852 0.008961238 0.18799976 0.077993855 -0.08548793 0.07177361 -0.055339396 0.039780244 -0.15190542 -0.035007596 -0.117364995 -0.118830875 -0.09770804 0.20844223 0.1495719 0.056913964 -0.13410127 -0.25246876 -0.09439515 -0.01873514 -0.08883657 0.013937934 -0.13889109 -0.031974725 -0.0068592685 0.00073872955 -0.07860976 -0.123123355 0.2193476 -0.05765758 0.112814404 -0.23487124 0.08025502 -0.13856146 0.2327587 0.011866644 -0.07850117 -0.20685169 -0.0372007 -0.08610754 -0.10615518 -0.091061324 -0.11291239 0.03787919 -0.029104952 0.017923107
1323 0.08050868 0.084690906 0.008429918 -0.09820366 -0.022702962 0.11371831 -0.19510642 0.27237204 -0.059610594 0.18637204 -0.030022603 0.010989111 -0.13424553 -0.23347403 0.10169035 0.10058899 0.16921812 0.0025480094 -0.061855398 0.03787804 0.12191589 -0.09125167 -0.084446326 -0.08955197 0.02618183 0.114594996 -0.077233 -0.09945105 -0.04854867 -0.016210578 0.05014651 -0.09768885 -0.0061775795 -0.06749622 -0.013242737 0.003139308 0.079336755 0.022701502 -0.016158275 -0.14109392 0.16898116 0.08819613 0.013986772 0.05879674 -0.047620058 0.21935147 -0.18340303 -0.27248532 -0.106657945 -0.042197227 0.12420098 0.1326423 0.20108002 0.060630873 -0.17304932 -0.01966996 0.10104767 -0.06262617 0.040811237 0.058440223 -0.009037328 0.0027957403 0.17375787 -0.19520491 -0.11515836 0.15394023 -0.008102251 -0.08773239 0.10496518 0.18919103 -0.12331918 -0.054105695 -0.06904672 -0.2693742 0.063024975 0.13527732 0.028575743 0.017118996 -0.09656453 -0.12939218 0.091901086 0.10952609 -0.05605982 0.06685711 -0.06281561 0.15199909 -0.002261928 -0.06344244 -0.2549919 -0.027005306 -0.0032144743 -0.24789831 0.122972876 -0.016775716 -0.0788669 -0.07323103 -0.029586878 0.13886742 -0.008002922 -0.045575973 -0.17473379 0.061116394 0.08673028 0.024705794 -0.009918635 -0.03169411 0.039785877 0.010696396 -0.16335285 -0.16979513 0.3326581 -0.096035816 -0.0034734095 -0.16263965 -0.015605816 -0.11090282 0.08135858 -0.053034607 0.06420545 -0.05492355 -0.10182024 -0.124483004 -0.03061244 0.027722748 -0.05663623 0.2113889 -0.018602468 -0.11717155
1368 -0.05723 0.20152837 0.16670515 -0.06430382 0.038238578 -0.02932645 -0.039586764 0.15347147 -0.047928084 0.1309432 0.024967408 0.04017382 -0.06275734 -0.22705683 0.2469413 0.12222795 0.1276427 -0.22566417 0.04020508 -0.027638461 0.047494467 -0.012915712 -0.015560881 -0.1250602 0.15350018 0.1061828 0.021374805 0.0148985395 -0.07168907 -0.15734571 0.0628781 0.010289807 0.052588444 -0.111619115 0.019862186 -0.10544139 0.037083644 0.046810657 0.09108505 -0.03758954 0.00283491 0.061135735 -0.081422895 0.18627088 0.013589769 0.064454585 -0.13116239 -0.14366995 -0.044632643 -0.13020739 0.1405529 -0.041261945 0.23886839 0.055557616 -0.15486242 0.02509107 0.11604237 0.142563 -0.073955 -0.049803227 -0.05664893 -0.09824999 0.23957413 -0.11248358 0.006590278 -0.008051206 -0.0034369705 -0.14362478 0.08593062 0.26168305 -0.0025488469 -0.16180225 -0.11397676 -0.07107333 0.066232055 0.01066059 0.067809045 -0.07658457 -0.040607367 -0.17459032 -0.023997856 0.0063553443 0.049367804 0.119941175 0.013719628 0.094061255 0.1053818 0.022940755 -0.09756548 0.092508316 -0.097379275 -0.15307623 -0.099237695 0.072423235 0.012205896 0.20751789 0.120668255 0.019491281 -0.12489698 -0.17054275 -0.07084993 0.08360973 -0.07972428 0.044307478 -0.12944637 -0.090442486 0.0053729755 -0.010113627 -0.0655101 -0.14435658 0.29646635 -0.021058641 0.04628376 -0.17052092 0.048161812 -0.122131765 0.13648467 -0.05269601 -0.03293654 -0.054729108 0.18167806 -0.026000388 -0.039412964 -0.06593748 -0.11653989 -0.049974646 -0.0057696607 -0.0326525
1283 0.05645653 0.102402344 -0.037034422 -0.08035543 -0.10601415 -0.019409342 0.024544368 0.2457372 -0.124732114 0.10589464 -0.2239771 0.055423774 0.04982007 -0.24037509 0.03730349 0.08381388 -0.14070678 -0.23027149 -0.07397759 -0.07612776 -0.080975085 -0.070140064 -0.33160946 -0.0181869 0.100311846 -0.056453582 0.03266872 -0.16247751 0.14477344 -0.20362061 -0.15545698 -0.14253025 -0.075950556 -0.14170623 -0.0009588016 0.06966042 0.12867004 0.1140357 -0.10478873 -0.02680377 0.17771225 0.17433271 0.044671495 0.050321877 0.22960722 0.0702826 -0.30368587 -0.12760937 -0.20122749 -0.20206687 0.1597149 -0.13862306 0.123587735 0.24808292 -0.09423484 0.11044368 -0.044770084 -0.04487373 0.14601783 -0.055770554 -0.1483103 -0.045088198 -0.0030264026 0.022777578 -0.17049275 -0.026421534 -0.14003904 -0.020045329 0.12075763 -0.016950216 0.044513162 -0.010858187 -0.013165026 0.040780254 -0.014824891 0.07679526 0.09825747 -0.22201324 0.09024224 -0.07832686 -0.021815578 0.067893565 0.041096672 -0.029686376 -0.10963266 -0.043815758 0.021282157 -0.088757485 -0.32102612 0.09337898 0.028580504 -0.24981014 0.15152903 -0.07820647 0.02634643 0.15240917 -0.019435178 -0.11855962 0.04856648 -0.2408654 -0.1705581 0.07466314 0.014877011 0.10082105 -0.11657268 -0.06594857 0.27397344 -0.004937626 0.110688426 -0.032469377 0.03561659 -0.08557108 0.113638476 -0.13404652 -0.049150016 -0.09678185 0.15157579 0.051379174 -0.0914624 -0.162889 0.03074797 -0.04916188 -0.10159992 -0.048030436 -0.117450036 0.054500036 -0.023575269 0.03388169
1356 -0.0070933606 0.120112985 0.19858918 -0.009996486 0.040011782 -0.06760302 -0.16917378 0.094883375 -0.022073047 0.14498255 0.14131355 0.11480839 -0.037579346 -0.078008235 0.14400373 0.14479709 0.06134874 -0.18252882 -0.021429697 0.04501864 -0.0027570457 0.0076889507 -0.33631223 -0.054051645 0.083671 0.088425815 -0.103313476 0.10145276 0.062926054 0.007895308 -0.02306046 0.029731762 0.14128521 0.056920096 -0.103398554 -0.08329993 0.1929029 0.0126610845 0.029045446 -0.09406566 0.08402333 0.046971854 -0.0060938527 0.06998986 0.08108894 0.13227561 -0.08579799 0.0012501747 -0.06664173 0.004829798 0.14301027 -0.02594049 0.07615602 0.03321193 -0.18351445 -0.0012938975 0.10317396 -0.057547998 -0.086809635 -0.002014925 0.046366222 0.026719565 0.20074755 -0.0871317 0.029160565 0.008456018 0.07357162 -0.11302021 0.10296764 0.16525382 -0.13979307 -0.06384883 -0.13570149 -0.24683788 -0.008448297 -0.08171982 0.10894817 0.014623399 -0.061382264 -0.11084126 0.00789721 -0.040841486 -0.032734893 0.15512246 0.07692757 0.06310363 0.062050667 -0.09602794 -0.2612082 -0.01638933 -0.10954373 -0.14012258 0.047535617 -0.06304106 0.009572352 0.09027307 0.10149125 0.0771827 -0.018161405 -0.1475217 -0.07170305 0.09083466 -0.029665554 0.0048160846 0.031599853 0.00989403 0.047384594 -0.0919026 -0.10688654 -0.15290882 0.16046482 -0.0015666623 0.12432807 -0.12738997 0.035961036 -0.014222226 0.18932003 -0.021880059 0.0054752226 -0.20917414 0.05223976 -0.096975 -0.066012435 -0.03827041 -0.14761485 -0.051733833 -0.046499398 0.02148927
1259 0.06106612 0.13309377 0.15938504 -0.10876879 0.023557166 -0.049254294 -0.15468408 0.25660247 -0.10319443 0.06940684 -0.05947628 0.0040251915 -0.01044448 -0.27218217 0.045749664 0.130554 -0.1392624 -0.07096189 0.03696148 -0.12976088 0.09318306 -0.11752078 -0.11025401 -0.2020075 0.023806863 0.0032501612 -0.101090096 0.035312776 0.06794145 -0.07946766 0.0432063 0.09822344 0.16423339 -0.056463204 0.0037870146 -0.15982455 0.13668482 0.11461505 -0.0020803676 -0.06792976 0.021458067 0.050814033 0.067086995 0.06875118 0.08913501 0.13252309 -0.11621732 -0.012381912 -0.02088515 0.02792181 0.095375605 -0.049208496 0.18255806 0.19603884 -0.12405816 0.07238871 0.11425634 0.14283815 -0.08119005 -0.040700547 -0.009522404 0.044153616 0.07771314 -0.093021795 -0.14679377 0.09717467 0.027715154 -0.0019048206 0.06828466 0.05758934 0.018715488 -0.035999425 -0.17536597 -0.046438936 -0.039761595 -0.05317272 0.1016964 0.012228651 -0.045125492 -0.0018240311 -0.00152623 0.027873332 0.0020690183 0.0029944486 -0.037505556 -0.021971328 -0.07989782 -0.052096568 -0.19355221 -0.03709419 0.019650623 -0.20340692 0.008824158 -0.039272126 0.036514763 0.12508814 0.018485405 0.08559966 -0.1500119 -0.15359588 -0.06962851 0.06266414 -0.05642774 0.013685476 0.054718327 -0.052036863 -0.20681794 -0.09192453 0.019958602 -0.17496605 0.31813765 0.020733792 0.13603532 -0.15383564 -0.053401824 0.004777133 0.16103435 -0.006979218 -0.012153032 -0.12029157 0.0066841254 -0.19750719 -0.07136803 0.028366826 -0.15802142 0.011184287 -0.030903267 0.021815088
1200 0.06921873 0.23595525 0.16015866 -0.03362733 -0.0364612 0.025324522 -0.07199227 0.0054563144 0.010824816 0.06669314 0.0037889301 -0.13435036 -0.053493995 -0.1257422 -0.036920626 0.010090278 0.050204217 -0.13237427 -0.10637494 0.046696506 0.13972458 0.02135206 -0.17154597 -0.07064517 -0.0197196 -0.014095051 0.0005094325 0.059441186 0.069809526 0.04806564 0.078098156 -0.046468817 0.122641146 -0.19471838 0.08397154 -0.16036916 0.24346533 0.066885665 0.06664935 -0.17246868 0.122122645 -0.036062595 -0.025596218 0.077722736 0.06904156 0.25262967 -0.07098908 -0.16673675 -0.15453911 -0.0015437029 0.061658446 -0.045434568 0.016220326 0.13666862 -0.15985394 -0.12093211 0.11450584 0.08170498 -0.013782441 -0.012715438 -0.11989035 0.018258883 0.119706385 -0.12824345 0.041511428 0.1862985 -0.07722847 -0.020671323 0.19119515 0.09665932 -0.0018479386 -0.19858034 -0.22034146 -0.18589881 0.046525836 -0.09983973 -0.0077486327 -0.0030825324 0.040345762 -0.036146358 -0.034180094 0.042415135 0.009307974 -0.033704817 0.0053015207 -0.00036025725 0.07305365 0.009574963 -0.23293155 0.07531094 -0.078376524 -0.22998667 0.054676652 0.077212945 -0.062915295 0.026486017 0.094963714 0.019056657 -0.0864692 -0.17381072 -0.1534255 0.034390416 -0.11110336 0.044215154 0.01954212 -0.0980232 0.064748086 0.026125168 -0.005325942 -0.054556184 0.12969005 -0.1136963 0.21571887 -0.13296111 -0.038046367 -0.16106413 0.105773546 -0.13948098 -0.0067851697 -0.19061697 -0.06597643 -0.14026 0.029474996 0.10557993 -0.25462955 0.01366672 -0.093852326 0.054168243
1085 -0.024090402 0.07937752 0.07185317 -0.048633683 0.040712524 0.010667249 0.008464666 0.035209205 -0.109093934 0.005952578 0.03982797 0.0035174135 -0.06585618 -0.2616914 0.12622955 0.05559682 0.03769712 -0.13790905 -0.08875246 0.12868582 0.016562682 -0.018461416 -0.17855829 -0.12633234 0.063514605 -0.07280388 0.19053483 -0.044586234 -0.017097892 -0.073497355 0.08050792 -0.12691401 -0.024918389 0.034884274 -0.0455364 -0.2862258 0.16124709 0.0965066 -0.121747896 0.025978463 0.07556117 0.020530535 -0.13558137 0.005119147 -0.023428448 0.10931032 -0.21187645 -0.20362288 -0.20540231 -0.01045072 0.07038735 0.03897265 0.1086042 0.12549941 -0.043807443 -0.009528863 0.05193649 0.023892198 -0.128687 -0.14453945 0.0018640455 0.044096045 -0.06214557 -0.05624747 -0.12284909 -0.031092256 0.10552836 -0.11932285 -0.09258835 0.019153068 -0.10610338 -0.016950836 -0.07920733 -0.14895904 0.10774737 -0.05085947 0.14237663 0.04362749 -0.22086403 -0.19627972 -0.08049724 0.030220602 0.094001845 0.06073283 0.041391853 0.07534617 -0.22149038 -0.052780733 -0.13003892 -0.015450331 -0.0035963953 -0.18529658 -0.029168189 -0.08611718 0.031775776 0.08212992 0.044727907 -0.008532395 -0.11606362 -0.13297626 -0.054900933 -0.061180435 0.0006043875 0.10968269 -0.050563004 -0.0739542 0.012520855 0.09204452 -0.061988965 -0.29743055 0.4267537 -0.13560225 0.17038724 -0.15575041 -0.13169079 -0.13410446 0.08564472 0.042001277 -0.015833903 -0.136351 0.01677986 -0.22268803 0.038044993 -0.052669458 -0.22892588 0.031299826 0.03432256 -0.022236496
1352 0.025384445 0.087562785 0.11758384 -0.04116635 -0.02685157 0.0066928333 -0.09887899 0.18212853 -0.02756543 0.055302422 -0.02707237 0.108134 0.02072575 -0.112247184 -0.00941034 0.18766166 0.08833643 -0.20008194 -0.03221395 0.028428193 0.24515624 0.008225215 -0.22877574 -0.12543269 -0.04148022 -0.035322618 -0.13975874 0.004685872 0.15275371 -0.009764869 0.07771983 -0.07359521 -0.06598655 -0.16385803 0.02587562 -0.19638403 0.27978423 0.11959363 0.05467648 -0.06848355 -0.0016638893 -0.016199503 0.0008345891 0.22162887 0.17314833 0.1881594 -0.087730564 -0.031394195 -0.04911281 0.024799056 -0.03193419 0.006505521 0.21387625 0.10426789 -0.23354335 -0.12527066 0.09605953 0.103095636 -0.05057736 -0.05735485 0.03239133 -0.06639403 0.15809804 -0.17234935 -0.027076934 0.1127025 -0.0370868 -0.032703865 0.063247666 0.10229984 0.017704684 -0.106400914 -0.15163521 -0.11992831 -0.006431309 -0.077647425 0.10023529 0.06294391 -0.10272441 -0.20681654 -0.008458035 -0.006374839 0.05250698 0.052014094 0.09602076 0.10803236 -0.05195022 -0.018453866 -0.11041305 0.00044460772 -0.0042391433 -0.246068 0.00584432 0.025955107 -0.12848729 0.11747696 0.02779588 -0.00430226 -0.21983905 -0.23604168 -0.2580881 -0.07844937 -0.052573975 0.06580778 0.021427786 -0.08121731 0.02134845 -0.0006041896 -0.051518627 -0.13177407 0.08880963 -0.017273169 0.09828553 -0.10106811 -0.05590196 -0.12729086 0.006634109 -0.076166905 0.026392994 -0.088861264 0.06320518 -0.14083283 -0.1013795 0.07608972 0.0019881527 0.05712405 -0.011424695 0.030957446
1262 -0.11415104 0.1653973 0.16652031 -0.09658229 -0.030138228 0.046094444 -0.15272568 0.16310222 -0.12292006 0.0894079 -0.14336766 0.0033440648 -0.12025162 -0.22716577 0.07862343 0.08963695 0.09157979 -0.17615335 0.084622756 0.033566393 0.048577383 -0.036806248 -0.26076484 -0.17096494 0.07694782 -0.05226618 -0.014282261 0.015601148 0.04393686 -0.1179872 0.17879611 -0.0034644417 0.015256401 -0.027423872 0.072890855 -0.018487178 0.1597303 -0.09058258 -0.12032966 0.057369813 0.171621 0.071194954 0.012003797 0.07377704 0.091855764 0.13575836 -0.25464648 -0.04053984 -0.0710179 0.022243306 0.028836075 -0.018207585 0.24259256 0.13178277 -0.119094364 0.04939234 0.030429646 0.08910789 -0.12161855 -0.01883266 -0.089414515 0.09027185 -0.025991226 -0.0059390846 -0.0649553 0.08046415 0.024167024 0.121808335 0.08348314 0.16540009 0.04570123 -0.078554794 -0.15084367 -0.17920135 0.13715698 -0.14930816 0.09434075 0.07111041 0.012774438 -0.1214809 -0.0151678575 0.09947297 0.06798333 -0.002385318 -0.060729664 0.034089636 0.052900266 -0.0478627 -0.15811433 0.0005410144 -0.016906807 -0.15174161 0.083364874 -0.030494725 -0.001555254 0.26505756 0.08106083 -0.008107372 -0.07494883 -0.12733081 -0.10154111 0.07297401 -0.019350452 -0.060106967 0.056000076 0.048899345 0.010113336 -0.000984524 0.0056068883 -0.04777956 0.22250597 -0.03533331 0.051645312 -0.15462321 0.10236315 -0.22014394 0.15131418 -0.052674145 -0.022576608 -0.059247233 0.09060677 -0.14295103 -0.11830802 -0.062012125 -0.12806937 0.10054998 -0.06242841 -0.017012542
1226 -0.021528773 0.20741805 0.15797275 -0.09968349 -0.062670514 -0.08555316 -0.19735661 0.1159067 -0.16886501 0.05501438 0.09928331 0.19284303 0.04599566 -0.117053434 0.07886373 0.08934595 0.11888858 -0.0661571 0.026690189 0.034039136 0.040020578 0.056534424 -0.22412021 -0.1945976 0.09808709 -0.047355447 -0.02513178 0.118699074 -0.08404579 -0.03778865 0.171656 -0.11529389 0.12958115 0.007952321 0.0403151 -0.12669432 0.3168541 0.0071694907 0.009310528 -0.052837398 -0.06909421 0.03546876 -0.10587025 0.061278347 0.13001844 -0.1634522 -0.15354586 -0.011081663 -0.18204948 -0.021841977 0.0005448835 0.058372114 0.100199714 0.10204345 -0.18720052 0.020017335 0.11773994 0.025934309 -0.077653006 -0.07211378 -0.028394138 0.06505942 0.06361317 -0.16655669 0.051329948 -0.024378475 0.07582917 -0.025785778 0.18539497 0.07629719 -0.18881336 -0.09604364 0.037546974 -0.12199068 0.03427212 -0.08515889 0.018016733 0.011819367 -0.12624303 -0.08060019 0.04609386 0.1793805 -0.10656575 0.15354487 0.03703831 0.001989381 0.11193524 -0.103818074 -0.2621616 -0.08886716 -0.07140062 -0.09218336 0.06748946 0.07881572 0.07536332 -0.15218706 0.08023127 0.15671702 -0.020061843 -0.121293604 -0.116019376 -0.099419996 -0.053026 0.05191953 -0.05113268 -0.072327115 -0.07656931 0.033695728 -0.08433813 -0.23551185 0.19913338 0.11623236 0.14802594 -0.07919019 0.044364788 -0.1418961 0.20718499 -0.030102115 0.1235313 -0.30531672 0.016972922 -0.17313296 -0.10347926 -0.013834802 -0.117766246 0.14493772 0.035734817 0.013475916
1073 0.08603259 0.13628711 0.18174514 -0.015357944 -0.026962109 -0.1359362 -0.07883932 0.07779591 -0.043929763 0.08020636 0.026086893 0.04772895 -0.11171028 -0.29032895 0.13154405 0.1391364 0.048261136 -0.12774067 -0.028282179 -0.1723726 0.11581971 -0.029652305 -0.18980777 -0.006972681 0.013043263 0.026687583 0.033062607 -0.031428255 -0.052234977 0.12737943 0.02926042 0.037698492 0.03851363 -0.019555444 0.031549774 -0.14188018 0.057695694 0.07395473 0.119955815 -0.03332687 -0.046715494 0.05469059 -0.001136336 -0.018365387 0.11114011 0.070464775 -0.100578725 -0.09299211 -0.18026832 0.022062982 0.11531047 -0.26725656 0.07450401 0.18277599 -0.07090255 0.036328584 -0.053645357 0.187756 -0.14044107 0.07808687 -0.026131006 0.061277226 0.1301982 -0.17389107 -0.084552005 0.029744346 0.10529409 -0.08459657 0.070103556 0.16724536 -0.13517055 -0.15918452 -0.09111316 -0.20267354 0.025563687 -0.13314515 0.12625235 0.08119634 -0.13001555 -0.09623375 0.042206973 0.082361236 -0.0056718215 0.07780534 -0.07005272 0.03665986 0.023940653 -0.12060493 -0.14027071 0.09853932 -0.06096331 -0.16824745 0.08686113 -0.012235739 -0.076855585 0.19045387 0.22961465 -0.0009915569 -0.14163376 -0.18981904 -0.085462116 -0.10431815 -0.07985991 0.14532095 -0.07640426 0.029255157 0.14964347 0.04474625 -0.048034236 -0.15063016 0.1970863 0.028740762 0.21423833 -0.12607908 -0.057628 -0.058522705 -0.009879357 -0.11826352 -0.0012634061 -0.100002974 0.03586145 -0.012913072 -0.008339067 0.030171873 -0.14594273 0.014963294 -0.04115169 0.030867476
1089 0.21354672 -0.113230675 0.122671895 0.06771865 -0.052327417 -0.13846245 0.09519764 0.09664332 0.09341258 0.23554751 0.19277363 0.032329313 0.0033341458 -0.35308397 0.11798705 0.086807474 -0.06440187 -0.048219077 -0.07826574 0.20955063 0.092057556 -0.1689416 -0.3403167 -0.24033412 -0.09940283 -0.16560125 -0.14657147 0.23078002 -0.054994453 -0.170564 -0.022082327 -0.036922112 0.06275678 -0.0008190832 0.12231267 -0.067097224 0.2079391 0.05887661 0.078867406 0.042988703 -0.0052698352 0.19367565 -0.07162768 0.019568518 0.2735886 0.092471495 0.10957604 -0.034478 -0.11990426 -0.05237649 -0.08524917 -0.087796815 0.17415094 0.023904962 0.0430022 0.11423389 0.059933737 0.13329875 0.0402854 -0.09373724 -0.16522457 -0.05820308 0.18372099 0.010535342 -0.17439885 0.15725729 0.17953636 -0.046111252 -0.06102202 0.010426934 -0.025185203 -0.014061546 -0.033567086 -0.03228697 0.16358022 0.14924629 0.090232365 -0.048237123 0.030974424 -0.121342085 0.010138907 -0.015620847 -0.02166579 0.15146104 0.14962398 -0.22680236 0.007423733 -0.050526727 -0.23109835 -0.15176162 0.044709794 -0.07707692 0.12601821 -0.05951384 0.037093513 0.047836095 -0.009165757 -0.1648759 -0.1896664 -0.14060014 -0.14439194 0.18709911 0.09635124 0.11621828 -0.07234364 -0.025422195 0.2125041 -0.022405809 -0.2233469 -0.191147 0.28153634 -0.042299822 0.23519486 -0.037747175 -0.14551827 -0.09931132 0.23823571 0.057360172 -0.111179866 -0.16368476 0.06678525 -0.036091425 -0.060835786 -0.080892846 -0.29465455 0.035621695 0.14204247 0.13309747
1406 -0.016640855 0.18289259 0.25028062 0.10160588 -0.021288477 -0.088569894 -0.08473259 -0.16761714 -0.014885902 0.34503806 0.14054197 -0.0678935 0.2366592 -0.29633313 0.023957023 0.14281197 -0.031970654 -0.035883304 -0.04271234 0.06792284 0.06968047 -0.16225907 -0.18452759 -0.27970988 0.11307127 -0.020355811 -0.03677978 0.11674137 0.033493895 -0.14664021 -0.03435356 -0.23122562 0.027475368 0.065390415 -0.03685298 -0.06117695 0.17230412 0.12700687 0.21368264 -0.071590275 -0.021624759 0.281478 -0.017021595 -0.037477016 -0.06976919 0.007145002 -0.15053539 -0.10630003 -0.2675985 -0.15965322 -0.112501785 -0.09907585 0.13151462 0.105218545 -0.044444818 -0.08044406 0.057540707 -0.009778999 -0.12371327 0.0216821 0.07554063 -0.06266503 0.18010734 0.051719643 -0.026987446 0.12673485 -0.016954534 -0.30512798 0.024917359 0.15020792 -0.026466934 0.12175367 -0.27280113 -0.06466057 0.1316349 -0.106191814 0.003306634 -0.06513379 0.024231726 -0.004819974 -0.00664451 0.10808218 -0.12064968 -0.04706931 0.000905109 0.06151083 -0.1251537 -0.05661409 -0.22614634 -0.11258925 0.07716115 -0.21172062 0.024937183 0.0916354 -0.035801265 0.06385414 0.10571617 -0.09763479 -0.08842207 -0.20231114 -0.1274643 -0.03279233 0.09573775 -0.110003725 0.004238778 0.19396481 -0.19022182 -0.0028786296 0.00072105916 -0.11337817 0.29092288 -0.026177386 0.13537955 -0.10162602 0.16651657 -0.08819972 0.13682301 0.1096054 0.031767488 -0.061192535 0.09710201 0.039619528 -0.1449555 0.050618727 -0.37513477 0.20724858 -0.03996818 -0.088267654
1101 0.07160355 0.1623142 0.18254456 -0.12636295 -0.022301499 -0.00034539818 -0.19158159 0.25942093 -0.071817555 0.118561655 0.008421152 0.08355599 0.044410896 -0.22965729 0.007225401 0.053767636 -0.023893647 -0.07759653 0.016417406 0.09091349 0.06346789 -0.04964655 -0.24329536 -0.25681204 0.02686038 0.07105401 -0.098374434 0.031769153 -0.06287975 0.041310772 0.013739669 0.014371849 0.015128895 0.0069145723 0.028108057 0.096984334 0.22388008 0.070053495 0.14276914 -0.0032235964 0.007227393 0.18258062 0.028481621 0.09049838 0.11484453 0.064803064 -0.110599965 -0.07727726 -0.08176756 -0.023910055 -0.042510785 -0.033433292 0.15328804 0.025955923 -0.19196376 0.051319316 0.03152854 0.09557372 -0.029314017 0.03211603 -0.0048521245 -0.08215966 0.086919785 -0.014143188 -0.10651693 0.019567467 0.11226408 -0.11982492 -0.010495251 0.07134815 0.102044724 -0.061487615 -0.09980825 -0.15824059 -0.12974823 -0.14090152 0.084541135 -0.015901856 -0.14023107 0.022422073 0.051192667 0.0048045022 -0.02881303 0.15781046 -0.058563855 0.026995353 -0.051115554 -0.06631045 -0.20060739 0.056793977 -0.03901585 -0.2681282 -0.07727069 0.04410161 0.10531195 0.021036748 0.2646735 -0.07340949 -0.02886768 -0.11105574 -0.08539045 0.056380734 0.0047167395 0.06597185 0.08436256 -0.07836537 -0.11914161 -0.0031897882 -0.15218772 -0.14925642 0.21704574 -0.07478806 0.11465517 -0.1877509 -0.028914576 0.0014440105 0.0007761945 -0.042263143 -0.09979381 -0.26030752 -0.0052045425 -0.14205469 -0.13518105 -0.016681418 -0.16241235 -0.119872734 -0.11516136 -0.055743523
1325 -0.104816675 -0.0020012662 0.27919227 -0.17343523 0.1082332 -0.08916288 0.061823096 0.32557797 -0.05922407 0.013654051 -0.054853518 0.29556724 0.08163975 -0.18153316 -0.09820703 -0.11539177 -0.02580372 -0.26790363 -0.24998915 0.21626216 0.27570078 -0.025737837 -0.13904499 -0.16455127 0.021693222 0.17473003 -0.028677845 0.15741985 -0.0226719 -0.28779334 0.033820923 0.053949136 0.27562478 -0.115583666 -0.05288526 0.35648194 0.139325 0.28441277 0.081870474 -0.049666338 0.20754184 -0.025833327 -0.017689973 -0.08945715 0.14517765 0.26966813 -0.17797801 -0.1691518 -0.11892436 -0.32760832 0.006706496 0.048722744 0.118751496 0.01852404 -0.034789886 -0.15477812 -0.063209295 -0.07665066 -0.22160481 -0.16112629 -0.18626621 0.20358992 0.1382111 0.20183073 -0.19265506 -0.17259008 0.08283971 -0.2890211 0.13653947 0.06703096 0.039831482 -0.15246618 0.2002408 0.09122131 0.020343121 0.14331049 0.113428846 -0.17306463 -0.123424016 -0.20271777 -0.07010859 -0.087374054 -0.2824715 0.027692245 0.0738248 -0.3426683 0.19766697 0.025433136 -0.19301306 0.1563895 -0.17319416 -0.09369288 -0.13474964 0.008664624 -0.012899542 0.046162877 -0.03266673 0.09556444 -0.05524156 -0.55158067 -0.052445382 -0.015087138 0.061733086 0.15077583 -0.09149573 -0.11590408 -0.042886127 0.25096408 -0.08068638 -0.09807154 0.22032987 -0.042267334 -0.05129731 -0.068035066 0.24985193 0.17723861 0.14653112 -0.07556659 -0.2040782 0.07795297 -0.02078006 0.0007645213 -0.15049645 0.05791598 -0.08142528 -0.07778062 -0.0105915405 0.10924318
1398 0.23379824 0.28196645 0.14075156 -0.060997665 0.15023905 0.029064678 -0.005984282 0.2164167 0.00037836877 0.14613654 0.032899518 0.3967703 0.16685754 -0.1343847 -0.030043108 0.116451845 0.040024754 -0.07834544 -0.30783036 0.07121509 -0.08144796 -0.24540018 -0.061416883 -0.13107687 0.06676593 0.048690524 -0.11341288 -0.039371695 -0.03630459 -0.4153206 -0.051762037 -0.011224191 0.14194496 -0.14842887 0.025700958 0.018236179 0.09397125 -0.008065246 0.0571925 -0.096199006 -0.03906657 0.1670858 0.030255359 -0.07344166 0.1088943 0.14394207 -0.20735687 -0.09085649 -0.17728853 0.04929347 0.10410203 0.099223934 0.19661835 0.056200963 -0.09346661 0.040241357 0.26030198 0.08136211 -0.08497682 0.17965277 -0.09035639 0.0011526613 -2.9400668e-05 -0.00055408257 -0.25512585 -0.025446387 -0.005148811 -0.0014860644 0.12747547 -0.03904828 -0.06818281 -0.015029894 0.0042574643 -0.11301384 0.19683869 0.23559946 0.013086779 -0.17629078 0.11062652 -0.018472439 0.015001448 0.34382963 0.0959634 0.122930266 0.12200556 -0.23274352 -0.14489003 -0.01801213 -0.39887336 -0.03944407 -0.063158505 -0.021736061 0.04638725 -0.020030582 -0.13971733 0.070252664 -0.066525094 0.12768064 -0.07843475 -0.27880454 -0.16045548 -0.05175381 0.15599856 -0.06677462 -0.008902955 -0.01671616 0.035386827 -0.002789207 0.1037126 -0.20653024 -0.0805167 -0.034754265 0.26060203 -0.05389373 0.06973295 -0.15877905 0.38343814 -0.0072841235 0.046779424 0.049055286 -0.027220514 -0.050019708 -0.0341928 0.073630914 -0.088805914 0.15747507 -0.022066787 0.16484378
1339 0.05218051 0.03836341 0.16851632 -0.09480379 0.09103314 -0.07675349 -0.1434542 0.17960429 -0.050765388 0.1459525 -0.009240113 0.09742325 -0.01713047 -0.11159279 0.0018707407 0.09167837 0.06476467 -0.016725494 0.038831472 -0.074640594 0.16190216 -0.14582446 -0.15440366 -0.06985441 0.21323656 0.10477891 -0.040319633 -0.011576953 0.28628752 -0.070124276 0.11974135 0.12503415 0.06775115 -0.15627474 -0.07031233 -0.07940616 0.2125094 -0.045702945 -0.060206294 -0.15976734 0.061542507 0.026490074 0.05314002 0.0976539 0.023911916 0.14504966 -0.07292782 -0.026742106 -0.10576288 0.08923847 0.15279962 0.06347942 0.1265941 0.046454735 0.039239626 -0.11156199 0.13178875 0.12558077 -0.060176324 -0.08728275 -0.032252464 0.0054505924 0.11979573 -0.083885156 -0.0065766866 0.05885172 0.015215554 -0.15407918 -0.04256412 0.13619842 -0.1791994 -0.29015788 -0.18336904 -0.1079737 0.1311802 -0.11514491 0.14820556 0.007606964 -0.03930235 -0.11584715 -0.044449955 0.048765793 0.020349301 0.066165395 -0.0008172808 -0.046363145 0.035635114 -0.07264716 -0.26360407 -0.033952367 0.09553676 -0.20595165 -0.049484678 -0.04744145 -0.042897966 0.1949011 0.041100554 -0.026595462 -0.046716165 -0.21460082 -0.015307266 -0.124085315 -0.08574007 0.15255174 -0.15755644 -0.10566177 -0.11843538 -0.12989347 0.12255408 -0.13313836 0.26504567 0.047095057 0.243208 -0.07616129 -0.14573848 0.00641879 0.10175315 -0.1857483 0.01674706 -0.12417713 0.022856383 0.023218889 -0.027393471 -0.06559999 -0.19460483 0.033188824 -0.045135424 -0.12097135
1055 -0.03376222 -0.011565423 0.043323107 -0.30326372 -0.15754296 -0.014436178 -0.13685331 0.019551411 -0.13412939 0.08702851 0.14206347 -0.0040398273 -0.07508166 -0.14353804 0.0018215798 0.27982095 -0.08497017 -0.28415665 -0.046286684 -0.107210055 0.24472642 -0.03120235 -0.011969157 -0.19910628 -0.06394779 0.00031980072 0.12999362 -0.05038954 0.016176358 -0.027954008 -0.058699593 -0.3292535 0.18573855 0.0109927505 -0.019137483 0.10150581 0.18064992 0.06846789 -0.007942735 0.03679276 -0.008345862 0.12132968 0.04360724 -0.10147502 0.2079467 0.10544793 -0.15497908 -0.042309728 -0.08003612 -0.12935589 -0.07490299 -0.08398059 0.03898049 0.20652157 -0.06374247 -0.12730938 0.10979214 -0.07452015 -0.029888531 -0.1601066 -0.046849698 -0.07404781 0.03280152 -0.10370165 -0.36315492 -0.031367783 -0.031273395 -0.0607841 0.22322764 0.13105094 -0.023034014 -0.2594526 -0.1367123 -0.16857305 0.0693943 0.18202215 0.09857062 -0.083809234 -0.032778427 -0.05324371 -0.042600095 0.254874 -0.07568492 -0.16927116 0.01563655 -0.028117683 -0.05274443 -0.23844337 -0.18981917 0.1738618 0.07606633 -0.22789295 0.05034342 0.039286092 -0.13115175 0.1834423 0.13879898 0.0943814 0.020413024 -0.20628954 -0.08686628 -0.01641567 -0.052271407 -0.018915137 -0.10082455 -0.095384836 0.03695852 -0.06726313 0.042104587 -0.038454432 0.117288165 -0.16406928 0.15410171 0.030234525 -0.13355768 -0.18450235 -0.0033798148 0.033216678 0.08265911 -0.21422137 0.07432609 -0.11049712 -0.25390175 0.033475194 -0.08512072 -0.04604984 0.0651859 -0.079444736
1246 0.12470887 0.1020461 0.07078853 -0.12934263 0.0034853322 -0.07560924 -0.21059538 0.090500936 -0.01871351 0.1103004 -0.056156 -0.036542427 -0.020338196 -0.29803988 0.03600849 0.18365958 -0.0455887 -0.09077021 -0.08822585 0.07320863 0.20992371 0.064660236 -0.09163796 -0.13617247 0.08445486 -0.02440002 0.094873816 -0.028715428 0.0803644 -0.08803003 0.01100493 -0.11860743 0.12939353 -0.122851945 0.13118297 -0.17173728 0.17210773 0.028788026 -0.15665832 0.07674589 0.061944775 0.11290191 0.0589904 -0.027732192 0.12156982 0.15230004 -0.07605095 -0.16824013 0.04999172 0.0499228 0.0962446 0.09756183 0.04848209 0.18485703 0.022775091 -0.081704125 0.19320416 0.113155924 -0.039888214 0.0678841 -0.12614581 -0.12269691 0.11154845 -0.016618486 -0.0556494 0.092280515 0.035121076 -0.027998647 0.015617842 0.11349907 -0.00620528 -0.121691935 -0.19410124 -0.057514038 0.051023453 -0.18916097 0.1966428 0.11512846 -0.011913533 -0.28481117 -0.0030655165 -0.014183065 0.026337983 0.14604636 0.11734776 0.17962857 0.084659204 -0.07578949 -0.05151574 -0.11183733 -0.029533159 -0.0081583 0.042520627 0.021905992 -0.062193446 0.1163094 0.17428432 0.042868376 -0.026017478 -0.2974443 -0.09515789 0.03929333 -0.01143824 0.1043906 -0.0017600561 0.039051097 0.077156015 -0.17923632 0.050836656 -0.19003062 0.21787545 -0.20539011 0.24090423 -0.2223858 -0.0528051 -0.03873183 0.15074229 -0.2430509 0.012387392 -0.14505127 0.09291863 -0.042813923 -0.042892765 0.04723928 -0.14245018 -0.1492106 -0.08823233 -0.14022963
1341 -0.041490432 0.22251874 0.11961368 -0.037905127 0.01899894 -0.005125738 0.24694711 0.08995782 -0.05233244 0.25664306 0.107757896 0.038037226 0.0868811 -0.12405469 0.105947174 0.14484936 -0.001763279 -0.19591822 -0.25011957 0.043189093 0.13793126 -0.21186022 -0.08267514 -0.08341505 -0.14594193 0.006205138 0.10645116 0.06664097 -0.09679587 -0.084068604 -0.2126996 0.0066786157 0.07563634 -0.35116202 -0.011024488 0.24339019 0.39287886 0.31054333 0.11266687 -0.0860142 0.12054204 -0.0048273024 -0.1950853 -0.100976504 0.1347394 0.18056765 -0.2330033 -0.13699706 -0.1366117 -0.12291972 0.01989253 0.08163451 0.2452458 0.12867025 0.12028503 -0.3792404 -0.054541387 0.14555022 -0.034585435 0.005102477 -0.18732436 0.30447295 0.086494714 0.025013022 0.12591343 0.12359016 0.091481306 0.09259359 -0.044281103 0.014680828 0.10528411 -0.1594392 0.21648474 -0.36980194 0.09412378 0.17916937 -0.018367225 -0.34137827 -0.03358707 -0.25525364 0.10667864 0.13847071 -0.18570374 0.1561559 -0.10983325 0.049621344 0.14409523 -0.18510363 -0.23846881 -0.009888709 0.13391963 -0.16013935 0.15165466 -0.105146065 -0.29824606 0.19528091 -0.0015665584 -0.22724651 0.054811284 -0.07765307 0.12769398 -0.07851733 0.34923977 -0.17281158 -0.23641926 0.14148898 0.14090066 -0.123012684 -0.12887067 -0.13102584 0.10256279 -0.10871511 0.018009987 -0.023921354 0.095267884 0.06674191 0.264761 -0.0527284 0.033022318 -0.08362563 -0.062400587 0.101798095 0.004648586 0.11980145 -0.15065518 0.03933791 0.0075938944 0.04496664
1106 0.015231838 0.008753643 0.1456636 -0.07809362 0.11216695 -0.1974686 -0.16450205 0.18667005 -0.043969017 0.101026654 0.0074909073 0.012417241 -0.098806344 -0.21406256 -0.118834734 0.09519901 0.07439571 -0.13016056 -0.02863447 0.07017616 -0.024865473 -0.078579076 -0.18190303 -0.099844575 -0.020246709 0.1606074 -0.24002273 0.021421894 -0.014909296 -0.14394175 0.098546706 0.15575676 0.099120304 -0.067217454 -0.04580102 -0.03245185 0.13367519 -0.11716198 -0.044268128 -0.0782961 0.0034994944 0.15222551 0.074938335 0.022022907 -0.020160314 0.16141704 -0.012223392 -0.19365485 -0.057011187 0.03135158 0.08811579 0.0039253 0.08932429 0.08059869 -0.13221917 -0.03407516 0.13922213 0.09989504 -0.18384951 0.101823434 -0.061258025 -0.09373986 0.17282933 -0.105384625 -0.0718592 0.01834305 0.053193238 -0.012945714 0.26752484 0.15484369 0.016523903 -0.12741213 -0.092886776 -0.115623005 0.037499934 0.057573657 0.078851216 -0.07704117 0.05555549 -0.13034943 0.02072611 -0.05490782 -0.11119397 -0.036356576 0.06246024 0.06672112 0.08153878 0.014861276 -0.038797904 0.17085649 -0.041861106 -0.20803562 -0.1044206 -0.0061694803 -0.043592405 0.05469654 0.1256363 0.026434343 0.013980255 -0.11372425 -0.22589114 0.1986278 -0.032572515 -0.03138317 -0.22578098 0.009471075 0.100347996 0.059772402 -0.07788135 -0.28810534 0.36801156 -0.14550787 0.06806997 -0.06391194 -0.18221071 -0.088095844 0.12635252 -0.0017421056 -0.021362938 -0.22458018 0.078480296 -0.061454028 0.059855014 0.012191081 -0.090545356 0.1698261 -0.14142431 -0.037936132
1278 -0.10073627 0.20725727 0.315047 0.002534065 -0.089337274 -0.10417827 -0.038091898 0.27067506 -0.09697259 0.0026710392 -0.025002351 -0.15956023 0.0710034 -0.16715765 -0.027577676 0.1122036 0.0053242208 -0.16728306 -0.079923525 0.020546684 0.12752119 -0.08456453 -0.18294474 -0.17187317 0.09360007 0.012207843 -0.07006738 -0.1654257 0.21635313 0.03433987 0.11802532 0.05220221 0.16388415 -0.05003201 -0.012380761 -0.07410961 0.17716649 0.056083992 0.03369777 -0.06993143 0.02829818 0.18501419 0.012479855 -0.025674926 -0.05385388 -0.06591092 -0.09475479 0.043497637 -0.10801486 0.002859184 0.09070399 0.0077901697 0.026864007 0.22527763 -0.10980175 0.047745995 0.06179472 -0.118403785 -0.025182325 0.060184203 0.0996733 0.0001096791 0.17488031 -0.09155903 -0.11728531 -0.021397639 -0.021994516 0.05307799 0.09936056 0.070851296 0.117606506 0.01147355 -0.085900396 -0.12278278 -0.07474213 -0.21576837 -0.04250783 -0.114533976 -0.12213911 -0.06939454 0.110914335 -0.0017257135 0.037781987 -0.026616499 -0.13943425 0.038686603 0.004564614 -0.09816135 -0.1572877 0.14484432 -0.16886452 -0.25931796 -0.062528804 -0.06985905 -0.07405727 -0.028607272 0.13364963 0.060934007 -0.08849921 -0.18022977 -0.187662 0.18242162 -0.111650385 -0.061239302 -0.102952726 -0.1466371 0.110488676 0.029798796 -0.10858835 -0.13447396 0.1666947 -0.10733 0.1544707 -0.23716314 -0.1825583 -0.022035116 0.05303981 -0.0631733 0.09722725 -0.07389916 -0.037741162 -0.05170532 0.120585285 -0.07332062 -0.2778509 0.06631564 -0.0007705668 0.037418358
1082 0.13721697 0.10383158 0.00823165 0.06738504 0.063219406 -0.10577796 -0.07357941 0.24095105 -0.08204787 0.08732858 -0.13232745 0.10446666 -0.13673365 -0.13176799 0.16199343 0.14392509 0.10717063 -0.19878241 -0.051523592 0.03449461 0.13541682 0.011047657 -0.14573462 0.028249409 0.21308878 -0.019065494 0.08938532 0.14308868 0.09080796 -0.0615233 0.12478547 0.082535736 0.10676647 -0.10420719 -0.056900594 -0.009377292 0.15331942 0.21587077 0.071481384 -0.01698479 0.060636513 -0.0024332656 0.091846004 -0.053255446 0.10173829 -0.033327647 -0.15598777 -0.17379545 -0.019900914 -0.044704378 0.0077781314 -0.060156826 0.06979255 0.2430506 -0.15598986 -0.14488296 0.06380677 0.030722147 0.04442946 0.019478507 0.11514792 -0.07931989 0.18962215 -0.032874968 -0.120286345 0.049495522 0.015048938 -0.050045125 0.0691748 0.10504555 0.026957301 -0.13297094 -0.0034308857 -0.11507887 0.0003274264 -0.06423126 0.08498575 -0.058289107 -0.107964836 -0.06517712 -0.008834392 0.07599651 0.11085361 0.2205582 0.04152085 0.09261855 -0.06740794 -0.17486931 -0.2588455 -0.020586533 -0.12386013 -0.16497622 0.031665724 0.08808268 -0.07009274 0.0012586977 0.24199246 0.17717408 -0.23507063 -0.19521281 0.06530068 -0.04588514 -0.14405331 0.16509987 0.0012723372 -0.09075518 0.046898477 0.056656394 -0.061851207 -0.18207791 0.17214695 0.061206102 0.20320307 -0.0066357492 -0.010944519 -0.19831933 0.079942286 0.0036973688 0.055320483 -0.24850126 0.025359899 -0.0079181995 0.0032033033 -0.027767915 -0.097544506 0.06595868 -0.0009445053 0.049615335
1078 -0.15276429 0.061412066 0.098266974 -0.20810951 -0.23936644 -0.1513277 -0.05372398 -0.030468874 -0.27763903 0.05249767 0.07255111 -0.12978183 -0.036773574 -0.108811885 -0.03322451 0.1240116 -0.057855844 -0.19706938 -0.07717317 -0.17832534 0.19335262 0.014284198 -0.13426457 -0.12997915 0.038630288 -0.15046221 0.010279422 -0.0053296806 -0.020549297 0.04104341 0.023382386 -0.10922413 -0.01945637 -0.017841412 0.15687409 0.12487931 0.17810614 0.11007915 -0.045590144 -0.038671926 -0.09278188 0.17571732 0.033800416 -0.032165192 0.23475482 0.00814037 -0.069688775 -0.07664043 -0.23230983 -0.07008491 -0.0106456615 -0.0025464043 0.13568044 0.13698055 -0.054402746 -0.018383361 0.29568812 -0.14617358 -0.14584392 -0.034433156 -0.092665985 -0.074877925 0.011187882 -0.07941347 -0.14647672 0.004198045 -0.042246226 0.0012943813 0.21832086 0.13571374 -0.025002176 -0.17217843 -0.13604319 -0.21861252 0.09553803 0.10932763 0.020455215 -0.062106702 -0.14450252 -0.18041103 -0.039718453 0.24173144 0.0042988504 -0.12181489 -0.0431664 -0.058081683 -0.16676678 -0.22251603 -0.23932436 0.21558423 0.052377652 -0.21037768 -0.021001993 0.15907557 0.044987254 0.19710109 0.23374258 0.07569954 -0.09255739 -0.16610359 -0.16690947 -0.05762798 -0.038623594 0.025188942 -0.11776361 -0.011255311 -0.046283692 -0.02297611 0.020229833 -0.15201186 0.12949654 -0.052942403 0.06479657 -0.03531236 -0.010282754 -0.0922758 -0.0032142445 0.066608645 -0.03535985 -0.20675796 -0.056019932 -0.13974994 -0.23996282 -0.03681152 -0.057079915 0.062359642 0.15929541 -0.036958147
1417 -0.068602145 0.18815489 0.17853461 0.042014122 -0.14869381 0.044547055 -0.09707332 0.07769561 -0.052213352 0.030069878 0.07372631 0.15768364 -0.006490354 -0.1488454 0.13397822 0.1220784 0.0069924304 -0.21333139 -0.041769132 -0.0037244228 0.098059125 -0.003070174 -0.16583395 -0.108425476 -0.11132075 -0.06666608 -0.027411677 -0.029712394 0.081209 0.037196074 0.1233266 0.056909177 -0.039458763 -0.09571939 0.06673839 0.027435528 0.16948758 0.010872545 -0.07624272 -0.062271357 0.18134205 0.046373554 0.06812102 0.10281084 0.1443445 0.25623563 -0.07323783 -0.11643133 -0.19220214 -0.06795988 0.048864238 -0.007643831 -0.0079965945 -0.043146793 -0.17876315 0.028275585 0.16958438 0.11075908 -0.14342605 -0.1474137 -0.056785528 0.013308376 -0.034103576 -0.1266815 0.16597003 0.07892007 0.06433091 -0.12712161 0.0665407 0.08385021 -0.23868898 -0.17294429 -0.09077413 -0.13516393 0.005494514 -0.059359413 0.13379966 0.00095771847 0.04166448 -0.08328762 0.1250417 0.07511026 -0.083550595 0.10548901 -0.025006033 -0.0033006398 -0.031003915 -0.00022687353 -0.2437252 0.21185538 0.0034240691 -0.12037115 0.091683626 -0.15962209 -0.06059406 -0.007736657 0.16895126 0.0773487 -0.03837883 -0.18133512 -0.13909964 0.064478114 0.004700162 0.075125836 -0.049506307 -0.06908299 -0.0701012 -0.07919002 0.057945654 -0.19663018 0.08868795 -0.068971515 0.27933627 -0.1855179 -0.0936791 -0.14164135 0.087114275 -0.019133942 -0.15126128 -0.29123965 0.040061407 0.066612095 -0.068425655 0.04579413 -0.13994054 0.10229128 -0.06013979 -0.049627442
