1194 128
1272 0.16604084 0.07640895 0.058401622 0.06555474 -0.09656236 -0.021463905 -0.10778339 0.21998122 -0.14345263 -0.009942778 0.077407226 -0.13509597 -0.119089015 0.02296683 0.19404523 -0.01319905 -0.07978305 0.031051235 -0.039738677 -0.10045254 0.0431021 0.1862393 -0.13122085 0.029116247 -0.008089095 0.000983952 -0.15702608 -0.05434147 0.15256204 0.022840502 -0.120638385 -0.0006191407 0.12857877 0.0492562 0.028837534 -0.056618858 0.07022769 -0.029921338 0.19624354 0.20210592 -0.017536448 -0.03356245 0.17041565 -0.03867798 0.38507086 0.20153609 0.07851743 -0.05792256 0.009845883 -0.06800706 -0.02836926 0.08211084 -0.09419018 -0.017188786 0.12104025 -0.0010956012 0.05154117 0.010454189 -0.0906036 -0.09998348 -0.08749113 -0.03681048 -0.08738341 -0.059993297 0.031908136 0.032058816 0.020595126 -0.20759532 0.016751835 -0.13229457 0.038763642 -0.060908806 -0.08455532 -0.1351187 0.05525723 0.0047813207 -0.007626655 0.11299991 -0.12950596 -0.118460916 -0.017427148 -0.06924483 -0.012596846 0.22653113 0.04988073 -0.12206196 -0.0053213467 0.17707056 0.13862042 -0.20747656 -0.11207981 0.13585036 -0.05469071 -0.118704095 0.171397 0.040794786 -0.075141646 -0.25214118 -0.14687562 -0.0362671 -0.15520851 -0.016739657 0.03391317 0.114127636 0.020646948 -0.19415599 -0.22726421 0.1388944 0.2269395 -0.07036773 -0.092282526 -0.030040389 0.085542314 0.1110574 -0.13221405 -0.19778527 -0.097835526 -0.23122972 0.16877021 0.057498373 -0.05021527 -0.1172513 -0.04986368 0.06596127 0.05486507 0.15569435 -0.13215952 -0.0046227816
1327 0.120804496 0.083698615 0.03758992 0.06468006 0.057295226 -0.09024946 -0.07182837 0.11107094 -0.19410843 -0.031440575 0.043345112 -0.12185132 -0.17575175 -0.027297307 0.068413496 -0.052085176 -0.011986879 0.036354966 -0.09709985 -0.07993586 0.16194513 0.25034997 -0.18175292 -0.056413185 -0.0052888105 0.06595664 -0.093274325 -0.0887683 0.17583542 0.080118954 -0.030701758 -0.057000235 0.13792142 -0.013837357 0.01984216 0.1834352 0.13572928 0.0040890714 0.047605723 0.13644527 0.053953953 -0.12186478 0.050390996 -0.08074074 0.19585556 0.20516215 -0.009445632 -0.083493814 -0.050034415 0.10682525 0.019334083 0.17323081 -0.052985758 0.076718576 0.058106326 -0.014236233 0.124521114 0.0060438425 -0.13631609 -0.08908484 0.0011180176 -0.012038591 -0.06615378 -0.02568615 0.020569166 -0.016998213 -0.1632596 -0.14267772 0.13460086 -0.17296663 -0.06125148 -0.017349845 -0.18596898 0.013290799 0.15502489 0.06444855 -0.025687566 0.14885429 -0.056596972 -0.116652496 -0.05539128 -0.025911583 0.082379654 0.27070066 0.024003789 -0.105708405 -0.03849597 0.23735149 0.023675136 -0.20316401 -0.1052965 0.14461371 -0.077465415 0.014370241 0.17117882 -0.04836559 -0.050294377 -0.118155226 -0.15409914 0.0860616 -0.23622528 -0.03837518 0.036155563 0.13441181 0.058011986 -0.15518554 -0.2272618 0.15169029 0.16117424 -0.046233177 -0.12814365 0.020807346 0.09563363 0.03836391 -0.038849056 -0.008216531 0.026035957 -0.15471768 0.17424108 0.11739511 0.024598302 0.01356806 0.061334718 0.06741327 -0.106278226 0.07782894 -0.06323543 0.00838894
1407 0.0066754213 0.1385079 0.01997567 0.039433073 0.084609255 -0.049981117 -0.03937426 0.11439771 -0.024454702 0.12469102 0.01500997 -0.13017727 -0.10478768 0.020814981 0.1815906 0.020135049 -0.17286524 0.022405999 0.16627684 -0.16384166 0.012160334 0.2394484 -0.2085265 0.0014720086 -0.11579246 0.051186357 -0.15288422 -0.022703258 0.13458543 0.16943881 -0.27569637 -0.065460324 0.20567171 -0.0034204642 0.11338068 0.11242699 0.08528382 -0.03241068 0.1321911 0.10768425 0.036726885 -0.05347151 0.13459763 -0.07281566 0.29690263 0.100167446 -0.03625511 -0.06619168 -0.11990467 -0.103199765 -0.051494442 0.16723512 -0.14750378 0.11715287 0.09743419 0.08706843 -0.04195008 0.1363509 0.002169832 -0.14136343 0.07648344 -0.20304358 0.0077107446 0.008336257 0.025069375 0.1016483 -0.06275124 -0.085078016 0.1223957 -0.14699765 -0.06999147 -0.012372095 0.056040525 -0.045064118 0.16145909 -0.0016674569 0.016992569 0.040089034 -0.06322538 -0.015757766 -0.12796631 -0.09358215 -0.04812669 0.17052464 0.07206926 -0.053879555 0.07388033 0.23555274 0.14663918 -0.10083084 -0.13384743 0.060050346 0.21401562 -0.048236314 0.10383103 0.07667117 -0.08676422 -0.13861331 -0.062521696 0.1865787 -0.20448573 0.006062989 0.009098696 0.10397955 0.0814882 -0.096644565 -0.17878364 0.056375314 0.2476132 -0.084182374 -0.25368392 -0.051432494 0.078731425 -0.012655485 0.08885786 -0.045840383 -0.13070177 -0.23360623 0.2616255 0.0856647 0.002434005 -0.07250385 -0.022301922 0.20494813 -0.19742872 -0.104383655 -0.11809542 0.051629294
1116 0.009213727 0.07927645 0.08954084 -0.010870163 -0.071416706 -0.0012771573 -0.07574102 0.19996804 -0.04360301 0.033754416 0.088447265 -0.06523033 0.011669522 0.008151554 0.1806451 0.11207294 -0.17810135 0.06776344 -0.12192243 -0.07240143 -0.052170917 0.19014005 -0.16455975 -0.13836996 -0.011470485 0.00731793 -0.14679182 -0.029036028 0.10755429 0.025751043 -0.044207606 -0.030345902 0.08101304 -0.061559714 0.04900872 -0.013116105 0.15324618 0.022004994 0.17177904 0.03281852 -0.025625663 0.10409222 0.1191516 -0.11602828 0.32548946 0.117955044 -0.10714755 0.104656614 -0.06265238 0.008950946 0.06840754 0.32010737 0.044757254 -0.009433246 0.060506824 7.2296854e-05 0.010629341 0.049390413 -0.2159625 -0.13877317 -0.006969371 -0.040590048 0.02366418 -0.11476789 0.17694002 0.030236108 0.09051277 -0.18068244 0.03290976 -0.13014127 -0.14790016 -0.100278296 -0.10736869 0.016836146 0.08207351 0.011936401 -0.010444272 0.015692757 -0.13108782 -0.04684961 0.017571284 -0.014992255 0.03303714 0.19815892 0.14025936 0.021293683 -0.004910536 0.11670729 0.061302375 -0.20968017 0.011670951 0.050423186 -0.019610478 -0.13769041 0.22261828 0.026518652 -0.18639417 -0.162781 -0.076185726 0.08657927 -0.20956817 -0.0068633896 -0.05877433 0.07121878 -0.026455939 0.014500974 -0.15603441 0.17302352 0.20321912 -0.016321111 -0.07414545 -0.0685614 0.060213473 0.061686546 -0.103756174 -0.16135068 0.031795353 0.03310302 0.18944423 -0.03369936 -0.055694796 -0.054043625 -0.054111317 0.17056607 0.108571604 0.22900142 -0.16852452 0.16429047
1172 -0.02607306 0.20120126 -0.0532103 -0.02787973 0.106900565 -0.15414082 0.00066017587 0.12208904 -0.08344799 -0.03819853 0.0070805284 -0.2335316 -0.17762521 0.0062312246 0.2090705 0.076879464 -0.15327927 -0.051144652 0.16044909 -0.08455745 0.0043060286 0.19504234 -0.11636633 -0.0635421 -0.17253904 0.14722905 -0.16325748 0.026305132 0.23082334 0.13807334 -0.32536453 -0.0006299625 0.23226951 0.039217047 0.054989908 0.10892142 0.061325785 -0.02235508 0.12271735 0.0774555 -0.0012128163 -0.042696163 0.118683025 -0.16384849 0.337289 0.06698527 -0.04221995 0.03249879 -0.06007201 -0.10318691 0.036584485 0.1746673 -0.01486631 0.10645555 0.16228007 0.07220869 -0.066429354 0.0044682887 -0.050378885 -0.17228466 0.08669761 -0.13037366 0.14457226 -0.034044787 0.07448533 0.1497932 0.08448926 0.02791815 0.05969709 -0.040007714 -0.07389528 0.030796321 0.054104224 -0.13919136 0.22491853 0.025180092 -0.067833275 0.016894596 -0.05825735 -0.12611814 -0.12322566 -0.12163252 -0.1292011 0.14568779 0.08313 0.014381525 0.009039579 0.32032132 0.13414533 -0.02035734 -0.19956282 0.04704731 0.040800337 -0.056869417 -0.06697609 0.10429233 -0.02510642 -0.14455187 -0.07646606 0.17485854 -0.17045075 0.068311304 -0.0030300329 0.13548873 0.08422325 -0.12204176 -0.24435751 0.16084644 0.22587442 0.038085725 -0.22396939 -0.09906689 0.14818574 -0.073498406 0.06534069 -0.052638765 -0.08910219 -0.2388188 0.1111957 0.09931891 0.038477246 -0.028584467 0.0015601557 0.07423925 -0.12900043 -0.0552694 -0.16719484 -0.059617084
1316 0.14639358 0.14731705 -0.016032895 0.055618796 -0.04915253 0.1118722 -0.186005 0.22693117 0.007903076 -0.09768005 0.15828574 -0.20279728 -0.084577225 0.019285273 0.16543473 0.054677226 -0.09575099 -0.11160736 -0.07990311 0.022287086 0.10181698 0.11161013 -0.2285741 0.018633846 -0.03319221 0.11556483 0.060205847 -0.10682424 0.124769524 0.20256451 -0.3184714 0.009460495 0.25460336 0.13396439 0.11101168 0.081271544 -0.032337952 -0.048949864 0.027919494 -0.06441431 0.21417145 0.013206451 0.12406504 -0.1395172 0.26272774 0.2067001 0.10942116 -0.06327974 -0.2456136 0.044729453 -0.1575358 0.29241392 -0.09748306 -0.08805704 0.1158393 0.03772693 0.18265684 0.027071627 -0.013243818 -0.14699903 -0.010035751 -0.050395906 0.1315355 -0.113791265 0.0016193627 0.014197333 -0.0025514297 -0.11462795 0.157972 -0.0628418 0.059282128 0.028510919 -0.0019870168 -0.10302568 0.17667048 0.06442731 0.08816748 0.064142115 -0.042813882 -0.072791494 -0.042563397 0.012992581 -0.14052065 0.18624236 0.005049144 -0.085014276 -0.016744453 0.2811923 0.1572935 -0.04002549 -0.26002848 0.015424265 0.087508574 -0.091397464 0.104734816 -0.054947175 -0.11084161 -0.23312253 -0.2214218 0.14502642 -0.069606215 0.13877597 0.08774601 0.070888154 -0.06500748 -0.116191186 -0.21646385 0.21763387 0.26203197 -0.007193668 -0.07680281 0.025392909 0.023066357 -0.037864245 0.075514875 -0.027615625 0.08194652 -0.13753025 0.14866738 0.159954 0.081643745 -0.04464555 -0.07225642 0.123655155 -0.08441952 0.046591002 -0.20160584 -0.20184384
1329 0.14102039 0.009854192 0.07536103 0.21847302 -0.029986687 -0.15112598 -0.005959925 0.10836615 0.03394795 0.061560877 0.17829712 -0.031316005 -0.07559013 0.04524121 0.066292375 0.13488247 -0.11899095 0.013549223 -0.058342602 -0.052293524 0.08595912 0.19232517 -0.1754247 0.055659004 0.0008547619 -0.041023463 -0.07718574 0.006648359 0.14452673 -0.0019040036 -0.121908985 -0.12356998 0.19877015 0.12526858 0.04584976 0.050321434 0.03428777 -0.026441446 0.056100983 0.050417025 -0.042837698 -0.18552314 0.010392505 -0.105675116 0.18296279 0.09848185 0.050733946 -0.045869388 0.09942202 0.171346 -0.026243584 0.006455952 -0.15416709 -0.068717964 0.100496866 -0.1211965 0.16624025 -0.0075234254 0.076906085 -0.13066153 0.0057174326 -0.064506985 -0.023004463 -0.1677071 0.011129864 -0.018246396 0.032467365 -0.2571094 0.15254095 0.027800083 -0.05241039 -0.08776913 0.010512162 -0.0049676686 0.034210242 0.012103787 -0.23290451 0.047892123 -0.17210087 -0.21907152 -0.047726244 0.06215457 -0.011375392 0.08673033 0.033893425 -0.060012333 0.030182395 0.20283051 0.0122231515 -0.08302443 -0.07226654 0.025814023 0.104411736 0.05965605 0.21201259 -0.08286165 -0.100270726 0.03714636 -0.18952952 0.08644741 -0.23587686 0.10749316 -0.12045079 0.12560719 -0.09885462 -0.16649288 -0.22479138 0.16290118 0.2902615 -0.1356768 -0.079712935 -0.25723222 -0.0013738425 0.1655019 -0.038418293 -0.04020735 0.090405986 -0.054817386 0.11651314 -0.02029485 0.1906422 -0.040520713 -0.012301745 0.08993094 0.008577404 0.09092051 -0.23066723 -0.07447837
1306 0.11051137 0.008894778 -0.011982671 0.0820609 -0.14078735 -0.06942761 -0.11755776 0.106656596 -0.04355121 -0.030072896 0.04423452 0.053295124 0.019170508 -0.20823598 0.12993202 0.019605253 -0.14033978 0.004685711 -0.046756305 0.054837912 -0.022358133 0.20591548 -0.2550434 -0.22437428 -0.024074553 -0.0948194 -0.19907504 -0.044638544 0.053424757 -0.037074048 -0.1719908 0.112512104 -0.017955538 0.03928438 0.08291238 0.06840472 0.10866332 0.08794206 0.19962047 0.09422309 -0.00037930743 -0.012345727 0.19387396 -0.07935847 0.11440214 0.21342011 0.03288917 -0.06624886 0.048184343 0.04536853 0.0833105 0.19044445 -0.06271523 -0.035607487 0.16808306 -0.012134265 0.05595696 0.04553652 -0.053649332 -0.10089757 -0.09311776 0.016162552 0.051558454 -0.075287245 0.017087081 -0.04753886 0.02563768 -0.30317965 0.044027526 -0.08711049 -0.17682306 -0.14141163 -0.113888204 0.02146936 0.15010214 0.10884771 0.02681591 -0.010553872 -0.13828246 -0.098963894 -0.029139424 -0.016178451 0.024137612 0.06103655 0.13901588 -0.12920883 0.013393335 0.10185564 0.064538226 -0.098800056 -0.00048535012 0.115423605 -0.060453616 -0.1198213 0.17314377 -0.0257086 -0.06172701 -0.033761546 -0.14597905 0.0901268 -0.09879511 0.03807375 -0.04344678 0.056435306 0.034449402 -0.102002256 -0.22511499 0.061868824 0.2034653 0.20372261 -0.062816285 -0.1830743 0.11611657 0.08852075 -0.03995807 0.081921495 0.04741329 0.07187738 0.09757278 0.065921344 -0.023467105 -0.016172513 -0.069828734 0.1524776 -0.029120898 0.15895487 -0.23414053 0.038854416
1404 0.13614224 -0.049391694 -0.0020959105 -0.043134116 0.045219526 -0.047821328 -0.058532953 0.17442104 -0.11259865 -0.0950087 0.13281195 0.01726782 0.015589088 -0.10652585 0.18747036 0.079017945 -0.27478132 0.017417448 -0.034563255 -0.09012127 0.05072362 0.18998821 -0.28307357 -0.04604638 -0.0158506 0.06020534 -0.19575247 -0.1331168 0.23907779 -0.026565189 -0.061000906 0.022035234 -0.063187264 0.15580599 0.080255 0.13587426 0.10470558 -0.0419011 0.18614584 0.055848353 -0.06908302 -0.08865174 0.18064047 -0.1212536 0.14248353 0.17372559 -0.083708234 0.11092095 0.0386754 -0.02990415 0.016878812 0.12008089 -0.070965394 0.065133244 0.12331292 -0.17829648 0.120744064 0.030206371 -0.021362292 -0.09216686 0.02004668 -0.10684383 0.0070773317 -0.15355004 0.012893952 0.048010122 -0.05327617 -0.28617835 0.030560246 -0.08908046 -0.16697739 0.07005482 -0.12984669 0.09096486 0.1278103 0.10497251 -0.11249391 0.0049067414 -0.028655633 -0.084088646 -0.02227126 -0.06892243 -0.061688367 0.1841913 0.1496126 0.07129927 0.013176897 0.08182382 -0.040882573 -0.11979217 0.019282345 0.12376746 -0.0957549 -0.057572667 0.27088228 -0.012045271 -0.1564089 0.023320165 -0.09603637 0.013786956 -0.123257816 -0.16155426 0.15360165 0.076103166 0.02953825 -0.07001468 -0.20683415 0.14096291 0.297323 -0.041857176 -0.13143066 0.051016357 0.093526505 0.061994392 -0.017961431 -0.025850078 -0.025422344 -0.023772324 0.11160288 0.04878178 -0.010595991 0.062219128 0.09345464 0.11179927 -0.032719567 0.11024554 0.049768664 -0.10228564
1293 0.07792147 0.1071453 -0.03048927 0.10265089 0.1591244 0.06572263 -0.034661096 0.20724875 -0.1422211 -0.05778027 -0.100638084 -0.034555517 0.023435704 -0.09071591 0.1537092 0.105044305 -0.15489656 -0.09159122 -0.13963315 -0.1054857 -0.069364145 0.18056473 -0.23968872 -0.09935611 -0.30840763 0.04923385 -0.17446993 -0.122553825 0.1783675 0.061562765 -0.28871536 -0.057525143 0.23042938 -0.024617637 -0.15059689 0.05358982 -0.016399356 0.03888523 0.18523477 0.04921412 -0.08346855 -0.09339691 0.09090135 -0.04703669 0.15794253 0.18421926 0.047037214 -0.05937753 0.016838519 0.004425349 0.06442767 0.17160347 -0.14963584 -0.006029014 0.018701479 -0.15482226 0.10367214 -0.002027727 -0.087549046 -0.08404702 -0.07078523 -0.093376786 -0.02333372 -0.16727085 0.16100512 0.016556842 0.102340296 -0.07592764 0.1499391 -0.024787601 -0.09165804 0.13576573 -0.08926009 -0.009053256 0.14230813 0.17681405 -0.0066812546 0.06728547 -0.07576187 -0.103298105 0.03546301 0.15013875 -0.0039271372 0.022644842 0.043973066 -0.09076134 -0.06987832 0.04440327 0.03292878 -0.12172741 -0.3066906 0.033791564 0.17796993 -0.093683004 0.16773292 0.109910354 -0.24556896 0.04923416 -0.083698995 -0.115765825 -0.28307196 -0.04892812 0.018947104 0.21563302 -0.15559381 -0.115975305 -0.115142055 0.097718276 0.32113782 0.0042545856 -0.15880628 0.02803275 0.14177433 0.2211284 0.03409131 -0.09233536 -0.09479403 -0.10673075 0.103056535 0.15473744 -0.022422796 0.07972712 -0.026676476 0.17090651 0.1037985 -0.024776071 -0.051492997 -0.13748832
1103 -0.06208393 0.21625035 0.010291321 0.112495065 -0.006811005 -0.09026882 0.06465878 0.17901476 0.003726722 -0.01999161 0.11252527 -0.12202961 -0.067440934 0.07232108 0.14586471 0.13722081 -0.061891932 -0.07983881 -0.009916175 0.102634095 -0.0344975 0.2412551 -0.25852025 0.013941198 -0.112541586 0.14143215 -0.25056288 -0.032384336 0.20424002 0.063568935 -0.19154383 0.029056909 0.036260355 0.10195334 -0.08597831 0.09748854 0.02865188 0.032378983 -0.056577526 0.16834739 0.045615856 -0.03417524 0.10898013 -0.20094101 0.32012036 0.080433056 -0.06441859 0.21074826 0.009819691 -0.08693695 0.026529139 0.2118377 -0.033622984 -0.018524356 0.033149675 -0.028019281 -0.03201291 0.055468805 -0.25040057 0.033967953 0.1197187 -0.09303649 -0.046749875 -0.10168059 0.1322963 -0.07537085 0.0027154833 0.007988868 -0.012225 -0.22906175 -0.11848774 -0.02147151 -0.042719867 -0.15002678 0.15388644 0.272837 0.018707855 0.10802953 0.006045244 0.14279556 0.011506973 -0.13993393 0.06558489 0.21760702 -0.04474234 -0.010746404 0.101717494 0.2390786 0.017283551 -0.13168992 -0.14185314 0.005937772 0.06659947 -0.14777873 0.07070241 0.10513705 -0.28145218 -0.056901716 -0.006013974 -0.0026760716 -0.07451916 0.033029493 -0.100100495 0.23813757 0.25048292 -0.037684374 -0.2835317 0.22995327 0.18036845 -0.04134661 -0.25272995 0.009235786 0.13908578 0.09278256 -0.08244461 -0.028481115 0.139975 -0.22523384 0.20648901 0.021825325 0.07035389 -0.06432816 0.10211894 -0.0020834731 0.13038869 -0.010413386 -0.0016706133 0.036024008
1421 0.12919399 0.1052699 0.009095975 0.017363876 0.055672847 -0.0553298 -0.13333273 0.21949999 0.05935981 0.122480266 0.11594031 -0.24048953 -0.22556958 -0.018049018 0.12936896 0.18022275 -0.2308683 -0.097177684 -0.12636493 -0.045087606 0.0040321294 0.04968913 -0.15703219 -0.03112655 -0.17302357 -0.024715688 -0.06470449 -0.13503098 0.15206109 0.05007749 -0.21356513 -0.04903243 0.278545 0.005885107 0.13679539 0.032880455 0.05084624 0.06722367 0.068828754 0.100695774 -0.06651196 0.022808537 0.0510984 -0.024276976 0.23688605 0.18516946 -0.054714732 -0.11422953 0.00042932073 0.09375067 -0.050189417 0.14754851 -0.20744437 -0.034335002 -0.016451057 0.015512638 0.015295513 0.11765879 -0.08228427 -0.17525926 0.033179663 0.036137987 0.030644672 -0.03938419 0.09007531 -0.07223361 -0.07483571 -0.20537205 -0.17443499 -0.13759135 -0.16599885 -0.0878799 -0.054494556 0.02856529 0.14635694 0.04652963 0.08464795 -0.045083072 -0.08469908 0.11036596 0.010620094 -0.030410128 0.18683171 0.18871039 -0.0098441085 0.050894063 -0.16393033 0.09526595 0.019773865 -0.21296364 -0.13211495 0.07201893 0.11040786 0.050046843 0.19190584 -0.076713935 -0.12452084 -0.08761489 -0.117772214 0.0011485101 -0.11859074 0.036285173 -0.03481356 0.09485605 0.044838987 0.03018615 -0.037876002 0.050953016 0.27517357 0.04565084 -0.10401143 -0.10989731 -0.03556986 -0.0011285333 -0.08594429 -0.0335609 0.063467875 -0.06741508 0.0038040685 0.12512036 -0.07919189 -0.10090545 0.029707022 0.12907304 -0.018464614 0.21332105 -0.06203634 0.00393676
1287 -0.07059578 0.16004097 -0.09679882 0.17189588 0.24284375 -0.08167953 -0.17254674 0.14397359 -0.101767235 0.06974843 0.16042632 -0.13347127 -0.114378065 -0.06634432 0.036473524 -0.006826363 -0.28824297 0.00090540573 -0.004584941 -0.16182637 0.114485525 -0.054966953 -0.11905797 0.016619712 -0.16312215 -0.1968181 -0.1025274 -0.041060373 0.19833238 0.04063466 -0.2713304 0.013883924 0.23675953 -0.0068852585 0.2786335 0.16903174 0.049135454 0.08913752 0.043996837 0.1155556 -0.111956745 0.14328884 0.25702882 0.06207907 0.05848781 0.25394878 0.13771759 -0.036111087 -0.210775 -0.14027931 0.21517262 0.11529682 -0.07758924 -0.06270347 0.23048435 0.11885661 0.1545646 -0.08329867 -0.15553434 -0.102531746 -0.0067909015 -0.080269314 0.008020447 0.13579892 -0.0677775 -0.052635897 0.014220878 0.013999161 0.1337719 0.009307915 -0.004259418 0.03777638 -0.12046127 -0.035487536 0.24730338 0.0037802379 0.042227812 0.2079334 -0.32801896 0.03447576 -0.07356295 0.097612835 0.04156059 -0.058986668 0.165133 0.03146441 0.040412214 0.20387888 0.011097844 -0.04850323 -0.07713421 0.05547513 -0.02792082 0.050733257 0.17978235 0.0059557958 -0.08101469 -0.21515977 -0.17966121 0.04848472 -0.24586704 -0.0012430837 -0.009235631 0.2287363 0.040662505 0.04332344 -0.099858716 0.1742197 0.19596162 0.06350979 0.060719125 -0.12326657 0.010138546 0.24566461 -0.016769705 -0.17860392 -0.09120408 -0.07541147 0.26985225 -0.015100401 -0.07486956 -0.14100096 -0.13902391 0.1609636 -0.110776216 -0.05919095 0.07385044 0.15135162
1237 -0.04427011 -0.047874134 0.05959505 0.13338959 0.19481423 -0.043740757 0.024427032 0.08507425 -0.051993094 -0.03474739 0.16209173 0.032597475 -0.037283644 0.012914058 0.22547682 0.14056855 -0.18836102 0.01016119 -0.040111873 0.005983283 0.017270558 0.19959387 -0.11672755 -0.020253964 -0.026753783 -0.07922166 -0.12885083 0.014978685 0.24142548 -0.029861856 0.005166922 0.022068467 0.15099116 0.058798905 0.031840645 0.16301571 -0.019501723 -0.1500254 0.0077916067 0.23369677 -0.021197533 -0.114076264 0.023552824 -0.0422742 0.22119038 0.105286084 -0.11945501 0.04908164 -0.12039821 0.050558932 0.00010298882 0.19582675 -0.034243647 0.075326115 0.05867177 -0.02679716 0.0715061 0.16054104 -0.15220849 -0.16054744 -0.02823915 0.11489208 0.06987289 -0.016344529 0.12444655 -0.0075865122 0.029797649 -0.07972293 0.05352737 -0.24822813 -0.19901869 0.08168752 -0.07010936 0.046630707 0.059964593 -0.038918916 -0.03035427 0.10179435 0.012406657 -0.02664388 -0.044482447 -0.052784063 0.12043269 0.14809155 0.13950574 -0.05389929 0.06671694 0.08033594 -0.014144414 -0.08221563 -0.20960045 0.03211771 0.123477094 0.04452271 0.13030404 -0.06438847 -0.2068918 -0.074087985 -0.16493234 0.14086351 -0.22191747 0.027453592 0.010280883 0.015689697 0.10781863 -0.017394733 -0.21865037 0.23664251 0.24270035 0.022516914 -0.06379003 -0.082000144 0.10478329 -0.023442166 -0.061765708 -0.10193346 0.1510773 0.023200123 0.119419605 -0.057533056 -0.16634603 0.001915935 0.16587587 0.16492943 -0.014240108 0.19168332 -0.070331514 0.03917368
1308 -0.036456283 0.04483994 -0.13920046 0.13575083 0.11478385 -0.13472976 0.13222389 0.16944472 -0.058332283 0.08336492 0.01355326 -0.019217893 -0.05820817 -0.018510615 0.10278429 0.14601277 -0.15910976 0.05633945 -0.01639449 0.030974606 0.040640593 0.25607494 -0.1273977 0.0371147 -0.041314542 -0.010384171 -0.14255245 -0.065600276 0.17010926 0.042333797 -0.04715854 0.03366955 0.09740899 0.15245415 0.0076544564 0.066052906 0.101852246 -0.099168964 0.057932027 0.12738745 -0.24627402 0.04769352 0.111187525 -0.039055403 0.1197795 0.07715648 0.11060992 -0.04703721 0.027186656 0.037359614 0.11104924 0.08466259 -0.03485569 0.10757919 0.0371787 -0.039887987 0.00066216546 -0.09787332 -0.116423085 -0.09083057 -0.06380235 0.09531715 0.016045937 -0.15153082 0.06905164 0.06290371 -0.042040836 -0.23700857 0.053485572 -0.17637447 -0.11948265 -0.0824673 -0.16174479 -0.07647475 0.2066634 -0.012994436 -0.195241 0.12744577 -0.04692713 -0.081156015 -0.07030751 -0.1454063 0.11331259 0.05993188 -0.013754677 0.06956761 0.05942927 0.12600763 0.033432417 -0.0024581049 -0.037386034 0.07717032 0.07166062 -0.027839432 0.08691488 -0.22153048 -0.1327893 -8.697057e-06 -0.264445 -0.028349241 -0.20771077 0.11584783 -0.010677213 0.14455222 0.002737038 -0.101391666 -0.21813329 0.19076546 0.1511656 0.071532235 -0.027306411 -0.10343064 0.031523637 -0.024899056 -0.08315307 0.013449923 0.098904766 -0.014564415 0.07094376 0.10530143 -0.055958763 -0.027102547 0.057994705 0.14533173 0.065694146 0.106299944 -0.053490333 0.019259188
1276 0.25558504 0.079972915 -0.17953761 0.109621614 0.08043142 0.049185578 -0.040001925 0.14738284 -0.0015221288 0.106191866 0.05827935 -0.14158373 -0.06358256 -0.07940732 0.073121175 0.004039928 -0.10383765 0.024996625 -0.17646928 -0.04413856 -0.04043496 0.09462415 -0.2758977 -0.084856264 -0.20797887 -0.08070667 -0.055454995 -0.07630571 0.20037986 0.005780114 -0.22689417 -0.14510305 0.11388125 0.21177411 0.05942389 0.052463192 0.15965885 0.09310734 0.1895253 -0.00017142875 0.05170867 0.27293912 0.116294295 -0.13686979 0.3096417 0.26652017 0.06427967 0.029443998 -0.120230995 -0.017293459 -0.26304165 0.14302108 -0.014576958 -0.12788363 -0.18608345 -0.043916836 0.16114303 -0.044455145 -0.1711932 -0.12385473 -0.11699652 0.06128314 -0.08068799 -0.031063681 0.21172974 -0.05016592 -0.19558181 -0.13968366 0.039989017 -0.14878616 0.08958447 0.00074936775 -0.08626239 0.034577385 0.20368575 0.09813342 0.08382474 0.09447565 -0.13158207 -0.15673599 -0.0077507324 -0.007451385 0.0858808 0.07548232 -0.10265273 -0.0017911321 0.03809597 0.4077418 -0.117072895 -0.11452617 -0.11877844 -0.025073236 0.008834529 -0.18638374 0.019405447 0.03424893 -0.13313827 -0.048486006 -0.03749391 0.067965865 -0.12178715 0.13728349 -0.10878969 0.13149863 0.19174933 -0.00040314277 -0.25409105 0.03448793 0.18551773 0.074588686 -0.052010454 -0.20422745 -0.010357945 0.16531357 -0.0681485 -0.092998825 0.058352243 -0.118023634 0.16458535 0.16176724 -0.019130107 -0.07818805 0.060340635 0.07659799 0.10634665 0.04015439 0.035740025 0.29267582
1164 0.031571925 0.008136659 -0.032706268 0.08595359 -0.055010453 -0.044246744 -0.14258717 0.16822514 -0.12053386 0.037531912 0.04976921 -0.1256171 -0.17974876 -0.07012448 0.15229422 0.104443766 0.0014454813 0.13391824 0.018405786 -0.057464384 0.04715109 0.15528536 -0.23848484 -0.10180322 0.10536658 0.010308517 -0.061929163 0.052676123 0.25453663 -0.03565796 -0.08288895 0.10186815 0.050981417 0.06270994 0.12226871 0.107492656 0.13476977 0.10904484 0.08858071 0.12446981 -0.051359355 -0.043240122 0.14266694 -0.16735353 0.17662854 0.07218901 -0.051455013 0.002368322 -0.0721317 0.062283807 0.07109851 0.050716408 0.05933131 -0.036870237 -0.01607368 0.018354936 0.04160186 -0.025997648 -0.17463 -0.1613649 -0.08335352 -0.030749947 -0.022310043 0.0241339 -0.034553103 -0.016072854 -0.12198683 -0.20485762 0.07738802 -0.09146709 -0.06252063 -0.06774405 -0.054486334 -0.10718467 0.03484499 -0.08810846 -0.07720712 -0.002650874 -0.19690932 0.04129997 0.1670717 -0.10525322 -0.027294489 0.0829795 0.07709356 -0.20841141 0.042768728 0.16684103 -0.017477158 -0.24465385 -0.19724642 -0.021087995 0.09450613 0.1569682 0.01985498 0.05526466 -0.037652515 -0.015770392 -0.32150882 -0.021633398 -0.0708051 0.06680695 -0.05277305 0.07717827 -0.0056918026 -0.105860405 -0.18099056 0.039508875 0.21005413 -0.12436966 -0.043421935 -0.040908586 0.122673795 0.20605934 -0.19557303 -0.072671495 0.1256702 -0.11667071 0.19987528 0.08777316 0.01661947 -0.033299986 0.048272297 0.09537144 -0.041379817 0.08664424 0.08152701 0.028002558
1140 0.05101859 -0.09168691 -0.060255114 0.1644527 -0.057757147 -0.14108019 0.01693102 0.016464066 0.0049403296 0.0130599225 0.068174474 -0.031824663 0.039584078 -0.013017367 0.1207061 0.036335584 -0.043621562 0.08287548 -0.08956587 -0.12869419 -0.03461917 0.15672785 -0.1946031 0.031329524 0.006897143 -0.074525006 -0.07250227 -0.091767915 0.15092465 0.0035718838 -0.11824866 0.07050092 0.07072536 -0.0046273177 0.020686666 -0.009715751 0.0102523 0.046204712 0.19764335 -0.007467442 -0.11583597 -0.14250726 0.12830788 -0.18115723 0.098041035 0.05093474 0.014136223 -0.0016685963 0.013427826 0.05539184 0.18088365 0.04196351 -0.115394145 -0.16565046 0.14218502 0.03184606 0.04211081 -0.016009802 -0.14798354 -0.09369968 -0.060298204 0.026467698 0.116218366 -0.065929025 0.16338162 0.09762227 0.03519275 -0.2178871 0.02936124 -0.018752987 -0.046541244 -0.20272703 -0.08028849 -0.072956145 0.10395397 0.009283045 -0.115876004 0.04111959 -0.04909237 -0.0290494 0.08798725 0.043260906 0.1528521 0.13331406 0.21537265 -0.13133036 0.009377125 0.18316379 -0.0007624803 -0.082028106 -0.124457516 0.004974895 -0.041513626 0.056570195 0.13118139 0.03582342 -0.13961397 -0.09422281 -0.22825463 -0.07002838 -0.2508399 -0.00994803 0.03828486 0.06610363 -0.0012017627 -0.07311742 -0.10854741 0.14979143 0.33953297 -0.0030809538 0.034321375 -0.18771623 0.14709209 0.08221864 -0.16882321 -0.14559098 0.090898305 -0.019887123 0.06354169 -0.061210334 -0.06890141 0.03940121 -0.053896546 0.24760191 0.0036745619 0.07370758 0.100238144 -0.18171798
1156 0.12684123 0.10265601 -0.047744684 0.15721855 0.13613501 -0.077278644 -0.041364744 0.15781173 -0.05739699 -0.020316467 0.1733777 0.09625856 -0.0724335 0.039287433 0.14635931 0.041287616 -0.15160163 0.0017134065 -0.010001507 -0.10450198 0.15296824 0.20676602 -0.01487545 -0.045501538 -0.08274534 -0.067113206 -0.09798552 -0.04411852 0.23966026 -0.12339244 -0.19179 -0.12784275 0.112564825 0.17832693 0.07846353 -0.013995284 -0.04166497 0.057623975 0.08871917 0.099345766 0.13195302 -0.22511005 0.24586634 -0.22766201 0.15581651 0.1731156 0.0817376 0.035149507 -0.1628971 0.072879136 0.050944243 0.099269696 -0.09733057 0.17712863 -0.017842736 -0.11889095 -0.02000971 -0.026160834 -0.13622373 -0.041198842 -0.17945932 0.011277769 -0.009948157 -0.19363138 0.16491659 0.04994695 0.12167511 -0.03609593 0.17653958 -0.08269735 0.08176455 -0.050457515 0.11687824 -0.046800666 0.20653388 0.037968528 0.0012469309 -0.1290231 -0.025176842 -0.18188116 0.11385647 0.019480608 0.050518613 0.1348546 0.02852035 -0.099747054 -0.024500256 0.18592909 0.16721709 -0.1238675 -0.094731815 -0.11924799 0.13158359 -0.1559752 0.11620358 0.07407088 -0.10276807 -0.19997412 -0.12277225 0.05564101 -0.20415999 -0.10983442 -0.11909058 0.019136868 0.047574453 -0.02749123 -0.10774829 0.18359959 0.27121803 0.02260426 -0.08741541 -0.08598941 0.0017558968 0.12397854 0.07103049 -0.07786051 0.29511493 -0.069917284 0.21382593 -0.001363699 -0.022729078 -0.12757531 -0.06919384 0.13727123 -0.116616204 -0.062269118 -0.15559518 0.031138152
1167 -0.008727406 -0.08377826 -0.032207087 0.2391769 0.050714515 -0.06837948 0.04869885 0.02324308 -0.11630748 0.08941183 0.058272164 0.02722248 -0.08056692 0.052487046 0.0262094 0.17777339 -0.08656527 0.21243122 -0.041746397 -0.018523626 0.037947755 0.17145224 -0.20433263 -0.17224796 0.03822927 0.023638487 -0.21691932 -0.0053666756 0.1335948 -0.06362978 -0.032207053 0.068043835 0.044520833 0.16498612 0.08869836 0.06513308 0.22988127 0.04556485 0.009219762 0.01765328 -0.0878473 -0.029026631 0.20281129 -0.057468276 0.17891654 0.010883587 0.021471852 0.02490237 -0.021711087 0.10180004 0.016485764 0.099079125 0.019156357 0.105757065 0.011704355 -0.077705115 0.05138078 0.0006440561 -0.11643718 -0.16006199 -0.079703845 0.039096653 0.08886464 0.004245773 0.1734198 0.029761855 0.010213775 -0.29092687 0.0014653062 -0.1752594 -0.19671078 -0.05420012 -0.14703201 0.012221211 0.012191551 -0.0063790595 -0.0075431494 -0.057681218 -0.105946675 0.014134186 0.007431873 -0.041226167 0.017878652 0.1921301 0.06694546 0.03624859 -0.014139018 0.12368359 0.107152894 -0.1523737 0.060524553 0.09516569 -0.024797788 0.0908253 0.08316275 -0.10214482 -0.08835137 -0.07841439 -0.23376995 0.079808444 -0.13867243 -0.0017935773 -0.09231071 -0.0449833 -0.07957362 -0.12766537 -0.25022644 0.04952559 0.1888206 0.056952115 0.053571604 -0.14519636 0.058734078 0.054843854 -0.0910407 0.042220157 0.018840997 -0.01717002 0.15195896 0.044637017 0.00078714895 0.075294115 -0.053586744 0.17799233 0.09847712 0.20367512 0.018159952 -0.017629983
1145 0.01589032 -0.2015282 -0.03576001 0.18480055 0.010840904 -0.06697034 0.068313845 0.14941233 -0.022175705 0.09476496 0.105683096 0.09184583 -0.07830091 -0.08210083 0.14981614 0.100502826 -0.077725254 0.034625094 -0.12579772 -0.055425126 0.025176948 0.1968596 -0.2129308 -0.008119606 -0.041019604 -0.085182704 -0.18196493 -0.07900431 0.16568993 -0.08779718 -0.05130849 0.070157394 0.11025613 0.1479395 0.061293907 -0.079766825 0.15810947 -0.0553935 0.16431431 0.07656247 -0.058986884 0.09310403 0.16221592 -0.064187564 0.20798376 -0.01026567 0.05483561 -0.048885453 0.024651987 -0.037904635 0.12821712 0.07823315 -0.00399558 0.05620925 0.10809941 -0.08899787 0.10944355 -0.0054958635 -0.079667136 -0.12471702 -0.16475746 -0.010661776 0.013607514 -0.084064074 0.093068235 0.014425267 0.09200617 -0.12282937 0.09952676 -0.10755249 -0.051802684 -0.0751726 -0.07223436 -0.013548501 0.07432758 -0.071492895 -0.19135205 -0.038798716 -0.0062043723 0.062653385 0.13393974 -0.13714583 0.08031237 0.037669633 0.14040071 -0.11435535 -0.0022154746 0.1616384 0.048085507 -0.07737662 -0.0876354 -0.0011258535 -0.07894147 0.030549426 0.08468462 0.06412909 -0.1478804 0.050154947 -0.27342734 -0.036025364 -0.21482125 -0.13719805 -0.054895796 0.12390394 -0.008794618 -0.10038735 -0.2916401 0.15601167 0.15133989 -0.039050903 -0.051223375 -0.16069946 -0.019081304 -0.018996654 -0.10470686 -0.048044086 0.041761693 0.015140741 0.09567283 0.038857896 -0.03236147 0.14045978 -0.039960973 0.15122813 -0.057651225 0.21227145 -0.17220269 0.006309313
1297 -0.0069054267 -0.12514801 0.008536707 0.16655396 -0.021649962 -0.072920635 0.020460533 -0.029843796 -0.08703118 0.064806506 -0.004090361 -0.003923122 0.01417402 -0.08481233 0.1183627 0.10073406 -0.03431058 0.13591464 -0.10496812 -0.042734344 -0.0077839964 0.17055562 -0.11266182 -0.114268444 -0.09619055 -0.078378 -0.11571944 -0.0607331 0.17639376 0.022092074 -0.005226095 0.08286149 0.07264783 0.059352193 0.048689622 0.014751607 0.12025953 0.08534909 0.13025528 0.08460909 0.0067565087 0.005989764 0.075911455 -0.16797571 0.1473512 0.0919887 -0.035519004 0.024984267 0.009984123 0.04143666 0.14229706 0.11741504 -0.04856937 -0.09804905 0.02371874 -0.08605431 0.051242888 0.02307895 -0.18186514 -0.14308013 -0.11996346 0.00046434806 0.017555395 0.05549139 0.060653783 0.07360986 -0.010115335 -0.22504339 0.034364156 -0.18242638 -0.16123144 -0.12461867 -0.07218524 0.09078759 0.09303643 -0.13494867 -0.07618439 -0.105675615 -0.05444827 0.00090257765 0.093098104 -0.07780449 0.081428185 0.1703604 0.1283064 -0.09068325 -0.07404049 0.13163808 -0.030711295 -0.100237064 -0.05754021 0.0587079 -0.023731234 0.081752636 0.15535747 -0.007686392 -0.20557342 -0.07918937 -0.15463336 0.033551026 -0.17488241 0.0788616 -0.06338272 0.13287193 0.002157441 -0.14468025 -0.19330655 0.028393932 0.18066421 -0.0743784 -0.12177746 -0.1490951 -0.056752354 0.0064446013 -0.06993044 0.10407649 0.10854925 0.017647859 0.17723846 -0.0068230242 -0.08566931 0.049898613 0.06748028 0.12584467 -0.08246921 0.12744482 -0.07818677 -0.105159774
1144 -0.01441224 -0.0021389222 -0.0029840148 0.17877933 -0.08419021 -0.031316854 0.03125029 -0.051778205 -0.10674801 0.06857121 0.07159949 -0.019948496 0.047791164 -0.038794015 0.028302861 0.08187262 -0.18838371 0.14906469 -0.03095405 -0.031284653 0.10934136 0.16776787 -0.14977342 -0.05886803 -0.035047565 0.05278319 -0.18679595 0.049233615 0.07218579 0.023825053 -0.06705307 0.07746812 0.1697292 0.07669676 0.11397645 0.02223394 0.1410322 0.11843134 0.05027173 0.1959344 -0.074041255 0.030197153 0.21120614 -0.17456293 0.17657736 0.07857828 0.06422878 -0.036678247 -0.06032656 0.2061164 0.17912239 -0.024705956 -0.06525776 -0.10944726 0.0528314 -0.104842976 0.0037074126 0.024679398 -0.061255805 -0.10850543 -0.07476025 0.08358638 0.07733284 0.0100880265 0.16956994 0.0476752 0.03247806 -0.2763092 0.09655674 -0.23894918 -0.0769611 0.050635684 -0.119042434 0.08822031 -0.028225703 0.008180518 -0.038236734 -0.098191515 -0.03789918 -0.032429375 0.018171301 -0.09382609 0.0019079776 0.1707743 0.13907108 -0.012541628 0.013468747 0.018522842 0.06502864 0.051389337 -0.07629811 0.18802458 0.024875268 0.070485264 0.097844884 -0.059267517 -0.09079309 0.012794806 -0.14059903 0.044666342 -0.0016011966 -0.12002825 -0.10644141 0.16455632 -0.07191133 -0.06955327 -0.10560634 0.08760762 0.23249893 -0.011317649 0.024663141 -0.2953413 0.11040686 0.08335242 -0.09603158 -0.00449007 0.11148183 -0.045433383 0.23813102 0.034793463 -0.007965227 0.1645275 0.0072282064 0.115417995 0.018603863 0.12381632 -0.06359634 -0.092373565
1413 0.020818383 -0.026454952 0.0814073 0.23621164 -0.03448046 0.033641398 -0.04700494 0.096678466 -0.15874974 0.026108284 0.14690673 -0.11307404 -0.01601911 -0.10984606 0.13108039 0.099720605 -0.08966216 0.25588763 -0.031181725 0.08580753 0.19180465 0.15779534 -0.08519578 -0.15013586 -0.0829226 -0.002482472 -0.03858425 0.018876893 0.05548263 -0.05811955 -0.13562527 -0.074217945 0.052623756 0.12197852 0.12020003 0.08160378 0.10895797 -0.11821061 0.051684927 0.12614775 0.048751857 -0.0054620565 0.09458925 -0.1282628 0.12177686 -0.0104673905 -0.04614679 0.030495044 -0.06040196 -0.00814253 0.19277573 0.16650318 -0.06144557 -0.07714273 0.08937048 -0.102584116 0.061889507 0.090352476 0.033310186 -0.22916378 0.009767285 -0.15118937 -0.005577597 -0.028783077 0.1058846 0.026510268 -0.047630105 -0.15275712 0.024108823 -0.06313118 -0.21804091 -0.0727932 -0.10638475 -0.027666721 0.043734238 0.0036027522 -0.1209064 -0.045401767 -0.05056495 0.03727569 -0.027653314 -0.14661185 0.03565151 0.31661457 0.20307066 -0.09415414 -0.07363332 0.15263818 0.114225276 -0.1213163 -0.076124676 -0.011247021 0.043121528 0.059767473 0.16278186 0.0110370815 -0.11832744 0.018949728 -0.15115659 0.026793059 -0.09605169 -0.0038702572 -0.07883026 0.09525378 0.016964898 -0.09407582 -0.13636935 0.15150507 0.21443033 0.10139681 0.0038337607 -0.13069773 0.071772896 0.065886155 -0.056569677 0.008026975 0.14358617 0.0019225524 0.10831823 0.0800961 -0.016432589 0.14971444 -0.03703566 0.07249061 0.0075391238 0.12444348 -0.00052313 -0.1474818
1128 0.1073914 -0.096033536 -0.044470776 0.17471063 -0.060974825 -0.04268904 0.09139785 -0.049569167 -0.014238391 0.028449325 0.046922483 0.027640404 -0.04983667 -0.15714146 0.1555278 -0.009902441 -0.068956874 0.08197997 -0.023713522 -0.078388296 0.07338699 0.16655508 -0.17808296 -0.17381361 0.05812806 -0.038712807 -0.13710313 0.075164296 0.11972833 -0.056887206 -0.07312991 -0.084031194 0.19995546 0.10373498 0.0991385 0.017468404 0.082441375 0.008534998 0.02143274 0.044982538 -0.06911499 0.07157145 0.21378139 -0.038159765 0.17636351 0.0061766906 -0.055005927 -0.020218866 -0.122205935 0.020196203 0.040506177 0.010783757 -0.160652 -0.053213455 0.09334853 -0.0450049 -0.043615308 -0.0072415937 -0.114190534 -0.11159385 -0.10798996 0.0393117 0.11738268 0.04700512 0.1275409 0.03376174 -0.025819197 -0.19393697 -0.024354443 -0.18433435 -0.07715437 -0.18208328 -0.054115456 0.079846546 0.099323004 0.07957922 -0.19858308 0.018063815 -0.06839388 0.089616224 0.18589392 -0.17191257 0.03538398 0.19337068 0.18155299 -0.09800849 -0.017060047 0.18407929 0.00786926 0.043635517 -0.1547701 0.060431033 0.030469079 0.0718577 0.090097405 -0.114637464 -0.034495343 0.07099795 -0.11534089 0.0066129514 -0.14778592 -0.055823598 -0.0487583 0.090740055 -0.03274249 -0.18818673 -0.11948907 0.1942935 0.20151466 0.081035145 -0.10513406 -0.12917411 0.17859042 0.03249895 -0.08215018 0.07262318 0.077401966 -0.0035700616 0.18884917 -0.033760138 0.014224805 0.059122905 0.040416088 0.1991386 0.10023951 0.12531736 -0.07352108 -0.11560881
1323 0.15804704 -0.031875808 -0.05431961 0.16036816 -0.018554201 0.104589954 0.020536687 0.1404402 -0.056174856 -0.08912324 0.1581753 -0.04090024 0.09835996 -0.008971198 0.18498775 0.069434054 0.10292714 0.20367663 0.06065434 -0.076103255 0.13006091 0.21717547 -0.13942143 -0.11017825 0.12868746 0.007551459 -0.06892875 0.11077209 0.06413079 -0.039559167 -0.07851979 0.005382324 -0.026926503 0.033916883 0.016845327 -0.05065488 0.01370303 -0.001146502 0.004713929 0.28825876 0.041352604 -0.11090734 0.16195899 -0.011609721 0.19503836 0.104761966 0.025958946 -0.07050814 -0.16329032 0.037318774 0.12094837 -0.00031023636 -0.08456059 -0.11662748 -0.03698146 -5.4683143e-05 0.0014329312 0.033415005 -0.18136778 -0.07111936 -0.08450466 -0.14732757 -0.055645622 0.057929613 0.07478378 0.010765221 -0.09896234 -0.39970857 0.059650026 -0.20235996 -0.10695921 -0.18568884 0.054702803 0.15056798 0.14692138 0.110868275 -0.12681961 0.023680706 -0.025526097 0.0035836438 -0.10425496 -0.043420233 0.01993231 0.15589885 0.081468605 -0.08105542 0.14370944 0.19829421 0.070494 -0.03195516 0.066814765 0.07594574 0.13441542 -0.0878646 0.0983566 -0.030276097 -0.08182942 -0.20000087 -0.3147785 -0.021205386 -0.0847472 0.0671307 -0.057300765 0.18627022 -0.15564509 -0.08536452 -0.17308432 0.03924926 0.2242917 0.027866222 -0.024477717 -0.027248068 0.122280076 -0.014029285 -0.062271576 -0.017320057 0.13463548 -0.08704701 0.09611906 0.0170311 -0.041462503 -0.15060176 0.18083702 0.18766132 0.003990743 0.1343497 -0.041954316 -0.07250197
1367 -0.087685555 0.06915014 -0.0067692925 0.19130899 0.2072346 0.027523713 0.01295046 0.030920299 -0.087498665 0.031764764 0.0951733 -0.07871704 0.01667731 -0.06329946 0.26183847 0.133651 0.035697434 0.17113784 -0.081174664 -0.08912229 0.017663322 0.14560948 -0.04076384 -0.087740384 -0.010311253 -0.055643577 -0.1462553 -0.0008537143 0.1678879 -0.07054436 0.024798557 0.12640813 0.034568973 0.14871804 0.065865345 -0.027787477 0.108802825 0.0026264153 0.12753107 0.09510549 -0.05987923 -0.076623075 0.15458582 -0.03727569 0.16580106 -0.020707821 0.14922643 0.01335229 -0.038379475 -0.02589916 0.21547654 0.014443645 -0.050374914 -0.046705417 0.0535342 0.0050353734 0.050801564 0.018481104 -0.084896795 -0.06405242 -0.16375072 0.05146841 0.056103766 0.040586967 0.11451879 0.10071967 -0.04673291 -0.37497038 0.050632767 -0.1702759 -0.025149096 -0.10487966 -0.07857675 -0.0032774007 0.04311708 0.007510624 -0.027673695 0.038361154 -0.0490633 -0.012093429 0.018312966 -0.085991345 0.09813558 0.15291834 0.15417466 -0.105667524 0.07023268 0.13833085 0.076690435 -0.022063786 -0.01327145 0.050733116 -0.027485767 0.068509504 0.048181716 -0.06630242 -0.15864873 -0.002653292 -0.21878652 0.10382448 -0.20434566 0.014275211 -0.08705141 0.07159255 0.104047984 -0.06441843 -0.05429483 0.048453003 0.28144753 -0.0045456565 -0.052575625 -0.17693055 0.09298408 0.01647813 -0.07851469 0.0038579558 0.13765375 -0.02879054 0.08161393 0.003115042 -0.018420909 -0.014817131 -0.007302801 0.2881127 0.011656094 0.09443527 -0.053835396 -0.01817728
1197 -0.018098487 -0.057839904 0.023408402 0.18175124 -0.006820708 -0.12238345 -0.06926866 0.004762525 -0.121521376 0.0701163 0.10929644 -0.0007937698 -0.059144754 -0.044254128 0.10908367 0.15086043 -0.07150384 0.07857289 -0.08041094 -0.10171628 0.02240679 0.18558824 -0.24242274 -0.14647697 -0.031858698 -0.1225116 -0.09258165 -0.011108696 0.102227814 -0.029519476 0.012660527 0.16191071 0.08111885 0.18098494 0.044627022 0.0739735 0.045662228 -0.021746038 0.023978304 0.22731942 0.04640256 -0.019177869 0.15519932 -0.0892788 0.17471173 0.07236228 0.08686109 -0.035139877 0.10373111 -0.04588742 0.11557275 -0.049246345 -0.09568352 -0.06241036 0.044671033 -0.1067873 0.043922175 -0.02390307 -0.09144148 -0.018261977 -0.049118303 -0.075503916 0.07737585 -0.062316407 0.13110906 0.102834 0.079097934 -0.23018983 -0.04180659 -0.117390886 -0.08018083 -0.12103763 -0.14924037 0.12386867 0.0122996075 0.06447449 -0.079336554 -0.14449279 -0.027940175 -0.03397345 -0.025255108 -0.017272014 0.1934964 0.1350131 0.2303013 -0.119344205 0.010207058 0.10517112 -0.070233904 -0.0936038 -0.051537804 0.16768473 0.042790487 -0.035557218 0.11836021 -0.09088538 -0.07998987 -0.018635033 -0.07917059 0.08255984 -0.13702284 -0.028541245 0.040216096 0.09759305 -0.012652652 -0.077332176 -0.13841198 0.20014693 0.2117489 0.06987911 -0.041158445 -0.25973672 0.041337367 0.051072225 -0.089747444 -0.06932948 0.1148125 0.061746884 0.15155233 0.026667159 -0.006097423 0.16601743 -0.029567504 0.13576466 -0.0521908 0.13100518 -0.0863543 -0.08555551
1370 -0.05566601 -0.09872036 0.08974932 0.12243857 -0.042259168 -0.018168844 -0.058261916 0.059024937 -0.04082329 -0.024581872 0.019090084 -0.0001155849 -0.028510353 0.0053165206 0.2108083 0.22358409 -0.070981994 0.09511804 0.004892273 -0.09515929 0.07402952 0.17873804 -0.044494405 -0.1211143 -0.0016173393 -0.11759621 -0.32447767 0.09154713 0.1532013 -0.030668963 -0.021771349 0.18317908 0.055478532 0.14672564 -0.007954956 0.021007301 0.10483429 0.115352124 0.0788842 0.1624124 -0.015612065 0.04851783 0.22007185 -0.09433494 0.1969019 0.07900265 -0.031697243 0.027234372 0.0010608473 0.027263818 0.13096933 0.11043231 -0.19491713 -0.08646 0.018604772 0.010005077 -0.072196074 0.01535761 -0.024710711 -0.09314433 -0.12340825 0.06670582 -0.00024826176 -0.0850435 0.06633524 0.035160873 0.11975015 -0.1642464 0.022560177 -0.14743593 -0.07042714 -0.1556196 -0.10358377 0.040929537 0.08974295 -0.06321532 -0.08105667 -0.02463161 0.013235743 -0.030681694 -0.053443428 -0.020758916 0.05740728 0.19467528 0.061225723 -0.15731797 -0.06552902 0.052114293 -0.05019525 -0.0077883047 -0.093049176 0.060968913 0.08747686 0.05418188 0.14349094 -0.062113117 -0.078097686 -0.0043792236 -0.20632745 0.06741996 -0.17375623 0.05260162 -0.06786387 0.11328292 -0.018040728 -0.07284978 -0.07162379 0.09899326 0.23665535 0.012667151 -0.08308016 -0.19714586 0.16583891 -0.032228447 0.023097564 0.08264072 0.13479234 -0.010072622 0.17137662 -0.084889896 0.045417108 0.153399 -0.04725676 0.110569924 0.08605319 0.2466069 -0.029267574 -0.04301643
1238 0.046443332 -0.118066125 -0.035338324 0.2623784 -0.07313449 -0.13866776 0.01689934 0.015691241 -0.061454732 0.031674847 0.029306285 -0.0021997953 -0.044746555 -0.09038457 0.11409222 0.07294881 0.018332573 0.15760367 -0.09269529 -0.027951827 0.0702378 0.13705781 -0.050696433 -0.0953928 -0.07897854 -0.050338812 -0.11198848 -0.009664462 0.0772551 0.054111503 -0.050942294 0.03210252 0.079722285 0.014921238 0.061209295 -0.0716811 0.075726666 -0.062733404 0.056614727 0.06432322 -0.03811045 -0.021656172 0.19688074 -0.07483247 0.10032845 0.017177843 -0.07684047 -0.036420416 -0.12575611 0.17407511 0.10670852 0.113163054 -0.16537726 -0.07076326 0.053947605 -0.15294307 0.044705827 0.043891825 -0.057140943 -0.114802025 -0.14372437 0.012481899 -0.028539676 -0.00046577537 0.07414774 0.010177249 -0.015906632 -0.19299512 0.0712482 -0.18669944 -0.17149086 -0.13166666 -0.1456352 0.05337398 0.11017092 -0.028569147 -0.072627515 -0.034104392 -0.12041106 0.07318916 0.0034791802 -0.021752413 0.1089021 0.22442448 0.13149555 -0.10330619 0.014858774 0.11337305 -0.0043039722 -0.081604056 -0.074597456 -0.061605114 0.0063752844 0.081706114 0.09270403 0.05764333 -0.11151378 -0.10032741 -0.17519106 0.07362286 -0.18790744 0.14992982 -0.04055141 0.15212406 -0.03318914 -0.04242281 -0.19199324 0.13272348 0.16990475 -0.0683757 -0.060716268 -0.15516956 0.08790067 0.09324161 -0.072004505 -0.011294499 0.1737789 0.0045966045 0.14598925 -0.034495898 -0.015769105 -0.032890927 0.075310886 0.22784962 -0.046858452 0.18161471 -0.046269014 -0.08081477
1271 0.12643649 -0.13102327 0.02046035 0.17265935 0.03179036 -0.21227352 0.06409419 0.03193533 -0.042049535 0.011928426 0.068732515 -0.04416754 -0.0013924984 -0.09454958 0.066861145 0.22565588 -0.011455015 0.08391809 -0.12742135 -0.07277784 0.12586616 0.083522625 -0.09541128 -0.06061382 0.022113716 -0.069673285 -0.14112723 0.02822055 0.06852636 0.010981914 -0.047111116 0.024893377 0.05559704 0.080104135 0.17574483 0.04784244 0.06429 -0.021140834 0.025553636 0.11903775 0.0017566604 -0.047797654 0.19174437 -0.1387731 0.21071652 -0.037185866 -0.050666977 0.001476128 -0.08958654 0.040659517 0.16280906 0.024052495 -0.050770707 -0.043342993 -0.019626336 -0.07576452 0.02472569 -0.09662179 -0.1683758 -0.25989124 -0.11514918 -0.019995136 0.06401239 0.049702972 0.101373844 -0.04970219 0.10179309 -0.22515193 0.054838106 -0.2319504 -0.08081016 -0.08078491 -0.20619756 0.10255036 0.07508772 0.02506828 -0.07996598 -0.006594612 -0.08003869 -0.08883297 0.05480323 -0.08232862 0.06059435 0.18354636 0.14927615 -0.11276397 -0.008508998 0.06611038 0.014209144 -0.0114354985 -0.1269318 0.0726175 0.07031448 0.0604479 0.14985502 0.028738935 -0.095247544 0.08552702 -0.107894555 0.01090099 -0.104172334 0.010315817 -0.10796638 0.12803206 -0.005089455 0.002366976 -0.18367198 0.09647396 0.19020829 0.0490367 -0.09069622 -0.14716128 -0.0137969805 -0.04472232 -0.05501789 -0.045651034 0.11434161 -0.0869644 0.084654756 -0.089053765 0.0018327793 0.09427815 -0.015608173 0.18454413 -0.0075238044 0.22879106 -0.07503788 -0.17162925
1368 -0.016876778 -0.018599143 -0.055208102 0.093946695 -0.022927897 -0.085138254 -0.046006672 0.1464534 -0.109853424 -0.005833207 0.12752004 -0.020905618 -0.07960177 0.0138519015 0.17654067 0.109510295 -0.067458086 0.046710342 -0.1597517 -0.09132062 0.033008892 0.13663846 -0.14771332 -0.15492164 -0.044468984 -0.14679627 -0.12810828 0.09482849 0.17963067 -0.0273898 -0.068889335 -0.0107249115 0.11056985 0.12206576 0.06784291 0.023468627 0.14857031 0.0188506 0.069393985 0.06346639 -0.0801041 -0.044146445 0.23305498 -0.032104578 0.25392967 -0.010766515 0.015353706 -0.018088637 -0.057231724 0.057611506 0.039551005 0.042709854 -0.13682339 -0.08818471 0.09716487 -0.11674709 -0.085384026 -0.028448313 -0.009762546 -0.07537974 -0.069054 0.04013694 -0.034591474 0.008982249 0.10149274 0.041603055 0.0708294 -0.236011 0.034018043 -0.12224016 -0.028695349 -0.12749085 -0.11919854 0.13776526 0.18030861 0.00036843825 -0.038093776 -0.008926042 -0.07906918 -0.052336637 -0.008478522 -0.021464491 0.13017565 0.17386115 0.22354113 -0.040251844 0.00066695164 0.056078635 -8.305926e-05 0.07666755 -0.2132855 -0.1183454 -0.02919936 0.007516408 0.06371471 0.10204921 -0.08349367 0.009297901 -0.13437645 0.16769694 -0.1322207 -0.037997052 -0.09265171 0.16689575 -0.048625685 -0.08527775 -0.08940697 -0.019648708 0.22261924 -0.004972129 0.0029026957 -0.2964332 0.06851866 0.02358013 -0.081673615 -0.07531015 0.0070738476 -0.11062246 0.17255887 -0.0012661869 0.046536706 0.07183072 0.022071406 0.11034194 0.064746045 0.19074723 0.014846298 -0.032633692
1356 -0.051431235 -0.10609538 -0.005280206 0.19764397 -0.033110388 -0.11966756 0.06771082 0.004253554 -0.05406528 0.06676676 0.13747287 0.08481482 -0.0556822 0.00407707 0.09818439 0.13390501 0.006188256 0.1448088 -0.08610064 -0.13194285 0.15371865 0.18110093 -0.20547445 -0.13027708 -0.006819772 -0.037305243 -0.16708332 0.045880355 0.09550799 0.047887854 -0.061422203 0.039239973 0.07869358 0.13768105 0.03390605 -0.0035162303 0.05606029 0.03658048 0.005494616 0.06206386 0.0145758875 -0.0732127 0.20511879 -0.09270614 0.10312178 0.013967877 -0.01521729 -0.071111865 -0.053960495 0.058609426 0.078373194 0.117960274 -0.20533435 0.01152026 0.06943261 -0.042858385 0.05192761 0.028165372 0.021247229 -0.029498804 -0.03125855 0.051844448 -0.00096407934 -0.10025443 0.0037518826 0.022058329 -0.004949914 -0.22720036 0.09084604 -0.098873 -0.1769955 -0.12814774 -0.10775944 0.09592315 0.108366385 -0.05742874 0.014535138 -0.11381379 -0.066672646 -0.06420245 0.08126336 -0.035334174 0.11426255 0.1763545 0.07229099 -0.09640314 0.0822288 0.11993011 0.041811742 0.044744655 -0.13101906 0.0981905 -0.075055666 0.042125728 0.16519663 -0.017833222 0.010613121 -0.0718031 -0.24337307 0.04491406 -0.25260478 0.00628667 -0.19024308 0.19869515 0.023979409 -0.057083357 -0.13049556 0.13080263 0.19670895 0.02776782 -0.031305816 -0.17605303 0.13689496 -0.024583044 -0.028167319 -0.055122204 0.12717085 -0.07502055 0.17373355 0.04735411 -0.103637196 0.14704889 -0.11812318 0.09643206 0.065539904 -0.019679517 -0.0970476 -0.09328618
1348 0.09545032 0.009154815 0.030245198 0.19972537 -0.11767286 -0.10391194 0.001736189 0.04237931 0.054101583 0.065884106 0.08854913 -0.035086583 0.14311013 -0.09120085 0.21055199 0.22293507 0.0036637147 0.050174043 0.1189173 -0.07716512 0.07448702 0.17086591 -0.030889003 -0.15530485 -0.043439135 -0.13783482 -0.124998525 -0.06114598 0.17864029 0.058051273 -0.076567456 -0.03290141 0.2888551 0.22842722 -0.009791022 0.06463666 -0.012512775 -0.029509697 0.17019647 -0.08188803 -0.19934444 -0.15200195 0.21103619 -0.14643225 0.16341136 0.22296731 0.08278085 -0.045106146 0.027950874 0.021147678 0.16173904 0.096657746 -0.13383864 -0.09158235 0.05276983 -0.16207062 0.08448065 -0.16976207 -0.07914035 -0.089593865 -0.05034814 -0.015867269 0.08080348 -0.13667665 -0.06613461 0.0012544878 0.14216891 -0.10508475 -0.030511074 -0.057988264 -0.15351795 -0.069904275 0.053534724 0.08371637 0.12562719 0.08201821 -0.20097566 -0.012633667 -0.15271834 -0.19693045 -0.07104067 0.13166797 -0.03585288 0.15376727 0.0047558793 0.016923098 -0.005855445 0.3072142 -0.00023125652 0.0116527 -0.10275778 -0.034676448 -0.0014201085 -0.030757276 0.15854192 0.03703742 -0.07171188 0.0331372 -0.1530111 -0.021508899 -0.10625966 0.075498566 -0.08458197 0.1371595 -0.184544 -0.21608968 -0.08797 0.13029222 0.39110705 -0.075903654 -0.055368673 -0.121839084 0.044090614 0.07286701 0.01863754 -0.23091348 0.036256287 -0.06007653 -0.12854381 -0.02950938 -0.00905801 -0.04767349 -0.18181753 0.024329532 0.12277543 0.1338458 -0.1440472 -0.10587151
1352 -0.030286325 -0.023424692 -0.051292438 0.31524915 0.05634704 -0.0610032 -0.12093378 0.11436648 -0.115406625 0.0247555 0.054728143 -0.0062169344 -0.04136074 -0.18059768 0.12354627 -0.012060471 -0.03431779 0.123712465 -0.026460245 -0.023746537 0.08858736 0.0018306217 -0.10142286 -0.15380044 0.023490844 -0.050316557 -0.11141983 -0.0454352 0.14487813 -0.028137697 0.085830994 0.03249653 0.03347098 0.24648353 0.116690345 -0.013346256 0.08292278 -0.1173607 0.09948297 0.1147019 0.030558437 0.053349506 0.1523605 -0.2067952 0.1466656 0.13514619 -0.00796003 -0.048066184 -0.032331552 -0.022039408 0.14299305 0.22007875 -0.033867754 -0.11271689 0.1443061 -0.11932323 0.07904647 -0.06811723 -0.025889587 -0.056349862 -0.026749771 0.019476568 0.029903088 0.018219749 0.14360492 0.14006546 -0.082937874 -0.20162767 0.04860084 -0.088708654 -0.074699745 -0.052595586 -0.07952424 -0.019028865 0.18615296 -0.027527297 -0.13270979 0.01846226 0.0076812124 0.0035118165 0.020429611 -0.070778005 0.0107547445 0.10599871 0.19588515 -0.076848745 -0.014797024 0.09518854 0.017489968 -0.0050712326 -0.1297244 0.10694815 0.03352515 0.06693054 0.15473351 0.0042864787 -0.17398486 -0.04341692 -0.19349852 0.11793509 -0.23350678 0.18272425 -0.017861368 0.055618323 -0.016579708 -0.1632884 -0.09809567 0.07216486 0.22555412 -0.0027175467 -0.07431884 -0.04534487 0.037809554 -0.07547892 -0.074756645 0.04500214 0.11850699 -0.16003993 0.13800736 -0.0051351422 0.049095087 0.14846356 0.048306182 0.19559136 0.037734907 0.084081374 -0.013257795 -0.09876653
1286 0.13412632 0.034081336 -0.011361365 0.2253641 -0.116902485 -0.024043338 -0.019264407 0.05704735 -0.008883337 0.13075991 0.03405307 0.03351613 0.019946681 -0.11841913 0.11065666 0.12100978 0.045630325 0.096096985 -0.10922386 -0.06017789 0.028629623 0.10787113 -0.14354455 -0.09243536 -0.122000694 -0.06495626 -0.20732549 -0.029054923 0.11944557 -0.008390359 -0.10918818 0.08722751 0.14630702 0.069015905 0.1325385 0.07750278 0.1055728 0.00025787455 0.017869987 0.23495908 -0.036614142 -0.06696105 0.25386074 -0.18589023 0.087084636 0.0222896 -0.010506772 0.075994186 -0.081259586 0.059426043 0.16951658 0.0375058 -0.029569253 -0.09592721 0.0062375627 -0.054083347 0.09984291 0.023269992 -0.09775009 -0.08789805 -0.07928579 -0.042136937 0.0706714 0.04003096 0.09975701 0.03392281 0.03036358 -0.34861156 0.04495464 -0.18901668 -0.07052664 -0.08639684 -0.08919216 0.019740663 0.04622711 -0.032431733 -0.041403476 -0.1481033 0.011326867 -0.086213626 0.08782903 -0.08710225 0.09472666 0.13294752 0.17932294 -0.12066399 0.028753364 0.11796083 0.014708874 -0.055930242 -0.08571451 0.03942078 0.037942216 0.13647434 0.09296096 -0.0775303 -0.058751833 0.014331844 -0.07648164 0.0772627 -0.10257114 0.08044198 0.025360527 0.13075955 0.021607647 -0.019927839 -0.17361508 0.0995408 0.12303797 -0.049268167 -0.013281746 -0.16285475 0.050186984 0.010044499 -0.053012233 -0.049441382 0.09754965 -0.07575877 0.23031127 0.04962682 -0.023756983 -0.0067231604 -0.046936072 0.110064894 0.11467444 0.09357693 -0.045727752 -0.07430248
1146 0.10503679 0.03135185 0.06920178 0.09563781 0.00055682054 -0.090079345 -0.025182372 0.07938875 -0.044351388 0.09171556 0.09501301 0.058221817 -0.025849232 -0.08774482 0.08121639 -0.013753046 -0.1297434 0.16201141 -0.16203232 -0.11266873 0.023554852 0.15248218 -0.14913678 -0.1640262 -0.00031367957 -0.06294356 -0.07735607 -0.008896283 0.23208843 -0.002519741 -0.14609024 0.078768164 0.11413475 -0.0016755026 0.1406161 0.07317924 0.052417953 0.08236299 0.09589428 0.12959471 -0.009206561 -0.043147005 0.13572945 -0.068648405 0.174583 0.03192181 -0.055005223 0.039369926 -0.065238915 -0.059398483 0.114744015 -0.0039568455 -0.13266438 -0.09785953 -0.022424914 -0.100472406 0.054210212 -0.0933127 -0.2048512 -0.16285391 -0.108458534 -0.09345203 0.09891462 -0.049033787 0.02414345 0.060854353 -0.02191509 -0.24270703 -0.03262629 -0.2284478 -0.1197276 -0.06057057 0.013017525 0.10042216 0.017827243 -0.03792399 -0.13803987 0.0039044907 -0.13331397 -0.06782106 0.09188526 -0.05980671 0.15735087 0.13943489 0.0029113872 -0.043128412 -0.016488882 0.024527317 -0.08233252 -0.15330878 -0.014296007 0.088259794 0.025349662 0.21067417 0.14028981 -0.031092215 -0.18027654 -0.0037176788 -0.15017177 0.034336522 -0.09730057 0.10639825 -0.054650936 0.13742203 0.099347174 0.00036409296 -0.15362124 0.051868062 0.2196083 -0.0042459522 -0.11350439 -0.24174069 -0.04121544 -0.020103246 -0.015418903 0.008356437 0.13391727 -0.06072363 0.049925737 0.070125885 -0.04219855 0.035799988 -0.059157517 0.22849844 -0.03887691 0.1473185 0.017619222 -0.05529105
1199 0.09211868 -0.14984557 0.050869215 0.27144024 0.103691176 -0.16770364 0.14458564 0.068747 -0.037502326 -0.022654844 0.09780163 -0.058172707 -0.20780745 -0.027539525 0.15433761 0.17134553 -0.04575348 0.121374965 -0.00957395 -0.07838962 -0.0016826461 0.09800739 -0.15733011 -0.13613388 -0.064166285 -0.077155836 -0.04953221 0.070892274 0.12938856 0.039492596 -0.0916974 0.0020925645 0.096686356 0.15931116 0.060797613 0.039624266 -0.0062235547 -0.042853925 0.12015033 0.036952835 0.049625836 -0.11507729 0.16409414 -0.03273265 0.16156372 0.020781167 0.01335688 -0.09741619 -0.019916782 0.10573067 0.06573733 0.06628164 -0.12596475 -0.08423099 0.006895149 -0.034810502 0.00860824 0.019297745 0.018768016 -0.17084129 -0.1253849 0.04387427 0.10836411 0.09346246 0.040170915 0.03252725 -0.0073071183 -0.3743478 0.017512694 -0.17380944 -0.08985777 -0.099696904 -0.016520435 0.07208917 -0.008792406 0.047538012 -0.14845835 -0.047974486 -0.07008714 -0.03706745 0.079841025 -0.067084886 0.088306844 0.11045281 0.13129348 -0.06545121 0.045996636 0.050181616 0.13936837 -0.109464385 -0.068296105 0.06742549 0.06112779 0.10330747 0.14663468 -0.038202304 -0.21976934 0.025093572 -0.18126504 -0.12420997 -0.052465826 0.0017019777 -0.14352447 -0.0063957907 -0.041071165 0.035569083 -0.11238674 0.09621099 0.2328509 0.06757137 -0.029395089 -0.13066503 0.03314957 0.04876249 -0.043642174 -0.00031140543 0.120699406 -0.016907107 0.18553428 0.084517 -0.14961939 0.12787469 0.08499355 0.17431572 0.10400274 0.19481644 -0.058238436 -0.08242221
1390 -0.018025078 -0.07560187 0.07422712 0.27728838 0.03522117 -0.06234711 0.09545 0.13139659 -0.039820027 0.002703172 0.21942711 0.025785582 -0.07700445 -0.012531233 0.05787455 0.20888557 0.02919296 0.062871896 -0.10925887 -0.021000015 0.09907767 0.19206727 -0.0541178 -0.033894964 0.08020652 0.023905013 -0.19431399 -0.04395809 0.12595989 -0.045726318 -0.057051584 0.11669152 0.1464948 0.18594736 0.10915329 0.05337436 0.020525912 0.011521992 -0.0068096607 0.13902786 -0.09417223 -0.037893448 0.2968987 0.019788196 0.031170154 0.09487469 -0.006218849 -0.044770587 0.04443745 0.10140994 0.110795 0.018571133 -0.044173624 -0.065022394 -0.06845847 -0.10554087 0.014502225 0.035059813 -0.115542114 -0.14161265 -0.06986456 -0.009618967 0.059055474 -0.0247509 0.06155552 0.02009502 0.022389691 -0.3131999 -0.112001136 -0.10967574 -0.13495427 -0.11750989 -0.014689647 -0.0069037513 0.16060303 -0.056615025 -0.051820897 0.07986273 -0.002917778 -0.043208905 0.10138579 -0.15587668 0.03963851 0.15549363 0.15007141 -0.11155638 -0.014426424 0.06383346 -0.06560845 0.042233933 0.016969401 0.053856418 -0.014675764 0.08967612 0.17570758 -0.1798853 -0.09292703 -0.021377644 -0.123003095 -0.0619962 -0.16874054 -0.07910164 0.017170072 0.019946974 -0.0033552668 -0.16425467 -0.2597433 0.11142821 0.19956613 -0.04792065 -0.12359638 -0.060833532 0.1354814 0.13511164 -0.123264536 -0.011665976 -0.007933678 -0.058068376 0.100199826 -0.051151603 -0.15805848 0.1511459 0.0581261 0.14774221 -0.09183406 0.19290511 0.0601809 -0.06654838
1189 0.08286366 -0.04673804 -0.08793148 0.12106129 -0.14536208 -0.05123978 0.13389337 0.060590565 -0.0026468912 0.06421116 0.07980976 -0.049207147 0.07177381 0.056988005 0.13718514 0.030511485 -0.12967248 0.10746075 -0.046240326 -0.07291492 0.10696612 0.059924357 -0.18244702 -0.11063578 -0.019939443 0.026053565 -0.14401762 -0.041459106 0.23081799 -0.043401502 -0.12824802 -0.076715246 0.08840764 0.08168927 0.15944394 0.08667272 0.104060866 0.1930288 0.09273343 0.11270591 -0.081463225 0.029766243 0.21446219 -0.06939971 0.08706536 0.16807257 0.02003839 -0.08156073 -0.036914036 -0.088798605 0.037682343 0.042005207 -0.109637864 -0.026255978 0.15551625 -0.048430298 -0.015548956 -0.09078348 -0.08676836 -0.060106695 -0.0773549 0.11618858 -0.0019302254 0.11326194 0.0032943625 -0.030012617 0.026218476 -0.10852917 0.055618457 -0.022875184 -0.13387151 -0.088788696 -0.11339549 0.019123437 0.15930377 0.030460011 -0.16538028 -0.088058636 -0.012946142 -0.024812534 0.049121976 -0.11351035 0.21871051 0.17651832 0.072288975 -0.037361078 0.039428852 0.060669232 0.06567527 -0.10063705 -0.033384256 0.02360555 0.0018907352 -0.0847264 0.08166654 -0.17620464 -0.0766128 -0.03036603 -0.22735783 0.029439742 -0.16696344 0.09158549 -0.084833115 0.21898519 -0.039641265 -0.10482282 -0.23460603 0.13967194 0.24316767 0.0074375817 0.051118504 -0.105112664 0.026952676 -0.042822115 0.048422217 0.04445893 0.0067843045 -0.022621905 0.19996567 -0.020079996 -0.045567475 0.059520658 -0.035812266 0.22334671 0.04333281 0.15775809 -0.038539115 -0.035304185
1249 0.069385804 -0.06650835 -0.06527828 0.058885124 -0.087700404 0.06856089 -0.019643253 0.11976869 -0.030891225 0.024594218 0.028689094 -0.03774093 -0.018518185 -0.21631451 0.07424399 0.1187639 -0.042530682 0.21736068 -0.007152959 -0.0017831248 0.07344591 0.22643164 -0.11742613 -0.105252735 -0.078214705 0.039814703 -0.18610415 0.031879872 0.088309 -0.13293244 -0.12679842 0.06496492 0.061940767 0.1534507 0.11066956 -0.057276163 0.03378404 -0.035855267 -0.06633982 0.02511308 0.03871353 -0.03577209 0.21671931 -0.21094458 0.16190535 0.08981959 -0.026271261 -0.04276825 0.00348143 0.055586033 0.1516829 0.16336295 -0.041412145 -0.0213201 -0.058658253 0.03574739 0.04585215 0.0063256025 -0.07664573 -0.09057507 -0.05456498 0.056645796 0.063710295 -0.0034076003 0.08752701 -0.010172337 0.08695612 -0.16347513 0.06475002 -0.1350777 -0.11645401 -0.17565596 -0.12763695 0.15420125 0.083092496 -0.058187865 -0.053845063 -0.01623409 -0.071440876 -0.03209455 0.10772964 -0.11373088 0.116912775 0.23505703 0.18380214 -0.06604698 0.036002442 0.005311952 -0.0022512374 0.060578644 -0.015229359 0.032547697 0.03868918 0.08641393 0.19452402 -0.012152777 -0.020927887 -0.010551671 -0.2099225 0.0028415073 -0.00631146 0.033325892 -0.096538626 0.15370797 -0.078771986 -0.11544437 -0.17744613 0.10111385 0.20706196 -0.06389457 -0.09174472 -0.17479199 0.09824868 -0.007684088 -0.040768877 0.026092742 0.15045069 -0.099711366 0.11335169 0.055560302 -0.09505017 0.11327181 0.08381308 0.10281839 0.07364167 0.17384166 -0.18213174 0.01793099
1277 -0.13592608 0.035650283 0.069937654 0.14243464 -0.07574542 -0.05285162 0.045437254 0.15374842 -0.11068953 0.0004543484 0.06725234 0.06341371 -0.041469157 0.004946801 0.09126177 0.0708013 0.024292082 0.04837504 -0.028501865 -0.06568477 0.04963333 0.22263001 -0.23381506 -0.033229075 -0.05951516 -0.013444234 -0.17773193 0.104239464 0.20224388 0.060577482 -0.07623964 0.01230889 -0.024332702 0.036497947 0.095892064 0.16703176 0.09289693 -0.01126411 -0.0878125 -0.0011308537 -0.13551144 -0.0834578 0.23593895 -0.18405268 0.18885417 0.017040078 0.00083849806 -0.24187668 -0.093341835 0.077196285 0.17870604 0.11120969 -0.14410578 -0.19150393 -0.1322062 -0.19449066 0.04611529 -0.051776767 -0.04143757 -0.078022555 -0.062344633 0.12985584 0.10416716 -0.08085146 -0.020185525 0.03474201 0.07032297 -0.16354024 0.017681718 -0.15023951 -0.092772655 -0.024401577 -0.18603267 0.060127392 0.1195606 0.02563454 -0.070020735 -0.011885761 -0.1512149 -0.022749612 0.013067205 -0.09669713 0.12720367 0.119865194 0.13287665 -0.01738006 0.058512047 0.08826933 -0.045189284 0.022180002 -0.10693232 0.042392123 -0.06396167 0.12809114 0.21422602 -0.0965588 -0.17608172 0.05660827 -0.08614602 -0.12040919 -0.22449465 0.04142347 -0.014423692 0.14335084 -0.05275542 -0.03224308 -0.08561721 0.11166221 0.22953193 -0.09523762 0.042708736 -0.13609648 -0.059032213 0.019813808 -0.11738744 0.06547995 0.072473064 0.061278712 0.14973627 -0.02514898 0.054685477 -0.038865183 0.12503678 0.16388144 0.05514003 0.06601144 -0.00815896 -0.06692375
1283 -0.03055479 0.013382733 -0.08324304 0.005450765 0.22198161 0.11245132 -0.08251261 0.21412645 0.08965452 0.061177377 -0.020651672 -0.20203038 -0.13561116 -0.005062295 0.046492703 0.21164347 -0.30770797 0.10503896 -0.17953031 -0.1628699 0.00802895 0.24121875 -0.24536575 0.05530365 0.0270941 0.0034123396 -0.05591472 -0.0068867677 0.19482148 0.008083957 -0.153666 0.045043696 0.13253616 0.18651702 -0.013115727 0.1115196 0.09027093 0.0150859635 0.041987617 0.24670872 -0.22257379 -0.05405222 0.12239466 -0.035005856 0.25912622 0.20733479 -0.02751452 -0.025851645 -0.038637694 0.0010064191 -0.021253908 0.3093159 -0.023037022 -0.13455433 -0.097088926 0.028976891 0.021773838 -0.033429205 -0.066320606 0.0039420347 0.09691431 -0.03224362 0.036634877 0.061330352 -0.067607 -0.09568521 -0.0048241653 -0.054365348 0.06635758 -0.06621934 0.08596025 0.02494087 -0.040068626 0.109502465 0.072057724 0.15020421 -0.20099536 0.08045765 -0.15868793 0.056065783 0.04933072 -0.060393706 0.16070539 0.113837525 0.15806317 0.020279907 -0.12095911 0.29585165 0.1348 -0.007348908 -0.05281129 -0.1594744 0.1651741 0.062827796 0.035305135 0.04358167 0.042786174 -0.1512056 0.00949529 0.13716735 0.032093678 -0.07887303 0.11108648 -0.14329202 -0.0577138 -0.09053748 -0.2096892 0.10893717 0.3390537 0.05044473 -0.32371548 0.0047491896 0.06678603 -0.038146317 0.020624898 -0.07242694 -0.12356858 0.0008441018 0.24901193 -0.03554026 -0.04231318 -0.008303057 -0.11099757 0.28470767 -0.24260767 0.07493347 -0.11516316 0.020350752
1147 0.09678785 -0.10153067 0.05729688 0.14989728 -0.03325573 0.03021921 0.06882234 0.1505032 -0.039606366 0.08903691 0.10983346 -0.08367952 -0.04261308 -0.041285545 0.18142414 0.10895007 -0.07735209 0.07917754 -0.20284708 -0.19004577 -0.06584919 0.24970856 -0.102859154 -0.16856878 -0.1541591 -0.17089346 -0.21073948 -0.046955984 0.17442861 -0.017805496 0.072966866 -0.0037113365 0.030829268 0.0788506 0.01229772 0.034539707 0.12770087 -0.014958119 0.01037906 0.13704102 -0.018685993 0.021819586 0.18653663 -0.091926396 0.15356907 0.07097752 0.063397594 -0.12546434 -0.030935239 0.043851737 0.20760672 0.20684886 -0.12060874 -0.08824278 -0.05781454 -0.0552033 0.08082744 -0.07456369 -0.07320026 -0.029991569 -0.103160046 -0.05062538 0.09464528 -0.028899746 0.13635625 0.17727545 -0.05139908 -0.1767514 0.10890191 -0.14378086 -0.17079407 -0.0977911 0.013988526 -0.056431025 0.09748191 -0.14604014 -0.009764102 -0.049792785 -0.123701274 -0.04773962 0.1543163 -0.03943827 0.10894749 0.15362208 0.094455376 -0.047444526 -0.023453727 0.08311051 -0.07099038 0.006513502 -0.171846 -0.03974502 0.031039711 0.084877014 0.1526844 0.0033856113 -0.101350665 -0.022457616 -0.17091015 -0.09110574 -0.13058999 0.024987629 -0.03651768 0.0533476 0.066675164 -0.004744747 -0.064674474 0.16805303 0.13356058 0.047077827 -0.013219307 -0.060140733 0.024058595 0.102851324 -0.116831996 -0.03427447 0.07387723 0.02391019 0.048928037 -0.09083293 -0.07781658 0.068326876 0.02970272 0.19613852 -0.03182167 0.05137417 0.10938259 -0.107786514
1406 -0.11681505 0.006975968 -0.10202732 0.28674558 -0.017100072 0.0033897613 -0.09250605 0.09385402 -0.14880943 0.09154428 0.08905557 -0.022652308 -0.073830724 0.009066235 0.11895537 0.018010164 -0.14434753 0.06438712 0.033981822 -0.2445217 0.3026151 -0.061379794 -0.06863035 -0.029700179 -0.08969603 -0.020156724 -0.13835171 -0.1319075 0.1475713 0.024694098 -0.22999854 -0.09051782 0.2330601 0.025567224 0.22181284 -0.015609839 -0.02598459 0.16663992 -0.047783703 -0.023237206 -0.05205839 0.011805398 0.2856043 -0.09829217 -0.08677876 0.12856357 0.115893625 0.07610369 -0.21016328 -0.009748993 0.19563332 0.12817714 0.060617298 -0.021091193 -0.011606841 0.08594359 0.108117394 -0.018058687 -0.10244411 -0.25970402 -0.09233288 0.021723952 0.16718303 -0.071785085 0.07572673 -0.0817045 -0.015742673 -0.036126018 0.13262807 -0.01623129 0.01156221 0.02588268 0.011914816 0.09497243 0.20183015 0.101735614 0.100891955 0.10914438 -0.36769667 -0.08803849 -0.06506387 0.11715766 -0.0014075133 0.1683198 0.26316297 0.08577372 0.00778883 0.11384341 -0.021910274 -0.012365953 -0.0651757 -0.08094073 0.13202167 0.1239457 0.15156986 -0.061555013 -0.06825279 -0.13541256 -0.12715892 0.06395479 -0.18727186 0.017608313 -0.046846397 0.29495028 -0.10887637 0.021332564 -0.15466066 0.17858632 0.17069817 -0.076541714 0.022498159 -0.15838197 0.051775265 0.15027316 0.055409454 0.020128706 0.04476102 -0.07433023 0.27809268 0.02872392 -0.03662477 -0.021927515 0.0010442501 0.19883518 -0.09478142 -0.066882454 -0.14615652 0.1359603
1259 0.024992881 0.08427138 0.075128295 0.24052691 -0.027806919 0.051883936 -0.08048633 0.11133825 0.0048967553 -0.16097793 0.007111775 -0.019614624 -0.21424426 0.014628046 0.10112748 0.110681705 -0.056627203 0.09036524 -0.003965339 -0.10619563 -0.01333462 0.10437192 -0.20498309 -0.17180759 0.004481734 -0.027472246 -0.2436215 -0.09059328 0.1553822 -0.09418849 -0.0027871488 0.067023054 0.17884804 0.14311421 0.072080985 0.22896644 0.07069482 0.02041636 0.08764378 0.1457699 -0.08318624 -0.11703171 0.18564978 -0.059077837 0.03694576 0.0010044172 -0.2024332 0.05682841 -0.10908595 -0.12869234 0.24916886 0.019067803 0.027235635 0.05745023 -0.023716865 -0.07589862 0.029602757 -0.030564923 -0.030226143 -0.019161154 -0.0797359 0.083891466 0.17876147 -0.0859659 0.07238494 -0.027848512 -0.003528257 -0.18307625 0.037530694 -0.105979145 -0.13909718 -0.13271637 -0.053431522 -0.082767166 0.20533232 -0.032404445 -0.007685876 0.13513935 0.050307177 -0.03221799 0.037577998 -0.017661339 0.083092965 0.18178989 0.052057263 -0.0066386443 -0.04661158 0.101779856 0.031839423 0.08790602 0.020076923 -0.06092831 0.021089105 0.088272266 0.20568778 0.01995366 -0.010230424 -0.010165947 -0.06916864 0.12540965 -0.068194576 0.104937986 -0.103228115 0.15930858 -0.06280844 -0.07742459 -0.15314217 0.19325869 0.25094244 -0.20565076 -0.021746214 -0.13727249 0.15087555 0.046676375 -0.13873059 -0.037440572 0.15677682 -0.05296025 0.123290956 0.09462081 -0.045827635 0.19047609 0.010505327 0.20562515 0.08536677 0.06125943 0.16165304 -0.08625809
1273 0.052609995 -0.06640033 -0.014739512 0.20532976 0.031079302 -0.06716956 0.084258236 0.12570417 -0.06758835 0.1690802 0.017927144 -0.004956631 -0.13493873 0.031821135 0.10820106 0.14523236 0.02246683 0.14776474 -0.0814983 -0.08162449 0.08428911 0.13658693 -0.24938843 -0.09216 0.024341444 -0.08373044 -0.104398794 0.09158147 0.12375258 -0.0029744713 -0.099331975 -0.011187497 0.19391389 0.08257918 0.068045214 -0.09100209 0.11039176 -0.028562315 0.0023625498 0.18847643 0.0086599225 -0.031458605 0.31016088 -0.1322395 0.20891266 0.067299426 -0.09899738 -0.0202931 0.09725884 0.023512684 0.12631778 0.05066437 -0.054236565 -0.07259024 0.042065147 -0.09607382 0.02770003 0.011587256 -0.0079810815 -0.1123936 -0.057024874 -0.013238653 0.07422452 -0.029759597 0.027960064 0.11296273 0.09587434 -0.17324711 0.09463923 -0.14863464 -0.02326166 -0.13789643 -0.11190576 -0.026152952 -0.043687094 -0.10932086 -0.054457814 -0.020678386 -0.08845041 -0.068930686 0.021862347 -0.039989073 0.1769132 0.14622644 0.08788241 -0.017645007 0.053964823 0.046776045 0.10048727 -0.036756318 -0.032489244 0.058167554 0.011118398 0.1403228 0.13995112 -0.038572814 -0.079784274 0.08675313 -0.20304975 0.060779132 -0.036893904 -0.008066942 -0.08259175 -0.045807794 0.014252198 -0.100236185 -0.19381092 0.24020621 0.17198902 -0.05418167 -0.025494404 -0.23499802 0.04267589 0.14843942 0.04472653 -0.014741064 0.03319332 -0.12744406 0.14256062 -0.013723099 -0.037368104 0.04989848 0.023821093 0.14055188 0.009608414 0.21959363 -0.07565966 -0.14177023
1200 0.050624847 0.008700622 -0.037459787 0.18052131 -0.07907674 -0.03716129 -0.019027738 0.057791263 -0.0056037027 -0.0779367 0.09192304 -0.008199679 -0.08921057 -0.07501364 -0.029256247 0.05775493 -0.07288917 0.0790639 -0.060364537 -0.035902455 0.05661438 0.2120362 -0.13120876 -0.09101691 -0.022933649 -0.026701087 -0.06033705 0.09345413 0.11912642 -0.035031002 0.016710242 0.010154658 0.030497888 0.08115384 0.17216487 0.05697848 0.06030203 0.08745673 0.14438188 0.18810768 -0.15307927 -0.038978223 0.080219105 -0.102086656 0.11669907 0.007230551 0.084145725 -0.08817877 -0.068559445 -0.039109375 0.19990687 0.03739796 -0.1599622 -0.068259686 0.08074463 -0.10134033 0.055213183 0.015654318 -0.013272236 -0.09977723 -0.1488633 -0.08128565 0.10973155 0.05452551 0.1278085 0.16494009 -0.011572156 -0.23488127 0.013358602 -0.14020842 -0.17356777 -0.057451557 -0.14963982 0.023496551 0.16980782 0.07624269 0.0459625 -0.065184936 -0.00917292 -0.027077414 0.17542078 -0.08566212 0.10242858 0.20929293 0.16222633 -0.08202976 -0.0809927 0.16092092 -0.0013824898 -0.055026527 -0.020201487 0.06386345 -0.01528798 -0.043663625 0.10568846 -0.056673218 -0.026157873 0.02195929 -0.19407587 0.12082322 -0.18137155 0.02665148 -0.01956265 0.19419122 0.09154725 -0.08939998 -0.19774304 0.090533845 0.2259499 0.06202049 -0.10188562 -0.153963 -0.027920566 -0.09274491 -0.03591789 0.0018803836 0.16894588 0.04065576 0.047921855 0.017745987 0.06942341 0.028400961 0.06857052 0.16803269 -0.056657657 0.179357 0.012225758 -0.054167967
1262 -0.03328433 0.024148978 -0.19283865 0.18192178 -0.023697624 0.0065226206 0.13787167 0.014175982 -0.12277125 -0.024177654 0.04390413 -0.02905804 -0.035012748 0.063020386 0.09961431 0.10911834 0.080033615 0.25429755 -0.06783261 -0.2310263 -0.003599032 0.28157115 -0.12528737 -0.11107114 0.038404457 -0.05898938 -0.09595135 0.07611091 0.23439293 -0.098274834 -0.040472757 -0.023953859 0.018169371 0.21434468 0.18043599 0.061136175 0.010689606 -0.026652941 0.075316824 0.031238735 -0.115097746 -0.074266344 0.13093144 -0.20493086 0.15373044 0.06369631 -0.023441639 -0.07909753 -0.02913341 -0.03832163 0.2096459 0.25004947 -0.084188215 -0.10610768 -0.034559377 -0.055905517 0.062077723 -0.006326665 -0.10488416 -0.15228501 -0.13540159 -0.009998204 0.12546983 0.07018872 0.09990862 -0.036073446 -0.0073464103 -0.25402704 0.10013434 -0.15988937 -0.04495164 -0.0064008036 -0.0567509 0.03177573 0.11408099 -0.02641542 -0.06502282 -0.042265397 -0.11228573 0.09886924 0.00400967 -0.066377714 0.073225744 0.08467278 0.12942193 0.005274986 -0.035733137 0.06591594 -0.012935206 0.04917777 -0.13036333 0.0658897 0.112894446 0.0057196696 0.1081125 -0.02053961 -0.12860473 0.047119316 -0.03981421 -0.04323013 -0.22443491 0.014280231 -0.12387723 0.11611149 0.0091532115 -0.117071964 -0.11931834 0.12365622 0.083183736 0.014464582 -0.08757081 -0.22489305 -0.024229068 0.04148431 -0.025919458 0.0060647586 0.03449873 -0.10055703 0.105280206 -0.0065251095 0.071221694 -0.029963974 0.02416771 0.15824705 -0.19043307 0.03711328 -0.025347577 -0.03579718
1085 0.06721209 -0.017237993 0.03075436 0.14001101 -0.018019713 -0.1114314 0.15139331 0.10513013 0.052468486 -0.023930658 0.08248701 -0.043181196 0.04311802 -0.07327324 0.172316 0.16135326 -0.050141335 0.19021483 -0.28879854 -0.076879375 0.05306979 -0.02851931 -0.14909022 -0.13281903 -0.012069664 -0.1273929 -0.13926078 -0.0063664312 0.27944452 -0.1633017 0.005640459 -0.028208902 0.14221098 0.104743466 0.14997669 0.11774859 0.016687233 0.027148739 0.17436127 0.1898114 0.010509957 0.15418266 0.106129214 0.03984601 0.063566886 0.025630655 0.047612607 0.082344115 -0.12215092 -0.0018712517 0.17072135 0.042488556 -0.046389304 -0.059685845 -0.051487625 -0.002811971 0.12112138 0.008707018 -0.04728401 -0.123389155 -0.13908337 -0.0473899 0.09697974 -0.008109418 0.0131133245 0.0943474 0.023237925 -0.3042853 -0.07542733 -0.04927753 -0.11643296 -0.13052675 -0.05134498 0.03539423 0.09983749 -0.023701034 -0.033780396 0.06459045 -0.10809652 0.0017446114 0.100571625 -0.23527299 0.100116506 0.14716518 0.03900195 -0.02062576 -0.01293487 0.14981592 0.08520964 -0.013581383 -0.014808258 -0.08564001 0.024448777 0.16227102 0.04250784 -0.082477726 -0.074134305 0.0068414225 -0.15513818 0.108952425 -0.27591655 0.13265282 -0.12642123 0.13760945 -0.051948544 0.01587493 -0.19761497 0.125962 0.24613443 0.0027708183 -0.061090913 -0.0630303 0.016237343 0.036813147 -0.04206811 -0.102872506 0.047284096 0.049150866 0.03398449 -0.05313773 -0.10693843 0.013735279 -0.06308937 0.18820688 0.042172715 0.059578862 -0.1216439 -0.1830089
1339 -0.087783486 -0.09463039 -0.0817228 0.3275679 -5.952442e-05 -0.05987773 0.028679045 0.10443135 -0.10043568 -0.026559465 0.205675 0.12930505 -0.072350495 -0.052904908 0.25090247 0.1145147 -0.03308608 0.15068018 0.028532784 -0.07689585 0.1677692 0.19026755 -0.14436477 -0.08356315 -0.021524962 -0.042940278 -0.22657987 -0.040165797 0.13360031 0.08750793 -0.06723204 -0.046012264 -0.0065332977 0.07158438 0.047815327 -0.038138263 0.1369239 0.021917805 0.10322181 0.1820911 0.057962388 -0.078190334 0.20982434 -0.03157544 0.08832645 0.06473466 0.027988892 -0.024158463 -0.06894124 0.09713704 0.27081102 0.09803306 -0.082056016 -0.09504423 0.13319968 0.066978306 0.068955176 -0.09391653 -0.098110884 -0.052754633 0.13300432 -0.02604299 0.051367983 -0.03036238 -0.017641183 0.047426056 -0.096000604 -0.2263317 0.01694088 -0.156922 -0.1619902 -0.07272301 -0.08740815 -0.07309436 0.087951496 0.0066937413 -0.034395438 0.10996992 0.059324358 -0.05499422 0.016983079 -0.06437702 0.06927321 0.0983169 0.0823426 -0.12963605 -0.0052265762 0.073450655 -0.07890522 -0.037896335 -0.011609252 0.0038188489 0.098619096 0.025647676 0.11461353 -0.049677107 0.0071589174 -0.0009408425 -0.16571437 0.06904669 -0.11221358 0.0038168307 -0.27521947 0.07037829 -0.14325486 0.06261195 -0.17965926 0.12049222 0.16868623 0.021740824 0.008506408 -0.15145262 0.0676526 0.120032035 -0.0153932255 -0.00077084056 0.08252844 0.13626157 0.06721992 0.034218922 -0.13957854 0.080602154 0.11400877 0.05596625 -0.053962465 0.120522365 -0.01951969 -0.13895419
1073 0.16386606 -0.054802764 -0.0047872285 0.21011889 -0.16225977 -0.0340614 0.050676174 0.070964046 0.0029865578 0.016322266 0.06258883 -0.05375663 0.029795416 0.027998265 0.16223665 0.13860558 -0.13444345 0.27590343 0.001948006 0.01944489 0.08721828 0.058736015 -0.027144656 -0.16608153 -0.116424225 -0.06471713 -0.2001844 0.008349611 0.037329998 0.11704859 -0.13127732 0.017921263 0.21332648 0.027275614 -0.014720294 0.038506597 0.14464617 -0.0795856 0.14336221 0.060680572 0.034344185 0.1044094 0.22924662 -0.0102665555 0.08691359 -0.028135005 0.039996058 0.061844442 -0.106192544 0.011726306 0.13439645 0.0017898564 -0.25844643 -0.12464521 0.0014352241 -0.07120778 -0.0057577286 0.090969585 -0.06145542 -0.052294903 -0.18109491 0.12751855 0.113569625 -0.006508272 -0.025560642 -0.042421922 -0.021693906 -0.26876822 0.03305709 -0.095435254 -0.090446085 -0.19776504 -0.21246189 -0.029234445 0.14046136 -0.010481108 -0.0456069 0.008839125 -0.040710643 -0.083543725 -0.09963569 -0.035929956 0.23899503 0.21919884 0.1997916 0.09086766 -0.056292538 0.031348065 -0.042267248 0.059378255 -0.05106456 0.10684763 0.16572985 0.012833459 0.15616708 -0.016973022 -0.04888295 0.027485393 -0.16545367 0.16613555 -0.053433955 0.13221322 -0.09585384 0.12841222 -0.021941613 -0.100115106 -0.06615143 0.21486355 0.24041103 0.01750589 0.044882506 -0.1114115 0.087232165 -0.007049409 -0.028650677 0.0041035623 0.04526511 -0.008883251 0.04534987 -0.0026275436 0.0018540797 0.01813266 0.033045016 0.13341083 -0.012274201 0.23089173 0.0024713657 -0.1224241
1226 -0.0247035 -0.017697182 -0.019055419 0.12305748 0.006183464 -0.19775715 0.0072188503 -0.05281253 -0.15496069 0.020007165 0.07342953 0.073413126 -0.13905516 -0.089974254 0.13196985 0.024393605 -0.03830621 0.034749195 -0.13491972 -0.09367361 0.16114819 0.1510044 -0.12620352 0.006366919 -0.11649506 -0.030196559 -0.011048497 0.0140467165 0.04836046 0.012801396 0.025689881 0.066652484 0.05853254 0.078704715 0.026960807 0.045007493 0.13045517 0.036362156 0.0880631 -0.07525913 -0.02204574 -0.033821195 0.33570427 -0.15642546 0.18012173 0.024010787 -0.0065888558 0.012952596 -0.059867486 -0.013671028 0.21662864 0.097802766 -0.26712847 -0.25783426 0.035086427 -0.17320561 0.034776278 0.05983304 -0.15912332 -0.10101506 -0.11016831 0.05059693 0.051934175 0.014869789 0.010245303 0.094507925 0.070327885 -0.24336535 0.09133869 -0.18421508 -0.14487222 -0.12009125 -0.16946697 0.087185845 0.13879745 0.13020694 -0.018574288 -0.021759283 -0.151907 -0.043341238 0.012534324 -0.09005078 0.04178287 0.18761589 0.06451999 0.011114809 -0.007132094 0.003816258 0.12486211 -0.08284471 -0.103469126 0.0047492106 -0.026718354 0.06128975 0.11701744 0.017414317 -0.08197063 -0.15674753 -0.13674694 0.094661884 -0.13869151 0.013756762 -0.1212114 0.16210715 0.0013505738 -0.1542176 0.0025686997 0.1939082 0.221468 0.0007116583 -0.007032993 0.041644692 -0.072727725 -0.015652442 -0.05752082 -0.08183089 0.093989894 0.108693056 0.018615106 0.05768286 -0.23221326 0.07234671 0.01663717 0.21829797 -0.106862396 0.06632017 0.038325053 -0.1729834
1398 -0.036841482 0.052260827 -0.063543215 -0.004457709 -0.046857953 0.058050334 -0.22743854 0.13197465 -0.012816832 0.12680788 -0.0843668 -0.10536945 -0.017702797 -0.049472902 0.093580656 0.1777163 -0.067400776 -0.11350404 -0.029801214 -0.07041591 0.14846385 0.21191746 -0.20482981 0.04527779 0.0068675466 0.160425 -0.06641007 -0.21815519 -0.11216794 0.023997393 -0.35897642 -0.16439573 0.08044337 -0.006975104 0.100484274 0.19471183 0.38309222 0.03690262 -0.047807634 -0.00955533 -0.04552533 -0.24005252 0.15018779 0.098793164 0.0121807195 0.18835005 0.07866518 -0.06189651 0.1240922 -0.063736536 0.048355415 0.12104029 0.04398106 0.0020217253 0.070791125 -0.07515237 0.16421722 0.13177033 -0.19214758 -0.06301959 0.06822418 -0.016847797 0.00037152608 -0.097758256 0.17202099 -0.105076894 -0.04658835 -0.25646955 0.04011104 -0.12566057 -0.079006076 0.0870588 -0.13751207 -0.14572196 -0.02645538 0.30757508 0.02765048 0.27534333 0.12831736 -0.28713468 0.023291308 -0.029915633 -0.03413153 0.08888497 -0.011151147 0.04656929 0.08952997 0.117282756 0.1545994 -0.26654088 0.0120072095 -0.03939343 -0.033406623 0.1347012 0.006314668 -0.1328742 -0.017050793 -0.23510137 -0.2216261 0.21814547 -0.14570159 -0.16780484 -7.454056e-05 0.35571077 -0.08232052 0.03306248 -0.36635852 0.122802116 0.31020603 -0.031754937 0.020322097 -0.17485961 0.23595777 0.1436087 -0.02155846 0.015330594 0.026260925 -0.20960109 0.2025678 0.23855714 0.009769102 0.00742463 -0.13438912 0.13202116 -0.030351833 0.04851415 -0.08324077 -0.062255
1082 0.07081805 -0.03646522 -0.013060393 0.05831975 -0.0023843034 0.024056833 -0.058702312 -0.016144041 -0.046141505 -0.026182843 -0.03737505 0.058760226 0.016135732 -0.08941544 0.012239454 0.19975874 -0.027211322 0.13803992 0.09196827 0.09912927 0.12191046 0.09100932 -0.25200802 -0.037985004 -0.07432887 0.102200575 -0.03639767 -0.016776672 0.11184854 0.002175947 0.1106942 0.042714518 0.038687684 0.11964662 0.23387791 -0.055985074 0.1273856 -0.027091095 0.033137564 0.039556853 0.1269303 -0.053474084 0.2568825 -0.12005288 0.06992358 0.013002139 -0.101440884 0.017707286 -0.2051244 0.1757516 0.13066632 0.1384778 -0.08013651 -0.2715287 -0.064784534 -0.057261568 0.05451026 0.021467319 -0.104819186 -0.012937424 -0.09457808 -0.045447767 0.08732326 0.05852574 0.11071426 -0.040517703 0.07526096 -0.27781138 -0.05395494 -0.16788895 -0.10897083 -0.17073251 -0.08469171 -0.0910935 0.1004514 0.24121068 -0.064947195 -0.0075203753 0.0671101 0.013407579 0.02425376 0.06378994 0.19211218 0.084359534 0.14899975 -0.13315469 0.020967798 0.09221536 -0.06455928 0.025207125 0.06267036 0.054295428 -0.05220809 -0.023133012 0.11162579 0.0021060412 -0.25151566 -0.18884231 -0.1478455 0.13334976 -0.25967294 0.106038354 -0.1698036 0.12902549 0.013103693 -0.095290646 -0.2095056 0.19988455 0.1719628 0.044503614 0.05404542 -0.19750033 0.042418428 0.013293472 -0.11368461 -0.14335962 0.18825623 0.029818883 0.124176525 -0.026840359 0.0041238265 0.015012973 0.0036056056 0.18893242 -0.04484181 0.08688944 -0.12333841 -0.16967817
1055 0.16784433 0.018793862 0.04116454 0.40926087 -0.031289414 -0.20314635 0.02603794 0.011753971 0.09949267 0.15385015 0.19811524 -0.033792466 -0.041997645 0.0013039334 0.08083204 0.05180877 -0.2401597 -0.10665483 -0.23197821 -0.03333485 0.06118594 0.07266808 -0.015321447 -0.015290925 -0.13675041 0.106642924 -0.057146933 -0.11151343 0.2299965 0.039970487 0.012122963 0.12115523 0.016706735 0.30617025 -0.079229824 0.07628607 0.30663612 0.21299809 -0.03959634 -0.005318609 -0.12553234 -0.22479014 0.2699172 -0.08542177 0.09832055 0.14574133 0.04219747 -0.07797561 -0.07400114 0.113877445 0.12646042 0.1148776 -0.22281608 -0.0746034 -0.114345126 -0.02702248 0.077050805 0.051613953 -0.07427155 0.00037578173 -0.13669774 -0.069737315 0.030558288 -0.043545324 0.25632355 -0.026535625 -0.011464503 -0.120677486 -0.017356705 0.032119673 -0.01812085 -0.18462081 0.005553464 -0.045627113 0.104879834 0.16215105 -0.23508632 -0.013034533 -0.18302384 -0.0771539 0.15221384 -0.017862385 -0.086361594 0.18326095 0.089590855 0.07495505 0.057138048 0.28559896 0.037464213 0.044765174 0.044801537 -0.15268728 0.1526405 -0.22863857 0.07155563 -0.12610944 -0.12673815 0.006016909 -0.082484834 0.053898115 -0.041231792 0.058703896 -0.107900664 0.10260327 -0.17939495 0.08938783 -0.20233609 0.1843272 0.16464 0.10918497 -0.111980945 0.053705864 0.028476035 -0.0053067007 0.047762588 -0.13071895 0.08820694 -0.12505412 0.17898361 0.18389207 0.05310587 -0.09845417 -0.116750695 -0.07303371 -0.015088127 0.08672593 -0.0146686975 -0.12787132
1106 -0.05388008 -0.173165 -0.07980755 0.28431225 0.006273438 -0.0015626589 0.019601053 0.035818055 -0.108539924 0.1366251 0.07030702 -0.041207094 -0.13613251 -0.010754738 -0.0999456 0.11952658 -0.034356605 0.07480216 -0.10390582 -0.18264548 0.07761334 0.23408136 -0.30483574 -0.07802088 0.022953551 0.021347398 -0.18228538 0.07446927 0.09552396 -0.025606982 -0.06564292 -0.002234274 0.06235392 0.09746825 -0.006472066 0.027537445 0.11769329 0.0130182495 0.11049718 0.09279476 0.062804684 -0.16570468 0.111822695 0.09911969 0.16907085 0.095150076 0.045326337 -0.12176658 -0.071550034 0.027104849 0.15501797 -0.060199786 -0.06718757 -0.08781061 0.08291584 -0.10371784 0.031124156 -0.092613295 -0.19612333 -0.12665485 -0.038121432 0.13766348 -0.039576158 -0.011934668 0.065816 0.05075957 0.037538677 -0.174268 -0.013085591 -0.14576027 -0.08099476 0.013249627 -0.14835127 0.055689737 0.24211624 -0.034718726 -0.015501927 0.03146339 -0.13050668 0.0069722575 0.07797978 -0.121560834 -0.00889167 0.18311864 0.028220372 -0.077204056 0.05668625 0.07719916 0.04140468 0.15869898 -0.12220327 0.038097024 0.012776963 -0.08851676 0.1189187 -0.027811147 -0.08224268 0.09381851 -0.06510496 0.26483133 -0.17435516 0.019690523 -0.112401746 0.042199958 0.007788085 -0.049751446 -0.17680399 0.1984174 0.27481505 -0.088327885 -0.102704085 -0.18436308 -0.07995041 0.046505824 -0.06331825 -0.08773051 0.16428761 0.024357073 0.08195292 0.04921889 -0.09664565 0.09821599 0.12885371 0.19742213 0.028037276 0.16652024 -0.021899354 0.01527364
1325 0.07423306 0.19160898 -0.010287654 0.025187984 0.32033768 -0.16567872 -0.016589321 0.0105921505 -0.22336477 0.25073624 -0.059160165 -0.25759545 -0.20982973 0.10426267 -0.010614438 0.14656393 -0.16292123 -0.26519957 0.1625616 0.03946257 -0.21446986 0.35794932 -0.24287423 -0.005954481 -0.17624098 0.15905422 -0.30986643 0.02262951 0.113184236 -0.006576806 -0.0842415 -0.056524046 0.18788244 -0.02032287 -0.004891849 -0.04346411 0.18597299 -0.022554632 0.17482315 0.20137739 -0.11610623 -0.22593498 -0.004194001 -0.17001332 0.20651631 0.34367245 0.13845223 -0.19471861 -0.2085202 0.01989252 -0.14741322 0.18205424 -0.18273692 -0.1763488 0.031690907 -0.04663616 0.10273481 -0.26437426 -0.15226452 0.08630716 0.069875844 0.011990026 -0.25449702 -0.17680499 -0.013437688 0.11578819 -0.12181588 0.088542484 0.24255428 -0.2153658 -0.055772476 0.17142291 0.13147284 -0.071896546 0.37006798 0.0048711486 -0.06860546 0.20783255 0.02331187 0.0073672826 -0.032879144 -0.05539333 0.03979206 0.07099019 0.027764909 0.053020082 -0.048577238 0.3087596 0.13770361 0.028694356 -0.020845 0.059380908 -0.036219917 -0.13821387 0.043307256 -0.22089398 -0.11483679 -0.22967784 -0.07785095 0.09664563 -0.28802958 0.053532258 -0.20060281 0.11349256 0.032351006 -0.047559734 -0.38216066 0.043049235 0.12908483 0.24644622 -0.16898513 0.01549616 0.16194831 0.34443688 -0.10482382 -0.0045505846 -0.07275575 -0.30747885 0.01133401 0.09185017 0.11515209 -0.022723304 -0.09430979 0.12375246 0.12915766 0.24554831 0.047992036 -0.08565822
1278 0.14970769 0.033808865 -0.0462362 0.14839645 0.061661363 0.03849661 0.0397805 0.069003046 -0.058771893 0.004267043 0.0022768113 -0.06656197 -0.0062166993 -0.12184751 0.06134915 -0.024801271 -0.05486448 0.07143667 0.09633007 -0.15860255 0.041662928 0.25651115 -0.14015305 -0.056960512 0.09998193 -0.06523656 -0.15178497 0.05370069 0.11967555 -0.088784136 -0.18563555 0.1957352 0.13514285 0.16327871 -0.041833874 -0.020866735 -0.023355864 -0.045553904 0.050390847 0.10234155 0.084612265 0.12977625 0.09938204 -0.18847401 0.13550241 0.08227016 0.050626125 -0.107386775 -0.08800579 0.02718462 0.16738412 0.045231167 -0.08934416 0.08808144 -0.09846321 0.048759554 -0.08843308 0.055260014 -0.17439751 0.024316996 -0.15572059 0.11346336 -0.004727016 0.016645715 0.10880997 0.13603298 -0.007267644 -0.11135332 0.103290945 -0.32654446 -0.12876332 -0.062412046 -0.1707643 0.08159738 0.034748215 0.060396522 -0.083122045 0.22713163 -0.2623002 -0.09071122 0.102231264 -0.01198695 0.10032771 0.07898514 0.11004896 -0.055244576 -0.057912163 0.23575383 -0.005994694 -0.03169886 -0.070710376 0.049777754 0.114503875 0.050533883 0.1808858 -0.18449347 -0.08380385 0.15761344 -0.16032249 0.00901561 -0.14432628 0.2156493 -0.21218045 0.13487571 0.030558733 0.100492306 -0.06651975 0.09716744 0.20261821 0.17299452 -0.06754177 -0.019753685 0.028142003 0.010551113 -0.0072157406 0.041189622 0.24241188 0.0013788034 0.21253881 0.0029262223 -0.0515849 -0.01683246 0.045851596 0.15302469 -0.16627538 0.07857396 -0.13389258 -0.01321435
1417 0.086951345 0.06028216 0.06685598 0.09538024 -0.014302113 0.05343233 0.06423478 0.12039382 0.0012045876 0.06719454 0.0457783 -0.024133487 0.050629992 0.1241094 0.051644623 -0.028043468 -0.2231183 0.07698189 -0.026999366 -0.028628986 0.030957242 0.22329922 -0.18117686 0.027100353 -0.18188253 0.24858971 -0.17181288 0.017679026 0.20792155 -0.13342482 -0.097438246 0.08045204 0.11450623 0.1679544 0.042404864 0.04970489 0.12094611 0.05205686 0.044184376 0.24803038 0.0048044426 -0.06173352 0.20757435 -0.120938614 0.020598995 -0.05010303 -0.026104202 -0.20313576 -0.05959021 0.028914066 -0.0047096466 0.1057213 -0.1068129 -0.084188126 -0.05388336 0.01793788 0.09636287 0.03844366 -0.05046058 -0.09398079 -0.015213337 -0.09913471 0.2538934 -0.06748868 0.13824911 -0.07247912 0.07974454 -0.04268044 -0.071546264 -0.21168633 -0.11936745 -0.21641937 -0.023352135 -0.10553301 0.15494971 0.13425988 -0.08380591 0.019418316 -0.005057579 -0.11486779 -0.0056962757 -0.13328163 0.10152178 0.16556995 0.20586748 -0.07305865 -0.044524916 0.0578382 0.09006417 0.03887569 -0.08006186 0.008988459 -0.011382611 0.25972125 -0.11839526 -0.17036562 -0.058046773 0.03025641 -0.22555545 0.055223044 -0.22749244 0.14224735 -0.08796829 0.12618634 0.039420743 -0.0020258564 -0.17698774 0.06183642 0.19846675 0.029287916 0.084672116 -0.10266817 -0.11788835 0.044502333 -0.23945946 0.024490045 0.1977038 0.08785256 0.059389766 0.13108033 -0.09442483 0.16896433 0.105390795 0.11600198 -0.09832742 0.24825472 0.0012088357 0.008805687
1246 0.024711458 -0.11110377 -0.042608157 0.13654582 0.00053756527 -0.10225708 0.07789923 -0.02370996 0.014633681 0.088223256 0.08042831 -0.10028657 -0.035982445 -0.089039944 0.00488552 0.1057049 0.016436493 0.11715069 -0.13157627 0.005323868 0.06707729 0.12255243 -0.07330232 -0.23583943 0.0077138874 0.038009945 -0.07026252 0.01459971 0.15577258 0.099149056 0.005735668 0.027300602 0.038618498 0.10989132 -0.027476067 0.048384804 0.14702018 -0.025003402 0.06011755 0.09230352 -0.009487726 -0.054054335 0.031452246 -0.1687598 0.2116985 0.12390561 0.07816824 -0.14769293 -0.074599385 -0.069166854 0.17613815 0.19453387 -0.077258475 -0.108637035 0.1009557 -0.05105053 -0.086876385 0.04356545 -0.006182192 -0.05141243 -0.08424895 -0.05647384 0.07755349 0.017708315 0.10744249 0.14769858 0.033834312 -0.36253235 -0.03716854 -0.10641739 -0.1060182 -0.060781885 -0.059579663 0.13566145 0.08866742 -0.0521432 -0.07079124 0.06912702 -0.044716336 -0.0049109 0.20228514 -0.028879216 0.1389763 0.14510584 0.019241987 0.021440685 -0.0748686 0.14728333 -0.109738685 -0.0003185212 -0.20722847 -0.03904295 0.13332841 0.0627663 0.15521123 -0.037094463 -0.15880607 0.0017262152 -0.2674709 0.12726772 -0.17504063 0.037735578 -0.06736182 0.13160256 -0.0061886166 -0.08774431 -0.19906203 0.16631408 0.06521657 0.11590468 -0.07342949 -0.2044599 -0.12310471 -0.078803755 -0.073524415 -0.02899117 0.07187356 -0.048781898 0.17093569 0.11577335 -0.07860131 0.13374522 -0.012978511 0.07884824 -0.00641261 0.06778906 -0.018133542 -0.18942851
1341 0.101289965 0.17878622 -0.013961987 -0.077483304 -0.0014747067 0.014501674 0.08275902 0.006474314 -0.16833846 0.20933731 0.03279239 -0.19950192 -0.05537302 0.09128758 0.12353207 0.03887809 0.037549783 0.067766786 -0.09540649 -0.023705035 0.044456042 0.2880356 -0.27260372 0.021610063 0.023993162 0.08754737 -0.40611446 -0.033198927 0.064805545 -0.044604186 -0.31479818 0.09449905 -0.014622949 -0.014994037 0.13889112 0.08458989 0.16913976 0.18775839 0.058838703 0.23301649 0.052857175 -0.019229008 0.10063919 -0.12011176 0.20822272 0.34136146 -0.007587916 0.034476664 -0.14724885 0.1296088 -0.06576055 0.29790562 -0.2872212 -0.0708325 -0.04248369 0.025885286 -0.017032992 -0.002329288 0.123189904 -0.013051005 -0.11678311 -0.34036022 0.15664814 0.20863377 0.22597268 -0.11062379 -0.23857082 0.060058452 0.08568485 -0.12153063 0.019789187 0.09647404 -0.22580798 0.080316015 0.33981496 0.17362778 0.17883427 0.10175792 -0.15357012 -0.122824095 -0.07439679 0.12084791 -0.09139382 0.38602924 -0.06030373 0.13901804 0.007822151 -0.034956638 -0.026559995 -0.21126245 -0.032578126 -0.050487794 0.09633465 -0.025216775 0.20641917 0.25380275 -0.14181317 -0.19510125 -0.043508135 -0.03422421 -0.16621564 0.020496663 -0.07014826 0.11268785 -0.027025595 -0.14449695 -0.082632855 0.24083632 0.25683475 0.13610919 -0.13861932 0.26571536 0.038277075 0.036215525 0.09549517 0.02617661 -0.15050569 -0.1359492 -0.0049659866 0.28918287 -0.045711976 -0.24380474 -0.12431285 0.2696615 -0.02407623 -0.057565507 0.04133305 -0.02610249
1101 0.028476922 -0.060893074 0.023698326 0.26232007 0.114712246 -0.0013961826 -0.06919146 0.047075573 -0.1630586 0.0760066 0.05422254 -0.02364761 -0.038847588 -0.000728285 0.08105243 0.23874997 -0.05475351 0.19154027 -0.004597352 -0.056725774 0.1271614 0.038688187 -0.18459131 -0.15106232 -0.09057274 -0.15409309 -0.28693882 0.001387651 0.16019104 -0.063298725 -0.038652945 -0.041536648 0.042178497 0.14142433 0.15534367 -0.02141725 0.0161055 -0.018489344 0.1071706 0.15637036 0.1646316 0.021531707 0.19939114 -0.16111231 0.13274734 0.08957816 0.015124242 -0.08168612 -0.001029035 -0.023979941 0.04604131 0.09314189 0.082358755 -0.054697864 -0.17365412 0.028361559 -0.033916544 0.038517833 -0.08645475 -0.08595426 -0.059976388 0.0736043 0.121182606 -0.07161251 0.05092101 0.15671498 0.12467019 -0.21103962 -0.0072450265 -0.030904949 -0.029981686 -0.16900776 -0.06656403 -0.0006154391 0.04022975 0.038037997 -0.17825943 0.082840376 -0.17351934 -0.036633946 0.077129014 0.03719938 0.06157484 0.026641488 0.17155923 -0.03182692 -0.046521634 0.1404673 -0.0049213483 -0.034252092 -0.05975901 0.004505264 0.10517819 0.11595668 0.21444197 -0.051079165 -0.040961504 0.08173636 -0.21846306 0.052751046 -0.12488946 0.10789695 -0.0045927446 0.13516314 0.056646857 0.03234465 -0.16028883 0.19794872 0.20669869 -0.030089067 -0.0910453 -0.016801368 0.005009256 0.046012778 -0.09839092 0.017745847 0.07512865 0.026129534 0.30899012 0.0033430723 0.020656506 0.12427741 0.09525691 0.04020586 0.03595997 -0.0815059 -0.06786812 -0.10689207
1409 -0.093442895 -0.04536015 -0.057952087 0.090345636 -0.06019336 0.04598908 -0.030663397 0.12046991 -0.16088483 -0.11628924 -0.08245046 -0.044192106 0.009348361 0.023515766 0.18008034 0.13287388 -0.0863186 0.11951465 -0.108545184 -0.13371527 -0.0986557 0.20026937 -0.27453548 -0.058076955 -0.22597525 -0.015831685 -0.07123137 0.19004378 0.26286957 -0.071834624 -0.13244829 0.094675526 0.14416468 0.1569362 0.032696456 0.072212845 0.07920192 0.034076434 -0.040477596 -0.037827484 -0.12265648 0.110091254 0.1744166 -0.1103689 0.15192522 0.049185563 0.046011887 -0.27213505 -0.11620971 0.23929878 0.16343372 -0.07108818 -0.017719215 -0.12198118 -0.0016842143 0.009273231 0.039785717 -0.03265853 -0.007058821 -0.15182969 0.02921524 -0.034701344 0.03961195 0.029470379 -0.05819416 0.024793454 -0.03540431 -0.20976491 0.11650274 -0.22554573 -0.23673993 -0.010560603 -0.21193732 0.014318204 0.07376698 0.12965688 -0.09276279 0.00431338 -0.06323229 0.08474432 -0.009008615 -0.07237312 0.10854609 0.016131764 0.14224799 0.0594666 -0.010393122 0.30259308 0.1450439 -0.11445998 -0.18945521 -0.20027086 -0.0050961734 0.20892188 0.11360728 -0.0018144853 -0.21021134 0.053473867 -0.2186006 -0.041932575 -0.045128793 -0.0395998 -0.0756503 0.07361789 0.03401906 -0.012107946 -0.10319784 0.111208566 0.047084518 0.08699708 -0.033710938 -0.10378713 -0.033217553 -0.031100139 -0.040561616 0.162118 0.09055304 0.09290307 0.24182703 -0.18060338 -0.033238906 0.0044223913 -0.01912113 0.0952257 -0.046785947 0.09332779 -0.20490547 -0.16524301
1078 0.082597375 0.1290384 0.06717239 0.2717597 0.02085479 -0.17330073 0.15398142 0.1907697 0.06926236 0.022443023 0.041957725 -0.123799294 -0.023155946 -0.019070877 0.015773037 0.15547395 -0.21179987 -0.08579816 -0.11476086 -0.20766129 0.15672666 0.13253918 0.014775313 -0.14175798 -0.1457092 0.13985729 -0.17128292 -0.032664143 0.28648764 0.04796511 -0.070152335 0.0736582 0.033983745 0.4203597 -0.006380343 -0.119954735 0.17305419 0.32681322 -0.14298734 -0.046099905 -0.08624318 -0.009316934 0.16876093 -0.11313535 0.21594301 0.2946494 0.04851292 -0.1007056 -0.07287924 0.09786531 0.1671803 0.1234326 -0.13866931 -0.18074234 -0.005671507 0.07844195 0.17106839 -0.03991038 -0.1484917 0.03202198 -0.08537435 0.022945695 0.04897029 -0.010710243 0.11782794 -0.0017248858 -0.0886137 -0.09536083 0.05214679 0.10970877 -0.056949712 -0.16345285 -0.002188592 -0.0641774 0.03769852 0.008892257 -0.16230838 0.0026707884 -0.11008492 -0.03789635 0.26437482 -0.16931817 -0.116665505 0.19756025 0.08297439 0.083679415 0.03329894 0.11182715 0.123633176 0.11735504 0.0001917465 -0.0042503723 0.049228452 -0.13301422 0.14736119 -0.07560769 -0.036065802 -0.118902005 -0.11400762 0.17424929 -0.014050713 0.0035807143 -0.0758813 0.0024239465 -0.15634042 0.037302624 -0.06770282 0.1609019 0.18611199 0.14030476 -0.109498896 0.058938865 0.030223172 0.06413429 -0.06221027 -0.09351591 0.16927543 -0.12808104 0.08990642 0.14501366 -0.12977971 0.0862303 0.07770244 0.029742446 -0.116868794 0.1806877 0.03799396 -0.11497069
