1194 128
1272 -0.12770826 -0.016957738 -0.043419242 -0.026894562 0.220679 -0.08602907 -0.14518385 0.06373242 0.05462625 0.19825615 0.03572792 -0.047681555 -0.0055595743 -0.06507861 0.10558202 0.10494609 -0.11094743 0.030452168 -0.090999655 0.09823775 0.09922072 0.15641811 -0.17569713 -0.18134665 -0.23588978 0.07273459 -0.06859371 0.14115718 -0.08439218 -0.04628567 -0.03333611 0.06153407 0.1570793 -0.043895803 0.104834534 0.047547873 0.06388198 0.18086357 0.08929327 -0.08292804 -0.15920258 0.28571004 -0.17767514 -0.1494795 0.09318354 0.007622496 0.11349023 -0.07357509 -0.124488525 -0.12396699 -0.20166753 -0.03908236 0.10905918 0.12649117 0.1700974 0.13868065 0.20545787 -0.063696 -0.025287582 0.058688898 -0.02006726 0.09493982 0.2807242 -0.0029716622 0.12197209 -0.0471655 -0.03220442 0.049405333 0.06465732 0.07130457 -0.06773022 -0.020712703 0.011200129 -0.09490842 -0.051366027 0.06863371 0.017809317 -0.027030345 -0.07441656 0.06098645 0.10930536 0.09260265 -0.04613565 0.12284875 0.036647342 0.046758305 0.017479127 -0.10662982 0.13530682 0.021540742 0.25520635 -0.070633784 -0.18628822 -0.10083637 0.11408473 -0.012777979 0.017053146 -0.13459948 -0.01732714 -0.07846221 -0.08231865 -0.04226791 0.048767943 -0.14258991 -0.07952034 -0.0053939978 0.061809864 -0.021228328 -0.17188857 -0.0077700973 0.023280052 -0.1916698 0.0367668 -0.15258108 0.13515443 -0.001639032 -0.027698817 -0.1697951 -0.03812644 0.008341676 0.076975696 -0.0640911 -0.05429406 -0.072712585 0.007933865 -0.04656784 0.114564076 0.009455779
1327 -0.048997708 0.005577583 0.024696263 0.07406496 0.18545528 -0.13081178 -0.13293281 0.12197926 0.09049981 0.17080341 0.08499305 -0.050543495 -0.13508615 -0.0657294 0.05632393 0.04863458 -0.15490873 0.12628594 -0.06938528 0.041635484 0.19334163 0.08210416 -0.11440462 -0.18345794 -0.23597917 0.14469187 -0.14567764 0.118159175 -0.11416741 0.0060962685 0.07006112 0.03169783 0.08745423 -0.031618625 0.0056287623 0.031709347 0.17509758 0.14999527 0.039831053 -0.14089751 -0.117360085 0.2103241 -0.16749454 -0.0775276 0.100651555 -0.09699236 0.07704651 0.0374439 -0.124697074 -0.06060108 -0.22804953 0.081771635 0.20195745 0.030678602 0.14405082 0.22214627 0.16384402 -0.17687559 -0.02633694 0.1991179 0.0670491 0.10022967 0.28504613 -0.04355569 0.03659122 -0.09155317 -0.054170433 0.049130104 0.04350361 0.046782374 -0.17559147 0.019250955 0.08326463 -0.030726207 -0.0025542025 0.061165035 0.0093414085 -0.0041940724 -0.06103475 0.042033546 0.07442482 -0.024774471 -0.02863726 0.13840327 0.10533856 0.05680053 0.08660532 -0.2173617 -0.044059608 -0.040064733 0.19385734 0.01296261 -0.21603328 -0.062375184 0.17435417 -0.009451669 -0.058319062 0.0031899503 -0.050510727 -0.09571337 -0.08959336 -0.05956011 -0.012963147 -0.06993391 0.026301352 0.04797381 0.018026065 0.020281691 -0.13553177 -0.05271983 0.1138471 -0.17264073 -0.07283904 -0.06406065 0.050434895 0.08435537 0.106865816 0.042481173 -0.016821573 -0.15333408 0.1647067 -0.10081373 0.007618267 -0.08030616 0.09561205 -0.09029672 0.15647745 -0.0051345155
1407 -0.16378023 -0.099058256 -0.1247148 -0.09066719 0.20079687 -0.059096493 -0.27611125 0.03622563 -0.09563584 0.29456848 -0.030022696 -0.01334162 -0.18322983 -0.11907212 0.17303032 0.04541531 -0.28840888 -0.017389225 -0.13173231 0.086932845 0.11331524 0.10040069 -0.039471075 -0.06343649 -0.30747965 0.06539732 -0.119205296 0.087511174 -0.15050642 -0.0013485391 -0.05345277 0.05577767 0.12233695 -0.18530503 -0.049336888 -0.032763522 0.08627138 0.03692478 -0.085710526 -0.03186561 -0.11140094 0.22497214 -0.057025954 -0.16560307 0.21824509 -0.055872172 0.091888025 0.015197031 -0.087586515 -0.15009558 -0.24725589 0.076473065 0.18117039 0.14908376 0.00014062715 0.07286238 0.33505908 0.07275604 0.07669124 0.16773538 0.062236864 0.056488782 0.2587594 -0.08599571 0.108606674 -0.13277616 0.09387269 0.14288692 0.10348084 0.031131603 -0.13711801 -0.11783095 0.009907534 -0.01887721 -0.1432076 -0.055794712 0.04250155 -0.13431354 -0.16776128 0.090644926 -0.056450944 0.039811105 0.024801917 0.11804481 0.13367355 0.0530431 -0.0628118 -0.13367553 0.016801508 0.046407524 0.135758 -0.120893724 -0.2518573 -0.06454715 0.17604972 -0.0022614973 -0.08119684 -0.11522239 -0.089567125 -0.08746525 -0.101005696 -0.002382208 0.12235837 -0.02984288 0.08979221 0.004551002 -0.027035635 0.045648567 0.046577375 0.112802304 0.07560056 -0.09747526 -0.06377412 -0.07759234 0.09677133 0.07408128 -0.029104643 -0.11190039 -0.0463629 -0.109939076 0.0039480147 -0.08949782 0.0037573073 -0.109590754 0.023714166 -0.083359785 0.09830956 0.0068059852
1172 -0.1314446 -0.1573831 -0.090331525 0.02455243 0.09540985 0.08352664 -0.2570728 -0.0055468865 -0.014474071 0.34481868 0.14414828 -0.061996307 -0.077447824 -0.042985536 0.0887913 0.014442805 -0.10261635 0.007690547 -0.093709104 -0.03236391 0.1088106 0.13183247 -0.15224421 -0.09169991 -0.32800475 0.18119664 -0.20628296 0.0806408 -0.14950122 0.009284602 0.11265842 0.08746852 0.14776549 -0.20790263 -0.030302098 0.06413154 0.14483322 -0.04713035 0.0021069774 -0.14880207 -0.09343924 0.25055957 -0.16900714 -0.04499259 0.19381668 -0.037834063 -0.018103927 0.002311652 -0.18716346 -0.09405784 -0.29596815 -0.011508419 0.1464213 0.14331724 -0.057284396 0.22304675 0.28873482 -0.06459619 0.084086336 0.075869925 0.13418087 0.07865189 0.24380581 -0.11420592 0.09094816 -0.24786697 0.07049545 0.078135006 -0.018226106 0.034763988 -0.11382674 -0.20650305 0.16223371 -0.06664861 -0.2678752 -0.04226803 0.0816242 -0.115243 -0.16577029 -0.06046726 -0.027613748 -0.055862855 0.008264276 0.10040042 0.073154695 -0.01703354 -0.062555134 -0.13438837 -0.075042516 -0.038286854 0.19613287 -0.04163596 -0.24689901 -0.022783255 0.12356698 0.06280494 0.075511135 -0.11094438 -0.15524767 0.0022119556 -0.22920042 -0.032403436 0.15704112 0.076938085 0.035875674 0.06969788 -0.04623823 0.16990483 -0.076354496 0.09094386 0.11362631 -0.0686576 -0.04478169 -0.09063749 0.10802121 0.043332577 -0.041307244 -0.12580097 -0.07171102 -0.1879821 0.042553518 -0.20335355 0.10969508 -0.08345033 -0.036984984 0.0030127491 0.14576909 -0.048431672
1116 -0.021656983 -0.03902905 0.016300352 -0.055187404 0.0445329 0.011607245 -0.034403086 -0.00869861 0.08826257 0.049000364 0.020786611 0.034471676 -0.14927037 -0.2925 0.09709798 0.10908759 -0.15317316 0.009148961 -0.03078528 0.1722419 0.20981096 0.13676913 -0.077727705 -0.16204242 -0.1446447 -0.10359624 -0.047310524 0.1289887 -0.158819 -0.026877113 -0.08565651 0.065294646 0.06303022 0.10123016 -0.013013736 -0.08668983 0.07582745 0.1811082 0.06810447 -0.048465695 0.015035759 0.20700994 -0.19208238 -0.09270466 0.17363782 -0.057829786 0.06624046 -0.081738636 -0.11941187 -0.11189763 -0.18593076 0.002427333 0.16036148 0.15554626 0.20573625 -0.019878056 0.10603378 -0.030744882 0.03907641 0.057694852 0.13067736 0.19227405 0.2775366 0.11224276 -0.012289265 0.021820528 -0.06358794 0.040669158 0.13696212 -0.09562965 -0.1375828 -0.049238797 -0.034264315 -0.104357585 -0.07474851 0.038995087 0.08687548 -0.0990722 -0.09257683 0.20306364 0.099368885 -0.024674578 -0.050135724 0.16153657 0.19728787 0.017236777 0.08246159 -0.16689754 0.044996798 -0.10265313 0.08327577 -0.053874798 -0.10116023 -0.007369687 0.04752491 0.12382149 -0.056354735 -0.018578561 -0.033759125 -0.10672702 -0.023190454 -0.07965156 -0.0585626 -0.11482822 0.031185457 -0.047367875 0.079218 0.005951316 -0.15005395 -0.00956438 0.04140464 -0.16406752 0.023098417 -0.21124905 0.20171109 -0.039126173 0.058083095 -0.039746217 0.06876142 -0.02460612 0.012459808 -0.15651998 -0.112485975 -0.19268359 -0.022473985 -0.06533953 -0.023759667 -0.002177678
1329 -0.07355847 -0.10379659 -0.07201663 -0.10689557 0.21243812 -0.07030478 -0.12875241 0.03980199 -0.1037549 0.076532975 -0.066610545 0.10512626 0.012016942 -0.07858739 0.028128026 0.16556111 -0.11298265 0.04115197 -0.22925249 0.08241907 0.16803566 0.033644475 -0.12156369 -0.16499414 -0.1951189 -0.0033660005 -0.039248664 0.0856562 0.098906055 -0.028703088 -0.00305915 0.1816194 -0.02183472 -0.09194059 0.04572504 0.2285797 0.21829073 0.22704713 0.052914787 0.0005407459 -0.12430301 0.20314205 -0.08793836 0.027372163 0.20416114 -0.0833403 -0.0961252 -0.19849077 -0.0013406036 0.018544197 0.030145504 -0.02707588 -0.033739164 0.21197379 0.090676785 0.101503626 0.20648925 -0.031479556 -0.027588595 0.13219127 -0.035623346 0.027123855 0.2766452 -0.111515135 -0.028125312 -0.13695012 0.015803285 -0.004162594 0.040106542 -0.01846789 -0.05635448 -0.113176465 -0.16303013 -0.20192342 0.055860557 -0.044386562 -0.05937627 -0.14482677 -0.032424472 0.28832448 0.17505209 -0.063943334 0.14523913 0.060737595 0.18653329 0.009691596 -0.055579472 -0.25468466 -0.05020336 -0.11173864 0.30875567 -0.09225469 -0.17074141 -0.055392392 0.19606954 -0.056953765 0.071130075 0.014962111 -0.041418687 -0.07471016 -0.12799704 0.01808432 -0.06972081 -0.1171862 0.08416094 -0.07218562 0.18818446 0.0013053142 0.053936727 0.032974612 0.010064808 -0.102285326 0.0042814566 -0.088104755 0.058695346 0.20428556 -0.09857511 -0.021166079 0.043518066 -0.034737796 -0.019061096 -0.018131647 -0.04184764 -0.1007098 -0.10049701 -0.19885886 0.0337763 0.042759117
1316 -0.10668383 0.041777156 -0.078463145 -0.091667354 0.19073969 0.057226606 -0.3158278 0.13218197 0.00031327084 0.1082953 -0.036245435 -0.03843009 0.061117537 -0.23178762 0.08982489 0.053219605 -0.12493206 0.089843825 -0.07413843 0.06096682 0.1234559 0.06437263 -0.17126921 -0.1618738 -0.1905908 0.14137666 -0.039878733 0.031043867 -0.060532674 0.08385292 0.08693647 -0.00811085 -0.09711139 -0.118298285 -0.0409228 0.16722707 0.169971 0.09369984 -0.027017923 -0.18670061 -0.181432 0.29681784 -0.17334427 -0.05321411 0.14418192 0.034339927 0.11778209 0.02870887 -0.11926557 -0.20688981 -0.08943708 -0.16807169 0.10959939 0.20197211 -0.035609104 0.1260462 0.2563853 -0.035470504 0.11760872 0.050741054 0.05337632 0.0037281092 0.34142637 -0.061246056 0.12698446 0.015916474 0.18522555 0.061385978 0.025723401 0.003530837 -0.017414832 -0.087693915 -0.075770736 -0.12213644 -0.12074302 -0.14336559 -0.046293873 -0.099989906 -0.16963513 0.033032015 0.17312418 -0.1021401 0.009566348 0.054178175 0.1464429 -0.081030704 0.045569465 -0.06442763 0.21843761 0.033862732 0.22790504 0.003683672 -0.11754534 0.1136174 0.22352745 -0.018287163 0.0077581536 -0.1657675 0.061958496 -0.015400368 -0.23812748 0.009074145 -0.011154071 -0.030592227 -0.038524937 0.32302284 0.059222523 0.05979433 -0.07226531 0.15191665 0.2494481 -0.26066828 -0.1724903 -0.078717664 0.12685761 0.050643153 -0.04374339 -0.023871845 0.05132874 0.026989048 0.06921319 0.02570821 -0.15290883 -0.18022168 -0.00043550692 -0.099618845 -0.08780441 0.058657534
1293 -0.19004193 0.090702906 0.0597749 -0.03543361 0.21194305 -0.1012742 -0.08107995 -0.05380688 -0.010088565 0.14875922 0.042662248 -0.0148630245 -0.20192216 -0.3244234 0.01257829 -0.026266603 -0.113642804 0.13458973 -0.16557749 0.2143833 0.12182419 0.04756353 -0.111781456 -0.19748515 -0.18894476 -0.033513088 0.0044538416 0.15521446 -0.14568453 -0.059556894 -0.04906187 0.157611 -0.14310543 -0.17744246 -0.050113477 0.02935076 0.16956426 0.15608501 0.05057111 -0.046676498 -0.20015839 0.15254924 -0.22617495 0.07602763 0.103875265 0.009552778 0.12328227 -0.09927186 -0.0017046157 -0.09306234 -0.09577979 0.054976076 0.2602577 0.11784233 0.16410239 0.17120515 0.29424927 0.08294995 0.03905744 0.123203784 0.033908203 0.20900133 0.39603502 0.024175694 0.12504372 -0.041910056 -0.01451427 -0.13347593 0.074751444 -0.06227024 -0.074729584 0.022880383 0.10898104 0.14512156 0.04824228 -0.123052865 -0.17990367 -0.0811668 -0.094635576 0.099292606 -0.008374986 -0.017119238 0.14662746 0.036154132 0.16205806 -0.041774586 0.030400315 -0.055255063 0.036135938 -0.024084074 0.19960393 -0.04391281 -0.14811955 0.036859028 0.27079874 0.021194404 0.063560925 -0.13901341 -0.05954212 0.080277696 0.02545864 0.09487027 0.15089457 -0.1515423 -0.118643165 0.044430003 0.004488594 0.01597507 0.03478117 0.0053117787 0.0079786815 -0.18467313 -0.107782364 -0.15885852 -0.031543303 0.18893422 -0.055506967 0.009729098 -0.05836892 0.00084630935 0.02619145 -0.13430578 -0.004880494 -0.0741688 -0.07745462 -0.12742898 -0.075792074 0.016639428
1306 0.014715002 -0.02202657 -0.061624825 -0.0054995804 0.13098152 0.05554082 -0.04743373 0.088143885 0.070016116 0.093964845 0.17780727 -0.039975647 -0.0013443506 -0.2489452 0.16524252 0.10214878 -0.14888254 -0.019102048 -0.064072445 0.08646298 0.20734599 0.12814233 -0.027288372 -0.17717333 -0.04525828 0.23534957 -0.07766223 0.120366216 -0.07513466 -0.1348704 -0.14349446 0.14674912 0.027323784 0.045255803 -0.02039417 -0.061823525 0.21893445 0.08198083 0.008186104 0.08222135 -0.08466182 0.052132204 -0.17998251 0.047885425 0.16835004 -0.06235966 -0.08340959 -0.11426897 -0.09777806 -0.090682484 -0.1156895 -0.08426692 0.17113358 0.2213523 0.03333478 -0.017113423 0.13450965 -0.13095888 -0.0800298 0.16140205 0.07243938 0.16631852 0.21069542 0.14967254 0.074304186 -0.09354768 0.027484376 0.08309785 0.05336432 -0.09993441 -0.102095686 -0.0021253224 0.13710096 -0.16359644 -0.032220844 -0.017417062 -0.03495412 -0.029930105 -0.08032467 0.068290174 0.107320875 -0.09143693 0.07709115 0.26721275 0.012594645 0.047142934 0.13922021 -0.22470856 0.110460654 -0.045411445 0.15874106 -0.06824576 -0.031584628 -0.0863796 0.11573439 0.11716493 0.07842313 -0.064435825 -0.059475888 -0.14042659 -0.09694808 -0.16768683 0.07281873 -0.13503894 -0.03466413 -0.010709133 -0.0021264304 0.022104556 -0.17717281 -0.09286457 0.06627451 -0.18982048 -0.024373483 -0.071055055 0.056519654 -0.02640428 -0.011531638 -0.03604024 0.039846137 0.062857196 -0.012559997 -0.08997731 -0.043749943 -0.15212765 0.00014030117 -0.010534792 0.071753465 0.1851888
1404 0.0070190355 -0.050951708 0.023403388 -0.103725664 0.1311334 0.084435426 -0.0039818883 -0.026641391 0.007220438 -0.008091499 0.0007024244 -0.0979637 -0.19271128 -0.26054814 0.023916692 0.15441604 -0.08638583 -0.03296417 -0.12672514 0.086598635 0.093260735 0.15995203 -0.14289589 -0.09411733 -0.20574081 0.11932704 -0.04768705 0.10723447 -0.058511835 -0.21520297 -0.10352679 0.05887195 -0.066867456 0.060086634 -0.13490565 -0.038471747 0.29444802 0.11266445 0.120153956 -0.03374697 0.044607308 0.195339 -0.2156839 0.05273944 0.1591884 -0.008853447 0.035201196 0.03108861 -0.042200405 -0.0535234 -0.04531808 0.14315118 0.1326213 0.12832959 0.12993222 0.02254388 0.2514799 -0.18420528 -0.106506705 0.15681183 0.023163028 0.33756238 0.25515968 0.14274205 -0.0035603244 -0.07547374 0.020548534 -0.052895486 0.16022855 -0.029255208 -0.06716134 0.030108618 0.059635986 0.044032805 -0.14352944 0.06470686 0.07770813 -0.19994701 -0.09072551 0.083027534 -0.0080464175 -0.102405146 -0.11175952 0.048096143 0.120061696 -0.041646983 0.02462443 -0.2351952 -0.055420022 -0.058448512 0.15914711 -0.0493044 -0.114618905 0.13398197 0.0861502 0.02310675 0.056502163 -0.11185917 0.09310784 -0.016480645 0.029855322 -0.32982048 0.09849902 -0.12328201 -0.008708312 -0.06854106 -0.10593006 0.061648834 -0.20632176 0.04691006 0.11320677 -0.08448111 0.05029794 -0.15037777 0.093073785 0.16009788 -0.05390276 -0.02678904 0.07609774 -0.12756632 0.075590715 0.04887103 -0.06901248 -0.15221149 -0.038834214 -0.042376213 0.08362479 -0.012862988
1237 -0.00800347 -0.075095594 -0.043497145 -0.07186622 0.07593868 -0.035604525 -0.069516405 0.068186134 0.06702338 0.17870335 0.10314287 0.13263664 -0.01582117 -0.20088544 0.13886957 0.15305206 -0.15630749 0.038445264 0.07733791 0.14540191 0.16433464 0.19009845 -0.24536896 -0.12257375 -0.043858375 0.052216403 -0.15316895 0.06807227 -0.06804488 0.11793724 -0.05397401 -0.07074355 0.013154822 0.09501091 -0.089516364 0.023237754 0.010684125 0.14352362 0.010085953 -0.21009062 -0.10815631 0.16231552 -0.1782304 -0.08731614 0.086274445 -0.0957199 -0.07016305 0.09739177 -0.09291926 -0.067682415 0.038098644 0.04271852 -0.033685613 0.11752707 -0.043920215 0.00095296296 0.22085448 0.12088639 -0.040029626 0.18596305 -0.011171742 0.09994699 0.13643137 -0.0695455 0.055873107 -0.058391724 0.019749606 -0.067830615 0.014123728 -0.010110428 -0.12700725 0.047497258 -0.09967068 0.011947319 -0.024842782 -0.007828547 -0.11056778 -0.010564403 -0.153601 0.15075916 0.020101251 -0.09985294 -0.052727167 0.040545408 0.13441737 -0.03501644 0.15924269 -0.3173051 -0.008787795 -0.13629189 0.028733242 -0.006104692 -0.118121564 -0.14641537 0.21133748 -0.053133994 0.0719631 0.00065613614 -0.06944124 -0.22164379 0.084684156 0.012561351 -0.076691814 -0.09055936 0.020977385 -0.06394083 -0.06250332 0.1648706 -0.18837991 0.071061075 0.09723567 -0.11502455 0.044781767 -0.18466017 -0.015017388 0.014899049 -0.070359714 -0.048297435 0.15053712 -0.0035437196 -0.05186164 -0.14447814 -0.124949306 -0.19202037 -0.25043416 0.026913863 -0.00013400693 0.06751178
1421 -0.015541852 -0.13583365 0.021164175 -0.022589104 0.13417411 -0.03080266 -0.065211736 0.052443404 0.048519332 0.2546101 -0.0038713317 -0.13996583 -0.02220169 -0.1182477 0.01050124 -0.04485482 -0.049377114 0.0739526 0.017738275 0.1418417 0.09311511 0.055307195 -0.15089874 -0.2734754 -0.20800285 0.058306083 -0.08622109 0.061696846 -0.212532 0.042634092 -0.091607265 0.03078111 0.044270817 -0.121412516 -0.107534446 -0.11073021 0.082619555 0.1034226 -0.11591017 -0.0992377 -0.20705928 0.075008914 -0.21514143 -0.0355175 0.092182934 -0.068167195 0.006770257 0.061863497 -0.10698511 -0.068745025 -0.011502108 -0.0014220718 0.17514709 0.15988046 -0.005903726 0.10934417 0.13356581 0.090283506 -0.03922092 0.06792949 0.08949816 0.061400075 0.2916752 -0.040431228 -0.06390144 -0.09024877 0.023270648 -0.08212141 0.03898324 -0.16851468 -0.13934775 -0.057134688 -0.049950503 -0.095215894 -0.11535725 -0.1619862 -0.21102114 -0.050781153 -0.024363423 0.1299039 0.17964816 -0.080375224 -0.0073397714 0.014836202 0.064027436 0.045773093 0.06950517 -0.24342307 0.123874806 -0.02028247 0.08662325 0.077306144 -0.24411014 -0.15701872 0.11542818 0.1484548 -0.04988363 -0.047567815 0.020608103 -0.18148288 -0.119927734 -0.15311797 0.029428994 -0.12581375 -0.053747594 0.07073466 -0.009557743 0.104818754 -0.26699153 -0.028900236 0.05370392 -0.16158639 -0.060177535 -0.15044276 -0.012465962 -0.11044862 -0.021691933 -0.30604115 0.054466654 -0.026542839 -0.083244324 -0.006839713 -0.012614718 -0.12426646 -0.16563761 -0.03621295 -0.1910084 0.07894654
1308 0.09137973 0.0235231 0.067412935 0.15828963 0.21684216 -0.2181239 0.028910395 0.044601407 0.10424493 0.23530081 0.062746465 0.121736795 -0.07132813 -0.12264437 0.077822186 0.11708857 -0.06301243 0.10941642 -0.11685664 0.17067191 0.09092249 0.04628631 -0.16088371 -0.123441316 -0.07947701 0.078473896 -0.10351249 0.13775261 0.090600505 -0.06993686 0.035364885 0.14621757 0.036223684 0.0022063635 -0.015257009 -0.057635613 0.0849644 0.08102835 0.21959485 -0.018192366 -0.108026005 0.09262817 -0.17009291 0.054103505 -0.040174894 -0.053654175 -0.010661863 0.054353986 -0.07104244 -0.10136483 -0.02066295 -0.016604247 0.00571273 0.09028566 0.066469505 0.12280948 0.17553936 -0.09527314 -0.08270965 0.22626778 0.006941958 0.084974915 0.18506609 0.014160988 0.012302334 -0.020934587 -0.013862983 -0.05031652 0.07967149 -0.018531296 -0.17330456 -0.015459341 -0.020309824 -0.058464527 0.078194894 0.079389 -0.0012057106 0.067628965 -0.10142594 0.05618025 -0.015580206 -0.16177575 -0.035160594 0.09266876 0.035447113 0.058496736 0.17879829 -0.32595086 0.022127282 0.051959094 0.23155108 0.048625145 -0.08228169 -0.13381045 0.0297915 0.1888648 -0.1010016 -0.033456348 -0.043810733 -0.09138031 -0.15098867 -0.0069212457 0.04994545 0.021018695 -0.02684103 -0.10244499 -0.099012226 0.043156732 -0.29229316 -0.17818142 0.07522326 -0.26535243 0.034646653 -0.20166372 0.11227664 0.017607534 -0.056864593 0.0688077 0.16326308 -0.07750755 0.0731634 -0.122194864 -0.036750183 -0.017939638 -0.036883138 -0.01405505 0.18549646 0.02630031
1287 -0.031337064 -0.12180552 0.03259305 0.18918829 0.22416346 -0.052041803 -0.08970555 0.11763754 -0.104415745 0.092140004 0.0930747 0.162181 -0.096225984 -0.25008637 0.07214848 0.19743405 -0.042426858 0.10535845 -0.011056391 0.19427338 -0.034502197 0.05548716 -0.012268598 -0.29780343 -0.23037417 0.07100191 -0.072609864 0.21904491 -0.24483861 0.014266097 0.12502402 0.09097487 0.057162136 -0.14907113 -0.14741129 -0.010994836 0.11508971 0.24853258 0.023200955 0.032467607 -0.22772117 -0.025455866 -0.057089686 0.019055216 0.123207785 -0.052902423 0.029221397 0.15954684 -0.07049127 -0.17053287 -0.034619205 -0.009296363 0.15138376 0.11908846 0.1328457 -0.08288155 0.28346103 0.020865975 -0.05231349 0.008944166 0.10173037 0.09918334 0.24896735 0.06317185 -0.01412855 0.14599709 -0.008902945 -0.083909385 -0.13865317 0.027313605 -0.15411054 0.015236357 -0.22210447 0.108332075 -0.09505935 -0.036650505 -0.003904242 0.043959107 -0.1741526 0.10819896 0.054431774 -0.119880855 0.02619244 -0.09680841 0.12260368 0.023043085 0.018325474 -0.2343678 0.039374895 0.087745294 0.2227419 -0.20042793 -0.1544209 -0.13388748 0.12132629 0.14985228 0.016865097 -0.082291715 -0.16748266 0.018865013 -0.0419294 -0.004385749 0.15599482 -0.016799055 0.1327141 0.024720833 0.15156706 0.099426754 -0.13072298 -0.0052267923 0.062391095 -0.27280265 -0.020641312 0.037898704 0.06644283 -0.047991194 -0.06841785 0.26664194 -0.1481871 0.11465942 0.14643797 -0.08636936 -0.20448256 0.05196484 -0.05096496 -0.10330913 0.065049775 0.14593685
1276 -0.12829964 -0.12496364 0.0031166105 0.11252435 0.28018135 -0.053438663 -0.042655237 -0.025317175 0.0042058844 0.1278799 -0.050082307 0.047203887 -0.05190408 -0.10333466 0.07263611 0.29016432 -0.091331676 0.0534023 -0.039311167 0.007219226 0.07851048 0.00053374073 -0.19109514 -0.1229108 -0.34138256 0.018902887 0.021563515 0.07623726 -0.31202838 -0.165397 -0.17949356 0.12183507 0.062416177 -0.13060054 -0.019198403 -0.0903308 0.13221727 0.132737 0.16855769 -0.078708015 -0.1739832 0.20767166 -0.1465805 0.012562931 0.18410324 -0.004269084 -0.044134524 0.10721718 -0.09509274 -0.048450667 -0.11494285 -0.14083499 0.15977684 0.08738705 0.09765621 0.19307086 0.14174874 -0.02898584 -0.087596536 -0.04127167 0.02907969 -0.11027153 0.22901705 0.038564883 0.12634172 0.061005533 -0.054595117 0.0878077 0.09275572 0.04721266 0.0145934615 -0.078538135 0.17518954 -0.031877104 -0.12882859 0.018757047 -0.074094824 -0.2520929 0.0039676577 -0.013891846 0.04348156 -0.1496271 -0.0045632883 0.08258958 0.20331387 -0.04373255 0.14022456 -0.07538249 0.22071062 -0.120159976 0.27852437 0.01618857 -0.25655726 -0.15679418 0.0023487804 0.20475057 0.0038117645 0.15641388 0.019881353 0.05437302 -0.13904881 -0.10074351 0.06936223 -0.22067176 0.09790252 -0.023221008 0.011612644 -0.025770325 -0.14340192 -0.013915626 0.08688367 -0.12913407 -0.12676118 0.012693624 -0.06421524 0.018675646 0.018174965 -0.09738127 -0.19203755 -0.022998026 0.09942231 -0.33716995 -0.23509474 -0.025648383 -0.019922273 -0.034739915 0.047380004 0.103878595
1103 0.01010084 -0.06700458 0.08914192 0.06591245 0.13974997 -0.13558786 -0.19471705 0.037713416 0.16968113 0.2679784 0.22081172 -0.0025737411 -0.005833625 -0.13904016 0.18332416 0.13043016 -0.18476914 -0.16720368 0.061784804 0.18483281 0.18465306 0.030858194 -0.122468375 -0.13402018 -0.21560074 0.036270168 -0.04648044 0.079613805 -0.039843693 0.20318691 0.0908897 -0.046304088 -0.035285156 -0.04652321 -0.08872238 0.04637366 0.03544025 -0.028645651 0.14588284 -0.12865567 -0.11697178 0.15722427 -0.08347903 -0.029820353 0.29548204 -0.06998171 0.07712576 0.062146503 -0.15515187 -0.068566404 -0.20560206 -0.03115119 0.1426943 -0.07408606 0.11511852 0.102217324 0.29635563 0.13249141 0.15285188 0.058694307 0.022280216 0.069372505 0.19771682 0.07003138 0.11071826 0.006760807 0.02789041 -0.035505306 0.14335649 0.1422649 -0.058087252 -0.01946031 0.26618272 -0.060224157 -0.25924337 0.12468769 0.03870615 0.07247293 -0.21827781 -0.011391375 -0.060982384 -0.10478983 0.0063635204 0.13091803 0.30755314 0.21728621 -0.04817513 -0.28303263 -0.08262877 -0.12428332 0.15824263 -0.01663937 -0.22267903 0.0005770614 0.17840877 -0.0092237685 -0.12661606 0.12857006 0.100328796 -0.15555695 -0.17108539 -0.09169767 -0.00021817286 -0.14382702 -0.10353254 0.009780736 -0.015741114 -0.023717538 -0.023623701 0.15993173 0.18367285 -0.090780586 0.04283407 -0.23808679 -0.095676586 0.0487517 0.02916977 -0.116791874 0.04204543 -0.011176351 0.1136695 -0.17022692 0.014742739 -0.09567747 0.029492177 -0.15212218 0.041777555 0.10803599
1140 0.08933329 -0.15368845 -0.031721547 0.10574909 0.09931904 0.010427118 0.05538837 0.04372096 0.020507438 0.1747085 0.10344029 0.052111648 -0.25805634 -0.20788161 0.058553845 0.22018968 -0.10999688 -0.056433283 -0.15801953 0.2206029 0.06310783 0.13654745 -0.08022303 -0.0852987 -0.13158238 -0.0228956 -0.13778454 0.15474099 -0.1445482 0.06792312 -0.008368014 -0.013493963 -0.009427926 0.09579253 0.04451709 0.035565916 0.07178729 0.113567844 0.17197365 -0.07787746 -0.06910462 0.17172515 -0.091695905 -0.055698384 -0.020733858 -0.08431151 0.059365336 -0.04548009 -0.124124855 0.017692367 -0.136254 -0.02787779 0.13946709 0.15154232 0.024375528 0.057946187 0.02418029 -0.16093741 -0.14218245 0.06931205 -0.06420604 0.09806633 0.1254685 0.0074895057 0.16380385 -0.016087623 0.023991404 0.037296712 -0.0019903525 -0.13632923 -0.017594848 -0.06713211 -0.058786612 -0.007256198 0.05025831 0.028049732 -0.14164166 0.046198986 -0.16849495 0.19399188 0.048970047 -0.0739081 0.021074513 0.09112784 0.060088027 -0.038381606 0.10138837 -0.18346836 0.05165099 -0.002986614 0.061283983 -0.13576965 -0.066214986 -0.0038273241 0.12833439 0.013140489 0.08932779 -0.03455836 -0.14950088 -0.061812162 -0.016630985 0.017364694 0.009797261 -0.11438095 -0.02672018 -0.023118978 0.042357672 0.09126411 -0.16621777 -0.00042751018 0.0409154 -0.19143112 0.07633079 -0.15575647 0.004006131 0.057533544 -0.023536192 0.03119821 0.16389374 -0.06754564 0.0049865297 -0.051024243 -0.14279188 -0.06586908 -0.006572233 -0.09000953 0.05674999 -0.11855239
1164 -0.01096706 -0.114911236 0.07095725 0.108037405 0.22893327 -0.0746546 -0.084572695 -0.023929877 0.013900685 -0.03990327 0.0799161 -0.076346494 -0.17968234 -0.018694906 0.08589277 0.07729834 -0.07124907 -0.0018871055 -0.06556284 0.16958271 0.08914673 0.13423085 -0.14981695 -0.008896315 -0.03738785 0.06251361 -0.1515157 0.2302922 0.01167133 -0.07172814 -0.0038604215 0.011419612 0.011053611 0.049031653 -0.061911404 0.010897672 0.09673325 0.13765432 0.21613087 -0.06028347 -0.12566793 0.109746814 -0.10914603 -0.10207924 0.020885207 -0.17911811 -0.068994634 -0.13477321 -0.29461 -0.013869213 -0.29013842 0.05729361 0.0967354 -0.048679166 0.032988157 0.08886837 0.10517006 -0.13130084 -0.070507884 0.16208777 0.11777295 -0.023018844 0.088769756 -0.08538294 0.04217021 -0.095769964 0.045161102 0.05886686 -0.098949604 0.08616824 -0.050308578 -0.111824945 0.10707464 -0.06641911 0.02690078 0.030606844 -0.009241577 0.028676627 -0.20818505 0.15584856 -0.06248015 -0.038585708 0.053906135 0.11272758 0.030067038 0.051292393 0.16973332 -0.24020022 0.08548182 0.21050692 0.092929155 -0.04751197 -0.27600288 -0.26530015 0.16425724 0.13009632 0.012190186 0.011429648 -0.038145628 -0.109057635 -0.13003004 0.0034133797 -0.049881715 0.010583236 -0.014057598 -0.20914714 0.02294202 0.08161244 -0.22998925 0.012210749 0.1249979 -0.058827184 0.070993006 -0.19701219 0.12442819 0.0456195 0.038766317 0.0981742 -0.0068243225 -0.0234018 -0.051798396 -0.04954654 -0.085359186 -0.092258185 0.019854022 -0.10374374 0.087570585 -0.05443854
1156 -0.10940087 -0.11722628 0.0022400396 -0.015349992 0.12755342 0.021820039 -0.11053345 -0.11705992 0.11397672 0.090916544 0.027370997 -0.062441994 -0.11911005 0.13713142 0.087858446 0.078335725 -0.068928294 0.0035758463 -0.07752618 0.25900015 0.1643192 0.027824327 -0.35195285 -0.10805565 -0.22099383 0.047545373 -0.048470378 0.15955135 -0.06768856 0.08369359 0.030854441 0.0024422717 -0.070074916 0.07934989 -0.083412156 0.017402483 0.20138519 0.14275047 -0.04859192 -0.08289549 -0.1955589 0.26770833 -0.17806473 0.020845398 0.14570475 0.021989923 -0.040972054 0.042436685 0.05992493 0.056892555 -0.019178659 -0.1013163 0.016825043 0.13758639 0.003597857 -0.016924767 0.27514344 0.09526457 0.038674712 0.19102614 -0.07497825 0.103523485 0.31480795 -0.09322784 0.14805628 -0.01786964 0.092655934 -0.055111513 0.11342958 0.018942703 -0.07469834 0.026273815 0.10836248 -0.119643845 -0.18149933 -0.025667252 -0.007688964 -0.042781483 -0.07060042 0.15403013 0.14354807 -0.124073796 -0.18011925 0.16719776 0.17901784 0.118622884 0.040987156 -0.1300993 0.021923576 -0.034267604 0.27100164 -0.113011055 -0.2079003 -0.041251574 0.192746 0.067431554 0.08022135 0.06299825 -0.07793157 -0.02182019 -0.08852138 -0.049369447 -0.007049693 0.0631408 -0.057098493 -0.15557459 0.1893356 -0.02510872 0.12421771 0.049864985 0.13076118 -0.07309077 0.057853077 -0.10663162 -0.14399028 -0.1373436 -0.014805679 -0.15769161 -0.07587532 0.08055189 0.03205059 0.0345988 0.008497235 -0.010713138 0.10586794 -0.22067566 0.01321018 0.026222048
1273 0.06499723 -0.07937657 -0.09438747 -0.10772475 0.21815206 -0.02453616 0.014483877 0.103290334 0.06675932 0.023935255 0.04114902 0.05600519 -0.11109605 -0.109988615 0.0753001 0.118573524 0.007458976 -0.1492184 -0.15747355 -0.012601655 0.029843738 0.17880759 -0.10803268 -0.23436074 -0.12114906 0.046836965 -0.08950706 0.26981264 -0.06881655 0.05959803 0.016353013 0.066892974 0.01559973 0.019747913 0.02098794 -0.04727179 0.07896694 0.09641758 0.25530204 0.01678059 -0.08760173 0.1432352 -0.20851152 -0.012281233 0.006267717 -0.10181204 -0.0135524245 0.020272603 0.0058407304 -0.026976105 0.008765674 -0.021492846 0.075734146 0.09406279 0.03961242 0.09473097 -0.0031466754 -0.041191697 -0.15107378 -0.0063460143 -0.052285265 0.07570114 0.14349419 0.04113666 0.19391043 0.081581876 -0.0042753182 0.027130604 0.03149312 -0.1274796 0.022002324 -0.0052134898 0.05987306 -0.1464159 -0.09618552 -0.006995647 -0.03396666 0.03816195 -0.11561896 0.16368623 0.03981752 -0.054633386 0.020579264 -0.008138687 0.10360158 0.06799228 0.17307489 -0.3485575 0.09175794 0.09629469 0.042858094 -0.11455543 -0.08896959 -0.114409715 0.08890266 0.12628661 0.06690618 -0.017732404 -0.20485866 -0.15335858 -0.051047113 -0.0881941 -0.10688218 -0.052189108 -0.10047616 -0.12609863 0.092831425 -0.009916996 -0.19923913 -0.097849704 0.099518396 -0.15323463 0.039846797 -0.09342693 -0.038371276 0.023344656 0.0028316823 -0.041739766 0.14089584 0.11549757 -0.0653642 -0.23270309 -0.16410246 -0.05573777 0.0060251737 -0.030159798 0.12069646 0.017798772
1144 -0.03482598 -0.050219435 0.08225321 -0.10358701 0.13971893 -0.114106566 0.085489385 0.034528475 -0.021612938 0.12516698 0.011396021 0.19674096 -0.15022595 -0.21340963 -0.027446533 0.14841798 -0.055884056 0.044523295 -0.037304167 0.38797843 0.04714732 0.13025998 0.025044037 -0.031294506 -0.024174057 0.14324024 -0.031869784 0.10365051 0.0067525054 0.0036231012 -0.094317146 0.0980069 -0.08584693 0.046639614 -0.03974934 -0.14382125 0.035410553 0.2435632 0.21452887 -0.03182626 -0.008469489 0.12637746 -0.12820584 0.0246289 0.033029582 -0.05766062 0.084371 0.055355653 -0.027464645 0.02096809 0.007586203 0.04675622 -0.010140187 0.057680544 0.062401593 0.09819964 0.09491391 -0.13867196 -0.08152797 0.18379666 -0.020336183 0.101015456 0.14101028 -0.06764884 0.100553446 -0.159579 0.027622774 0.09298811 -0.09338014 0.014443654 -0.15258847 -0.014748266 -0.062139582 -0.07972369 0.0754179 -0.021412259 -0.12061754 -0.08306366 -0.16697109 0.030283973 0.09864345 -0.14909942 -0.041228335 0.117002465 0.08273083 -0.014019736 0.2258311 -0.21107447 0.09603172 0.011384617 -0.02031273 -0.13438894 -0.07671695 -0.03704988 0.23270212 0.14787075 -0.017839849 0.17684476 -0.22479583 -0.17179321 -0.18699467 -0.047176 -0.08916734 -0.16510047 -0.07816575 -0.14555632 0.08889099 0.035942316 -0.068371795 0.054347835 0.08225215 -0.13083379 -0.05665599 -0.12670025 0.07238458 0.048426453 0.098843716 -0.0635252 0.12283853 0.015200275 -0.09217514 -0.15831603 -0.08870215 -0.17678876 -0.014516348 -0.06549708 -0.0047753705 -0.12615101
1167 0.11403233 -0.06699197 -0.18976417 0.087806456 0.24019916 0.010819681 0.0037638573 -0.006677321 0.056115054 -0.06739322 0.014020201 0.09270935 -0.14990552 -0.23743299 0.17798585 0.11093192 -0.13742709 0.021995489 -0.15181842 0.10953336 0.14691783 0.16301575 -0.0773373 -0.15174933 -0.089350656 0.10620577 -0.010593497 0.15966362 0.04395928 0.0030022617 0.011189425 -0.0035813951 0.05505 0.05368802 -0.053133227 -0.07732851 0.09493476 0.04381456 0.10056139 -0.10451194 -0.021100735 0.21074009 -0.22034048 0.008398195 0.0316715 -0.09479596 -0.00011156908 -0.056683008 -0.083741575 0.028787954 0.0671984 0.01282557 0.049420744 0.14276473 0.015761636 -0.050175752 0.03939998 -0.15026426 -0.0859491 0.214192 -0.10337922 0.12638125 0.15600081 -0.026714487 0.06966432 -0.1805486 -0.012008753 0.091400236 0.006104382 0.013302369 -0.05486013 -0.01964366 -0.063032374 -0.1032473 0.051150594 0.008559019 -0.21598752 -0.025189752 -0.14159924 0.20489337 -0.032590717 -0.09642141 -0.028461846 0.10689567 0.07996118 0.0042139166 0.20982379 -0.27990252 0.15117167 -0.052751865 0.031369906 -0.01296792 -0.028767964 -0.06510757 0.011970838 0.09938974 0.07489209 0.055729676 -0.14321385 -0.12315953 -0.15598723 0.023635225 -0.082255095 -0.08172763 -0.009892866 -0.09058036 0.031613685 0.04432482 -0.20888932 -0.07304176 0.07718137 -0.01497001 0.05650934 -0.052443054 0.021870282 0.07322305 0.03960132 -0.00912434 0.09287701 -0.028926687 -0.07145186 -0.06317352 -0.18184362 -0.114497654 0.028903062 -0.0382913 0.021217955 -0.052471437
1323 0.013971602 -0.19508429 -0.12530805 -0.14192197 0.14815271 -0.03548158 -0.06568212 0.11321428 0.124365024 0.13369401 0.07301156 -0.06126582 -0.050245196 -0.080008484 0.115080364 0.14446075 -0.016054213 -0.051162146 -0.16141324 0.18717282 0.10097691 0.27799928 -0.09360067 -0.050769456 -0.16106848 0.0524445 -0.012513692 0.11311035 -0.012507941 -0.0062073893 -0.031565946 0.20346686 0.060266204 -0.00056087 0.091129206 0.008833377 -0.037243627 0.14381146 0.053460732 -0.0046409946 -0.007841555 0.23732911 -0.18842381 0.04358325 0.042077255 -0.012953694 0.0057759234 -0.019785777 -0.11191891 -0.12085913 -0.15282997 -0.015301617 0.07603764 0.091134265 0.082379974 -0.14585757 0.25507495 -0.20791318 -0.100866556 -0.018103976 -0.003174036 0.05805428 0.051123362 0.0028830636 0.2997135 -0.08580442 0.1437349 0.1312097 -0.029891264 0.07951814 -0.054391228 0.03522396 -0.00042642956 -0.1454448 0.083544396 -0.05013993 -0.10224372 -0.011011517 -0.24100433 0.20623611 -0.026524916 -0.151997 -0.11047788 0.13850445 0.20728861 0.22703019 0.23210436 -0.14778309 0.12873095 0.037494708 0.08758325 -0.05826324 0.014010406 -0.0009186086 0.092361525 0.047207735 0.2304107 -0.011011133 -0.08093027 -0.19254455 0.07557351 -0.030139916 -0.027919594 -0.07981362 -0.06587872 -0.15387551 0.13834131 0.069947295 0.009173357 0.013124389 0.19538537 -0.17805284 0.029920625 -0.09529811 0.0049415412 0.038570788 0.034720194 -0.054078385 0.13914311 0.17300834 -0.0053810747 -0.022722071 -0.033865422 0.008803061 0.012430928 0.0486279 0.10806507 -0.07779353
1189 0.10417231 0.017091298 -0.10384947 0.03301782 0.3246315 -0.053947914 -0.042401783 0.12931772 -0.102349006 0.13668808 0.062239867 -0.058663834 -0.09739112 -0.01966813 0.12676136 0.10046207 -0.22707336 -0.0040154215 -0.03923025 0.13928433 0.13830179 0.15521032 -0.042510368 -0.0870908 -0.067943506 0.023672014 -0.10238991 0.10711071 -0.040323094 0.0029769887 -0.04078243 0.08697746 0.041952386 0.08649062 -0.009688995 -0.08679883 0.030266462 0.098998696 0.0682429 -0.013368219 -0.1516098 0.17207001 -0.13134992 -0.15567021 0.013214637 -0.030650796 0.046096694 -0.10844136 -0.07490547 0.002445493 0.0911186 -0.048042238 0.007053702 0.06814003 -0.058404777 -0.079154246 0.19394082 -0.24209999 -0.03744809 -0.018573565 -0.049164932 0.1041983 0.30534524 0.019844953 0.1515212 -0.055420484 0.001956308 0.020278467 0.05675945 -0.13720812 0.02067308 -0.08728963 0.12346428 -0.15518223 -0.0046612 0.09372015 -0.08309727 0.041026216 -0.040267587 0.22002366 0.12843692 -0.12214041 0.021631813 0.09505876 0.13920844 -0.062196027 0.034485094 -0.19882238 0.077538386 -0.09469232 0.18527141 -0.044816766 -0.07296895 -0.100164205 0.14312169 0.0062723067 0.10324187 -0.050175767 -0.106640145 -0.009551252 -0.12996083 -0.012502143 0.022229636 -0.073304184 -0.012289863 -0.107002236 0.12138245 0.1444844 -0.0886663 0.04236013 0.06631839 -0.22617623 0.05715153 -0.19345653 0.115932494 -0.053887997 0.01940968 -0.08709619 0.1984574 -0.11595229 -0.12843305 -0.045106944 -0.08562385 -0.13705535 0.03834484 0.027346939 0.11278821 -0.13317576
1271 0.0064404556 -0.1566187 -0.042940177 0.079641946 0.074945025 0.0373752 0.016712943 -0.050705772 0.0825205 0.13073567 0.08831892 0.15890968 -0.0840153 -0.11144051 -0.0073547694 0.09740419 -0.030888578 0.011833845 -0.10423958 0.16828167 0.10499283 0.0688592 -0.095639095 -0.077587 -0.12358219 0.026153142 0.028110556 0.11439412 0.021331962 0.081875175 -0.009977683 0.17252174 -0.06129207 0.07792148 0.08657281 -0.055848975 0.08401119 0.14522499 0.11900899 0.01657483 0.032185066 0.14789812 -0.22246015 0.14747462 0.04531494 -0.11852508 -0.090209864 -0.013289281 -0.030161774 0.039536346 0.07774391 -0.07961099 0.06197058 0.07980328 0.015571005 0.13598941 0.14725907 -0.17545286 -0.14108844 0.19072883 -0.06023867 0.055461414 0.13373958 -0.03268705 0.1266223 -0.16032511 0.06955453 0.06221265 -0.01919136 -0.033023816 0.023583585 -0.08976079 0.0290365 -0.062198743 0.05954239 0.02478436 -0.12804385 -0.111214325 -0.16168931 0.12342292 -0.010445354 -0.20693487 0.013325927 0.12063062 0.097716816 0.08480917 0.10262457 -0.20005852 -0.0037664142 0.032707322 0.04627477 -0.06688953 -0.13943842 -0.05966298 0.175053 0.0044335728 0.04198687 -0.061007828 -0.18585823 -0.07196224 -0.22609569 -0.07136017 -0.022611355 -0.1304282 -0.0024298169 -0.07681934 0.009993009 0.17862138 -0.181139 0.08021683 0.062286306 -0.2353784 0.10137519 -0.23570114 -0.03179234 0.037590608 0.064217925 0.029624743 0.14718276 -0.04488895 -0.15423547 -0.10082719 -0.11030125 -0.06882497 -0.036990993 -0.14267993 0.08175198 0.102049865
1370 0.027121613 -0.087166026 -0.08400255 -0.17253022 0.14611568 0.026963495 0.0014534004 -0.012888112 0.03933974 0.028142868 0.057650793 0.16507822 -0.11468953 -0.18505454 0.050311916 0.16477291 -0.2066839 0.029637229 -0.11716593 0.15118371 0.0043238676 0.017913785 -0.06070154 -0.046776902 -0.0134737305 0.074977204 -0.01360082 0.16033544 -0.043526057 -0.01591958 -0.024411937 0.024243487 -0.00051079865 0.13612543 -0.008697197 -0.02767915 0.038330663 0.15191226 0.09367185 -0.038441733 -0.06806892 0.2481332 -0.14095026 0.020889252 0.06541683 -0.22829449 0.053456288 -0.010888947 -0.076420836 0.093492776 0.15676065 0.018274 0.013345467 0.04866583 0.09229546 0.014045149 0.050015412 -0.104156464 -0.047698047 0.20603633 -0.071602665 0.059239138 0.17562112 0.074371554 0.08509518 -0.020181214 0.029454542 0.144863 0.06713359 -0.04836239 -0.09139775 0.0026386129 -0.004368188 -0.09802813 0.11838108 0.014889897 0.025320316 -0.07077847 -0.14272907 0.16121966 0.10348188 -0.03153589 -0.021262199 0.1902848 0.18245098 0.21588272 0.18585947 -0.34513116 0.033550393 0.06457461 0.0689922 0.031781375 -0.09236404 -0.12532938 0.30195263 0.12264918 -0.013748759 0.10663002 -0.11865271 -0.027606552 -0.115399726 0.04367332 -0.11634794 -0.16424152 -0.06483283 -0.080795474 0.08433701 0.01749809 -0.14728378 0.05995399 0.092570566 -0.08978648 0.17848921 -0.18350072 0.005036397 -0.01259436 0.053590257 0.009382363 0.082228884 -0.07813161 -0.047219407 -0.11671912 -0.11008025 -0.1676995 0.06434114 -0.14500828 0.0069981427 -0.04886241
1286 -0.026396396 -0.20225418 -0.035317633 0.06635575 0.13488533 0.0052376767 0.032055687 -0.032154284 -0.029018743 0.18930674 0.091272436 0.1486883 -0.12121872 -0.0013110422 0.13725355 0.12312414 -0.14361914 -0.101433694 -0.07367406 0.14283921 0.08510542 0.08909324 -0.17505708 -0.118774004 -0.061659515 0.09937283 -0.09196406 0.14888234 0.0031833649 -0.028127387 0.014007156 -0.10195402 -0.036753185 0.057058927 0.089625746 -0.02029321 0.115337275 0.13266605 0.13227527 -0.045611907 -0.051873825 0.07317227 -0.13056052 0.06523511 0.12672774 -0.13479257 -0.035456803 0.10617797 -0.06606147 -0.094753146 0.009077818 0.04909956 0.004992045 0.06693604 0.0148257855 0.007845906 0.07313282 -0.0006809657 0.0060945866 0.16350393 0.08397852 0.052249722 0.12314181 0.025946626 0.11517597 -0.016205829 0.058389165 0.05364469 -0.038038954 -0.024662718 -0.06156647 0.023880213 0.062138263 -0.0581711 0.0150959855 0.07475756 -0.15511334 -0.023149231 -0.15027666 0.31464738 -0.0010088837 0.050451245 0.043085326 -0.024451751 0.1607139 3.2995222e-06 0.15107243 -0.37376386 0.08848744 0.043190077 0.095499955 -0.01211334 -0.06393987 0.010230635 0.060147513 0.19927402 0.046587076 0.07368507 -0.18024035 -0.10453261 -0.12791629 -0.19970958 -0.09857972 -0.031252187 0.09317024 -0.09869747 0.011214764 0.058034357 -0.052243996 0.04872494 0.076446325 -0.20225812 0.0819345 -0.12778886 0.13152543 0.0487702 -0.005966367 -0.11089193 0.18013752 0.02928671 -0.044295024 -0.12942281 -0.06378757 -0.17027774 -0.0018861035 -0.048439436 0.06771031 -0.0059920326
1238 0.054278776 -0.098942354 -0.026624337 -0.06476662 0.083669074 -0.05855288 0.09677499 -0.020236686 -0.01750846 0.077055976 0.15610147 0.0899809 -0.13063353 -0.1870577 0.09478344 0.1443783 -0.049129583 0.06613557 -0.10363761 0.049033675 0.002015938 0.24341066 -0.08280365 -0.18164364 -0.114839956 0.13254453 -0.06932105 0.08893464 -0.028188312 -0.040044308 -0.022491852 0.06214998 0.044082403 0.03207371 -0.0012791632 0.018183457 -0.012563072 0.18942504 0.23742324 -0.07610836 -0.04557999 0.1261061 -0.075331226 0.059731204 0.0516224 -0.25018775 0.007346526 0.012439006 0.0016786186 -0.1116387 0.07595038 -0.047289323 0.054455385 0.06419962 0.10777349 0.10498916 0.06506513 -0.109119125 -0.029701859 0.19783239 0.074419826 0.093443505 0.21887481 -0.10376763 0.114321135 -0.13743018 0.0320354 0.06616585 -0.033353683 -0.114375636 -0.0009130962 -0.04289065 0.0642094 -0.12413815 0.15123188 -0.025703268 -0.020620551 -0.12618205 -0.05210607 0.23880795 -0.0011179192 -0.09035426 -0.013341522 0.036018677 0.12270303 0.020057788 0.16974014 -0.20982255 0.094232485 0.18064159 0.1244522 -0.1780055 -0.06694997 -0.015593358 0.07570497 0.09916291 0.12433766 -0.013555285 -0.12983248 -0.16319638 -0.123261034 -0.18460529 -0.11135581 -0.00033070587 -0.054589998 -0.11013535 0.010002188 0.058356367 -0.15756714 -0.058030777 0.021647695 -0.17011444 0.076725446 -0.17839643 -0.08419578 0.03530241 -0.07335888 -0.027531097 0.07753114 0.03723822 0.0066888756 -0.14751108 -0.14913973 -0.09335764 -0.03789546 -0.048292518 0.02470275 0.0927106
1128 0.1397453 -0.23524551 0.035154883 -0.021854555 0.19395803 -0.10731026 0.034701914 0.012494205 0.05479502 0.17475192 0.06626798 -0.01749858 -0.17264214 -0.103090286 -0.077918544 0.09821356 -0.14469196 -0.10277092 -0.04066005 0.08984234 0.0039609703 0.14335304 -0.03145559 -0.08887812 0.07956828 0.03699128 0.01517872 0.03944357 -0.08774264 0.03618009 0.0900459 0.043851368 0.051064745 0.03365455 0.060591355 -0.062659025 0.06422111 0.13123684 0.13671865 -0.050802756 -0.03705817 0.24515423 -0.15516289 -0.024568446 0.1100721 -0.13899012 0.03016681 0.02457003 -0.13866174 0.039941568 0.044573598 -0.057709686 0.092328764 -0.025340647 0.011022249 0.030434275 0.10058849 -0.06291213 -0.08774478 0.18147318 -0.050943043 0.11161849 0.18610679 -0.032288644 0.085226536 -0.046896826 -0.09227536 0.022079121 -0.021937251 -0.042361807 -0.15060917 0.0032963026 -0.00633121 -0.061001394 0.033431455 0.09389554 -0.1044303 -0.016596535 0.056918055 0.27795374 0.06521796 -0.014300956 0.07108113 0.18326552 0.15008089 -0.020299228 0.30000913 -0.18600185 0.033135217 -0.0471407 0.06610623 -0.028052554 -0.08413832 -0.09109779 0.22260815 0.13303442 0.030522244 0.015491131 -0.16686879 -0.19170535 -0.098438 -0.13283606 -0.06304974 -0.06885765 -0.07312244 -0.07631907 -0.008831167 0.14676727 -0.16157117 -0.0024070316 0.047677174 -0.117440134 0.06749485 -0.1255053 0.11334217 0.026755651 0.10048491 -0.074064806 0.18927704 -0.027096564 -0.0075029973 -0.0050231945 -0.16941133 -0.23787655 -0.0069624246 -0.1102415 0.100826584 0.015764102
1367 -0.040871926 -0.109763406 0.004229392 -0.06190267 0.15113574 0.02977548 0.21329322 0.07715182 -0.0023932396 0.061097395 0.05579599 0.05975982 -0.13618012 -0.09747909 0.15998895 0.14467907 -0.16128564 -0.081979305 0.05727679 0.105160765 0.2027914 0.13006406 -0.13934581 -0.11064272 -0.041245196 0.10000356 -0.03261365 0.08665702 0.08228184 0.07886868 -0.08041672 0.12146215 0.019494547 -0.04449972 -0.09342368 -0.1704337 0.08896251 0.16785459 0.15618691 -0.15049289 -0.08594652 0.10844836 -0.19539952 0.019580593 -0.018851563 0.02595799 -0.02801447 -0.0051405802 -0.08100744 -0.065419935 0.034106743 0.018925965 0.03084626 0.04479689 0.07288599 0.06826483 0.088208735 -0.068587735 -0.058228616 0.18076172 0.075494334 0.16591206 0.057459965 -0.024344245 0.12466589 -0.08102613 0.067151845 0.009210692 -0.009296717 -0.09770704 -0.025951795 -0.09182713 -0.053514715 -0.106961586 -0.0041682585 0.03377358 -0.0989241 -0.018744277 -0.0808656 0.16072537 0.02300407 -0.09550911 -0.057619102 0.19608055 0.16212626 0.010329889 0.15958217 -0.28738248 -0.00016111563 0.049289428 0.046027143 -0.11950648 -0.2489053 0.022375174 0.18178546 0.056318745 -0.07707422 0.03846476 -0.18567705 0.043807954 0.0022920691 0.019779123 0.009278745 -0.09969659 -0.0046687615 -0.2293334 -0.04955516 -0.049925145 -0.12942442 -0.052595936 0.098786935 -0.1570282 0.085567504 -0.09287862 0.021867575 0.12663646 -0.010909279 -0.04799832 0.15792756 -0.11038531 -0.1248695 -0.22439906 -0.07382243 -0.116931394 -0.08558513 -0.014723888 0.07551846 -0.039330028
1348 -0.0697059 -0.043521974 -0.17362683 -0.11114328 0.22480212 -0.10504729 -0.06133348 0.09435478 -0.13192235 0.068301715 -0.113352776 0.069172114 0.047024317 -0.11225734 0.07832334 0.14805064 -0.11920092 -0.11520171 -0.21007754 0.06801108 0.14289132 0.19204566 -0.18733083 -0.1124833 -0.07411889 -0.040730078 -0.07795924 0.023891665 0.023072425 -0.054569684 0.088263825 0.20348549 -0.0669116 -0.105612576 0.1484828 0.2525098 0.24853155 0.28761357 -0.041601602 0.13888268 -0.117847055 0.43624398 -0.14511521 0.032875597 0.17479222 -0.05095103 0.095576316 0.09118081 -0.01798069 0.004697205 0.09251085 0.019390877 -0.08744978 0.15084015 0.17911665 0.01736746 0.13363743 -0.09077882 0.046198387 0.03395651 -0.05684871 0.08634041 0.29078582 -0.07438383 -0.048061453 0.001208704 -0.008705449 -0.060076028 0.09714954 0.005176928 -0.039229535 -0.07101759 -0.07566475 -0.16835995 0.09894077 -0.027565291 -0.051694077 -0.11632334 -0.026071217 0.21415584 0.093012005 0.044724222 0.17924899 0.12510474 0.18313853 0.044022825 0.14677714 -0.13759832 0.056833096 -0.022733886 0.24552843 -0.032199837 -0.09360763 -0.13151643 0.08559812 0.06401231 -0.06476449 -0.07352688 -0.16508749 0.0039658644 -0.19987379 -0.101091914 -0.1625774 -0.0726658 -0.030166637 0.04322693 0.13584292 -0.06709233 0.06697458 0.059683286 0.15329866 -0.0059657893 0.042664506 -0.09887497 -0.039725438 0.25554767 -0.16206332 0.08175106 0.07034527 0.018030766 -0.17378592 -0.1549947 -0.001322965 -0.07411248 -0.057026945 -0.11711593 -0.012533772 -0.03672254
1413 0.0035304101 -0.2050505 0.009661744 -0.052954987 0.1911049 -0.0775503 -0.019064946 0.054826315 0.039758127 0.05223287 0.059702177 0.000828423 -0.12407432 -0.12196294 0.07425893 0.09277244 -0.09266443 0.03988871 -0.114836514 0.15032116 0.07821405 0.19505489 -0.16016757 -0.19971804 0.05320408 0.07084418 -0.0042879144 0.07091315 0.017164554 -0.10032739 0.003211559 0.03186983 0.043123316 0.061960958 -0.024142448 -0.035926085 0.086395144 0.17272653 0.19949172 -0.19721955 -0.13172878 0.17782176 -0.2031937 0.09837251 0.14339605 -0.06802934 0.08062241 0.04976514 -0.17244418 -0.06444034 0.11379146 0.054307237 -0.015986802 0.020798152 0.042482242 -0.04156008 0.18346646 -0.14544635 -0.097234346 0.16204359 0.08752569 0.13535996 0.054187786 0.053763334 0.06286981 -0.06967424 0.04125777 0.04176918 0.011448535 -0.07884433 -0.1254505 -0.054414656 -0.030741345 -0.12554096 -0.0834555 -0.055306118 0.094787166 -0.09072243 -0.10042221 0.18973683 0.09929143 -0.080756985 -0.0132788895 0.08241624 0.2022028 -0.05046863 0.15780851 -0.2324172 0.046334025 0.02909184 0.11136936 -0.008396496 -0.04265143 0.007842472 0.07322026 0.049961608 0.1032062 -0.109477594 -0.06996927 0.06881276 -0.24990164 -0.16766384 -0.0570516 -0.07734447 -0.026208654 -0.055278193 -0.02106811 0.023698999 -0.07058668 0.11466863 0.08923978 -0.21853572 0.010724727 -0.094468474 -0.10871527 0.0956235 -0.029386643 0.068103746 0.11337679 -0.04604325 -0.019058451 0.00955466 -0.17442107 -0.11068962 -0.019630011 -0.0614802 0.029603811 0.03062386
1145 0.095093615 -0.09630025 -0.014884739 -0.043068685 0.11269747 -0.00992802 -0.055822298 0.14754069 0.057659425 0.01859622 0.015819656 -0.029751558 -0.07432494 -0.10099895 0.05284995 0.20260845 -0.07476013 -0.049717043 -0.16288391 0.119625516 0.07753349 0.08287912 -0.11179535 -0.14881618 -0.035420146 0.054757655 -0.09356643 0.17136708 -0.09339161 -0.008140336 0.0377585 0.07215995 -0.10808707 -0.03348439 -0.013280309 -0.08978769 0.07775612 0.15703374 0.0813323 0.08268233 0.029952085 0.24840412 -0.16308872 -0.0007049143 -0.04367877 -0.06648965 0.039297987 -0.07007216 -0.09645032 0.0045712013 0.14515726 0.05680147 -0.030964158 0.0148060415 0.07646917 0.11102055 0.039061885 -0.04408953 -0.21615371 0.09501769 0.02371744 0.11873823 0.21556854 0.03187696 0.11853212 0.036220014 0.04629924 -0.060370326 0.022575654 -0.070955634 0.081559695 0.042364735 -0.04157458 -0.008916672 0.028502328 0.11548249 0.030944254 -0.1108209 -0.2214832 0.24054351 0.15103008 0.035552662 -0.0020016085 0.16116439 0.13263181 0.18354256 0.1549536 -0.292226 0.14608054 0.04022686 0.14085694 -0.1277433 -0.16051228 -0.03456427 0.1105121 0.10543323 0.04185782 -0.06145942 -0.08073754 -0.16314606 -0.10823623 -0.0959669 -0.1087954 -0.07804545 0.013545844 -0.10127422 0.016016912 0.07755545 -0.1193499 -0.011507947 -0.010299314 -0.12730324 0.047829434 -0.14713693 0.11769339 0.0026293865 -0.009367497 -0.011207298 0.16433246 0.024327977 -0.10551788 -0.11213422 -0.15794173 -0.05478325 -0.007938356 -0.13046353 0.109090135 0.04815093
1197 -0.029889654 -0.117787324 -0.10670414 -0.043705903 0.19545878 0.002007665 0.10196535 0.057775114 -0.10376061 -0.008053747 0.021056639 0.083385594 -0.15286882 -0.16885439 0.17814139 0.18005602 -0.06969463 0.0067909863 -0.11958507 0.09034378 0.04887748 0.21369007 -0.16876611 -0.22901645 -0.065685466 0.08719123 0.00490309 0.20802544 -0.008714493 0.013762295 0.034446016 0.07443848 -0.04142092 0.0058485954 0.013686254 -0.1196578 0.09498233 0.14387406 0.03390767 -0.08324453 -0.09984841 0.27837452 -0.14477475 -0.018415498 -0.027194045 -0.03453813 0.029467218 -0.02972544 -0.08073071 0.08894148 0.00035468795 0.021703865 0.0076070465 0.06899095 0.022971196 0.08022711 0.035945754 -0.067995116 -0.051167775 0.1871103 -0.0879097 0.08711855 0.16114478 -0.013528621 0.021859221 -0.121730916 -0.021499464 0.05126132 0.09286611 -0.06454439 -0.011243169 -0.011799775 -0.065465346 -0.08930889 -0.016705148 0.07879072 -0.07408474 0.040640283 -0.1374163 0.15867737 0.046481036 -0.07041631 -0.01833909 0.07027406 0.08028082 0.07366837 0.026205642 -0.22166985 -0.038973253 -0.013271721 0.02648599 -0.083018966 -0.122501686 -0.095442645 0.1266516 0.12386279 0.14860336 0.03347458 -0.06474873 -0.1431139 -0.16141352 -0.13385239 -0.15011202 -0.13981496 -0.12889448 -0.098192096 -0.010793426 0.032527257 -0.16135965 -0.08430363 0.10888059 -0.011801981 0.112357706 -0.059178274 0.08046073 -0.024698103 -0.030857299 -0.13098624 0.27917668 -0.09614217 -0.011523575 -0.069560796 -0.10173561 -0.11830591 -0.0155598745 -0.07241206 0.19377385 0.030464554
1146 -0.03306396 -0.22235338 0.058873154 -0.06760403 0.16017224 -0.049429014 0.002028977 -0.0077421027 0.098832525 0.09106495 0.076968424 0.117205255 -0.13586934 -0.18801638 0.086996876 0.07680805 -0.08516345 0.075165585 -0.04829544 0.21986046 0.109225735 0.15540649 -0.072423354 -0.058560517 -0.065354876 0.11779682 0.046577457 0.056637075 0.021110706 0.06758897 0.008358126 -0.022376027 0.08810457 -0.0048394585 0.04376275 0.07016866 -0.019597389 0.08597315 0.15404189 -0.06857297 -0.032704573 0.18709072 -0.12835392 0.08418805 0.0860465 -0.05007437 0.095260836 -0.037450418 -0.023916526 0.018792102 -0.030759377 -0.062477652 0.06561523 0.018034566 0.034359876 -0.06764736 0.086598076 -0.041386362 -0.034366228 0.16882315 0.019600658 -0.040697373 0.093019396 0.008972121 0.1786252 0.043043934 0.07766698 -0.0105914185 -0.020394314 -0.2044793 -0.16360727 -0.031152418 0.020251067 0.050569642 0.006258457 0.028744508 0.0036698154 0.032331247 -0.10933713 0.09794709 0.05916225 -0.047366932 0.026117934 0.13635677 0.20564091 0.012443461 0.18518859 -0.36318058 0.01277886 0.0042921035 0.084613815 0.0027608022 -0.25190616 0.0017259544 0.09629329 0.11489214 0.012798739 0.08984514 -0.22583391 -0.055920396 -0.17526583 -0.080665566 -0.19565582 0.01492653 -0.0607802 -0.1661885 0.13380577 0.105243705 -0.14232412 0.040443476 0.065232955 -0.17130248 0.087561026 -0.17074606 -0.04244992 0.04692478 -0.0070898402 -0.039074827 0.12689553 0.09180043 -0.08663305 -0.2094981 -0.03476445 -0.12589203 0.029431976 -0.14139482 0.06036847 -0.027847318
1297 0.077670075 0.063645795 -0.029363187 -0.02450515 0.11880706 -0.015570917 0.03620636 0.0413302 -0.10559728 0.045194063 0.07104692 0.12715262 -0.13167982 -0.119711705 -0.013867366 0.17115232 -0.29122096 -0.15613765 -0.07355084 0.10046551 0.0792208 0.19996081 -0.03941164 -0.049022485 0.022538299 0.056419753 -0.020882346 0.082110696 0.009599908 -0.028344406 0.047958475 0.10941469 -0.108561054 0.10016455 0.034117594 -0.019415567 0.08006279 0.2006463 0.16096716 0.02842345 -0.020066455 0.22183476 -0.16554725 -0.039589617 0.07347554 -0.013206702 -0.026825592 0.14484057 -0.086187534 -0.015364495 0.005778861 0.02305558 0.0052297167 0.117747575 0.074199036 -0.01916362 0.18767272 -0.025706455 -0.2089107 0.1480317 0.009294469 0.14229846 0.26391113 -0.113371156 0.06780964 -0.042533837 0.06647712 0.06018498 0.100114115 -0.06623441 -0.004954033 -0.008661763 0.01438594 -0.066694655 -0.032666367 0.034440953 -0.15989539 -0.0377422 -0.078057535 0.14129062 0.015845016 0.078285985 -0.08230519 0.0073819547 0.19275898 0.04843944 0.17880459 -0.3303136 0.016275357 0.08433065 0.043436337 -0.08086986 -0.041968785 -0.012454992 0.107421845 0.10507585 -0.02261786 0.03744066 -0.13008597 -0.10670489 -0.07581895 -0.14128724 -0.1496951 -0.03433144 -0.01919098 -0.14688767 -0.03515192 0.10320719 -0.1856807 0.004301463 0.027891967 -0.075704984 -0.020274801 -0.24415834 -0.0837517 0.05475884 -0.078756586 -0.049944486 0.17206688 -0.011468878 0.0121037355 -0.26481155 -0.1071477 -0.013442388 -0.00048605623 -0.09784772 0.0621017 0.108413756
1352 0.03567208 -0.018667562 -0.06312762 -0.1762288 0.23349684 -0.08471497 0.116940774 0.046035208 0.035154693 0.065871865 0.072712205 0.022114636 -0.16888762 -0.19795704 0.09546196 0.107966706 0.078374386 -0.1118802 -0.17613761 0.035072025 0.10576564 0.1827522 -0.013826154 -0.21346448 -0.041510772 0.09818685 -0.14532493 0.13160942 0.05726083 -0.008946468 -0.050904684 0.016815422 -0.023824574 0.08818802 0.085528016 -0.08526419 -0.012317164 0.20408592 0.18743396 -0.09079459 -0.1441424 0.24847907 -0.13107745 -0.07811347 0.046929486 -0.0768659 -0.033889912 -0.024046084 -0.045433894 -0.020480912 0.068818435 0.09475485 -0.061819345 0.038504023 0.046645734 0.036054406 0.23369461 -0.064824246 -0.04327602 0.14903672 -0.05080525 0.045426093 0.13650009 0.07230545 0.077472635 -0.009499644 0.063525856 -0.022306483 0.046668142 -0.10958472 0.055692293 0.00012826818 -0.037051473 -0.08010655 -0.07949027 0.053741783 -0.15779193 -0.047308132 -0.1374014 0.2402339 0.048463713 -0.08817991 -0.023728529 0.033251736 0.18467993 0.061256673 0.085282095 -0.29273143 -0.01441715 -0.041113276 0.15012272 -0.06527962 0.038019057 -0.06516897 0.11729968 0.03069194 0.07628215 -0.016104998 0.014042228 -0.060364105 -0.1419595 -0.04711685 -0.062144186 -0.166126 -0.062037665 -0.034488805 0.03852405 -0.060523696 -0.042019248 -0.009393492 0.054616474 -0.17778142 0.1831083 -0.23231971 -0.03991911 0.028640633 0.053519085 -0.079708934 0.17769714 0.057212744 -0.07382118 -0.11449204 0.033460315 -0.12635742 -0.07089564 -0.07284704 0.112868 0.10161468
1249 0.11104292 -0.19992658 0.048141956 0.006286565 0.06407326 -0.14002441 0.1704262 0.100348115 0.1318542 0.09824763 0.1464555 0.09655207 -0.022969496 -0.20852101 0.03184909 0.12064129 -0.05722549 -0.11681296 -0.06631035 0.17528442 0.110637955 0.19929917 0.04914711 -0.12803525 -0.0108910985 0.12479522 -0.051078383 0.12423419 0.031541176 0.14595844 0.04314233 -0.06237622 0.017749863 -0.014201829 0.03730143 0.0026888852 0.112923555 0.24254157 0.1402866 -0.066854164 -0.15227991 0.16527279 -0.07778841 -0.024226233 0.10568476 -0.1164041 -0.12862116 -0.050234597 -0.042663515 -0.017843258 -0.06654881 0.012557285 0.07395875 0.0104235485 0.014647871 0.014068071 0.08681586 -0.017634638 -0.051919445 0.17731011 0.03452495 0.10597398 0.16890636 -0.03433477 0.12051327 -0.10937755 -0.14247648 0.01721743 0.04150151 0.064753644 -0.041145504 -0.054435533 -0.06849317 -0.147399 0.11257612 0.03767849 -0.13571687 -0.059503388 -0.17185943 0.13782114 0.010672431 -0.19304527 -0.005671882 0.07060673 0.048403453 0.0091816895 0.07790503 -0.3354702 0.0334031 0.06134764 0.121119216 0.03238855 -0.11162752 -0.1658237 0.17067656 0.121745385 0.095843785 -0.016081978 -0.053621132 -0.07562008 -0.13436745 -0.11597089 -0.040014654 -0.06883067 -0.017509857 -0.04727301 0.04904995 0.091704674 0.0019213782 0.041890442 0.08391332 -0.06705892 0.09332939 -0.12723379 0.057998363 0.040475246 -0.03597711 -0.068635546 0.21954212 0.01853616 -0.08735754 -0.038338766 0.014094019 -0.119991966 -0.0039684856 -0.054094944 -3.2776054e-05 0.0778439
1368 -0.06389585 -0.11890932 0.03563837 -0.022582583 0.014334074 0.035956997 0.20711577 0.017427968 0.08093513 0.0045637856 0.09711949 0.084726825 -0.27261582 -0.18148626 -0.00027870096 0.2195977 -0.20226538 -0.07155092 -0.18001623 0.0031726358 0.062029272 0.111883566 -0.10798341 -0.06303271 -0.09293779 0.029595697 0.002853857 0.14178012 -0.0800707 0.06360925 0.018312067 -0.02085619 0.0074513056 0.068791546 0.048461016 -0.05234424 0.0078965705 0.13846736 0.08683962 0.013218404 -0.09954503 0.13213079 -0.12698866 0.057530887 0.09000046 -0.14918882 0.05021223 0.065862015 0.022998221 -0.043691106 -0.01369723 0.0005182095 0.12690988 0.13907236 0.025488991 0.09375781 0.12835965 0.10927575 -0.018325021 0.19368139 -0.06210154 0.0933855 0.27117375 0.06464446 0.1588971 0.054420415 0.03942696 0.016058864 0.10690955 0.07298497 -0.0030322813 -0.013850721 0.093073316 -0.120286085 -0.045245234 -0.0064169774 -0.1067446 0.018345056 -0.09227675 0.2026968 0.09882085 -0.08759137 -0.047077462 0.003364792 0.2345652 0.066513754 0.13048065 -0.29288125 0.07968311 0.09435032 0.1419222 0.002041476 -0.09994922 -0.053683937 0.14778817 0.0983916 0.11888023 -0.068535484 0.04491972 -0.046463307 -0.059682466 -0.119986676 -0.025026876 -0.05485795 0.04076619 -0.11115033 0.08691017 0.07677924 -0.1546033 0.06705506 -0.015738241 0.007403115 0.22143386 -0.2853088 -0.06780632 0.0066618705 0.002155431 -0.016636929 0.15973468 0.022549096 -0.057888288 -0.07143272 -0.1480966 -0.12474445 -0.05600822 -0.17021498 0.23311298 -0.06886507
1356 0.031585496 -0.13474336 -0.07135696 0.008054903 0.16426095 -0.09796879 0.1101561 -0.0046276944 0.09642807 0.027035689 0.06450959 0.040517557 -0.23603025 -0.15245305 0.08128702 0.10020456 -0.05099715 -0.082595274 -0.17490956 0.1356754 0.14789051 0.18028353 -0.16494574 -0.0014425738 -0.019468235 0.11737352 -0.097769015 0.09829025 0.011975688 -0.011361694 0.042153608 0.07042016 -0.011409922 0.15675515 -0.031311598 -0.07080964 0.12030455 0.11197836 0.17303018 0.016615825 -0.11573309 0.056711383 -0.1383977 -0.0059352447 0.14068107 -0.00044401438 0.034206357 0.13945647 -0.070181236 -0.067988545 0.098528974 0.0005254585 0.09295098 0.02659966 0.05588193 0.003337382 0.07044295 -0.081575274 -0.043489993 0.07643703 -0.06679931 0.100833364 0.1768781 0.002823625 0.09098254 -0.059815526 0.018121844 0.0038425054 0.03454042 -0.024806488 0.0037637088 -0.011790718 -0.034115452 -0.030557558 0.030737707 0.034418274 -0.12681907 -0.043156166 -0.08695336 0.14629096 0.06867448 -0.022120295 -0.030072473 0.15250935 0.15368254 0.0824826 -0.015052657 -0.40871188 0.039623383 0.014538397 0.07380897 -0.046980754 -0.026230607 -0.048281062 0.16450109 0.08062122 0.05356563 0.05532361 -0.14851058 -0.06962999 -0.090578035 -0.11061394 -0.08394971 0.013434548 0.045534395 -0.28955558 -0.06831365 0.061410144 -0.18174669 -0.010417078 0.110621884 -0.08840288 0.104723044 -0.07649431 0.19182466 -0.07683272 -0.057640556 -0.009586522 0.12571946 0.036099155 -0.116362 -0.11988695 -0.09016649 -0.13184834 -0.11814645 0.02741038 0.10012214 0.1814763
1259 -0.08425699 -0.08246481 -0.086811915 -0.04655292 0.06663597 0.013964361 0.15339355 -0.11292918 -0.04552103 0.11757017 0.05133494 0.044585343 -0.15001824 -0.1511717 0.08067876 0.21714023 -0.076987155 -0.12572737 -0.07673003 0.1577567 0.12469446 0.30652377 -0.07503113 -0.14884119 -0.034800623 0.030942675 -0.046360802 0.045019325 -0.072114095 -0.027158288 -0.024183607 -0.0021973096 0.16682014 0.1468318 -0.020059573 -0.07759605 0.01690397 0.19712043 0.25410786 -0.0005276318 -0.121814996 0.14881171 -0.09750274 -0.17492004 -0.009973751 -0.07880471 -0.034768067 0.057793736 -0.09543109 -0.02918883 -0.039204534 -0.030002242 0.018045489 0.10586686 0.11844247 -0.08558589 0.09267953 -0.044974655 0.01647021 0.10955654 -0.13400665 0.10099396 0.30712685 0.011921387 0.1846259 -0.09959508 0.10332826 -0.027151456 0.0139222145 -0.1580617 -0.12041177 0.018525744 -0.045688976 -0.15862337 0.134778 0.1333855 -0.11457031 -0.015132374 -0.033102788 0.065150194 -0.08539104 -0.08868114 0.094066374 0.0871161 0.19058917 0.10450792 0.07489477 -0.24695833 -0.07597052 0.025759058 0.045289196 0.03833943 -0.023764487 -0.16137487 0.10431344 0.021280238 0.11846191 0.03486403 -0.11590947 0.00044133302 -0.12077551 -0.19172396 -0.06752434 -0.025474802 -0.050753992 0.0060737315 0.07499328 0.09490051 -0.06235784 -0.017150907 0.033404816 -0.16946939 0.104951 -0.050925694 0.026552703 0.011236542 0.111967765 0.046766464 0.11660669 -0.012394083 0.012821662 -0.1567239 -0.14820988 -0.16605201 -0.08589329 -0.11062363 0.025976643 -0.101892464
1199 -0.004010826 -0.08019009 -0.017861335 0.05515202 0.11231486 -0.043364827 0.07970066 0.06520321 0.036995336 0.15467376 -0.010917038 0.04527275 -0.12125518 -0.19532743 0.16659766 0.09312877 -0.13442193 -0.043389007 -0.11878076 0.14082262 0.17016725 0.17944871 -0.14744705 -0.02790429 -0.15169342 0.0599115 -0.0005911103 0.024182953 0.07851445 0.0025607 0.059116162 0.1221213 0.09448663 0.0070717535 -0.13906752 -0.13802704 0.023135075 0.18397616 0.17428155 -0.0022601099 -0.045714132 0.119628176 -0.13929231 -0.06531645 0.06101737 -0.10693575 0.047404777 0.0037883807 -0.19357963 0.036135707 -0.05509448 0.0049837953 0.10335549 0.0064758696 0.09160703 0.08985838 0.008590743 -0.003254859 -0.019827325 0.11700629 -0.08150806 0.20552036 0.12038374 -0.12850867 0.014009544 -0.10596345 0.08029175 0.019476192 -0.046757836 -0.09686186 -0.11686637 0.05452003 -0.041928206 -0.1364689 -0.010038704 -0.0063949865 0.010506065 -0.025016349 -0.114252485 0.15066785 0.07384124 -0.08590788 -0.0009530333 0.11720538 0.13876124 -0.0690229 0.16449583 -0.28125682 0.10063731 0.03784574 0.119525194 -0.07771031 -0.18442266 -0.1412343 0.025773259 0.13227773 0.10369969 0.029775754 -0.11650833 -0.06115832 -0.015107632 -0.1876456 -0.1037757 -0.054914095 -0.06169404 -0.13601139 0.07782913 0.08102158 -0.07023877 -0.029535033 0.04025627 -0.051395796 0.05091341 -0.13103704 -0.04174915 0.024434904 0.019818006 -0.114622794 0.19956742 0.041427277 -0.06093434 -0.10714853 -0.125839 -0.17413864 0.0057813157 -0.020063303 0.09746852 -0.008313119
1277 0.008773598 -0.16539244 -0.094902 0.04651098 0.3045884 0.02937112 0.05234382 -0.033950977 -0.019089952 -0.11095023 -0.031002326 -0.00149265 -0.10967331 -0.1867652 0.0016546703 0.16421643 -0.1643199 -0.055075683 -0.23003641 0.13403586 0.049504213 0.13258685 -0.1281814 -0.06440796 0.042522125 0.17077267 -0.065382555 0.010194105 0.047451302 -0.028055973 -0.0995167 0.025685476 -0.0026349367 0.04100577 -0.10338395 -0.029510971 0.13570848 -0.081974804 0.05931985 -0.10639104 -0.07043626 0.136846 -0.20573296 0.016641552 0.07750782 -0.07789456 -0.07227375 0.10418356 -0.03832095 -0.114770524 0.057721786 0.022698453 -0.011627062 0.094309 0.021016596 -0.055148374 0.0605923 -0.15954642 -0.031410884 0.10311357 -0.06612656 0.1762747 0.16687953 -0.0009653577 0.043635704 -0.008002209 0.08870872 0.07909123 0.0081711095 -0.070421346 -0.006696517 -0.08987231 0.06563613 -0.16190094 0.007664813 0.08269125 -0.08786008 -0.020267412 -0.17692079 0.17384425 0.07443293 -0.0017728338 0.06752188 0.031091241 0.18994118 0.012380918 0.16802834 -0.30280742 0.06868199 0.016614577 0.12448658 -0.10877658 -0.13571876 -0.091102175 0.15351859 0.14120413 -0.11853147 -0.040089708 -0.1451701 -0.16887885 -0.12544958 -0.037587717 -0.14239801 -0.053889234 -0.11034777 -0.07834604 0.08163623 0.021503136 -0.08578355 0.044108283 -0.008998406 -0.1313875 0.15483046 -0.1368939 0.029356625 0.104984626 -0.011462177 0.028718585 0.014575549 -0.104225166 -0.15298952 -0.0769347 -0.07626349 -0.19399269 -0.076287776 -0.009119899 0.054419275 -0.07455951
1390 0.13880675 -0.21811424 -0.17946362 -0.009944572 0.1950188 -0.07608348 0.016411256 0.006973287 0.02773316 0.15446433 -0.008356801 0.024874836 -0.19475372 -0.15399684 0.091105156 0.1976086 -0.17146036 -0.15257405 -0.040216725 0.21723485 0.06376294 0.17561968 -0.05792464 -0.12665944 -0.0005796575 0.019431522 -0.079471946 -0.009040036 -0.041602906 -0.030338172 0.072025985 0.050750703 -0.03622085 0.04204199 -0.028861439 0.05079034 -0.013674975 0.09091885 0.07407862 -0.025343677 -0.022214035 0.17570138 -0.029012816 0.080722004 -0.0014221634 -0.1408657 -0.018896686 0.0072658393 -0.07427989 -0.11164492 -0.07916046 0.010916217 0.02732419 0.13666016 0.004219551 0.118476875 0.02374124 -0.03111016 -0.04219452 0.31862468 0.019662024 0.054429814 0.21944533 -0.007133147 0.16233209 0.04055168 0.012853802 -0.040230032 0.02353156 -0.13514443 -0.09399978 -0.05013908 -0.0060776724 -0.04214227 -0.033877455 -0.06501239 -0.06794384 -0.04587416 -0.15666063 0.22830579 0.06464963 -0.14209098 -0.0016535681 0.046679094 0.12477314 0.0037007772 0.031890415 -0.16778925 -0.025722634 0.022325667 0.061936446 -0.14050305 -0.17363715 -0.18178084 0.21673638 0.09886522 0.073467925 0.07384379 -0.14220941 -0.057992555 -0.09849173 -0.056816403 -0.056536205 -0.1250259 0.03472284 -0.052901767 0.1178085 0.06494488 -0.1176379 -0.008338671 -0.026333593 -0.11470757 0.01170073 -0.08678306 -0.04052073 0.073568895 0.049660135 0.01800707 0.12715766 0.041596614 0.021582603 0.037639182 -0.14892392 -0.08276046 -0.11603729 0.0016122037 0.013196967 -0.075104386
1283 0.038503356 0.11388392 -0.07471608 0.05086102 0.12899975 0.07122216 0.11012018 0.18801472 0.106702186 0.17847654 0.031129707 -0.053964615 -0.09449303 -0.28918254 0.16305687 0.06526436 -0.23220064 0.10830181 0.12502947 0.14395174 0.1048542 0.14448355 -0.06622202 -0.119596586 -0.17287467 0.23879756 -0.18001282 0.15649186 -0.14315547 -0.14575545 0.17211758 -0.049084134 0.017295672 -0.117923744 -0.058945514 -0.21222447 0.05970583 0.0176633 -0.021394638 -0.037422873 -0.2278841 0.19814326 -0.18078426 -0.03095177 0.12257124 0.051245317 0.018952666 -0.09224048 -0.23841862 -0.12540731 -0.23862962 -0.07555757 -0.015632663 -0.02173276 -0.10297411 0.03691613 0.27653685 -0.16729455 0.07545096 0.13929513 -0.04300607 0.08129024 0.24794902 0.015938593 0.01600679 0.1819099 -0.037837565 -0.077153906 0.085634634 -0.09520325 -0.21015996 -0.012411399 -0.2303701 0.13450556 -0.07911697 -0.02860916 0.044292737 0.1787773 -0.11276901 0.18046412 -0.009186281 -0.25350943 -0.06182798 0.13448107 0.2081828 -0.13910794 0.20762515 -0.24848258 0.092889845 -0.18290776 -0.18706553 -0.055922754 -0.30819634 -0.027444802 0.06906545 0.18572892 0.041343365 0.044702165 0.08830502 -0.03767016 -0.1975583 0.0003863472 0.03357242 -0.17547347 0.029568054 -0.006187995 0.11011707 0.110491626 0.0069513475 -0.094059855 0.0830541 -0.0038620415 -0.13980736 0.020055428 0.122416675 0.13985038 0.118290454 -0.09504732 -0.028379615 0.02988013 0.15129046 0.02325198 -0.08825144 -0.10899765 0.122558706 -0.052635334 -0.19863392 0.047983933
1200 0.20796162 -0.099484086 0.024189759 -0.020338828 0.10203256 0.011988801 0.08048646 0.056958426 -0.01583922 -0.025630081 0.07017905 0.0014192592 -0.13896187 -0.079068206 -0.07442978 0.23689878 -0.1308914 -0.067371786 -0.060999025 0.17320754 0.029667249 0.19402811 -0.14922975 -0.05476508 -0.016961748 0.0942141 -0.06652664 0.05493349 0.017742475 0.057718687 0.0063128965 0.090928 -0.05881987 0.063093305 0.06724733 -0.061643176 0.08191563 0.06359746 0.24046983 -0.004088458 -0.06482958 0.18790098 -0.17926608 -0.0043563223 -0.06096389 -0.10251384 -0.047857802 0.04276953 -0.10400802 -0.030258352 -0.035032995 -0.02158867 0.11568335 0.012114142 -0.08884179 0.016794669 0.18136741 -0.101743974 -0.122425124 0.15268263 0.1106144 0.18846591 0.10221502 -0.011207709 0.04446225 -0.2018167 0.09910134 0.12559372 -0.030301517 -0.112947695 0.066853456 -0.0719745 -0.09365428 -0.116827324 -0.0537809 -0.01349285 -0.21564987 -0.037782595 -0.110898204 0.22527513 0.0016959825 0.013023607 0.07683688 0.16553278 0.15461273 -0.0010969671 0.038050614 -0.23429082 0.021629142 -0.0048629744 0.14701645 -0.17217498 -0.18550077 0.026793052 0.1832954 0.10031454 0.06480224 -0.12017177 -0.13067162 -0.07424632 -0.12019436 -0.09751028 0.024709841 0.019308984 -0.10815448 -0.08660956 -0.012705389 0.13569613 0.012235693 -0.0012457293 0.046071444 -0.17833215 -0.08048141 -0.12778427 -0.013020177 0.14746043 0.0542915 -0.10401171 0.14809152 0.102523185 -0.081495054 -0.1205294 0.027689943 -0.09469735 0.030621886 -0.05719529 0.04173924 0.004577784
1339 0.03783926 -0.046176415 -0.07816309 -0.13091376 0.2252822 -0.100190975 0.18867373 0.034867954 0.03032452 -0.011367225 -0.003934472 0.078806564 -0.23141198 0.00016040119 -0.04108471 0.1742661 -0.08109382 -0.008182581 0.02722926 0.15003034 0.088478826 0.19090018 -0.065143876 -0.008345945 0.02241184 0.025767755 0.006949962 -0.0037629113 -0.0670244 -0.083293974 -0.04922243 0.07323357 0.030292366 0.0881597 0.03922691 -0.028366039 0.08469602 0.20678219 0.05977641 -0.08034491 0.06176099 0.23474616 -0.027807271 -0.0032652419 -0.038420536 -0.13823791 0.0064145164 0.056385107 -0.0762079 0.035167754 0.011233858 -0.030712608 -0.0014728344 0.12832838 -0.07421973 0.07646958 0.13642295 -0.079372324 0.10829075 0.1976942 -0.105590805 -0.09679013 0.25363424 -0.014279209 0.10768753 -0.055455476 -0.007168934 0.04777756 0.06514517 0.03212046 0.009804811 0.041352667 -0.12959619 -0.06737438 -0.0059424047 0.101170346 -0.12819116 -0.024326334 -0.119156696 0.21667619 0.057806823 -0.16497429 0.12837355 0.27417263 0.18653914 0.097006366 0.15156196 -0.23281619 0.012420519 0.07207144 0.09545289 -0.056379966 -0.20033666 0.04693629 0.14021644 0.14614339 0.058743503 0.076844566 -0.26490912 -0.058002543 -0.12823232 -0.06409425 -0.2053973 -0.05854504 0.003954938 -0.08870701 -0.056016244 0.06370983 -0.106516704 0.13325296 0.09030592 -0.1511711 0.012850222 0.014276528 0.105201304 -0.03150405 -0.022982756 0.0681679 0.09763555 0.11065743 -0.18989219 -0.16692384 -0.22970471 -0.10713191 -0.12505141 -0.17474355 0.009334706 -0.080237955
1147 -0.09142948 -0.051365476 -0.1447992 -0.027700048 0.12829429 0.055423636 0.060427465 0.09852297 -0.009720437 -0.06791534 0.07141804 0.0120376395 -0.22124821 -0.16390252 0.06744133 0.019158578 -0.14452042 -0.02340802 -0.077428386 0.18940814 0.21473978 0.08874947 -0.05474269 -0.16898023 -0.13083787 0.14087903 -0.09868611 0.08280235 0.03146373 0.2210326 -0.012786977 0.07889682 0.02303332 0.054837804 0.12632883 -0.00014823466 -0.04111445 0.29979226 0.09879313 -0.12588397 -0.15264171 0.18113819 -0.091222875 0.016109362 -0.107437246 -0.09150754 0.06579483 0.039382428 -0.07718443 -0.014368033 -0.06333838 -0.053691503 0.01335329 0.026523262 -0.04094681 -0.013679028 0.07389006 0.039979152 0.023154927 0.1965022 0.029988995 0.11483031 0.22272356 0.11845664 0.105962254 -0.01634089 0.09529847 -0.1133091 0.054638147 -0.109736316 -0.11611431 0.04956389 -0.025828002 0.02787916 0.05656698 -0.10863162 -0.1058324 -0.027572675 -0.10224073 0.15484588 -0.030378107 -0.045305695 -0.03906677 0.10566417 0.13281707 -0.016790338 0.10792325 -0.32835823 -0.018603792 -0.023674067 -0.11025715 -0.09072882 -0.19586638 -0.18032634 0.2539159 0.13848305 0.043086283 0.05838831 -0.076995246 -0.057720974 -0.08167601 0.09699046 -0.11137258 -0.09381351 -0.056536723 -0.10467963 -0.1050415 0.08455183 -0.11051101 -0.025424741 -0.013647837 -0.1452066 0.041316014 -0.17316496 0.094248764 0.06910026 0.08174113 -0.004168242 0.11378284 -0.08824713 -0.014794552 -0.12576035 -0.040049486 -0.11893601 0.025888428 -0.09830423 0.081556454 -0.09282857
1073 0.10730109 -0.11538033 -0.044787653 -0.11623269 0.11102918 0.077861644 0.036405668 -0.1506339 -0.07257165 -0.015151141 0.11240397 -0.0049629863 -0.21081509 -0.11355451 0.022966424 0.18200223 -0.088686295 0.05071979 -0.01956778 0.14975423 0.026326897 0.07137679 -0.16283667 -0.056230515 -0.044012815 0.1955112 0.06427773 0.12023714 -0.1507467 -0.019857174 -0.06254156 0.08361639 -0.04760699 0.050835196 0.028861428 0.059945907 -0.015244459 0.21223654 0.070992224 0.10522881 -0.04206695 0.12544808 -0.1441427 -0.07474659 0.030036485 -0.1623374 -0.0585571 -0.0683427 -0.13385467 -0.023974746 0.029630866 -0.075209044 0.12429664 0.069766305 0.010006047 0.06520849 0.109212026 0.077017404 -0.037637386 0.11909383 0.05917731 0.18973237 0.11125708 -0.0016006061 -0.01963155 -0.14437348 0.11619251 -0.009225743 -0.030487675 -0.09906932 0.009059611 -0.0789218 -0.19507979 -0.05555646 -0.051398065 -0.005785968 -0.14167996 -0.037724078 -0.13807087 0.26417488 0.0041210135 -0.08509499 0.08318345 0.1436359 0.20550644 0.036541242 0.20755632 -0.23253287 0.10278953 0.022149527 0.073049046 -0.023749808 -0.009168535 -0.09975473 0.15269753 0.17810455 0.010180924 -0.0066794646 -0.2561607 -0.10578001 -0.10295338 -0.09857466 -0.039153233 -0.08508735 -0.008307649 -0.16298407 0.11452858 0.06916203 -0.13789117 0.02196338 -0.0049610976 -0.13210122 -0.029485308 -0.13652636 0.059720855 -0.04618587 0.07791233 -0.049962368 0.22315143 -0.022981113 -0.035674997 -0.050179943 -0.054795202 -0.10483814 -0.069990434 -0.026961436 0.036985092 0.009268891
1106 0.02213489 -0.13377708 0.06503506 0.027912749 0.11069091 -0.0014203313 0.077074654 -0.061719738 0.022886839 0.02921623 0.020592757 0.015362602 0.024310812 -0.19414173 -0.031307667 0.16893871 -0.025146121 -0.14579466 -0.13567068 0.11199945 -0.08483941 0.04994394 -0.17358756 -0.1700904 -0.11121623 -0.011141957 -0.1908851 0.061849516 0.11941891 -0.08493783 0.0753321 0.0144541655 0.09836844 -0.0026223348 -0.03845537 -0.013463842 0.1388854 0.07573115 0.18516994 -0.065269925 -0.23268846 0.27458522 -0.02198852 0.07810239 -0.07349706 -0.0349016 0.040990148 -0.010581947 -0.16989419 0.0025173468 -0.030642224 -0.06409444 0.034400307 0.1668602 0.15381545 0.1721772 0.092830636 -0.0649313 -0.08482794 0.105341755 0.019428859 0.14706972 0.19328736 -0.18630454 0.07024765 -0.14875704 0.123741806 0.022423228 0.067809895 -0.021535637 -0.019009866 -0.02649524 0.07414583 -0.044697814 -0.0799629 0.123629205 -0.008454551 -0.063613534 -0.17683049 0.10788596 0.011398035 -0.047737926 0.0850869 0.09850704 0.14834736 0.070136935 0.15597358 -0.21860234 -0.044042915 -0.007207415 0.11636586 -0.20166744 -0.24104728 -0.12734297 0.14896132 0.08751034 0.057999287 0.00759679 -0.18055037 -0.060916882 -0.061385844 0.091960326 -0.18329006 -0.070419796 -0.10395772 -0.086163275 0.0008935288 -0.025684755 -0.07488004 -0.019411879 0.14798208 -0.02033049 0.06789004 -0.09855256 -0.0062612114 -0.021304809 0.015879868 0.06850177 0.086760744 -0.0056576603 -0.1450391 -0.10426921 -0.10891209 -0.22900075 0.0044009546 -0.097498335 0.20286286 -0.06704954
1406 -0.030014677 -0.23670962 0.061743516 -0.020985767 0.3068302 0.058944944 -0.09909876 0.05170887 0.026862325 -0.033270806 0.07354266 0.050420545 -0.15225932 -0.1453939 0.10384257 0.15960498 -0.0047529354 -0.021011846 -0.003209267 0.04281707 0.051786285 0.109344065 -0.18472832 -0.094750136 -0.15614173 0.007449309 -0.09940728 0.0871738 -0.018660013 0.08761993 0.13715559 0.09000238 0.015936932 -0.07909361 -0.08090773 0.016032144 0.2516335 0.2756262 -0.02342112 -0.23552045 -0.17415999 0.078862466 0.024784049 0.14586738 0.11310783 -0.03640055 0.080156066 0.24567068 0.10312942 -0.024379952 -0.1564678 -0.005911115 0.1018126 -0.020380829 0.11712886 -0.10978638 0.33079723 -0.044029064 -0.108938776 0.21258558 0.21045887 0.18568563 0.24478406 -0.047196236 0.09493425 -0.045000486 -0.08457724 -0.041904893 -0.123158604 -0.005403372 -0.06765668 -0.07388004 -0.17089096 -0.010851164 -0.009409376 -0.1191983 -0.1710814 -0.14963098 -0.15612511 0.14358029 -0.021136627 -0.18532875 -0.045435037 0.08297429 0.08374427 0.02839534 -0.031855192 -0.14372261 0.047661368 0.06659643 0.1755255 -0.27253848 -0.21406017 -0.087215304 0.029203266 0.13219976 -0.013911656 -0.1468947 -0.16047764 0.10829713 -0.03915037 0.049533796 0.027568735 0.14089683 0.21442784 -0.13117154 0.18512978 0.15077992 -0.030733794 -0.011560307 0.087745756 -0.3163339 0.088153616 -0.093277894 0.004405468 0.03827313 0.036307923 0.20683931 -0.12256992 0.089851566 -0.018220074 -0.024530957 0.034160763 0.013991833 -0.039649267 -0.1866473 -0.03201765 -0.0012842823
1085 0.18393259 -0.075890705 -0.12197864 -0.04037602 0.095585234 -0.19103913 -0.061607685 0.015998475 -0.017400006 0.19506414 -0.11147909 -0.05670101 -0.15479824 -0.070134036 0.033778127 0.13786031 -0.07175698 -0.19096786 -0.17327254 0.20098183 0.17933571 0.08042129 -0.0086279055 -0.14401671 -0.088796705 0.15872638 -0.18731155 0.16694462 0.06700601 0.04799955 -0.013923964 -0.08745 0.11247509 -0.054937765 0.023135044 -0.03038884 0.035340905 0.17097874 0.17673625 0.023813855 -0.10438014 0.28656372 -0.20895402 0.03503699 0.0817188 -0.056270335 -0.007939658 -0.0023376115 -0.049707122 -0.07548646 -0.01923473 -0.09100121 -0.016701784 0.101492874 -0.058276776 0.037940636 0.07032063 0.046741884 0.041429896 0.083565064 -0.021266539 0.24102508 0.23772955 0.0014094488 0.19112702 0.002232662 0.068812355 -0.008610469 0.044123206 -0.059771582 -0.03404757 0.06542887 -0.026541667 -0.032447387 0.06716226 -0.052183717 -0.028394012 -0.16423623 -0.31097353 0.13615327 0.025702018 -0.08444556 -0.055588223 0.051590785 0.04637979 -0.019299725 0.13337116 -0.12226697 0.06740116 -0.0127101755 0.06784761 -0.15425698 -0.0041135834 -0.06928881 0.08600346 0.18365999 0.11373641 0.03631836 -0.10633554 -0.17750111 -0.168689 -0.05859298 -0.01825375 0.04660387 -0.043929834 0.024241973 -0.007901578 0.07818931 -0.17582482 0.017329684 0.10688089 -0.116614826 0.18101211 -0.17042851 0.0005189473 -0.061509088 -0.03215668 0.013111975 0.2584585 -0.051295828 -0.052455667 0.025271442 -0.015653675 -0.07481099 -0.06922694 -0.060886655 0.07855824 0.027630275
1262 -0.09161887 -0.18936776 0.15242468 0.09198074 0.23294945 -0.026293602 0.14600709 0.031296827 0.034509335 -0.035940953 -0.037026167 -0.07039225 -0.04075102 -0.23568828 0.11288954 0.0798886 -0.124108985 -0.15830155 -0.037578505 0.10173624 0.179559 0.16175993 -0.088767745 -0.09838899 -0.03548429 0.18926007 -0.13473818 0.084012434 0.09817998 -0.030596646 0.07253922 0.03260791 0.018343113 -0.12146131 -0.108473495 -0.041294765 -0.018127307 -0.012291565 0.24306321 -0.065709375 -0.23234534 0.15089707 -0.25198877 -0.06846766 0.03185308 -0.09939671 -0.13516064 0.11392908 -0.015214951 -0.014559797 -0.1383342 -0.012092047 -0.06958245 0.06157248 0.0067686737 0.0366517 0.08569077 0.012882078 -0.11308121 0.0526287 -0.052390717 0.21084015 0.20707315 -0.08191718 0.20539123 -0.013827085 0.05588345 -0.01818314 0.020099042 -0.09816131 0.0305377 -0.14430839 -0.078466125 -0.16143164 0.106393464 -0.004794322 -0.11039205 -0.03539089 -0.034055654 0.13881806 0.01743319 -0.06958601 -0.06537043 0.19552705 0.17052494 0.0585154 0.051173795 -0.29692206 0.051771287 -0.078889385 -0.04627121 -0.118358664 -0.1506682 0.048773624 0.10664002 0.09048616 0.046252903 0.026738707 -0.15057527 -0.12394604 -0.11343398 -0.039751545 -0.007857437 -0.0028476487 -0.021434749 -0.15034918 -0.045618795 -0.035276175 0.14016739 -0.09764146 0.12001095 -0.19007595 0.0773169 0.0026106313 0.05705296 0.0483275 -0.023851277 -0.08943879 0.28253725 0.0014876944 -0.07920849 0.0072011147 -0.08812691 -0.00981322 0.029402902 -0.08890193 0.043311648 0.054645833
1089 -0.028435532 -0.108633496 -0.086366616 -0.11539751 0.24526222 0.21646805 0.00995959 -0.034724664 0.029170262 0.16160654 0.13730001 0.020393489 -0.07240284 -0.12904765 0.10973056 0.2325213 -0.0435251 -0.0009939187 -0.064934894 0.08179778 0.02229333 0.13607994 -0.24775626 0.030607833 -0.14449796 -0.045606963 -0.22341013 0.027913561 0.029152006 -0.11436693 -0.07702831 0.17678271 -0.2668179 -0.11118728 -0.23690249 0.05193047 0.21450506 -0.022688333 -0.13195507 0.023613434 -0.14207163 0.07057928 -0.17294262 -0.054309245 -0.10537978 0.031285793 -0.041820712 0.12392935 -0.03464861 0.0043659187 -0.05657623 0.06864387 0.015518495 0.06527984 0.04437289 0.0010051214 0.4250296 0.11723452 -0.20107318 0.25076586 -0.09885342 0.086049296 0.34115428 -0.0489926 0.15076163 -0.18205805 0.17268907 -0.16551554 0.00046476242 -0.16220455 -0.032760937 -0.044817187 -0.008029025 -0.101873 0.025449207 -0.11524998 -0.09511021 -0.24354035 -0.19379237 0.14094073 0.018525053 0.060019664 -0.034287892 0.027818669 0.24285938 -0.101309165 -0.009218812 -0.2882263 0.029962238 -0.01443439 0.20270686 0.06308349 -0.073131345 -0.16019753 0.20855172 0.08294388 -0.07157093 -0.18707828 -0.0121818995 -0.05150124 0.046438932 0.30155665 0.07902503 0.037672374 -0.10057288 0.12648685 -0.1322226 0.034821868 -0.1093183 0.08563498 0.111190826 -0.124935344 -0.08381412 -0.07466634 0.018685864 0.105585985 -0.100418 0.04984436 0.10877428 -0.14889081 0.07873218 -0.11486152 -0.14500414 -0.1788015 -0.19293928 -0.2054778 -0.08772837 0.027525382
1082 0.06851631 -0.017845752 0.04260947 -0.00022032925 0.22851044 -0.023291524 0.018451056 0.10118292 0.12530693 0.022839207 0.078160904 -0.053334568 -0.056471083 -0.09790371 0.1393803 0.17756513 -0.03806234 -0.054898113 -0.013136862 0.08036688 -0.074475445 0.18167567 -0.22003004 -0.18362093 -0.16309084 -0.030547168 -0.036029477 0.23835863 -0.05114 0.008115994 0.016136322 0.12987414 0.026057953 -0.0064737652 0.09572713 0.017475856 -0.03401853 0.11384898 0.088277556 -0.059222132 -0.14319068 0.116709724 -0.17082593 -0.013240944 0.07818695 -0.04133194 -0.037774194 -0.04295506 -0.07076862 0.03395597 0.060572833 -0.013321145 -0.12509263 0.118250616 -0.0342194 0.08767082 0.0542961 -0.051483214 -0.16106912 0.2741211 -0.029617034 0.23892273 0.18084224 -0.06415815 -0.07534644 -0.051028933 0.039219044 0.03669809 0.015337509 -0.10899949 0.025242325 -0.19196092 -0.119429626 -0.03541666 0.056540783 -0.009419368 -0.08213094 0.072207816 -0.0494512 0.068971395 0.067834586 -0.2466065 -0.14599715 0.11559246 0.1048039 -0.021743556 0.13257298 -0.2566483 0.079091825 -0.08708715 0.114997834 -0.06356954 -0.14145933 -0.13337687 0.05827293 0.056202482 0.09717944 -0.045813497 -0.08835115 -0.24134944 -0.05364141 -0.090692826 -0.12447459 -0.15827079 -0.095043644 0.038003676 -0.08565633 0.05695185 -0.16008353 -0.03655114 0.11455684 -0.17833488 0.09257838 -0.15953833 -0.11676249 0.0844817 0.011357262 -0.07740496 0.218141 -0.046555914 -0.21426956 -0.12583424 -0.08837107 -0.0847316 0.120480485 0.10351777 -0.050142333 -0.05980706
1055 -0.0037832414 0.057711154 0.08422745 0.065289 0.04442987 -0.032079402 0.04306928 0.082002446 0.055256087 -0.15341842 -0.09080887 0.056956865 0.011634003 -0.12507503 0.060761295 0.21502714 -0.2722541 -0.03761437 -0.03811211 0.22608414 0.18985246 0.01432452 -0.27355686 -0.13506517 -0.27969646 0.19576298 -0.16999845 0.0005802156 0.026448349 -0.019129645 0.33841777 0.097313195 0.09706593 -0.044926986 0.20618002 -0.10714777 0.12183392 0.02614409 0.09593814 -0.14269565 -0.066216394 0.14450829 -0.113248594 0.16962484 0.07677119 -0.11816029 0.034083568 -0.07785436 -0.14920281 -0.10126907 -0.045637988 -0.25178218 0.07204489 -0.0823949 0.13745828 0.029879913 0.19345659 -0.062444966 0.13782352 0.1576971 0.18160552 0.09944958 0.28848386 -0.006874727 0.071008734 0.018711256 -0.02685859 -0.086680055 0.3998393 0.050659414 -0.1549376 -0.09024895 -0.03676602 0.025990315 -0.058711443 0.13160373 -0.0992172 -0.08006481 -0.24350265 0.12972406 -0.033528216 -0.055991255 0.03735057 0.14963497 0.2539535 -0.054961525 0.43410367 -0.1997199 -0.22689098 0.05427758 0.12718622 -0.010836623 -0.0048286067 -0.044899143 0.15844147 -0.04613703 0.008685679 0.16824888 -0.058787744 0.05308112 -0.09119888 -0.105501115 0.13204876 -0.21442124 0.024116263 0.027397182 0.24758394 -0.1776833 -0.02000688 0.1216103 0.07462472 -0.1838991 -0.12507012 0.098492466 -0.11438324 -0.0038401254 -0.052146606 -0.060315635 0.01753103 0.05113425 -0.016215691 0.025887063 -0.045178976 -0.036026504 -0.01657834 -0.24917446 -0.04744738 0.28349096
1417 0.101217225 -0.20907333 -0.13683382 0.040991507 0.18406983 -0.033854052 0.12647691 0.09570005 -0.055641748 0.037117563 0.01652285 0.03129233 -0.16748312 -0.07358614 0.0052723186 0.10348581 -0.06128997 -0.076892085 0.080085084 0.12219675 0.01319085 0.06502522 -0.16847284 -0.2934649 0.04737515 0.09040115 -0.067202374 -0.021473167 0.054709297 0.09556344 0.07305123 0.101103164 -0.010304321 0.0052628275 -0.042229943 -0.015207239 0.18052797 0.21876398 0.13570558 -0.090577796 -0.0034760046 0.19661531 -0.15640713 0.0745597 0.063175805 -0.07487322 0.057070278 0.09641633 -0.1742664 -0.036899608 -0.09527235 -0.05019961 0.153182 0.037252054 -0.053232774 -0.021974603 -0.0032588937 0.044617817 -0.0061253295 0.21214104 -0.10197305 0.21548901 0.04957732 0.031072121 0.20068607 0.11240145 0.10067222 0.00013408173 0.055089805 -0.13935372 -0.032324858 -0.038407102 -0.12104209 -0.084471114 -0.0657582 0.02154648 -0.004308527 -0.1029975 -0.11545518 0.30955145 0.084594175 -0.117063366 0.0366886 0.15782462 -0.0026621192 -0.010286961 0.15009749 -0.361061 0.18420133 0.0813249 0.13144611 -0.16940673 -0.06278716 -0.048504952 -0.017471936 0.08745283 0.04245311 0.039778523 0.10168849 -0.09676141 -0.15866992 -0.24162477 -0.1435581 -0.10495289 -0.013768601 0.044691436 0.0723902 0.06754716 0.10783195 0.046626575 0.34152916 -0.07857601 0.0076485607 0.03716241 0.074904054 0.05140598 0.01354834 -0.08176038 0.044379108 -0.00080972 -0.068263985 -0.0886126 -0.11659434 -0.08359064 -0.12356806 -0.13281843 -0.00028199595 -0.03190297
1398 -0.06383756 -0.016525606 -0.1134035 0.08551455 0.24868058 -0.0031869996 0.0061703892 0.09609598 -0.12500472 0.10098714 0.13708036 0.20365374 -0.20637593 -0.0993471 0.16566078 0.09654513 0.01071035 0.14296448 0.11674927 0.15049407 -0.009252955 0.13703735 -0.30987972 -0.21511209 -0.39425606 0.11769801 0.029135175 0.066354424 -0.058415584 0.12618251 0.03419464 0.13511768 0.16867097 -0.05147032 -0.05948328 0.16212395 0.11499853 0.092060104 0.014403625 -0.056889202 -0.22045253 -0.034730654 -0.21746416 0.081436396 0.010883715 -0.031344812 -0.062436994 -0.23206975 -0.1300562 -0.03129898 -0.095893465 0.14350623 0.28510803 0.18403624 0.16802256 -0.017895676 0.10086304 -0.23007786 0.009495218 0.14129655 -0.06431873 0.13878967 0.29911768 -0.030082662 0.048813876 0.097907215 -0.04144216 0.043394685 0.033465877 0.035638425 -0.061423156 -0.124313004 -0.010707613 -0.1576793 -0.27807772 0.037013233 -0.11124016 0.06285528 -0.17944784 0.15776783 -0.03143526 -0.092753015 -0.09745376 0.12190232 0.15733463 -4.926349e-05 -0.019291578 -0.058300104 0.01898542 0.13111687 0.29212257 0.034389786 -0.18643697 0.12738703 0.01930258 0.16247045 -0.25165406 -0.17180808 -0.042323906 -0.005348585 0.058391422 -0.1110453 0.10171263 -0.02751182 0.18634608 0.15050584 -0.127526 -0.06439809 -0.4124729 -0.09569846 0.1284012 -0.31241086 -0.14096652 0.03115598 0.08386621 0.32252058 0.0019174445 0.01912877 -0.016463248 0.01684532 0.106942534 -0.05664601 -0.22941035 0.08129835 0.09891654 0.06654059 -0.0501529 -0.17245439
1341 -0.21878351 0.10514056 0.05063257 0.06366582 0.08680423 -0.08306035 -0.2549578 0.13967952 0.243429 0.010546172 0.30583927 -0.056054257 0.0034466572 -0.24900639 0.06632033 0.28356996 0.037831735 0.17720006 -0.2369809 0.2214577 0.3185598 0.23961568 -0.120322146 -0.2720016 -0.40291187 0.104310624 0.17392758 0.016314285 -0.5240286 -0.008859527 0.06871214 0.10504494 0.121887095 -0.25526115 0.06114855 0.005941545 0.16831714 0.12519887 -0.1772542 -0.25068206 -0.0014996402 0.23327489 -0.25139177 0.12921558 0.010728696 -0.1936994 -0.16611889 -0.018900229 -0.029815162 -0.06943873 -0.3618519 0.061118424 0.33348626 0.21583728 -0.06914774 -0.011342137 0.29527518 0.05649395 -0.06964919 0.18712342 0.0150233125 0.109679826 0.13495886 0.09763449 0.10464422 -0.06471867 0.20804998 -0.018970966 0.02188266 0.11081771 -0.06473748 -0.058616024 0.10941789 0.06686873 -0.15982915 0.102135494 -0.10013972 -0.094951846 -0.12855856 0.027381778 -0.05011013 -0.1622315 0.047238152 0.12609468 0.22265676 0.134315 -0.094370544 0.003212 0.03836722 -0.07102032 0.09072546 -0.080191396 0.029651063 -0.07841123 0.20052426 -0.028594397 -0.052622378 0.04735507 0.072298065 -0.18268093 0.051026937 -0.09559831 0.15076686 0.032685854 -0.032317784 0.099423036 -0.028571485 0.121557936 0.04442593 0.11065978 -0.18323863 -0.10234385 -0.120448306 -0.27492696 0.1798426 -0.040692527 0.09045327 -0.20969564 -0.071110964 0.109351166 0.19710217 -0.0026612165 -0.105165884 -0.11849629 0.15111294 0.071527235 -0.041527685 0.15543923
1246 -0.1646219 -0.06706813 0.124826856 0.09901594 0.13263659 -0.016698949 0.31620574 -0.022813192 0.07488415 0.087025836 0.023907254 0.052445926 -0.18090488 -0.09328717 0.083432294 0.092451185 -0.033855714 -0.08831344 -0.26131558 0.09860275 0.0043733553 0.18083382 -0.20127381 -0.17498967 -0.024593519 0.089777194 -0.08301507 0.0521459 0.031542342 0.048532095 -0.026662285 0.056011334 0.17079085 0.015379037 -0.13104847 -0.0033395726 0.096838035 0.1909897 0.20417343 0.00699924 -0.13683805 0.265311 -0.27756298 0.011926805 0.10678969 0.04302821 0.012540109 0.010052355 0.0152946245 -0.07259307 -0.030421834 0.045173496 0.06274933 0.068158485 -0.0114168385 0.04314593 -0.017118229 -0.03107397 -0.11427917 0.14482969 -0.07449431 0.09129425 0.18062091 -0.07024102 0.07685917 0.003569364 -0.070085846 0.04540352 0.16956855 -0.15496512 -0.015732933 -0.12050799 -0.06960638 -0.08941371 0.043011982 -0.06235281 -0.061262496 -0.029418044 -0.103248514 0.06603277 0.10707372 -0.121369846 -0.016271416 0.07739157 0.0904273 0.013757187 0.18710057 -0.2039226 0.1469986 -0.027704049 0.07828981 0.03397199 -0.18419217 -0.055163212 0.08934022 0.032443393 0.080066144 0.011888605 -0.07401507 0.025549427 -0.12061789 -0.067307934 -0.16151929 -0.075004846 -0.04590377 -0.023256317 0.04546177 0.06540308 -0.06993024 -0.022690851 0.24015895 -0.16936639 -0.024337709 -0.025923323 0.049665604 -0.10434446 -0.030751962 -0.0625739 0.11398069 0.020714935 -0.13526103 0.01661565 -0.1235462 -0.20818481 -0.07023249 -0.14117435 0.07642182 0.046847384
1226 0.01439105 -0.15021749 0.070596494 0.026326943 0.32650718 0.07469749 0.16056117 -0.042975377 0.081937544 0.08616925 0.017576609 0.09365146 -0.056447305 -0.14688052 -0.016622333 0.1317663 -0.04374192 0.024452591 -0.012015012 0.21768083 0.124453455 0.10115402 0.0706336 -0.07972283 -0.07514579 0.12883797 0.0147082005 0.1162283 -0.08689525 0.124546595 -0.034318447 0.1526147 0.025517626 -0.06797397 -0.07265864 -0.030445864 0.0035660062 0.009772004 0.12323289 0.08979785 -0.060015775 0.16447666 -0.24314177 -0.07318118 -0.0027976255 -0.25993156 0.13778898 -0.051972214 0.046559945 0.022290554 -0.10926163 0.07902711 0.14541562 0.11006513 0.10514561 -0.0006112786 0.07840656 -0.053549606 -0.13360378 0.2289277 -0.009791477 0.24807541 0.13356666 -0.0063299397 0.09419448 -0.08720277 0.08673128 0.026102811 -0.12092965 -0.08870452 -0.08059593 -0.11972615 0.0034442178 -0.07527334 0.010257985 -0.15147641 -0.030201346 -0.05130288 -0.13072771 0.247591 -0.06047642 -0.12550077 0.088804826 0.13635224 0.11242318 0.09776664 0.20699927 -0.27362636 0.072042726 -0.05307999 -0.047938302 -0.040626626 0.07783513 -0.04031398 0.21061465 0.15650615 -0.066342466 0.0044471086 -0.24339879 -0.15406242 -0.1453349 0.079676375 -0.029975044 -0.05480725 -0.049848747 -0.07240367 -0.009780168 0.0068414533 -0.10959687 -0.034095734 0.14912663 0.01769712 0.20436026 -0.1425419 -0.05530284 -0.04350024 0.10514069 -0.104224235 0.18463698 0.007355172 0.00075326883 -0.06585607 -0.17054641 -0.08349689 0.009232594 -0.03204131 -0.026194517 0.0646627
1101 0.0689539 -0.20173159 0.048125803 0.07840722 0.13504736 0.124249235 -0.20028915 -0.053124722 -0.019615134 0.1518045 0.026086621 0.0691023 -0.09950988 -0.095621414 -0.036625702 0.12276394 -0.13238518 -0.13536862 -0.15521556 0.11899633 0.079964675 0.12687542 -0.18292937 -0.13786004 0.022556055 0.15757492 -0.18882985 0.047637235 0.0039867237 0.051031675 0.032395475 -0.10598157 -0.020409273 0.117628045 -0.008280232 -0.0028761 0.04665373 0.15276712 0.10375866 -0.12315399 -0.13826394 0.22079962 -0.107112184 -0.02183552 -0.05279577 -0.09276853 0.1320147 0.034946658 -0.17140403 0.031137925 -0.06511179 0.016518269 0.016134875 0.06263298 -0.018919665 0.034113966 0.12501961 -0.084107324 -0.10082723 0.1267744 -0.07581898 0.08904401 0.15628284 -0.011251368 0.12016166 -0.04192543 0.0032880257 -0.18461552 0.05023916 -0.053006344 -0.1733895 0.012772905 0.116601706 -0.007994159 0.07986662 -0.1189516 -0.1587318 -0.04401346 -0.11813572 0.13405508 0.06729229 -0.050338272 0.018260205 0.014538666 0.10975859 0.13375273 0.04238175 -0.36117157 0.042922728 -0.014876444 0.009381546 -0.17245293 -0.12679866 -0.05136806 0.21561338 0.15954337 0.1603122 0.08413912 0.021858562 -0.020122908 -0.15734264 -0.0062292297 -0.04932644 -0.06817744 -0.02570332 -0.026345491 0.12511732 0.04074113 -0.051915254 -0.12236797 0.13317758 -0.0117537975 0.041781705 -0.07183208 0.090400815 0.06960578 0.072571956 0.020510327 0.16022293 -0.09195902 -0.0776717 -0.14189836 -0.1323553 -0.13227522 -0.089813255 -0.04184124 0.0568597 0.10673966
1125 -0.040864345 -0.039185487 0.030484376 0.006274581 0.42723873 -0.020466236 0.15427487 0.113981314 -0.12372504 -0.01582066 0.09196902 -0.080651894 -0.09090659 -0.12680236 0.09780404 0.06587965 -0.13675891 0.18563983 -0.03540838 0.026914684 0.049513157 0.05538763 -0.09300141 -0.08486112 -0.22446778 0.22778048 -0.13423777 0.19570565 -0.10991304 0.026386593 0.077246875 0.0723478 0.008096798 0.13915478 0.037154205 0.061956394 0.030190537 0.06496186 0.17285845 0.037472054 -0.12895712 0.18962842 -0.052561246 -0.047064792 0.17378351 -0.16474071 -0.083539814 0.061283067 0.03190421 -0.08174171 0.06996459 -0.08997632 0.012986239 0.074627236 -0.027836636 -0.0365257 0.23035902 -0.00932315 -0.11294137 0.11752663 -0.06713813 -0.12586966 0.12784475 -0.038717013 0.0766777 -0.114403814 0.12640005 0.0121061485 0.08002525 -0.0023449783 -0.09810588 -0.06362843 -0.026588785 -0.040435813 0.012987564 0.062379908 -0.11344221 0.0521327 -0.070105545 0.23565955 0.03473289 -0.054464724 -0.014643378 0.0968891 -0.07818155 -0.08600942 0.14468263 -0.27657387 0.13526182 0.07756448 0.17904003 -0.13515526 0.12170921 -0.19903958 0.12502204 0.15760948 0.09405244 -0.08873375 -0.11906155 -0.22054975 -0.12261646 -0.17270513 -0.14274447 0.028371127 -0.13029625 -0.108752064 0.0057518026 0.007940302 -0.03816788 -0.017085312 0.19832137 -0.22109134 0.07356102 -0.06392638 -0.0060742875 -0.061410792 0.13734823 -0.0263964 0.052040596 -0.12577376 -0.09487286 -0.08302196 -0.06518304 -0.02805448 -0.024121556 -0.034312677 -0.011982777 -0.18309817
1409 0.07842848 -0.09944174 -0.0027391987 -0.031667523 0.047575276 -0.17034638 0.12871818 0.04703293 0.02517914 0.0785465 -0.028446048 -0.039861683 0.03679439 -0.1661652 0.056944627 0.17337193 -0.24782318 0.10300999 -0.066257015 0.15846115 0.04885297 0.012598762 -0.12243835 -0.15992725 -0.08582169 0.07292455 -0.11821039 0.12604596 -0.13772964 0.03818866 0.09631329 -0.042381857 -0.017104119 0.1431424 -0.10925826 -0.16966379 0.1142309 -0.013813003 0.010918255 -0.11047406 -0.14942215 0.14276041 -0.07668512 0.10327295 0.01354879 -0.09786595 -0.08005693 -0.028714057 0.01816719 0.0041935234 -0.07400728 -0.096686736 0.11467762 0.09248952 0.018309962 0.024274742 0.083353356 -0.27885097 -0.02752936 0.13140732 0.13637714 -0.045345604 0.18654132 -0.10192091 0.11255559 -0.040929936 0.11285094 -0.006440948 0.019034982 0.040462583 -0.062515266 -0.22376096 -0.06204252 -0.015384604 0.029617362 0.044805694 -0.041736234 -0.060729995 -0.19652645 0.25094616 -0.051034443 -0.114707515 0.0193538 0.08678692 0.083263375 0.02294533 0.13648522 -0.26292005 0.123402186 0.016636977 0.13403411 -0.083322644 -0.07841897 -0.04997381 0.25010222 0.09670395 0.10249419 -0.019423062 -0.1194034 -0.13158953 -0.12530422 -0.113997795 -0.04721377 -0.023001675 -0.0054076198 -0.18041682 -0.17568222 0.053877626 -0.21376513 0.13125777 0.18915457 -0.24778631 -0.006953674 -0.023277566 -0.010588546 0.113191046 -0.07020892 0.036608797 0.08259064 0.015939502 -0.14566645 0.009472599 -0.016197985 -0.0920766 0.026253609 0.0038879418 0.055338014 -0.18955456
1201 -0.0076579093 -0.071998015 -0.08909525 0.18595636 0.23795433 -0.10469502 0.022388615 -0.023056624 0.05155091 0.1481085 0.07569228 0.06886834 -0.010659738 -0.033387233 0.09711324 0.09934111 -0.1301358 -0.16776872 -0.20231771 0.11819937 0.06550905 0.15908211 -0.0915354 -0.10346796 0.044319775 0.15343222 -0.1844283 0.11227255 -0.109201804 -0.04463735 0.06473184 0.14828558 0.009801663 0.04656326 0.0033532886 -0.07082149 0.06250314 0.07817655 0.08282926 0.01914925 -0.14848998 0.15774292 -0.12878525 0.06109684 0.10744173 -0.015384908 -0.20185316 0.035304703 0.061268196 -0.01938302 0.051723767 0.032191165 -0.02497106 -0.16314745 -0.008372452 0.05906024 0.10178712 -0.08903733 0.021125747 0.13551319 0.16274227 0.026423665 0.19754745 0.04750367 0.22659509 -0.060302768 -0.042617578 0.0013485386 0.034029547 -0.0315559 -0.048459206 -0.031692844 0.15127581 -0.22060123 -0.022481034 0.022733351 -0.102133125 0.20267297 -0.08030944 0.1753614 0.041725103 -0.15589735 -0.05899366 0.09611262 0.10225793 -0.056018725 0.19925822 -0.28547758 0.23106487 0.059424367 0.07900097 -0.11769558 -0.16758287 0.017683866 0.04585096 0.14362898 0.04105247 0.12121833 -0.21710016 -0.110446624 -0.1481789 -0.2677394 -6.520195e-05 -0.23775539 0.031718206 -0.14942674 0.011052777 0.12609869 -0.07532564 0.01294985 0.059161823 -0.055777427 0.046310015 -0.04183345 0.022201302 -0.032912057 0.11702327 0.026177505 0.19908817 -0.004109987 -0.15984868 -0.18196665 -0.12146965 0.0743927 0.117549576 -0.10342346 -0.025141919 -0.17667763
