1194 128
1272 -0.05288942 0.10035572 0.09961365 0.010382746 -0.009658736 0.044355176 -0.023925515 -0.03536652 -0.14792 -0.021019842 0.048006423 -0.051099245 0.01713096 0.05066243 0.03680148 -0.07339687 -0.02586747 0.14414744 -0.08806647 0.18494672 0.1338453 -0.10321039 0.03356115 -0.13083307 -0.19658086 -0.06927415 0.024958596 -0.12686384 0.05475379 -0.2465727 -0.00011250321 0.060135186 0.06981823 -0.080547035 0.06171255 0.26449868 -0.010718132 -0.031632107 -0.14182688 -0.051843617 0.008427947 0.14624493 0.034600034 -0.114980325 0.15200897 0.16877227 -0.024601765 0.035494372 -0.054143824 -0.041498773 0.045775153 0.018918388 0.21351983 0.064259395 -0.02324048 0.029618757 0.102531806 0.053048212 -0.0550102 -0.1293274 -0.0073237997 -0.039253317 -0.13865149 -0.049259286 0.24628353 0.1503674 -0.06832627 0.20334007 -0.13105728 0.069576815 -0.016548602 0.015871512 -0.29683197 0.074429855 0.0061704917 -0.16102332 -0.054639857 -0.13940422 -0.09514214 0.051171012 -0.14032605 0.011090901 -0.12031365 0.16975833 -0.057973567 0.2337516 -0.18350768 -0.16046076 -0.11815142 0.04569183 -0.10547075 -0.08124336 0.07523355 -0.10428359 0.022199923 0.06912216 -0.18996422 -0.25502968 0.019628474 -0.08293244 -0.053403288 0.015174678 0.2500705 0.09800589 0.051452167 0.012390543 -0.1923855 0.18320435 0.12222842 -0.07418499 0.042249728 0.011094342 0.11640871 -0.13575628 0.10309779 0.033450216 0.032687355 0.08690493 -0.06477278 0.0011958411 -0.0032642742 -0.03911003 -0.13721068 -0.11868153 -0.042994045 0.102768406 -0.050005667 0.05688891
1327 0.018775817 0.012256238 0.06568291 0.03663865 0.008762596 -0.09040897 -0.058526486 -0.028356073 -0.16332063 -0.0073386203 0.030824076 -0.012906131 0.04071714 0.05574554 0.048489384 -0.13543181 -0.113865726 0.23743978 -0.12513398 0.08553216 0.0833186 -0.098017156 -0.0676143 -0.10375413 -0.21065566 -0.11244447 -0.080925755 -0.03729175 0.10605895 -0.18706122 0.027802559 -0.0108255055 0.035753243 -0.0026883574 0.031045929 0.10748067 0.023209123 -0.026624493 -0.06429762 -0.0011071353 0.07087114 0.04749534 -0.003494951 -0.17644586 0.19002935 0.120274365 0.036214627 0.06358193 -0.062408555 0.12706733 0.011839709 0.026632974 0.22762957 0.10269444 -0.02049476 -0.003327671 0.15880425 -0.053618416 -0.0811838 -0.27115 -0.105300516 -0.1042011 -0.08383976 -0.04328137 0.16565138 0.11557809 -0.08703884 0.16241483 -0.09991101 0.091426075 0.04351187 -0.023507036 -0.18653987 -0.036766704 -0.024412714 -0.005019809 0.018075045 -0.22011858 -0.08055612 0.04930635 -0.17405222 0.04379451 -0.049400683 0.008580926 -0.0870331 0.14484532 -0.073135205 -0.16956078 -0.107831575 0.11395166 -0.104643114 -0.05344707 0.16506657 0.024360564 0.16186953 0.16810349 -0.049726974 -0.30205172 0.07303721 -0.087628454 -0.063115686 0.021846194 0.21607079 0.14588282 0.14393091 -0.035991643 -0.16512007 0.15110742 0.14345728 0.013830911 0.09260218 0.039749328 0.123962805 -0.12720464 0.13118856 -0.039853502 0.06536552 0.12840453 -0.090214804 -0.017653158 0.032865565 -0.032457985 -0.22393233 -0.14124273 -0.11597802 0.057017602 -0.16038924 0.07373353
1407 -0.06685121 -0.019181922 0.11485957 0.0041581006 -0.031899936 0.03469558 -0.10378719 -0.05922858 -0.107563734 -0.04062084 0.21017085 -0.021119975 0.07074452 0.17107324 0.158456 -0.06668469 -0.0051947883 0.15249798 -0.09099217 0.12982918 0.18696092 0.05419299 -0.07285183 -0.06933591 -0.2202044 0.067802325 -0.18983194 0.0712677 0.17536551 -0.2409971 0.0125027 -0.019235842 0.12695931 0.016304564 0.03409725 0.2661299 0.116308734 -0.080047004 -0.05168079 0.1269906 0.030398019 0.100032635 0.06435247 -0.1388029 -0.009212173 0.1957645 0.01420176 0.008626151 -0.08253697 0.07826317 0.13804549 0.13856791 0.3100242 -0.06388252 -0.161571 -0.11596663 0.24272433 0.0013847792 -0.13324727 -0.15866797 0.00575741 0.04345916 -0.16538863 -0.10765892 0.116351284 0.06818408 0.024150362 0.27001977 -0.033271793 0.01459502 0.06415909 -0.03644304 -0.21642102 0.19455187 0.08010019 -0.116703495 0.020465469 -0.16404685 -0.21548711 -0.06969322 -0.081365384 0.10917121 -0.017915254 0.0131032495 -0.12018378 0.09357965 0.051612657 -0.11197034 0.116900906 0.31291655 0.039457057 -0.06705463 0.15209849 -0.098937236 0.13947472 0.03001457 -0.120605186 -0.12772657 0.15023965 -0.038328152 0.06117146 -0.044865683 0.20839468 0.118018076 0.0981248 -0.07322157 -0.24726255 0.13602178 0.03902095 -0.048178907 -0.043404806 0.0077771 0.11478236 -0.045636784 0.19412228 0.16924189 -0.16712067 0.12171184 -0.082160644 -0.1036148 0.058938693 -0.0027102332 -0.13176383 -0.117002636 0.08030868 -0.06647645 -0.015425788 0.041212056
1116 0.045614887 0.115399964 0.07615422 0.04241489 -0.028162116 -0.10413568 0.00951556 -0.0161329 0.004449668 -0.07524774 0.08182979 -0.12425682 -0.04673133 -0.026226388 0.09911109 0.04614735 -0.059298005 0.30268252 -0.103453435 0.15328525 0.11668629 -0.035814416 -0.055416364 -0.1364896 -0.20320038 -0.13168937 -0.1281349 0.008592934 0.12207275 -0.031599287 0.037975617 0.01570869 0.13402373 0.031984523 -0.059068467 0.028462654 0.050645705 -0.041243773 -0.06786106 -0.05638339 0.04229393 0.12377378 0.1440093 -0.027322905 0.12554924 0.13412966 -0.008388987 0.01353452 -0.033814423 0.022258783 -0.029032763 0.104954354 0.19752933 0.048144933 -0.048533414 -0.0041010072 0.07157069 0.06976107 -0.12649141 -0.18851902 -0.15239993 -0.10732244 -0.087362684 -0.06678925 0.24806921 0.2279568 -0.03483051 0.1168691 -0.21518011 -0.029092284 -0.0338403 0.011773553 -0.1896837 -0.04384774 0.011108298 -0.16913128 -0.0663486 -0.08460909 -0.13222802 0.043245904 -0.0454764 0.042325974 -0.13061325 0.2411526 -0.004642965 0.2079112 -0.011707137 -0.1701975 0.033965867 0.10524594 0.0030294235 -0.011093473 0.069729164 0.029946743 0.01581595 0.0778503 -0.067483135 -0.041384697 -0.013579526 -0.067439586 0.051784117 -0.072098896 0.17988881 0.14984159 0.012592223 -0.0102869775 -0.24490373 0.19890419 0.036281206 -0.19788931 0.09677304 -0.11123473 0.080363326 0.04890279 0.08777873 -0.046886273 -0.13157657 0.1835644 -0.055465255 -0.030492548 0.030044846 -0.076614685 -0.17956343 -0.088505894 0.09959792 0.00013887999 0.09069558 0.053318
1316 -0.037991412 0.026761267 0.07553345 0.022418864 -0.046521485 0.0090560615 0.006224822 -0.0445098 -0.2105679 -0.027475672 -0.0048940247 -0.13486674 0.010707226 0.09735675 -0.0046265535 -0.103793345 -0.05468708 0.19577192 -0.32820863 0.16089678 0.042813517 -0.02188311 0.04799331 -0.114076495 -0.12366873 0.074770644 0.0024770002 0.12728581 0.09586444 -0.11941479 -0.10646478 0.11874904 0.07040753 -0.15627326 0.004586647 0.08006879 0.13351767 -0.13480145 -0.15597932 0.19711396 0.13448617 0.15369006 0.030443555 -0.12630236 0.19949651 0.21687242 -0.15752059 -0.046757415 0.0060633533 0.20433687 0.07375492 -0.078088924 0.105351046 0.063836 -0.080563165 -0.060119793 0.20954688 -0.14269552 -0.15225363 0.013046329 -0.05090123 0.01796041 -0.032299414 -0.018786209 0.37387455 0.19251989 -0.008269468 0.059053198 -0.12546451 0.21572079 -0.010109219 0.0021724172 -0.1853275 -0.15205736 -0.035853036 -0.17737108 0.061464943 0.010797331 -0.19598143 0.015269863 -0.09091897 0.075225346 0.017792428 0.08045572 0.025764404 0.14626478 0.016346717 -0.092597306 -0.024117233 0.04920531 -0.05612243 -0.12215543 0.10297072 -0.014789689 0.20286037 0.12663634 -0.14827979 -0.14155702 0.029294552 -0.04886903 -0.18069011 -0.20918094 0.028070733 0.16214456 0.05549027 -0.04656534 -0.31393525 0.31880054 0.32183853 -0.12486328 -0.097543545 0.011850555 -0.0006436299 0.05970537 0.019455345 0.014351929 -0.15587012 0.10973324 -0.24192691 0.008393692 0.058786705 -0.062302567 -0.3897945 0.107527785 0.124244444 0.044513933 0.06625046 0.05382957
1172 0.006537428 0.06986005 0.13382748 -0.036845732 -0.04901403 0.0008502214 -0.024991775 -0.059715383 -0.118898064 0.020166809 0.24303886 -0.016836176 -0.014373376 0.1289837 0.12214985 -0.08121464 -0.16153698 0.06009937 -0.07592319 0.2403463 0.13481303 0.038503293 -0.11656249 -0.044144664 -0.0858809 0.078442894 -0.19759369 0.08132095 0.08061404 -0.12055466 0.024620693 0.09667266 0.07354931 -0.14724344 0.016560238 0.25820714 0.0348645 0.016503492 -0.11860107 0.17499807 0.14177275 0.05232942 0.10029035 -0.28171432 -0.045804333 0.19963941 0.03767511 0.05463757 -0.00041809355 -0.098303646 0.10281031 0.049955063 0.27032572 -0.14136238 -0.093685344 -0.112749524 0.25046924 -0.059778832 -0.16722159 -0.07989628 0.16139665 -0.030451538 -0.036055725 -0.09604501 0.19519678 0.05749662 0.03566172 0.32033032 0.053719167 0.032068714 0.11054659 0.027099006 -0.1836286 0.014250156 0.091416605 -0.060637247 0.24175708 -0.23383154 -0.2581489 -0.19542909 0.018803943 0.13226293 0.17056821 0.085881785 -0.22124393 0.12000717 -0.0594755 -0.0018937164 0.06862256 0.27891433 -0.007981112 -0.06620687 0.12770738 -0.05957172 0.2168263 0.06354243 -0.18358049 -0.23221347 0.14521378 -0.04013776 0.041790556 -0.18297856 0.2097562 0.11166465 0.104057826 -0.1567515 -0.19177073 0.25620568 0.13014543 -0.06168217 -0.0220639 0.03825453 0.08532753 -0.20567252 0.21159533 0.25873306 -0.14448719 0.124554865 -0.30425596 -0.090385206 0.106137596 0.12712818 -0.12709121 -0.09535393 0.09987778 -0.10705467 -0.103791244 -0.06621632
1329 0.25456128 0.13111697 0.14409795 -0.10429352 -0.07028746 0.023729505 0.05320515 0.015112773 -0.00824146 -0.03224765 0.111677304 0.07043695 -0.0010567443 -0.17603402 0.06120748 0.097316585 -0.078557424 0.21032941 -0.20132606 0.10971543 0.17107126 -0.1208324 -0.036627654 0.0012187789 -0.1613822 -0.04304343 -0.022917023 -0.06789554 -0.00057397445 -0.06105311 0.021883046 0.17373809 0.05390292 0.007347231 -0.015053905 0.03233826 -0.019291563 0.055384915 -0.17483303 0.08254985 -0.039830767 0.18413453 0.20654537 -0.19209689 0.055892564 0.23246285 -0.004971987 0.104938455 0.037962113 0.17296825 0.012121884 0.12545513 0.046324592 0.09192542 0.083758354 0.08607993 0.12481286 0.078567795 -0.09615611 -0.029302852 -0.1410321 -0.18217024 -0.07390139 -0.05078171 0.14266498 0.10389711 0.052415665 0.2896761 -0.29058948 0.054331146 0.046140686 -0.07000589 -0.3245704 -0.14302728 -0.04742324 -0.058466066 -0.09046281 -0.11734 -0.1109589 -0.044583257 -0.10423678 0.017692128 0.058625385 0.029115565 -0.13148455 0.06040705 -0.064873956 -0.18229397 -0.051323675 0.08936142 -0.09514256 0.032934356 -0.03453785 0.008147787 0.047110245 -0.008300559 -0.14991532 -0.073664546 -0.023403576 -0.09969133 0.036421556 -0.0067387214 0.10243078 -0.062140238 0.13150214 -0.00719576 -0.15446134 0.102331854 0.19252971 -0.043158438 0.07797335 -0.003149789 0.08429115 -0.1373012 0.11150525 0.04192311 -0.06565849 0.15796417 -0.14308704 0.06647859 0.057879567 0.033285536 -0.15216708 -0.11201473 0.0062375455 0.03218398 0.0597079 0.01573193
1306 0.06514407 0.17204256 0.09825258 0.05608361 0.06692628 0.012441837 0.08558079 -0.025012182 -0.12289536 -0.17382535 -0.049553566 -0.11378462 -0.022496508 0.0024891987 0.06418589 0.05093215 -0.010835822 0.013140034 -0.13075568 0.18375076 0.13138813 -0.21313383 -0.057296734 -0.10464118 -0.18465377 -0.08493097 -0.16769324 -0.07222193 -0.069356635 -0.13923644 -0.01780593 0.1599744 0.13463202 0.05407339 0.01783263 -0.019791251 0.114863515 -0.02903281 -0.14137529 0.021328015 -0.09027681 0.0044345735 0.122713305 -0.1609494 0.032572575 0.07573269 -0.070458256 -0.053873695 -0.0035255295 -0.011963925 0.06768891 -0.047082793 0.18044266 0.16321097 -0.045814533 0.024239484 0.21469651 0.055650372 -0.027296968 -0.31194317 -0.110742845 -0.14803684 -0.15048297 -0.0030233369 0.14640287 0.22587682 -0.08798964 0.023224844 -0.17555398 0.03665816 0.08475682 -0.07145309 -0.27012452 -0.06828869 0.0046067424 -0.044550564 -0.09114659 -0.10856747 -0.260251 0.03939204 -0.1488662 -0.03174416 -0.077971935 0.14982395 0.0030580761 0.066171214 -0.10198282 0.0034385363 -0.0142922 0.051044524 -0.05577844 -0.09256114 0.05927587 0.112064816 0.094696105 0.06716989 0.004139716 0.009236942 0.017461661 -0.0607206 -0.05205846 0.065308645 0.24837472 0.07492867 0.04204288 -0.015052885 -0.21020913 0.20332044 -0.12602533 -0.23606992 0.16665165 -0.066396125 0.16033457 -0.1602748 0.048259903 0.019998936 -0.1435738 0.17216697 -0.15176907 0.015253505 0.016456578 0.007233941 -0.05738977 -0.17528856 -0.0335657 0.021541433 0.12504627 -0.067447394
1293 0.1079923 0.09865696 0.0002413779 -0.064066485 -0.1295646 0.058345526 -0.029132372 -0.11152028 -0.18509895 0.07603749 0.114807114 -0.10301386 0.08905137 0.05315605 0.027092993 -0.035948195 -0.18550436 0.24102812 -0.06241686 0.2553876 0.2108342 -0.027394786 0.1046855 -0.04276135 -0.30740798 -0.19974816 0.15200901 0.17957236 0.07161142 -0.15257165 -0.01907747 0.12710847 -0.009796921 -0.11583183 0.2080401 0.20053531 0.055669487 -0.11053929 -0.15400672 0.058296744 -0.10245254 0.16312906 0.09212355 -0.12909763 0.1132105 0.100859694 -0.10630133 0.0025313538 -0.14529976 0.22383581 -0.11403058 0.17974411 0.054624144 -0.10908062 -0.011515177 0.050501995 0.2525466 -0.030203007 -0.08724536 -0.04649437 -0.13256344 -0.10256111 -0.20406732 -0.08818724 0.2239938 0.14882822 -0.04245303 0.18684608 -0.21008068 -0.14294885 -0.073034175 0.0027777373 -0.14323676 -0.00232219 -0.15163134 -0.017343014 -0.040232364 0.00034854986 -0.1993693 0.0035651522 -0.12840948 0.09369444 -0.057185356 0.019649487 -0.07651862 0.15345697 -0.09517988 0.044684723 0.010699259 0.14160854 -0.057087887 -0.1302554 0.1085676 -0.20851234 0.19384435 0.1617416 0.04235134 -0.07566705 0.08932183 -0.0028488368 -0.20117433 0.021896489 0.090348184 0.22886176 0.065696165 0.031978834 -0.2811587 0.14715287 0.17226064 -0.08984878 -0.023194605 0.022452166 -0.09483777 0.009733956 0.098453745 0.044779673 -0.12691931 0.08424378 -0.07261232 -0.008719452 0.04503422 0.018071149 -0.09067049 0.018434327 0.2007792 0.11370037 -0.14735332 0.0098557
1404 0.112919725 0.29092136 0.06563783 0.073599726 -0.18156587 -0.14197864 -0.029470436 0.025502635 -0.10858948 -0.09465418 0.10976859 -0.20384274 -0.038437773 -0.08445945 0.027765395 -0.01243476 -0.030204633 0.21587218 -0.05947779 0.24964097 0.09618477 0.04528521 -0.09840826 -0.07900617 -0.1398033 -0.19435176 0.026238456 0.12442205 0.027788062 -0.047342923 0.06002752 0.14212221 0.02156941 -0.009149007 0.065764956 0.057157915 0.2151799 0.016474202 -0.2209746 -0.08854943 0.07081367 0.1628575 0.14238682 -0.23219305 0.12620597 0.055759493 -0.050078683 0.1018301 -0.08178103 0.098277345 0.012144364 0.034674276 0.2113748 -0.08786806 -0.00073904113 -0.0077428906 0.036846094 0.021256162 -0.10827624 -0.19094686 -0.092069715 -0.12967663 -0.0072576827 -0.14306985 0.16438176 0.13041036 -0.039956167 0.08328717 -0.24628067 -0.13362081 0.018159792 0.08711215 -0.19502902 -0.030181492 -0.046621766 -0.01897932 -0.04932959 -0.10627611 -0.15128876 0.08061921 -0.07791188 -0.079426356 -0.18234943 0.20093988 -0.11323726 0.05398791 0.053967226 -0.031892322 -0.034566496 -0.006976465 -0.16457142 -0.060742877 0.18040833 -0.0187974 0.12941031 0.16690236 -0.1102416 -0.067449346 0.21281339 -0.031181678 -0.018913297 -0.025456674 0.16648136 0.10596997 0.07351976 0.037987143 -0.10571245 0.19803496 0.08890599 -0.04222939 0.098825656 -0.009717717 0.03528628 -0.036334407 0.118088886 -0.1348285 -0.02498014 0.14457037 -0.19373338 0.049143806 -0.09748897 -0.04781993 0.046651777 -0.026188763 -0.057181105 -0.069511816 0.16960946 -0.047871277
1421 0.024070267 -0.050477624 0.07456674 0.10541677 0.09900885 0.206583 -0.14176323 -0.09281454 -0.23900579 0.017698333 0.081121996 -0.23233156 -0.07274095 0.123898454 -0.0138260815 -0.084656656 0.017877873 0.055665746 -0.14505348 0.17412245 0.25339642 -0.13750592 -0.09482547 -0.20212196 -0.1798021 -0.027077291 -0.05950573 0.07959973 -0.11407112 0.034935012 -0.07657679 0.09430366 0.07977842 0.12736058 -0.039154902 -0.096444406 0.07285219 -0.07422991 -0.12012583 -0.03768367 -0.07977616 0.14350477 0.14481594 -0.28504995 0.052043118 0.06813723 -0.05008687 -0.16144925 0.06064222 0.19031578 -0.014432653 0.031481806 0.2873838 0.07303998 0.049663797 0.08847112 0.13183613 -0.0167843 -0.09894313 -0.317135 -0.050255924 0.023938486 -0.116892114 -0.09392338 0.21105777 0.0123857325 0.08427377 0.08391563 -0.17179202 -0.0070033893 0.034436945 -0.060385436 -0.12959673 -0.007564706 -0.008829464 -0.038066503 0.104516394 -0.09952259 -0.08560333 -0.013195159 -0.1840695 0.033322185 0.09101196 -0.106805004 -0.048592765 0.13500477 -0.029980686 -0.1839974 0.052399352 0.03760332 0.06442676 -0.1158377 0.089410454 -0.017705841 0.0894584 0.22861376 -0.21338232 -0.13556275 0.08451211 -0.10219102 0.020148024 -0.10910059 0.035289865 0.10915196 0.082396515 0.008764143 -0.2703506 0.052772213 -0.023911046 -0.31851992 0.1331996 0.102519535 0.081490636 -0.094215445 0.08003606 -0.102113366 -0.095797814 0.16240424 -0.10630122 -0.10292577 -0.009997501 -0.017707791 -0.2905336 -0.046282195 0.011212157 -0.044353075 -0.026284726 0.056918375
1237 -0.012257733 0.0067743026 0.13639718 0.07188207 -0.025505532 -0.056623008 -0.025266653 0.00011867039 -0.023364563 0.055185128 0.16399199 -0.10168251 -0.110828 0.057738263 0.12485742 0.022111563 0.048399363 0.19803698 -0.07742418 0.10686803 0.110020444 0.08946418 -0.15716049 -0.11520432 -0.18888289 -0.028494967 -0.09319762 0.059520382 -0.10295347 0.027744979 0.18363717 0.15453292 0.03030495 -0.03140377 -0.017103799 0.13378336 0.05464363 -0.009671749 -0.13765198 0.11920508 -0.12503931 0.290086 0.15034652 -0.11243878 0.0495483 0.2166684 0.028470105 -0.06335757 0.017221812 -0.054970928 0.017753638 0.06157276 0.26449874 -0.10343042 -0.12401336 0.0191759 0.076201 0.06959497 -0.041827325 -0.23927797 -0.122969 -0.15028752 -0.031438187 -0.13001555 0.17808287 0.14447884 0.0105597 0.028253932 -0.15077549 -0.0581383 0.12608285 0.015117966 -0.1982371 -0.24897113 -0.10285545 -0.09069425 -0.0608672 -0.16470319 -0.12422118 -0.025049577 -0.008523794 0.06175463 0.013784215 0.0024651359 -0.006795731 0.03259879 0.07915089 -0.11800522 0.1250227 0.07138596 -0.07741798 -0.015647091 0.16275764 -0.084651 -0.0471881 0.0726448 0.020293314 -0.1146735 0.1353698 -0.13520077 0.050827958 -0.008869129 0.16066547 0.07573843 0.12943406 -0.03607897 -0.23465903 0.04381024 0.04662633 -0.13451898 -0.005993867 -0.06905413 0.1476776 0.08377877 -0.025635764 -0.044844206 0.034010552 0.14661855 -0.024095004 -0.08298213 -0.15843622 -0.06860183 -0.28455755 -0.04353772 -0.12027485 0.07792122 0.06482402 -0.03991924
1103 -0.052020796 0.021769503 -0.01989746 0.09343189 0.02746177 -0.22138469 -0.09283808 0.17392395 -0.07065177 0.19189328 0.075467706 -0.088576674 0.028397854 0.04873552 0.05717848 -0.01142315 -0.15318267 0.09199905 -0.232715 0.2123887 0.14528392 0.0062567308 -0.10192571 -0.0041606617 -0.23554792 0.024438344 -0.14478518 -0.10731692 0.19347668 -0.085793406 -0.101128675 0.15432674 0.042498145 0.11165476 0.04195889 0.24070622 0.033256046 -0.0025279291 -0.10283512 0.17100999 0.009747632 0.25222707 0.08169794 -0.23926605 0.100492164 0.10772119 -0.108044505 0.007434894 0.018836748 0.005943389 0.05762511 -0.02359638 0.19385754 0.009690518 -0.045449294 -0.017833471 0.16539648 0.02228709 -0.039529815 -0.052005276 0.028462676 -0.060204778 -0.2544435 -0.23375244 0.25988507 0.11732042 -0.04172287 -0.006604147 -0.03624062 -0.028684005 0.060582273 -0.032961715 -0.32860705 -0.083630405 0.03232991 -0.13353276 0.19938594 -0.22141902 -0.04239468 0.07741214 -0.17986445 0.25100398 -0.11624849 0.07923206 -0.019364364 0.21243969 -0.0779888 0.007903898 -0.07081545 0.20696117 0.025316015 -0.029066477 0.13585693 -0.00030695705 -0.02387813 0.05359671 0.13033117 -0.06458803 0.255792 0.08016639 -0.110786386 -0.26780108 -0.050115466 0.20176789 0.21177787 -0.15689804 -0.21215683 0.036570307 0.08997112 -0.06569015 0.07588089 0.032398988 0.14832133 -0.10653628 0.073487364 -0.071548305 -0.038495168 -0.016493583 -0.009423231 0.17039014 -0.086224586 -0.025742544 -0.36284247 -0.046563536 0.050929714 0.01459091 -0.09541959 0.15728763
1276 -0.15642896 -0.02600837 0.040574748 -0.055129204 -0.09066025 0.024099633 0.005393354 -0.08801154 -0.18937856 0.08083721 -0.04095987 -0.17481792 -0.085228585 0.129684 0.16365096 -0.0028848671 -0.089484274 0.083670035 -0.15872115 0.25766265 0.065153345 -0.10049959 0.009790661 -0.030975519 -0.12680474 -0.058979806 0.032030817 -0.14063969 -0.07976058 0.00421055 -0.052933976 0.09810127 0.022810772 -0.009627366 -0.24101925 0.042958215 0.073905736 -0.03510389 0.031061394 -0.050186 0.074922144 0.12201677 -0.083081745 -0.20472606 0.22260794 0.15064599 -0.13889302 0.021813093 0.08846634 -0.09842466 -0.12049556 -0.00900676 0.15382884 -0.02664486 0.069198154 -0.07008275 0.20610008 -0.034975518 -0.15370113 -0.08313278 -0.08861183 -0.0964837 -0.1579662 -0.05375206 0.27163014 0.11532035 0.0770003 0.09915949 -0.2849569 -0.06265679 0.07255385 -0.025019871 -0.18885781 0.05153831 0.17568016 -0.0136608165 0.041064307 -0.10021558 -0.16939747 -0.02119917 -0.0100714145 0.008782733 0.036889777 0.031864002 -0.03107555 0.25435838 -0.02980128 -0.07691989 -0.09719651 0.2241811 -0.12413188 -0.055425283 0.06634317 -0.1456814 -0.030646348 0.16659772 -0.14708157 -0.17441869 0.07193731 -0.2615794 -0.02480669 -0.08794267 0.25281036 0.20034821 0.2907505 0.12060654 -0.082484804 0.16049069 0.03746855 -0.2301378 0.006166781 0.004610573 0.024427302 -0.10299816 0.016794253 0.13351527 -0.12316106 0.13335222 -0.14722154 0.007559837 0.0062024905 -0.100685045 -0.27069145 -0.0830018 -0.12132273 0.051375706 0.030604143 0.19279128
1287 -0.14774282 0.099437304 -0.060448155 -0.11940326 -0.13822433 -0.17448853 -0.019555759 -0.2567173 -0.11605128 0.046405245 0.15270367 -0.021069543 -0.026196871 0.05352017 0.06692725 -0.012830966 -0.102241516 0.18380065 -0.1980079 0.14560157 0.15945154 -0.15730898 -0.08352038 -0.09328904 -0.21687701 -0.09561945 0.012007516 0.11070558 -0.06529346 0.016719775 -0.042883042 -0.078365766 0.032599073 0.03807972 -0.10876032 -0.13042617 -0.06760634 -0.07305789 -0.061383046 0.1976451 -0.010209456 0.12452614 0.15340616 -0.20467813 0.1076247 0.30382562 -0.0056400485 -0.042895313 0.054766983 0.022620255 -0.030004721 0.18564545 0.1129651 -0.034683593 0.052621238 -0.21328297 0.27953073 0.07248514 -0.06412324 -0.14747189 -0.16917284 -0.05290994 -0.079012826 0.07864917 0.11850419 0.1278893 0.041629925 -0.020853736 -0.24713254 -0.093659714 0.08037375 -0.15690738 -0.17602676 0.08634541 0.19151612 -0.036174398 0.067187466 -0.18042617 -0.14194718 -0.054171797 0.10193464 -0.0637199 0.1306578 0.119573 -0.16607432 0.07664813 -0.12816814 -0.29102197 0.0906323 0.198066 0.0072067073 -0.03906426 -0.07868421 -0.26141194 0.009433837 0.06775671 0.08355794 -0.17269991 0.038501557 -0.052743938 -0.030203559 0.02948432 0.29292354 0.13396814 -0.0427236 -0.116435096 -0.1484828 0.15564807 0.14068137 0.046014477 0.16631149 0.15426737 0.14104931 0.059869025 0.008255255 -0.005118241 -0.18010527 0.267179 -0.11737582 0.03197452 -0.13471864 0.04177033 -0.1902893 -0.12483705 -0.03007594 0.05179581 -0.044781554 0.23831093
1140 0.07057093 0.19494385 0.21661104 -0.004683089 -0.006627957 -0.08123479 0.0761553 -0.00030195003 0.032990653 -0.036005393 0.14494474 -0.12961268 -0.019456616 -0.0054282956 0.045190148 -0.051868454 -0.13275254 0.12841506 0.035822157 -0.019223839 0.0042691333 -0.035513815 -0.13408753 0.009526592 -0.18816487 -0.0521084 -0.0889308 0.09586194 -0.043522224 -0.033777226 0.015249773 0.14141195 0.01453859 0.054085445 0.18686369 0.12345403 -0.028045312 0.069296315 -0.09747542 0.02885903 -0.06308691 0.117234066 0.15543565 -0.15083316 0.08134074 0.15506932 -0.13417639 0.019354336 0.008269577 0.013737343 -0.056230627 0.10857053 0.13991924 0.04269332 -0.09595844 0.10687089 0.115279905 0.10700821 0.109534964 -0.13399692 -0.033706225 -0.09356483 -0.042079277 -0.1358391 0.077830546 0.15267771 -0.03946511 0.04781323 -0.30243045 -0.048262715 0.07026151 0.04938045 -0.14890873 -0.09838648 -0.07515411 -0.14658098 -0.09797807 -0.096312225 -0.1277816 0.042308126 0.026570916 0.022117341 -0.10346447 0.07197675 0.0696011 0.22366285 -0.041546106 -0.09415418 0.08737325 0.19306073 -0.06223892 -0.055248074 0.10400773 -0.089694254 0.07475877 0.08482119 0.12475462 -0.17464016 -0.010629867 -0.053189687 -0.1018438 -0.027096134 0.12699975 0.09235316 0.1659184 -0.034640472 -0.08927252 -0.010597816 0.10744186 -0.09433143 0.029658059 -0.06954494 0.29391265 0.040158764 0.014977436 -0.075915754 0.017680056 0.14281762 -0.09685837 0.09709395 -0.06675842 -0.13299309 -0.10004264 0.04500093 0.017301984 0.19505405 0.038560044 0.027257519
1164 0.052096356 0.25512764 0.24181996 -0.00014987943 -0.07860404 -0.00813549 -0.07473318 -0.08993788 -0.21572098 0.022613218 -0.039538655 -0.16256991 -0.12537456 0.015074189 0.023535453 -0.0033905122 -0.04417393 0.08686401 0.0519197 0.1120437 0.051258434 -0.016112184 0.00719833 -0.082870156 -0.030890979 0.04328566 -0.111194156 -0.07591145 0.13902557 -0.01947379 0.07902986 0.14376931 0.13319983 0.085581765 -0.10396976 0.17645751 -0.01001293 0.13863489 -0.09989923 0.16072172 -0.05887354 0.08608736 0.0056006648 -0.10593336 0.049189292 0.16663647 -0.1465167 0.07156163 0.07368011 0.0017821995 -0.02731123 0.2927928 0.24099344 0.07794575 -0.030930407 -0.016997935 0.0040403507 0.07085789 0.0041593425 -0.12778556 -0.16028686 0.009760188 -0.112583585 -0.09717239 0.15131913 0.09071657 -0.05987466 0.1367714 -0.15744956 -0.09695859 0.087099425 -0.08911734 -0.064925574 -0.046848916 0.09275732 -0.14364332 -0.011687 -0.23236261 -0.19155902 -0.033117056 -0.1020919 -0.223592 -0.04058532 0.07105728 0.022092402 0.16872711 0.034591462 -0.18529561 0.20930366 0.1237348 -0.08196271 -0.07009617 0.044533916 -0.0048059714 0.004881916 0.08056002 -0.003938186 -0.23697354 0.0072750296 -0.17413072 -0.04351436 -0.017179081 0.16507636 -0.070998475 0.112334214 0.0046142056 -0.014688557 0.035385784 0.07021245 0.1771357 0.13512357 -0.12652287 0.17416328 -0.12732676 0.047944874 -0.029774196 0.058579706 0.1504706 -0.031990197 -0.055515636 0.05744869 -0.06779492 -0.14106922 -0.05403567 -0.055254698 0.017740231 -0.019260032 0.24732628
1308 0.053416654 0.121562146 0.050389923 -0.009363882 -0.01415673 -0.050446715 0.12884335 0.016403051 -0.13096803 0.0563063 0.16957887 -0.032603905 -0.006067911 -0.022366427 0.025519067 -0.119355306 -0.103371754 0.15709868 0.009839121 0.032509673 -0.04195339 -0.074111566 -0.13731988 0.035749543 -0.12985829 -0.08056669 -0.05209673 -0.05225247 0.115136795 -0.10770658 0.09001874 0.041004412 0.049107086 -0.014959499 0.006437407 0.035910945 -0.06976553 0.03845973 -0.19285855 0.044288747 -0.07257703 0.15250504 0.21390331 -0.13406324 0.119389996 0.1560599 0.080757014 -0.0009250893 0.0072834534 -0.0799108 -0.13649373 0.027775794 0.17831829 0.08173024 -0.14413746 0.016064985 0.17245205 -0.020901227 0.010230669 -0.16723263 -0.11905377 -0.0493192 -0.14052181 -0.112889946 0.2139644 0.057527717 -0.07285755 0.08096646 -0.1381145 -0.05983731 -0.0010580075 -0.034766253 -0.21046181 0.0035270117 0.06585411 -0.051509686 -0.13303332 -0.09306422 -0.12768638 -0.024966797 -0.019252993 -0.0734252 0.11159636 0.14204107 -0.11908035 0.13744849 -0.1139494 -0.087913 0.12990211 0.12765837 -0.06902711 -0.19259712 0.09870838 0.0109242415 -0.03487861 0.1064416 0.047216352 -0.18984352 0.1030613 -0.22518282 0.0060919872 -0.017000753 0.089873336 0.22703534 0.10704128 -0.16106234 -0.12698755 0.11780063 0.11087033 -0.001484859 0.088115096 -0.12023508 0.07165387 -0.07001719 0.1778022 -0.10218516 0.037528336 0.22923173 -0.16034128 0.00986892 0.0924075 -0.1149192 -0.049948875 -0.11046776 -0.05656557 0.10682753 0.07377839 0.082242735
1156 0.23300761 0.09818125 0.040973946 -0.06599175 -0.023612356 0.022584453 0.0074347537 0.07766964 -0.11078414 0.06079797 0.02143546 -0.04280882 -0.022108624 0.039394863 0.10323229 0.08205888 0.005573958 0.13504574 -0.24628727 0.26927468 0.16250576 0.06846535 -0.09610682 -0.16405903 -0.17493592 0.19356684 -0.044851203 0.040869154 0.14862092 -0.060260955 0.09914599 -0.03483406 0.13988848 -0.03692567 -0.02106207 0.13308962 0.07857366 -0.07975364 0.056673948 -0.022540888 -0.019070324 0.06605836 0.1513646 -0.25498945 0.24704555 0.22309293 -0.07277892 -0.009310723 -0.028035242 0.29820466 0.023209425 0.053219736 0.22394988 -0.025483677 -0.06952065 -0.036350224 0.15987876 -0.06704744 -0.084118694 0.022783857 -0.08233233 -0.16670729 -0.0545753 -0.23021978 0.24588178 0.0068633007 -0.0096267555 0.05267167 -0.16709292 -0.07862943 -0.13808075 -0.030295173 -0.27871573 0.023115754 0.11130558 -0.10050466 0.0065116864 -0.24383074 -0.10370845 -0.019848667 -0.022349322 -0.083782576 -0.008684366 0.20114163 -0.10265074 0.06493826 -0.08244438 -0.0781537 -0.054736745 0.13403994 0.04150778 0.009740543 0.032598544 0.03014331 0.21107379 0.1325489 0.063097656 -0.19881502 0.043912668 -0.013630508 -0.0063322186 -0.11796791 0.103241414 0.14864026 0.15207943 -0.011911228 -0.17546724 -0.07180244 0.21297996 -0.19582619 0.027044877 -0.123165965 0.020006314 0.033887662 -0.068820894 0.016627207 0.09499457 0.103852935 -0.073897235 0.025080264 0.013444129 0.08507029 -0.12793829 0.027200911 0.12473013 -0.08255696 -0.0039397683 -0.014340477
1197 0.12736458 0.03900268 0.16897573 0.006515434 -0.0039407685 -0.026783269 -0.047382962 0.15679362 0.0060537574 -0.13185821 0.12561361 -0.24494419 -0.20650637 -0.17094353 0.040758874 -0.07056513 -0.07204137 0.087883234 -0.035937686 -0.008630074 -0.033677604 -0.087593675 -0.18265817 0.010493487 -0.16632725 -0.0016862439 -0.1935236 0.10001419 0.056171875 -0.08595851 0.060478624 0.13912621 0.0058216406 -0.028118271 -0.064882316 0.070403405 0.029086879 -0.006321163 -0.21365449 0.07704721 -0.09400887 0.1528799 0.14978875 -0.15674047 0.14456597 0.12590937 -0.009807017 0.0729659 0.06498181 0.06743314 -0.045842808 0.1432759 0.02647811 0.0804701 -0.11275672 0.116886795 0.19858307 0.018231554 -0.12889248 -0.13229054 -0.06912536 -0.12027545 -2.5707837e-05 -0.058560632 -0.03501124 0.15029863 -0.107905 0.23268998 -0.11738832 0.03939895 0.08365193 -0.050445262 -0.06073891 -0.026823502 -0.09434706 -0.09051048 -0.024421176 -0.28913617 -0.22890331 0.025582276 0.018725889 -0.025110964 -0.018073494 0.107514285 0.0669592 0.056704964 -0.047511715 -0.1463827 0.09507783 0.14960288 -0.015061502 -0.06352955 0.094130166 0.018999279 0.038889423 0.01649815 -0.0066657052 -0.13727342 -0.014099645 -0.13029975 -0.039329577 -0.031909343 0.12151315 0.13370149 0.18511829 -0.04165712 0.008413036 0.03703053 0.13318273 -0.06636354 0.12069053 -0.005101459 0.14742236 0.03817897 0.12101563 -0.051579993 -0.01802363 0.19733822 -0.061192755 0.069888435 -0.04415576 -0.081006624 -0.112799555 0.010732542 -0.08162319 0.08609637 0.1764527 -0.058819976
1413 0.17834017 0.12008684 0.13915487 0.08296037 -0.0042379093 -0.08853628 0.11497666 -0.08457315 -0.024733638 -0.064523704 0.12768367 -0.16517457 -0.126203 0.009844304 0.084178284 -0.030578397 -0.077036984 0.13804363 -0.13428147 0.00029392485 0.011904739 0.032188006 -0.17970525 -0.09568026 0.040396973 -0.043125667 0.0032595396 -0.12710176 -0.02437249 -0.10082772 -0.018010212 0.18062647 0.10476511 -0.06309608 0.023673654 0.07158146 0.027518569 -0.03281187 -0.21981108 0.031059446 -0.032282848 0.16995353 -0.0014060421 -0.2141321 0.1346942 0.116981685 0.083914965 -0.13547495 0.0062538777 0.08450504 -0.051111482 0.17795303 0.23385176 0.01924798 -0.019758705 0.037442964 0.14712662 0.08540951 0.012300151 -0.09433796 -0.105868 -0.08986922 -0.07083069 -0.16012579 0.033843935 -0.00035758875 -0.014581838 0.18965623 -0.15074752 -0.007855596 0.13649024 0.025507346 -0.1924437 -0.12906876 0.049774233 -0.22659239 -0.015925324 -0.11965999 -0.14681056 0.100759126 -0.025159655 -0.12362883 -0.03856828 0.17284478 0.032919805 0.09230908 -0.049828324 -0.08771102 0.11374923 0.043167688 0.0052745673 -0.10926209 0.064167656 0.049213327 0.16396318 0.21040377 -0.051067352 -0.105906926 0.05495292 0.025844548 -0.00015855789 -0.086522125 0.03249827 0.064187326 0.02548195 0.08519011 -0.094416216 0.06878697 0.045032434 -0.1664941 0.11263456 -0.040060695 0.14180759 -0.002130911 0.13071693 -0.07487886 0.0052128476 0.08442172 -0.24779111 0.05972389 0.099986054 -0.024347095 -0.15579456 0.006376401 0.07586121 0.08262601 0.054180678 0.054129023
1145 0.15099026 0.1386779 0.088159904 -0.042045496 -0.0027939465 -0.0021119544 0.001679021 0.014577818 0.049525786 -0.1029589 0.04482229 -0.31800812 -0.017148055 -0.072070025 -0.012863727 -0.026875792 0.02829585 0.08845223 -0.10731862 0.033101387 -0.0010645166 0.01659556 -0.16489533 -0.056612853 -0.20512158 -0.052557744 -0.06563813 0.020505898 0.01588675 0.04228693 0.014742535 0.10707351 0.122066304 -0.10324599 0.006777255 0.053908143 -0.18257906 0.099477544 -0.10313699 -0.0071638706 -0.116610765 -0.024637146 0.059244107 -0.10427652 0.10499827 0.02606296 -0.051392127 -0.09807729 -0.06377894 -0.0049894736 -0.04946751 0.11994783 0.20714392 0.026152983 -0.08136211 0.13628122 0.14149405 0.122712284 -0.016194751 -0.12471786 -0.099355206 -0.058214463 -0.059310272 -0.111193895 0.15934846 0.17768347 -0.082132086 0.23605908 -0.20295872 -0.16633245 0.06883566 0.047073178 -0.13565353 -0.07672174 0.09934301 -0.1859919 -0.15302178 -0.1522125 -0.13440615 0.005333513 -0.18779388 -0.106778264 -0.047692586 0.09854659 -0.042716227 0.12553014 -0.08865777 -0.16340993 0.1318616 0.05319621 -0.03873003 -0.08992517 0.19652008 -0.035428993 0.11317144 0.13287824 0.019716425 -0.06581662 -0.0017930185 -0.019019125 -0.014259443 0.030409688 0.14838958 0.12933889 0.064157486 0.0070606996 -0.071889535 0.0020706165 0.16181344 -0.093753114 0.11579484 0.040491547 0.14588407 -0.08019231 0.042770308 -0.042989723 0.10936877 0.15531304 0.045306683 0.084070325 0.0077573243 -0.06557189 -0.033551537 -0.06667404 -0.0052808747 0.13240394 0.061230835 -0.01789881
1390 0.19898683 0.06683271 0.18544458 -0.004209011 -0.04892768 -0.06812408 0.049206425 0.08725875 -0.10491714 0.086016245 0.11886452 -0.2471221 -0.061781723 -0.1444385 0.023082372 -0.02842015 -0.03405265 0.056504544 -0.016467469 0.05769039 -0.055129208 -0.1481912 -0.11036114 -0.08592843 -0.06955509 -0.015649876 -0.08780876 -0.03054944 0.12041783 -0.08862565 0.13088407 0.14285919 0.052235126 -0.018924491 -0.028613694 0.08801899 0.0041378164 0.052924357 -0.043664385 0.0045957086 -0.13525079 0.0362641 0.037350316 -0.07412139 0.06743054 0.014857333 -0.05467267 0.007193106 -0.05036548 0.09197935 0.052793264 0.07283073 0.13867848 0.09243295 -0.095791884 0.07716168 0.09458499 0.06284332 0.004835863 -0.1148458 -0.03798182 -0.10010418 -0.038605582 -0.24481787 0.020125607 0.092363544 0.05697038 0.21829978 -0.24275574 -0.06649817 0.06357015 -0.052713387 -0.18274115 -0.044728953 0.10268443 -0.24953432 -0.1380836 -0.15001193 -0.20656651 -0.06964847 -0.09758426 0.018104864 -0.083583504 0.08048217 0.07694785 0.16927724 -0.06026023 -0.14115146 0.06284319 0.054988638 -0.041096516 -0.14725004 0.14453596 -0.015601574 0.16220948 0.04139324 0.15357617 -0.10415341 -0.016145183 -0.149647 0.10862832 0.0388382 0.06633708 0.049767744 0.0909156 -0.00072909525 -0.103872396 0.0767267 0.2488332 -0.0613973 0.20780829 -0.082705535 0.2185895 -0.097734265 0.064360514 -0.078175165 0.055303346 0.010005983 0.053994365 0.057897463 0.02479057 -0.013244013 -0.07573128 -0.08190237 0.13856599 0.20877838 0.043883488 0.03782456
1271 0.02815733 0.066035815 0.19172041 0.11109066 -0.0052280924 -0.00028528698 0.09818741 -0.02990876 -0.07696888 0.03811465 0.11867388 -0.21197765 -0.18760991 -0.16898552 0.009851819 0.12289879 -0.07010519 0.13557035 -0.06426528 0.033315767 -0.03956866 -0.13187514 -0.040110826 -0.08927418 -0.12767622 -0.08269791 -0.10330421 -0.17750472 -0.008390396 -0.022011915 0.030293299 0.067153886 0.11584438 0.120883204 0.048633877 0.02864923 -0.0643243 0.055839855 -0.287061 0.007316394 -0.056139003 0.0450613 0.094714984 -0.2032217 -0.00573672 0.042914204 0.011868141 0.049905766 -0.052424047 0.134979 0.0657703 0.05082682 0.16827443 0.008552648 -0.10519431 -0.039342098 0.09000112 0.09060376 0.05601974 -0.0015628933 -0.21473737 -0.014878748 -0.058721725 -0.06606557 0.016012186 0.20319754 -0.0989549 0.21711001 -0.118255645 0.082406536 0.13098758 -0.17626901 -0.059560414 -0.03758137 0.03656588 -0.17549562 0.008930556 -0.14090869 -0.14033507 0.064958856 -0.07240889 0.0076979636 0.0062141772 0.14732453 0.0022097698 0.02939479 -0.19438957 -0.22261633 0.08988119 0.19679458 0.098844424 -0.10617248 0.17718819 -0.101632364 0.12866266 0.17771746 0.09282073 -0.06569062 -0.024090884 -0.11293831 -0.011293668 -0.01815841 0.14311472 0.0616407 0.101190224 0.0746508 -0.04976657 0.09993399 0.16907215 -0.084640995 0.20483443 0.022514574 0.24845546 -0.041188568 -0.0042210342 -0.00880516 -0.018737368 0.040038936 -0.08215632 -0.09779854 -0.05673887 -0.11145788 -0.081127666 -0.09915496 0.035777826 0.082531266 0.17693312 -0.055721316
1238 0.16194934 0.20482507 0.1915487 0.0760938 0.07645765 0.00968951 0.0386549 -0.023919743 -0.04263726 -0.047709864 0.10574254 -0.2676433 -0.0043309196 -0.10413705 -0.047204405 0.0991689 -0.09040727 0.086224385 0.029758345 -0.0043651685 0.06382842 -0.01890173 -0.1294187 -0.07007329 -0.10467686 0.038870163 -0.113680825 -0.0035590187 0.114639044 -0.022437053 -0.0881534 0.123086296 0.035134643 -0.026434427 -0.008174083 0.06912826 -0.08045567 -0.10456637 0.02301261 -0.012659815 -0.2119194 0.037439797 0.20625336 -0.09481168 0.0052795545 0.1200003 0.06529458 -0.03160013 -0.01917327 -0.040094323 -0.06796495 0.2137888 0.24968646 0.019366061 -0.041231703 0.081292406 0.06786418 -0.008395853 0.06757721 -0.08673804 -0.11549358 -0.10233157 -0.08037229 -0.055865645 0.12411534 0.090468936 -0.05434444 0.17756179 -0.13060357 -0.0036516842 0.1304088 -0.04308999 -0.21217197 -0.07332731 -0.055719316 -0.23383988 -0.09284964 -0.10016967 -0.23056571 0.027375046 -0.070080236 -0.09971816 -0.044086404 0.24189527 0.08432487 0.1315361 -0.11755252 -0.23190898 0.11197607 0.054394014 -0.0151626235 -0.10949224 0.13659953 -0.09691514 0.065547474 0.11295121 0.03677681 -0.21115077 -0.046365436 -0.02601228 -0.041115932 -0.012620791 0.20976977 0.14526543 0.0049959193 -0.014649028 -0.066061825 0.04085543 0.063176885 -0.07350138 0.1657572 -0.014413149 0.13562725 -0.036945324 0.012216778 -0.04764002 -0.08917136 0.00016412686 0.0718033 0.005685804 0.060318947 -0.06890866 -0.1516797 -0.14618665 -0.08435538 0.07661813 0.066908635 0.013652174
1167 0.14978142 0.06621544 0.20313546 -0.060613714 0.052513253 0.056135755 0.10357587 0.10955462 -0.16763881 0.08139364 0.14117108 -0.1213329 -0.009677337 -0.1169992 0.020695742 0.13369533 -0.09681239 0.18449306 0.05678575 0.11847932 0.02175228 -0.00035000851 -0.03555955 -0.06194619 -0.045079075 -0.07087273 -0.014469581 -0.042394567 0.055295948 0.025778044 0.05497329 0.019168276 0.119415045 0.003736476 0.04256774 0.059744112 -0.11749952 -0.010435414 -0.092354596 0.019654104 -0.09446326 0.18493299 0.16230537 -0.10190118 0.082347006 0.09549345 0.02671629 0.029036516 0.09601062 0.048947647 0.07124966 0.099947095 0.19473258 0.092124164 -0.12130848 -0.013388937 0.10439158 0.09677443 0.02465811 -0.17117442 -0.094687834 -0.12103687 -0.06335425 -0.0559253 -0.09325803 0.053034652 -0.054858476 0.12593728 -0.13014825 0.045410935 0.17210355 -0.037671622 -0.13455203 -0.05518466 0.0098301815 -0.27250162 0.015761588 -0.24430528 -0.23127456 0.061025076 -0.054809682 -0.10540879 -0.05645215 0.0351059 -0.009312393 0.12471836 -0.1906232 -0.19596481 0.23997499 0.049009122 -0.0149469115 -0.08889125 0.16597885 -0.03708456 0.12858286 0.14464566 0.06634351 -0.19269145 -0.0034149336 -0.05827428 -0.11995084 -0.078766316 0.17621154 0.13519688 0.05708801 0.06656287 -0.05619116 0.04717741 0.10743915 -0.07629705 0.18195052 0.069625884 0.15638758 -0.014568669 -0.042034958 -0.13001731 -0.037875336 0.13096571 -0.10115999 0.048152845 0.059088793 0.038294498 -0.053089436 -0.116170324 -0.048723616 0.16514587 0.053519074 -0.052520566
1367 0.07470722 0.09656461 0.15528041 0.05099068 -0.11934317 0.01116116 0.017072372 0.060698498 -0.123279996 0.04957256 0.049049582 -0.19994953 -0.14651844 -0.05860536 -0.015174009 -0.04095108 -0.056264084 0.15066683 0.008317116 0.08742732 0.09019367 -0.08406371 -0.042819638 -0.00059211743 -0.12818174 -0.121962056 -0.09944573 0.06534315 0.031673502 0.038114425 -0.099249415 0.07205686 0.10856706 -0.11339201 0.105451725 0.030588698 -0.07976189 -0.00974226 -0.094671644 -0.020867221 -0.17663819 0.08394899 0.15255837 -0.18741009 0.11953489 0.000522544 -0.08789089 -0.04470663 0.048235126 0.06023159 0.07879123 0.104985215 0.17409302 0.09011469 -0.04227159 0.03009385 0.04693943 0.020776372 -0.071064875 -0.13927728 0.0062991544 -0.10638775 -0.02881323 -0.1177841 0.028327836 0.051828083 -0.03039758 0.22325365 -0.049240533 0.011526413 0.14157431 0.041957323 -0.26921222 -0.091240406 0.042582385 -0.2379517 0.021961432 -0.12629403 -0.08098936 -0.039466333 -0.026615592 -0.11468133 -0.09891919 0.26330304 0.016201602 0.07715341 -0.14201988 -0.20531902 0.091323145 0.024472808 -0.07090782 -0.08821165 0.16047134 -0.0812896 0.14771126 0.08830846 0.096053265 -0.16042626 0.07551179 -0.024932334 -0.07255376 -0.03782307 0.20437872 0.034701474 0.116599746 -0.04748705 -0.049077407 0.032692466 0.1707664 -0.10203225 0.07422712 -0.056168508 0.23994915 -0.060205325 0.027838135 -0.058747705 0.027991747 0.09534082 -0.041342996 0.102772735 -0.031736013 -0.12687221 0.019019194 -0.058566764 -0.009129 0.04291924 0.16997363 -0.020154536
1297 0.15647101 0.20819385 0.06493014 0.026747791 0.0055532777 -0.06817581 0.05710246 0.05563937 -0.07864843 0.023147915 0.10676314 -0.15150382 -0.08370601 -0.052091878 0.08035552 -0.034647856 -0.13291468 0.114585064 -0.013270377 0.13152844 -0.036109872 -0.0507068 -0.08478475 0.05768734 -0.1894845 -0.023660835 -0.19417976 -0.042921312 0.038772084 0.10981878 -0.034358308 0.044541292 0.17994942 0.009341416 0.09827562 0.051235165 -0.085303366 -0.10065308 -0.09036814 -0.095766276 -0.12652965 0.019632846 0.13216321 -0.17755586 0.07943957 0.0014861928 -0.10444517 -0.013859367 0.08237212 0.063254446 -0.016142245 0.04667041 0.20147257 0.12126665 -0.12600785 0.111364685 0.18312564 0.085158266 0.11848068 -0.15199646 -0.12878451 -0.03527758 -0.098116584 -0.11910512 -0.030135993 0.10699372 -0.023266338 0.19439186 -0.1576949 0.00509655 -0.052837066 0.011047461 -0.23373902 -0.14679974 -0.029922405 -0.14331862 0.005864021 -0.06539654 -0.18869545 -0.056042492 -0.052618343 -0.034450635 -0.07944806 0.22014382 0.11143884 0.101211175 -0.016887238 -0.168638 -0.0759967 0.025208162 -0.017863736 -0.20822117 0.13564265 -0.013638273 0.01222025 0.11686778 0.07458849 -0.1325461 0.063121855 -0.11526199 -0.06291958 -0.05589852 0.14702013 0.08540083 0.0023140714 -0.053955324 -0.05920371 0.08548138 0.17226039 -0.14968078 0.1646884 -0.044636726 0.11569124 -0.12423029 0.12289956 -0.14006376 0.017241916 0.111361824 -0.07033898 -0.051665407 -0.04824182 -0.054120734 0.04287724 -0.16255963 -0.03779808 0.19148524 0.091958985 0.043437075
1128 0.16884293 0.061615698 0.23020425 -0.009773968 -0.08924562 0.020261154 0.037780587 0.11493364 -0.027604144 0.031860035 0.09270045 -0.1966097 -0.06964026 0.0059294268 -0.025567545 -0.04316815 -0.147069 0.116519555 -0.03711676 0.1086322 0.12249233 -0.006995718 -0.083474815 0.039414335 -0.07583279 -0.021946644 -0.12078447 -0.047338735 0.17872687 0.039197925 -0.0014571274 -0.014134617 0.014352367 0.071316324 0.0008013034 0.036861792 0.014426126 -0.012859647 -0.15886626 -0.0067067295 -0.30426118 0.037916776 0.16115177 -0.096827745 0.27405557 0.14415137 0.0045149513 -0.006689907 0.004480258 0.09077303 -0.083177134 0.058631454 0.13011351 0.1615929 -0.07312986 0.063278936 0.03302149 0.022655487 0.02435323 -0.14378384 -0.04930633 -0.037196763 -0.044702366 -0.0022845748 0.11821202 0.19116828 -0.1458039 0.23664246 -0.15619548 -0.003370412 0.12139095 -0.08676781 -0.20451948 -0.041479357 -0.10990514 -0.11336463 -0.14562157 -0.14420979 -0.08773993 0.026055101 -0.044928994 -0.025733685 -0.03129651 0.17237175 0.07957122 -0.0067274636 -0.03398888 0.0060119582 0.033643655 0.11721333 -0.038383942 -0.0656822 0.07907387 0.052280083 0.06572434 0.017736427 0.07197602 -0.19043414 0.010412408 -0.16420156 -0.08776525 0.104335725 0.15506892 0.043786764 0.11592389 -0.038704313 -0.07852381 0.12790674 0.15859239 -0.17578386 0.11177537 -0.0033618354 0.15638773 -0.016724551 0.04969732 0.025629217 -0.02150086 0.15230285 -0.07322742 0.076352656 -0.00283313 -0.09751698 -0.049095497 -0.062355384 -0.043364156 0.16886318 0.038359337 0.07049523
1144 0.10179414 0.13865003 0.09195805 -0.052160714 0.04527603 0.036824636 0.01003366 -0.006595273 -0.0032783984 -0.03953334 0.09246363 -0.14264609 -0.076300815 -0.025460508 -0.010936229 -0.017732063 -0.14876318 0.087010205 -0.16570136 0.0579487 0.117597215 -0.022305684 -0.05183587 -0.044945586 -0.080358066 0.05035423 -0.12212907 -0.07351314 0.053593934 -0.022327848 -0.11385959 0.077131175 -0.019040566 0.0471399 -0.13315673 -0.01784165 -0.040991943 0.023018038 -0.27091843 0.070962645 -0.08249887 0.12463951 0.12470147 -0.067225 0.11890903 0.12980688 0.07781421 -0.060994014 -0.02674676 0.063244134 0.05271344 0.08545994 0.15776323 0.09390159 -0.1318476 0.1274576 0.038335506 0.14078821 0.019458413 -0.11682387 -0.13327155 -0.08146872 -0.02786114 -0.07305133 0.069535695 0.1876194 0.012354703 0.12932858 -0.18442279 -0.0344677 0.17071046 -0.0023087247 -0.20400316 -0.07243878 -0.0267099 -0.13536344 -0.08646391 -0.112723425 -0.22104508 0.048015345 0.07484486 -0.025584877 -0.11676091 0.2952206 0.04159882 0.16967566 -0.10322193 -0.087895796 -0.0063932184 0.00096581 -0.059509274 -0.20404059 0.1092845 -0.020133315 0.024724834 0.26071057 -0.028000182 -0.167716 0.07241568 -0.11762647 -0.013576908 -0.022955291 0.08441554 0.019622965 0.07989579 0.019311981 0.03261785 0.053155363 0.09386368 -0.058461852 0.070288114 -0.057159286 0.18506877 -0.07026201 0.01613751 0.013415448 0.06979003 0.054317515 -0.109260656 -0.010796654 0.0547505 -0.034183756 -0.1712383 -0.08370723 -0.09544651 0.22439948 0.0658054 0.07075811
1146 0.14895691 0.16786404 0.1622866 0.08302077 -0.14418747 0.00038478558 -0.07553853 0.12569167 0.06824705 0.05563533 0.08124826 -0.24362487 -0.15569681 -0.069120646 0.01849832 0.018385185 -0.15421577 0.14714094 -0.052759435 -0.0028391576 0.07639254 -0.008904031 -0.15896574 -0.08848936 -0.09841181 -0.0070884554 -0.082089335 -0.03324479 0.050464723 0.01617775 0.098349944 -0.007056895 0.20134838 0.019963909 0.07984294 -0.009033093 -0.029372139 -0.102778524 -0.114542216 0.04581432 -0.08727823 0.13745588 0.06306673 -0.08312158 0.15465131 0.04770703 -0.019198036 -0.11886158 0.08689177 0.011689094 -0.105887555 0.02095455 0.26181656 0.09243768 -0.040255837 0.01480436 0.18661104 0.0009819706 -0.113780916 -0.13303038 -0.110431656 -0.14734156 -0.11690358 -0.0006037383 0.06346816 0.10850881 -0.015808245 0.23368591 -0.13536145 -0.12430766 0.13835724 -0.034240443 -0.15303771 -0.014591708 -0.066435196 -0.16535763 -0.0065068444 -0.07439028 -0.1938373 -0.051405184 -0.0888599 -0.1576363 -0.019704055 0.12417412 0.020873811 0.055395577 -0.13829157 -0.24941653 0.027959257 0.058155674 -0.004506462 -0.17657779 0.1257567 0.0065107574 0.12285993 0.118701436 -0.0038480358 0.018119888 0.041586336 -0.052446652 -0.07196745 -0.019703643 0.1619692 -0.011760996 0.026624156 0.06174415 -0.08063826 0.07411027 0.01113119 -0.19366765 0.14934869 0.0020836345 0.17160651 -0.097324535 0.07135702 -0.03852706 0.065583326 0.08889842 0.03066638 0.079512864 0.04701764 -0.08060212 -0.08176953 0.04455048 -0.019232275 0.10699157 -0.03164886 0.08384323
1189 0.07050864 0.24387117 0.16622981 -0.026775116 0.07280859 0.017783184 0.06821603 0.06959274 -0.26687124 -0.0024823877 0.104932636 -0.10575363 0.018348701 0.08479191 -0.08530807 0.043063145 -0.0012107035 0.10515892 -0.25469667 0.010006332 0.11282618 -0.021207718 -0.0951143 -0.020168867 -0.11788198 -0.02893788 -0.082382895 0.0017035968 0.051413257 -0.030373644 -0.00490399 0.14782938 0.104950756 -0.006166702 -0.040301844 0.08147696 -0.0047787586 -0.047936454 -0.16069204 -0.05301013 -0.06636498 -0.016076261 0.13553366 -0.08398691 0.051729202 0.13997704 0.014525121 -0.015329944 0.05204908 0.15647608 -0.15324934 0.094649516 0.16513565 0.11852064 -0.22602707 -0.0054637524 0.094039634 0.14264567 0.14889099 -0.11562364 -0.23948063 -0.14778997 -0.09308363 -0.01458055 0.14284578 0.15643767 -0.062606275 0.045829948 -0.18167475 -0.024212237 -0.0120501295 0.05618901 -0.23567738 0.039900035 0.14849442 -0.119013146 -0.080378875 -0.08965629 -0.13425785 0.048627518 0.07567683 -0.09740548 0.058996897 0.12963027 0.06639701 0.19381121 -0.15023826 -0.1358814 -0.018552756 0.13870014 -0.018776728 -0.11597547 0.14627272 -0.11515525 0.055395924 0.12327809 -0.039367 -0.24031365 -0.01214547 -0.13811068 -0.13027093 -0.015855243 0.03788929 0.15158856 0.14487112 -0.00806445 -0.029865699 0.08286551 0.10387708 0.08441681 0.030931393 -0.035820894 0.17077652 -0.023476655 -0.06997099 -0.05211685 0.027417079 0.06185276 -0.11630342 0.0115368515 0.034440298 -0.12920536 -0.10131716 -0.14703988 0.0006091309 0.13696162 0.05777004 -0.06488012
1348 0.31431553 0.31162086 0.20218435 -0.11342413 0.082334764 -0.03384404 -0.13407688 0.08640227 -0.10581736 0.102020726 0.12945393 -0.102277584 0.14118141 -0.1496537 0.050026067 -0.005314751 -0.15308408 0.119779624 -0.15285525 0.2598054 0.07849274 -0.027020467 0.050118852 -0.069059685 -0.17155583 0.0039273105 -0.03976984 0.018747903 -0.07638618 0.044472873 0.08503295 0.12904717 0.07583159 -0.11063678 -0.04135231 -0.008898126 -0.22469683 -0.13228337 -0.25714454 0.097539335 0.023549534 0.2194054 0.05316085 -0.119895644 0.009633934 0.15743853 -0.14311987 0.09309366 -0.111025214 0.19607897 -0.08696274 0.11587712 0.091949016 0.07352933 0.0029941355 0.14873667 0.14856724 0.23117621 -0.11572842 -0.042554185 -0.020925153 -0.16080001 -0.035098314 0.005521869 0.16146022 0.15374193 -0.062013723 0.2570835 -0.12072642 0.08748927 0.14418474 -0.0068522184 -0.342 -0.13289626 -0.08174734 -0.10243555 0.11859066 -0.13067292 -0.04669476 -0.10690712 -0.06162795 -0.036832817 -0.03230954 0.021723246 -0.08839245 0.17722009 -0.08918227 -0.05634223 0.025437728 0.17470814 -0.10329613 0.053514786 0.15108985 0.027176797 0.12806495 0.057353698 -0.19701432 -0.0084958915 -0.0689184 -0.057217207 -0.041522138 0.043303546 0.014830731 -0.074055225 0.1631778 0.03854092 -0.1428895 -0.027418295 0.2990211 -0.038073197 0.15707551 -0.018804137 0.014683041 -0.17927521 0.085460536 0.14791764 -0.022226615 0.111949965 0.03685378 0.02889265 -0.027839087 0.070972525 -0.018400315 -0.019654274 0.06401911 0.19382009 0.06792231 0.0060953787
1249 0.17759249 0.022207357 0.085342675 -0.05525406 0.0013526831 0.028938504 0.014037988 0.09958145 0.003135256 0.076364525 0.019765511 -0.2971034 -0.01535934 -0.14307964 0.13966332 -0.01744451 -0.030379288 0.15742537 0.0024140603 -0.114961855 0.11353794 0.07720596 -0.16897514 -0.11361251 -0.12636279 0.076064214 -0.054828443 -0.08038339 -0.031702265 -0.12134596 -0.059812456 0.1660112 0.046032947 0.05821896 0.027850615 -0.02772832 0.01851035 -0.01910064 -0.1254438 -0.009783527 -0.22349857 0.13376257 0.13276501 -0.1542541 0.18332362 0.15398803 -0.02708008 -0.041049935 0.09445869 -0.07122869 0.109210774 0.038320374 0.260858 0.15545104 -0.081742294 0.07808273 0.023359427 0.101881675 0.0696022 -0.2774955 -0.15258701 -0.13751765 -0.1687972 -0.080772415 0.079778165 0.22150926 0.017111853 0.1573746 -0.06334021 0.05444254 0.10644185 -0.024221795 -0.1660228 -0.049628485 -0.14415018 -0.32116315 -0.17942077 -0.034286343 -0.13418457 -0.020157568 0.15523067 -0.053041175 -0.005523346 0.0021020884 -0.05819479 0.012350982 0.01817286 -0.14422727 0.064804435 0.049674757 -0.058395695 -0.069199026 0.20208235 0.009895671 0.12342137 0.21755254 0.02457604 -0.07728819 0.089889355 -0.118648775 0.10766887 0.083616175 0.052935954 0.068774186 -0.067793645 -0.007246798 -0.124292605 0.045159888 0.15305705 -0.07538198 0.040791407 0.022741148 0.17994611 0.0957567 0.13592382 0.0056930087 -0.09173104 0.12865297 0.018072724 0.024239752 -0.06810949 -0.11813077 -0.14247964 -0.014103367 0.033545222 0.09026115 0.07695709 0.055314817
1286 0.13723573 0.026027719 0.11780249 0.022742752 0.004414205 0.013924846 0.08308661 0.08136168 -0.08107338 -0.03269495 0.11635597 -0.06363573 -0.12393223 -0.15421501 0.062699534 0.040198784 -0.12998907 0.112125635 -0.008063651 0.032085415 0.12851818 0.03880424 -0.07474303 -0.16120191 -0.05980016 -0.014276643 -0.2208653 -0.008353927 0.12424534 -0.029915454 0.025731158 0.063186795 0.042691823 -0.010218865 -0.113638364 -0.07171773 -0.039224066 -0.046021778 -0.117004655 0.047843106 -0.13242221 0.06386807 0.13881035 -0.10814809 0.15422097 0.05058962 -0.00076662 0.13084854 -0.027352583 0.014687232 -0.044618394 0.027610611 0.13133301 0.06492289 -0.16311248 0.051194172 0.017043043 0.0895634 0.028413868 -0.26029643 -0.12043675 -0.125374 -0.016498905 -0.10116257 0.047123462 0.18842316 -0.0029207445 0.16381703 -0.1669389 0.084121734 0.12742095 -0.014991475 -0.17146917 -0.10652132 0.0011647737 -0.15870303 -0.019590471 -0.17864555 -0.23844479 0.20765309 -0.035858005 -0.10763943 -0.07846029 0.25360605 0.055313133 -0.006309957 -0.028192589 -0.17512769 0.07058613 0.06318678 -0.13579129 -0.10057913 0.17076352 -0.0042909053 0.057888888 0.15702859 0.007213313 -0.15546899 0.060158987 -0.12177591 0.06341674 -0.02768855 0.18273127 0.097347856 0.005845675 0.028492756 -0.15390949 0.1323712 0.07013643 -0.06373911 0.056714065 -0.021199161 0.25156802 -0.008669892 0.011970136 -0.05330912 0.0838333 0.07263546 -0.1272681 0.044499997 0.0010006892 -0.021983463 -0.07609369 0.006205147 0.0077560423 0.19889131 0.15723087 -0.0022373602
1370 0.07854505 0.1351111 0.19204327 0.07161175 -0.044663187 -0.0030581958 0.017057046 0.008309228 -0.091639675 -0.033743642 0.110001005 -0.17965692 -0.16840188 -0.08357839 0.067698926 0.062280487 -0.12364383 0.07331679 -0.014325853 0.085444525 -0.00087233545 -0.058641944 -0.2288345 -0.0033352717 -0.18622175 0.015378132 -0.11876547 -0.058043193 -0.008703942 0.0025403304 -0.04916103 0.118204154 0.04917567 -0.0812573 0.087662034 0.033891708 -0.029625999 -0.09137056 -0.1441251 -0.06544729 -0.10409466 0.085115604 0.113454685 -0.17660797 0.086013645 0.030513853 -0.06932331 0.033206206 -0.027034232 -0.0040616705 -0.045899644 0.083320916 0.14407979 0.044911534 -0.020939345 0.11533375 0.10284759 0.11169185 0.032381605 -0.08809785 -0.19647984 -0.10895228 -0.07597667 -0.07323785 0.1354754 0.22457784 -0.08684916 0.2183545 -0.09221161 -0.033806045 0.03742177 -0.07373073 -0.23878767 -0.21590869 0.086794324 -0.114833705 -0.08995515 -0.118558474 -0.094605625 0.013582413 0.12387975 -0.1003844 -0.088139124 0.21526161 0.039037537 0.04205003 -0.16317901 -0.11333833 0.09804744 0.120879374 -0.14922048 -0.08402838 0.17487928 0.026937949 0.20218873 0.03580843 0.07922664 -0.109343745 0.05878653 -0.07835947 -0.046815746 0.05273716 0.0744533 -0.035197742 0.06593696 0.06378698 -0.16135807 -0.033439767 0.109623626 -0.11237142 0.065404266 -0.028167082 0.10901187 -0.05740792 0.050216325 -0.041776817 0.004850292 0.1050433 0.028344713 -0.06264746 0.041096307 -0.12005349 -0.08239565 -0.14727975 -0.064149484 0.044303697 0.008765064 0.05028827
1273 0.11342071 0.26219514 0.19591613 0.06038857 -0.07634106 -0.1213916 0.057527777 -0.050410606 -0.017004337 0.056178365 0.11504516 -0.13348843 -0.037211053 -0.08931935 -0.018448945 -0.025643405 0.009912077 -0.0337045 -0.0952468 0.026972545 0.12221124 -0.10616541 -0.14056878 0.007266454 -0.17761959 -0.13365072 -0.17240621 -0.03721658 -0.107296534 -0.024228275 0.04190446 0.14001337 0.059808318 0.0010215703 0.07675737 0.07386653 -0.079175 0.035589583 -0.1611863 0.028051509 -0.15195455 0.21095972 0.044533987 -0.16084528 0.12901358 0.12801127 -0.0312622 0.04330982 0.07408686 0.035332702 -0.01522311 0.054468684 0.23748557 0.07564779 -0.050491545 0.09866425 0.09962135 0.06631137 0.094580375 -0.07315234 -0.12643573 -0.048940267 0.07044296 -0.14924155 0.14498456 0.083766684 0.0057978556 0.17212725 -0.11193249 -0.07691118 0.00021584408 -0.054734517 -0.13904053 -0.046299465 -0.008163808 -0.17948507 -0.13238698 -0.08660885 -0.17317973 0.0013551313 -0.01489004 -0.061471906 -0.078164175 0.055272095 0.17517012 0.00030747746 -0.13869624 -0.15859884 0.027457895 0.16065657 -0.034666996 -0.05872896 0.23453288 -0.02802164 0.10206175 0.030736778 0.07699722 -0.13906203 0.05726409 -0.12227259 -0.047947705 0.029080791 0.12141332 0.05789968 0.14454749 0.024067465 -0.12654923 0.06456188 0.056045856 -0.06858821 0.1343564 -0.037528444 0.14511621 -0.05548569 0.07965069 -0.18104784 0.04747314 0.072663285 -0.011264194 -0.026442735 -0.068344966 -0.026147239 -0.07866982 -0.061676897 -0.061151713 0.02289222 0.11144555 0.09647668
1352 0.02106395 0.10579792 0.22789259 0.033453114 -0.058381975 -0.0014177214 -0.047247183 0.014601306 -0.061916936 -0.040274724 0.10040021 -0.04467199 0.0007751255 -0.12619096 0.00013627738 -0.12289637 -0.05356266 0.03904969 -0.01126709 0.021175882 0.027673423 -0.105905645 -0.111644715 -0.16099104 -0.020484881 0.0972998 0.0044367732 -0.052299675 0.042806078 -0.11225974 -0.0898566 0.018946333 0.16915669 0.0051705707 -0.011212277 0.044966776 -0.03378817 0.055310983 -0.16596538 -0.029030679 -0.16573377 0.16008781 0.11469803 -0.12821051 0.16381308 0.18499139 -0.05305918 -0.0799642 -0.092773385 0.08465245 -0.03238112 0.021170868 0.20214668 0.11114561 -0.08196572 0.08709239 0.04515623 0.10726475 0.033859752 -0.328854 -0.2359142 -0.031950615 -0.19299996 -0.20305094 0.14611898 0.14346087 0.035787918 0.059372038 -0.24400856 -0.16755584 0.07177514 -0.15041278 -0.22500436 0.0036522225 -0.020715578 -0.10439432 0.0652176 0.086853944 -0.12209667 0.046210483 -0.03675964 -0.17376629 -0.09756428 0.12333736 0.049980283 0.04136073 -0.13580395 -0.12698829 0.11463785 0.032097913 -0.11444633 -0.104850516 0.12189574 -0.08387766 0.062078413 0.09991331 0.12432176 -0.09510603 -0.02937631 -0.097483695 0.007581794 -0.015384368 0.110687114 0.11729087 0.14338306 0.057311628 -0.027059078 -0.0010751999 0.16519934 -0.061909784 0.23264183 -0.03522003 0.08813389 -0.006172291 0.059401367 -0.07680288 0.07316835 0.084838584 -0.11160283 -0.06848206 0.097448006 -0.080954716 -0.0960543 -0.079661086 -0.1271891 0.09123013 0.1082993 -0.06290767
1356 0.05636762 0.12807128 0.17194997 -0.03373621 -0.02148834 -0.064159445 -0.030487869 0.064791486 -0.107769236 -0.009259723 0.044230144 -0.15323427 -0.05900191 -0.068441786 0.090808384 -0.039231315 -0.11364497 0.10153656 -0.04601093 0.077719286 0.00014291883 0.02099946 -0.11581258 -0.1795026 -0.16412996 -0.035841327 -0.118246295 -0.022521915 0.062292427 -0.0193479 -0.084528446 0.09787793 0.061139904 -0.045481965 0.022143198 0.093564086 -0.03082135 -0.034513477 -0.09038461 -0.008885383 -0.09904415 0.22000042 0.055817846 -0.17768219 0.10638587 0.052425664 -0.11086678 0.061082903 -0.059602924 0.017491143 0.10303422 0.0687597 0.042945858 0.05129325 -0.142449 0.19488114 0.10016874 0.09640115 0.14261071 -0.2543153 -0.08221362 -0.15964818 -0.05140371 -0.060519997 0.04349013 0.074194536 -0.06932075 0.17847611 -0.21467227 -0.03886195 0.08311412 0.15139055 -0.32589987 -0.027313186 -0.07231084 -0.12764503 -0.08086676 -0.11754694 -0.14479356 0.028137114 0.011546331 0.007492625 -0.06121759 0.11551263 0.056934893 0.08693786 -0.12050437 -0.10856569 0.07460394 0.10639895 0.010215127 -0.102610685 0.1290749 -0.04494326 0.123734064 0.120460294 0.07396561 -0.13297264 0.07203258 -0.10000364 -0.06836277 0.08180584 0.12910224 0.06616065 -0.00070865726 0.10425285 0.05487341 0.09067123 -0.028231293 -0.1696131 -0.005412415 -0.14430876 0.20975421 -0.06929627 0.15151604 -0.03392321 0.03780026 0.10569547 0.08102123 0.11385987 -0.10735304 -0.11535805 -0.051854383 -0.06420075 -0.05113412 0.093025364 0.10465233 0.12928484
1406 0.0028781022 -0.034811784 0.06979142 -0.080150634 -0.03970145 -0.003933226 0.06796633 -0.149043 -0.17111573 0.087306246 0.09610998 -0.023365343 -0.08820509 0.0291619 0.099197395 0.028485065 -0.099500805 0.20942122 -0.21867609 0.16207117 0.17075263 -0.047074333 -0.13149631 -0.14845909 -0.10596584 -0.00895279 -0.16758554 0.11106252 0.1225528 0.09958859 0.028148122 -0.037612084 0.105406895 -0.12660076 -0.04354075 -0.044286482 -0.09598703 -0.08010476 0.03556211 0.093467414 -0.04874963 -0.10132087 0.18618008 -0.2611892 0.14389771 0.25265178 0.12342929 -0.042163964 0.15876864 0.053071164 0.00088507176 0.2087751 0.09422212 0.11556729 0.029926425 -0.11898432 0.28502265 -0.06101201 -0.024848707 -0.06690903 -0.15527648 -0.05210708 -0.12187518 0.036410738 0.03781007 0.24003443 -0.036634244 0.032363486 -0.23798622 0.06315525 0.21588992 -0.12464362 -0.2165393 0.04964811 -0.015966078 -0.043844134 0.09827364 -0.052693672 -0.05164302 -0.061032712 0.043146353 -0.09682072 0.047904387 0.1542324 -0.22460678 0.081242874 -0.25129232 -0.025197027 0.042728454 0.18415053 -0.015006167 -0.02260404 0.058479067 -0.15983817 0.27553838 0.112329304 -0.016909191 -0.25677776 0.073652424 -0.18028273 -0.110483274 0.13707061 0.25734767 0.07057213 -0.04629732 0.07644885 -0.25079417 -0.18282047 0.0742486 -0.028551646 0.207877 0.11822725 0.08363637 0.18980692 0.14070322 0.082416244 0.012600091 0.24715433 -0.013926511 0.07798838 -0.37173572 -0.16042705 0.026451945 0.069179416 -0.059520446 0.12826869 -0.052159227 0.07512859
1259 0.1219547 0.064455345 0.09480688 0.032564137 0.029459797 0.03485133 0.0967883 -0.062189367 -0.16604052 -0.09290971 -0.013491655 -0.17485082 -0.12526436 -0.02171934 0.19049278 0.116832696 -0.037729766 0.11320063 -0.058992032 0.12593511 0.036595374 0.019312305 -0.048967365 0.091355324 -0.091061436 -0.08811898 -0.054621853 -0.09423526 0.050341003 0.038041405 -0.0067489687 0.14305909 0.05888225 0.052707527 -0.01432493 -0.02657754 -0.05245612 0.03840722 -0.17292435 0.039363213 -0.110215105 0.08999189 0.16934073 -0.1290315 0.17851588 0.051078547 0.0035456799 -0.083892 -0.03927474 0.09116097 -0.004215557 0.053600524 0.17053059 0.057765618 -0.122480124 0.14689873 -0.10527174 0.073182724 -0.08037934 -0.18894619 -0.050251123 -0.16824733 -0.1960413 -0.07237947 0.008734372 0.14865397 -0.12149827 0.21033253 -0.13825107 -0.08753177 0.08533653 -0.091700636 -0.09201992 0.0070665153 -0.02746933 -0.18486008 -0.03842954 -0.017275313 -0.23297606 0.107103184 0.006029375 -0.1482186 0.0022288365 0.19640625 -0.014814202 0.012760762 -0.09211603 -0.17048375 0.008848451 0.04138177 -0.12264352 -0.11766875 0.10195673 -0.06518986 0.04948202 0.16692261 0.005977699 -0.07092793 0.093441404 -0.015835091 0.006535852 0.05522033 0.17950289 0.12999056 0.13471855 0.0012994793 -0.10665012 -0.058309916 0.24280562 -0.018319014 0.04180331 0.001724074 0.12236833 -0.1414789 0.008217417 -0.111643896 -0.03888909 0.00079868286 -0.094901346 -0.08408437 -0.08143937 -0.11779074 -0.13417281 0.019091919 0.00479639 0.22782151 0.05320556 0.12409512
1368 0.17513192 0.16624783 0.033661738 0.08879941 -0.078445874 -0.0749402 0.028112752 0.026716145 -0.06972475 -0.10321208 0.15354165 -0.19186589 -0.05688527 -0.17374791 0.00035412368 -0.04305175 0.022303116 0.010926766 0.019103032 0.09495486 0.06067979 -0.10126742 -0.21631685 -0.09402016 -0.19437854 -0.01273202 -0.1023188 -0.12878074 0.090090916 -0.16820897 0.04356901 0.058647346 0.159424 -0.03759453 -0.00017032186 0.09038076 -0.11315385 -0.006742683 -0.08651528 0.030361397 -0.07796388 0.10543775 0.21190843 -0.05904834 0.08692903 0.16777815 0.038351268 0.017511455 0.008713621 0.054255676 -0.05100199 0.070854984 0.2102392 0.03320415 -0.1560448 0.039425235 0.14400996 -0.044019606 0.08099852 -0.11997078 0.016163688 -0.074851125 -0.05066762 -0.017366534 0.08083427 0.14857143 -0.13318993 0.14863972 -0.17886633 -0.023360288 0.18850315 -0.035517942 -0.10228714 -0.010767023 0.07816735 -0.14124992 -0.06902293 -0.1780236 -0.31875452 -0.00055140426 -0.030190151 -0.018931655 -0.10407117 0.15705755 0.05561619 -0.017804606 -0.13120128 -0.14828324 0.0035998258 0.07570893 -0.07988321 -0.09459436 0.22520816 -0.038098615 0.1092193 0.05546365 0.08486532 -0.08730922 0.084611446 -0.16846994 -0.016482124 -0.019282876 0.026673384 0.12076936 0.013858926 0.03461425 -0.024343414 0.017380854 0.11240283 -0.063267134 0.16443956 -0.021980662 0.1573622 -0.13180494 0.06401672 -0.0034889404 0.028892895 0.037287537 0.031793978 0.07283736 0.023321815 -0.019990368 -0.12155361 -0.0126060825 -0.17091751 0.031134998 0.18374042 -0.013116257
1277 0.05538215 0.0769897 0.24526949 -0.026065765 0.07515195 -0.02364386 -0.03978175 -0.08431636 -0.09511106 -0.018532936 -0.050684717 -0.29110122 0.026753735 0.014371543 -0.042727746 0.09887859 -0.16273776 0.08761319 -0.017243136 0.1531418 0.0409301 -0.033486843 -0.109184556 -0.06136803 -0.049789064 -0.016154094 -0.1689635 -0.08785558 -0.07477114 -0.025729282 -0.053194616 0.0853329 0.12571108 -0.052084967 0.06404562 -0.0033161866 -0.030447876 -0.029204935 -0.11374612 0.012925037 -0.083136536 0.19459209 0.062450934 -0.26488626 0.07844675 0.043616172 -0.11860071 -0.09574862 -0.058497865 0.08483907 -0.14134236 -0.020556657 0.16692291 0.096514136 -0.161392 0.19780818 0.09333955 0.044860087 0.04913384 -0.19771032 -0.11265757 -0.16229595 -0.07930273 -0.13962361 0.024469906 0.09584428 -0.14525934 0.24961957 -0.015791109 -0.048091162 0.106825285 -0.06205711 -0.07764427 -0.09985299 0.08910413 -0.02786351 -0.09295666 -0.076472655 -0.18233225 -0.01851194 0.07166955 -0.16853705 0.05538001 0.0673342 -0.05074006 0.049925964 -0.16037816 -0.21803312 0.0999811 0.06275592 0.08436786 -0.08207313 0.1214899 -0.16739012 0.15919536 0.05671277 0.02111702 -0.05761985 0.044180468 -0.10842544 0.053177606 -0.08244822 0.13116945 0.009621595 0.08642396 0.06485049 0.007865532 0.10011865 0.13530017 -0.084911555 0.197068 -0.0077516567 0.14422916 -0.059249185 -0.02391204 -0.08906781 -0.031879276 0.16258243 -0.07904333 -0.046863124 -0.090544954 -0.032083083 -0.16011009 -0.048318096 -0.0028161565 -0.0020722635 -0.033169106 0.16808698
1147 0.12260021 0.12840241 -0.04448232 -0.039456666 -0.016757365 -0.099052094 -0.016981386 0.12774588 0.030386647 -0.049841 0.09544599 -0.19890623 0.02375197 -0.060939603 0.06516534 -0.0032120317 -0.057422467 0.06724185 -0.075345255 0.117963456 0.15226181 0.028349215 -0.10339338 -0.042121775 -0.07615564 0.028257737 0.01845212 0.051808823 0.05046643 -0.012562259 -0.09098728 0.066064395 0.19241238 0.012652374 -0.04442632 -0.053954054 -0.055528212 -0.046552163 -0.058315363 0.013754886 -0.060339835 0.15723856 0.15979934 -0.14899044 0.16137694 0.1147939 0.023847077 -0.12614276 -0.03579215 -0.032858115 0.09368851 -0.012930821 0.13216513 0.066066384 -0.11859298 -0.038708534 0.16147305 0.02375302 0.048155177 -0.13202989 -0.061817624 -0.06868632 -0.14340077 -0.19476607 0.093728215 0.2569071 -0.11358925 0.30015236 -0.20252477 -0.025219139 -0.042977992 -0.15041873 -0.22360712 0.03553002 -0.115558855 -0.14925547 -0.10652392 -0.15653415 -0.15942468 0.11485686 0.027921306 -0.14958471 -0.0013631268 0.2079922 0.1724511 0.04326437 -0.028296033 -0.08873002 0.056658786 0.10294326 -0.081266254 -0.17045069 0.22386007 0.020512369 0.09411865 0.12942442 0.015121188 -0.21220118 0.041187175 -0.10623142 0.038339797 0.14973497 0.124127604 0.007915073 0.08380918 0.09215656 0.024821548 0.0082392115 0.06702445 -0.00086544565 0.14562382 -0.033093788 0.17488684 0.0556667 0.13716426 -0.043250017 0.07743554 0.098885715 -0.04322388 0.049519457 0.045049768 -0.0016742155 -0.013016062 -0.013247722 -0.14073344 0.1410188 0.05613 0.061653465
1323 0.08060011 0.08572266 0.14118862 -0.014591059 0.030288037 0.066806376 0.20647548 0.050012738 -0.021120254 -0.04665316 0.07368997 -0.14312221 -0.028968558 -9.738864e-05 0.06439857 0.066846214 0.13085294 -0.035376582 0.01563697 0.2895881 0.23552077 0.009359472 -0.071653664 -0.101332575 -0.25832933 -0.032858953 -0.04942983 -0.0987472 0.029619696 -0.15504101 0.06546879 0.07058325 0.1833477 -0.0844602 -0.0014274121 0.052128658 -0.13034454 -0.046817943 -0.011053355 0.05115403 -0.06429784 0.117412925 0.14694025 -0.1937728 0.16247973 0.20650731 0.036867984 -0.12842831 -0.037077814 0.005511122 -0.044463284 0.03833296 0.21780819 0.06349444 -0.090088055 -0.1420702 -0.006965933 0.1576456 -0.008507406 -0.010623113 -0.13684162 -0.1551264 -0.14676516 -0.1534439 0.1659729 0.14597344 0.03480893 0.23814806 -0.19524005 -0.0018626493 0.1698286 -0.09276077 -0.2321402 -0.0040260567 0.11160726 -0.21337454 -0.0575632 -0.06469422 -0.18629801 0.083178036 -0.11307544 -0.13244547 -0.13709849 0.03218734 -0.07660032 0.2573111 0.0025078573 -0.03818463 0.060327422 0.15393005 -0.2113032 -0.0064046322 0.22498585 -0.016294748 0.010643355 0.037032913 -0.03776906 -0.15453267 -0.086540975 -0.16014366 -0.020940622 -0.07690794 0.19858348 0.0050425236 0.051388755 -0.0739508 0.046777528 0.10414215 0.008863941 -0.20818046 0.054611076 -0.010075543 0.10508087 0.07113449 0.07142441 -0.09562839 0.007221579 0.085091606 -0.034940302 0.08029673 0.08232963 0.073522225 -0.06804335 0.11298148 -0.081090465 0.18148787 0.11654167 0.01338756
1283 -0.122506775 0.011175472 -0.074730545 0.019708546 0.13326764 0.08437133 0.008558649 0.008093053 -0.09644493 0.18063574 0.036517475 0.032443475 -0.08568131 0.08067209 0.1595434 0.15043063 -0.010288546 0.25614753 -0.15245527 0.06354354 0.17367963 -0.072634675 -0.11395619 -0.026127327 -0.24265407 -0.15516613 -0.013356884 0.12609442 -0.16150013 -0.053183515 0.022834912 -0.016649958 0.05551756 0.05171773 0.17466329 -0.129132 0.1232035 -0.16714399 -0.0034133038 0.06802759 0.19300157 0.21750619 0.27929834 -0.1303164 0.07684285 0.1777638 -0.094353795 -0.21281375 -0.041384198 0.19544326 0.21044926 0.21245684 0.095775664 -0.096130244 0.027215717 -0.13925147 0.10502423 0.03253636 -0.15900774 -0.13998392 -0.034089405 -0.08243358 -0.08931575 -0.03657536 0.24952875 0.1520855 -0.094920844 0.09779757 -0.0011976504 -0.09241396 0.06773543 0.0817156 0.07007359 -0.048347224 0.25299653 -0.13900831 -0.10513635 -0.10442978 -0.35156596 -0.039698567 -0.20773539 -0.26837757 -0.028193874 0.10391394 0.065868005 0.08329323 -0.17841266 -0.07308257 0.18641852 0.22181098 -0.034466736 -0.16182978 0.31584507 -0.0974461 0.079817034 0.2592611 -0.014541542 -0.2275654 0.16722167 -0.0008625174 0.13492545 0.0725105 -0.013196723 -0.023113018 0.124454424 -0.048338417 -0.07946004 0.15676913 0.24841869 -0.020584777 0.046414293 -0.05062847 0.005271949 -0.034297075 0.14294973 0.017417435 0.0039579207 0.15450431 -0.08419093 0.03250538 0.11593422 -0.1828406 -0.059604503 -0.1360946 0.16255677 -0.058663905 0.084095225 0.06929893
1199 0.0073356354 0.070802435 0.2591456 0.053544912 0.044815626 0.010381608 -0.08561463 0.060013965 -0.12038618 0.042778384 0.064139836 -0.100587375 -0.078617945 -0.051532343 0.10428878 0.097076036 -0.16806938 0.070387565 0.0787468 0.058606356 0.1453574 -0.078310356 -0.13778391 -0.17072617 -0.077759415 0.03560299 -0.024564244 -0.018663298 0.09780049 -0.003421346 -0.05861092 0.049628526 0.15244414 0.014896018 -0.045221176 0.05849587 0.013441567 0.018776616 -0.02298785 -0.0042025284 -0.0442241 0.14071886 0.24925843 -0.049379 0.20965934 0.061829 -0.044018567 0.042159144 0.019041417 -0.030022236 -0.033001177 -0.01961538 0.25695404 -0.024356825 -0.15081039 0.104917645 0.10882474 -0.015843445 0.011837637 -0.14265577 -0.12379822 -0.14480413 -0.12857397 -0.1995142 0.027296446 0.21162523 0.004347893 0.25835547 -0.13647489 0.04124431 0.0972217 -0.102871686 -0.23501873 -0.12740625 0.100363284 -0.026354944 0.053214803 -0.16512915 -0.003995829 0.034842763 -0.024359345 -0.015520038 0.010919056 0.17323099 0.09731595 0.070431314 -0.20420344 -0.032235514 0.1512231 0.0005238947 -0.05630385 -0.02804556 0.20502985 -0.11931848 0.04052565 0.10089035 0.034559164 -0.11877361 0.058955085 -0.040672533 -0.036406007 -0.023385143 0.14218397 0.22061709 0.07858211 0.113300376 -0.033581506 0.04529967 0.1154468 0.012508668 0.19894108 -0.1431536 0.22312562 -0.10674802 0.081967786 -0.09047208 0.065945916 0.078977905 -0.020086482 -0.028808307 0.056007616 -0.2756731 -0.035030138 0.018431103 -0.034446523 0.0049579465 0.08940308 0.1302098
1200 0.09991269 0.17969726 0.224909 0.002685443 -0.03312139 -0.03186006 0.006946786 0.058426604 -0.04505325 -0.06036941 0.011510225 -0.2415994 -0.116396636 -0.14332236 -0.0004856966 -0.035936564 -0.085021384 0.009643147 0.04897496 0.04534752 0.078793414 -0.06686064 -0.058794852 0.027167944 -0.058004655 -0.0892792 -0.023437109 0.00090182654 0.066268265 0.0906467 0.10355572 0.025043871 0.14754747 -0.09493764 -0.022404488 0.00894732 -0.13318864 -0.028044395 -0.22550564 0.071775034 -0.11377851 0.121100634 0.16652854 -0.24245347 0.09229946 0.12291885 -0.05501662 0.07561991 0.043609265 0.0813559 0.09982531 0.16916807 0.14802444 -0.028000496 -0.09430101 -0.009441175 0.21827103 0.119939744 0.020241844 -0.13925274 -0.060368907 -0.05583769 0.026825355 -0.17190152 0.11840308 -0.020663975 -0.061705768 0.10578028 -0.21311247 0.077185646 0.08477335 -0.021402016 -0.153749 0.062623724 0.021720728 -0.06437294 0.014152627 -0.08789649 -0.1945308 0.037601877 -0.015918164 0.036347028 -0.058828335 0.172808 0.013131288 0.11064043 0.021795392 -0.17513634 0.049727738 0.13712421 0.0047128987 -0.039896633 0.2204033 0.027773263 0.0847082 0.020939376 0.015715398 -0.15182285 0.12694342 -0.047830272 0.080401234 -0.01916083 0.09623187 0.13211164 0.17825851 0.06356117 0.09733241 0.03696629 0.081088446 -0.18317184 0.13196227 0.024058387 0.21256876 -0.06485912 0.041762963 0.009038459 0.15505657 0.16462068 -0.042396072 0.14168845 -0.053491596 -0.12357694 -0.0012858309 -0.15396662 -0.04056248 0.05619647 0.08992193 0.07271042
1262 0.070303164 0.047094885 0.12990037 -0.05527637 0.13466819 -0.120554425 -0.018901993 0.06424572 -0.039035853 0.11521634 0.014794965 -0.1336246 -0.10759833 0.05713388 -0.023586737 0.008896948 -0.11732501 0.14242479 -0.052802175 0.0029627855 0.11152156 -0.06402965 -0.15514544 -0.023079675 -0.06595907 -0.011568222 -0.15829651 0.024230765 -0.038549844 0.020065762 -0.062314685 0.06689181 0.05616231 0.029297778 -0.062438894 0.051246967 -0.016700111 0.12121778 0.020206269 -0.060797743 -0.09110332 0.08271854 0.18117666 -0.19155927 0.16500714 0.048961785 -0.05569272 -0.025222 -0.0024348674 0.14455312 0.09791911 0.001591266 0.19523762 0.12513241 -0.0355025 -0.089003146 0.10125832 0.05108139 0.09216489 -0.15108898 -0.116444826 0.0005945423 -0.0052879844 -0.006284682 0.12670894 0.12046703 -0.21501476 0.15614232 -0.15417592 -0.018453555 0.082590304 0.032283105 -0.22256297 -0.019548481 0.1499064 -0.19231972 0.0070583676 -0.13943647 -0.1983715 0.025394157 -0.13489853 -0.053490866 -0.0664048 0.1206008 0.17380473 0.06504254 -0.16925898 -0.08122138 0.14675032 0.21450037 -0.0011799708 -0.084694855 0.119533144 -0.057752226 0.17353255 0.17620069 0.09324527 -0.10444007 0.046367455 -0.09443277 -0.12868826 0.05531456 0.08730324 0.017391022 0.18822747 0.11224186 0.07940369 0.11334669 0.08990674 -0.085653014 0.11958592 -0.09303781 0.15718025 -0.06298646 0.037998192 -0.10846296 0.1684292 0.1587494 0.04877371 -0.041339923 0.0060353 -0.12351881 -0.094143696 -0.13749313 0.014013059 0.0628452 0.05878139 0.13798697
1073 0.19856541 -0.015400854 0.23958011 0.07020974 0.083902724 0.115645036 0.06570821 -0.0053464957 -0.031573165 0.13152477 0.14883597 -0.19684626 -0.10693951 0.08931851 -0.014284147 0.050369546 -0.12995014 0.119223885 0.04033693 0.12420009 0.0011387167 -0.06797861 0.011449 -0.042292915 -0.14009552 -0.06887324 -0.11093835 -0.14045589 0.06304133 -0.11749345 -0.13773333 0.061930664 0.081614636 -0.23886642 0.052051693 -0.11387177 -0.024003927 -0.08923887 -0.09565698 -0.03516892 -0.12051204 0.0286673 0.21121457 -0.04071455 0.16728184 0.02492842 -0.16691905 -0.04771502 0.004465746 -0.0039082696 -0.11651475 0.046865508 0.073976204 0.0229081 -0.18129387 0.029002607 0.12178286 -0.002397996 0.13179415 -0.21721672 -0.10639431 -0.035123166 -0.10412217 -0.14707895 0.07858631 0.19525489 0.08814095 0.23252259 -0.1946613 -0.04294904 0.10800574 -0.10203581 -0.19946527 -0.019339554 0.050754596 0.0131845325 -0.07437192 -0.023935927 -0.16103338 0.1323993 -0.08411757 0.07992919 -0.11195252 0.25713423 0.10766087 0.026332034 0.054827813 -0.16722377 0.055219404 0.11405828 -0.078894116 -0.026516914 0.1068072 -0.09834875 0.102938116 0.12686032 -0.026105378 -0.05955565 -0.06841368 -0.14085002 0.014539876 0.06191049 0.1513635 0.004825102 -0.017841293 -0.027992645 -0.094395645 0.12709637 0.16117296 -0.14334042 0.25360334 -0.015388159 0.14558035 -0.05217624 -0.010471439 -0.019945635 -0.017505482 0.1770651 0.052656326 -0.06516793 -0.1450073 -0.028877981 -0.047929846 -0.008496436 0.017070023 0.11250491 0.094245546 0.059866346
1085 0.07315317 0.08923752 0.1361945 0.04950177 0.04411557 -0.053481597 0.06714642 -0.041733198 -0.097588226 0.008874657 0.0077297315 -0.21618266 -0.08902407 -0.07729379 -0.0033496106 -0.016647322 -0.030178415 0.05635077 -0.0715347 0.0016060831 -0.05089217 0.019800365 -0.05201433 -0.1348465 -0.15741536 -0.0007766342 -0.05481184 0.045871425 -0.0072940006 -0.05057681 -0.13975826 0.19428423 0.10326993 -0.026248585 -0.039008163 0.06939898 -0.1452442 0.079491235 -0.098366916 0.0016330141 -0.19514228 -0.005970962 0.15896009 -0.23015583 0.04732002 0.124150015 -0.0026625178 -0.08279857 0.015282156 0.11667543 -0.09081257 0.06309882 0.13348055 -0.08636318 -0.065141365 0.06485562 0.08268827 0.093246065 0.18940707 -0.1503914 -0.18525612 -0.04551176 -0.12823254 -0.09699302 0.23560566 0.13534236 0.03825946 0.17074724 -0.31079182 0.05864453 0.026682194 -0.022909623 -0.19995935 -0.20093343 0.0011629111 -0.061091885 -0.114208125 -0.07890883 -0.31614506 -0.016239008 -0.0052486532 -0.14854532 0.020983012 0.21208794 0.20139784 -0.0019416625 0.019874714 -0.11587717 0.06366208 0.0688939 -0.11884124 -0.0900403 0.061415993 -0.048511576 0.027827758 0.033720206 0.001203401 -0.10905567 0.115844354 -0.07809629 -0.085727304 0.00017492175 0.06466035 0.086623885 0.13108602 0.024075141 -0.19007091 -0.023293145 0.12044354 -0.11877124 0.030763691 -0.05536853 0.22078061 -0.04503954 0.11000884 -0.05850539 -0.025934659 0.036077622 -0.00865489 -0.025635777 0.026365722 -0.066038184 0.0071679275 -0.18897766 -0.014505832 -0.0048948773 0.1021889 0.11724689
1101 0.17674002 0.054610275 0.1866048 -0.10546719 -0.11230431 -0.030212218 -0.029541092 -0.04232653 -0.18229604 0.03532087 0.06717791 -0.18158066 -0.114056334 0.0749986 0.004924423 0.11799125 -0.11129703 0.07998298 -0.036881924 -0.092329256 -0.038463797 -0.112510845 -0.13400717 -0.18005188 -0.08519014 -0.10856701 -0.062236566 -0.073259205 0.023995027 0.00068506494 -0.05926733 0.070411734 0.08609318 -0.06297878 0.060446933 -0.06426825 -0.0060166977 -0.021365387 -0.061959323 -0.14347978 -0.19791996 0.16975293 0.124856494 -0.18806423 0.15639009 0.024014356 0.027483044 -0.07671868 0.13993518 0.022761118 -0.0921772 0.19057094 0.22764425 0.08014734 -0.14034559 -0.06746812 0.11913991 -0.058340598 -0.01644492 -0.124351844 -0.09654284 0.046797644 -0.04201071 -0.11322382 0.17820549 0.08307433 0.027876386 0.104890235 -0.017906897 -0.061693553 0.064486176 -0.07214855 -0.31323457 -0.23562998 0.010080536 -0.09436903 -0.08553282 -0.021982884 -0.14452896 -0.07437295 0.042113494 -0.08307816 0.07872657 0.23395267 0.113146625 0.09171823 0.011400545 -0.1503674 0.093267396 0.09851209 -0.008183298 -0.18822345 0.15418679 0.052956123 0.08703393 0.17460106 -0.008473965 -0.15412262 -0.008902098 -0.13399178 -0.05838481 0.12604068 -0.012251553 -0.0036908644 0.08630267 0.088166624 -0.1516821 -0.02369006 0.11306818 -0.017057007 0.20106481 0.031832878 0.0113325855 -0.24633299 -0.07570039 -0.1631413 0.024721907 0.21234372 -0.15431844 0.09555544 -0.06724034 -0.06250599 -0.01289537 0.2026557 0.00660134 -0.0014177213 0.062979 0.12627687
1246 0.051774155 0.0017722911 0.19411497 -0.035012837 0.032236863 0.011252944 0.17419192 0.12929678 -0.04747813 0.01524422 -0.02638707 -0.16347466 -0.030045897 -0.18734057 0.08378564 0.04142395 -0.15746939 0.030396653 -0.04355871 0.074747965 0.02586237 -0.005459714 -0.14630254 -0.12606984 -0.15392727 0.0867072 0.056401547 -0.1054395 0.00310547 -0.023764104 -0.045958992 0.0827683 0.10716685 0.059903663 -0.038424082 -0.06465446 0.021896068 0.06829316 -0.06500485 -0.08791108 -0.1890735 0.16770512 0.24456578 -0.23688394 0.105735816 0.11310359 -0.07095236 0.015777169 0.031532574 -0.040609412 0.12219753 0.09045528 0.121001646 0.04514315 -0.0991173 0.17950107 -0.0150135625 0.14213192 -0.107367404 -0.0905798 0.008344937 -0.018510701 0.051084045 -0.0746161 0.14246465 0.24781641 -0.08051491 0.16670509 -0.17033808 -0.068093255 0.021261415 -0.032862175 -0.21420324 0.10124413 0.0746283 -0.097483024 0.024028338 -0.1012653 -0.14450718 -0.007929485 -0.046667643 -0.02947121 -0.003598494 0.23465991 0.04200266 0.029605135 -0.17399822 -0.113938406 0.20971508 0.008844499 -0.027275255 -0.21865495 0.23837078 -0.18330519 0.14185172 -0.027395856 -0.050828576 -0.22082417 -0.031821106 -0.24121019 0.054190002 0.039720617 0.00065296824 0.13744536 0.10805715 0.041177385 -0.014964921 -0.09866076 0.115897596 -0.13747102 0.10516039 -0.047014393 0.19746579 -0.06156612 -0.042163555 -0.017163955 0.0059414036 0.1206625 -0.005972478 0.012880628 0.040472418 -0.23850065 -0.026275367 -0.034089833 -0.094718084 0.027272409 0.08964238 -0.008587243
1082 0.018318703 0.00858259 0.30165944 0.044954814 0.03388131 -0.108881034 0.071223564 0.006020832 0.0007411408 0.023449419 0.03181197 -0.103095636 -0.03785395 -0.004057284 -0.09066352 0.018647978 0.050947003 0.1353703 -0.027917715 0.14686209 0.093241215 0.031527672 0.089541875 -0.039158776 0.0053924704 -0.031061959 0.07786538 -0.03414227 -0.13281094 0.027812501 -0.04910982 0.06139129 0.23325652 -0.12160285 0.07147882 0.057357937 -0.0035667508 -0.02852089 -0.23300731 0.10266884 -0.11324455 0.07281608 0.21775685 -0.04058672 0.23348646 0.08982032 -0.1603496 0.028818816 0.016356567 -0.055491094 0.022682993 0.073096074 0.052282464 -0.03965963 -0.23834637 -0.01259933 0.052126367 0.091108486 -0.063255385 -0.1686425 -0.13144326 -0.005817493 -0.11453797 -0.124928676 0.2623353 0.054894127 -0.15329483 0.17686735 -0.14812398 -0.024027703 0.1682366 0.0094626015 -0.22081134 -0.12251437 0.043065324 -0.04524562 -0.13534512 -0.091478616 -0.0927269 0.09945472 -0.012455818 -0.099102445 -0.036929343 0.31794596 0.15292814 -0.008871733 -0.13598797 -0.15242028 0.030709919 -0.007959027 -0.042314894 0.034972686 0.28394398 0.017008426 0.098627254 0.202213 -0.012968406 -0.10048676 0.00566795 0.035115276 -0.07115876 0.020304667 0.14998703 0.016442211 0.16222338 0.08227271 -0.08224948 -0.048827544 0.02904427 -0.15602146 -0.013156675 -0.07186396 0.2671885 -0.08280196 -0.017415015 -0.119515754 -0.08358726 0.09174769 -0.02451877 0.054237306 0.022968883 -0.09843779 -0.065813236 -0.11838912 -0.011382179 0.08229129 0.18294168 0.060083475
1339 0.28329793 0.05230208 0.27775186 -0.07395872 -0.09707952 0.061217614 0.042454176 0.108697906 -0.03776693 0.0016492782 0.08979327 -0.24213798 0.015799245 -0.12508076 0.121454015 0.1711508 0.024870839 0.09617531 0.0007630897 0.019575212 0.1056993 -0.04516353 -0.072691284 0.08483531 0.03760236 -0.042980947 -0.05201357 -0.058221262 0.15530914 0.0043891184 -0.028030539 0.06316999 0.007961719 0.09724348 -0.0012008931 0.09499638 0.07349082 -0.058168262 -0.2065449 0.049654882 -0.15688631 0.0879058 0.07701304 -0.1857226 0.20675963 0.11959631 -0.07231154 0.04824221 -0.0057362937 -0.003152044 -0.12943932 0.051598154 0.23992667 0.0321112 -0.16953449 0.023046661 0.060296837 0.084077924 -0.0018578109 -0.32895833 0.057671506 -0.07645369 0.020184956 -0.05693944 0.06468245 0.24950002 -0.05043637 0.20829897 -0.12453825 -0.1273629 0.1529508 -0.012018197 -0.1965998 -0.109740786 -0.04421596 -0.20602974 -0.04475987 -0.22896117 -0.08933236 -0.056374174 -0.1725042 -0.052851874 -0.033196427 0.08890149 -0.0353892 0.12389782 -0.04665619 -0.18747327 0.05945897 -0.008824436 -0.06988077 -0.08321903 0.13944443 0.010030106 0.008032832 0.03707981 0.10993376 -0.1450483 -0.104476705 -0.12121719 -0.016902717 0.058952704 0.06678484 0.08779092 0.011970472 0.037650757 0.012180483 0.13325055 0.14403602 -0.010529029 -0.034949683 -0.005380092 0.03497486 -0.08626164 -0.014845007 -0.06798524 0.05212797 0.055536162 -0.13468072 -0.07287135 -0.049097396 -0.09517508 -0.09370652 0.018821986 0.06391418 0.29668063 0.09708702 0.07140997
1055 -0.015616498 0.009212298 0.02091485 -0.037433747 0.13353613 -0.033086784 -0.011038309 -0.01136284 -0.21970099 -0.048574924 0.13625321 -0.06340679 -0.08718694 -0.043792885 0.2830016 -0.0077023944 -0.07084718 0.1312283 -0.29522 0.18908048 -0.08143548 -0.046217654 0.00316223 -0.1100227 -0.16506232 0.058457553 0.1140691 -0.024815744 0.025324574 -0.10344379 -0.05209344 -0.061614495 0.078807615 0.00074259186 -0.1027688 0.015451059 0.03652484 0.096329935 -0.08026225 0.04162614 0.064535916 0.17685582 0.17245439 -0.48288834 0.18509743 0.0998891 -0.049444623 -0.0100103365 -0.15178208 0.1112736 0.01177984 0.023762261 0.03992965 -0.113030575 -0.055577785 0.039359648 0.086464345 0.10363748 -0.12598583 0.010675399 -0.25029364 -0.16839764 -0.018977907 -0.1904172 0.21949242 0.085916966 -0.059126846 0.1908298 -0.1721032 0.16090697 0.029203845 -0.068099074 -0.2535144 0.06347549 0.220697 -0.13980332 -0.108159944 -0.16542064 -0.17424926 -0.1834109 -0.032720942 0.03818445 -0.21083087 0.09766566 -0.022115247 0.10474563 -0.042470716 -0.0022813457 0.018660687 -0.003164361 0.006478596 0.07590246 0.21209069 0.033208475 0.03834502 0.01835251 -0.018318536 -0.019963419 0.09630182 -0.010682279 0.14699726 0.11255714 -0.24324773 0.03954228 0.1876345 0.031225866 -0.13574913 0.071202286 0.23074953 -0.04142256 0.14776348 -0.065109216 0.17667593 -0.18685511 -0.032856572 -0.059167154 -0.08340279 0.036819786 0.04078019 0.16263935 0.0028725367 -0.19808088 -0.26085755 -0.041061703 0.0980653 0.21152548 0.12859428 -0.14157677
1325 0.12587878 0.1457027 -0.012728446 -0.14575103 0.05300814 -0.16378306 -0.10396504 -0.22536698 -0.06847881 -0.13434318 0.11721294 -0.15399802 0.28154933 0.13792495 -0.10695054 -0.26536298 -0.032592583 0.27487934 -0.11544942 0.07128028 -0.0819036 -0.26656726 0.071718425 -0.26499656 -0.06623328 0.01579698 -0.2521846 -0.10476414 -0.09897192 -0.29524136 -0.06075313 0.31771874 0.08197941 0.017613418 0.22536758 0.020114908 0.123075105 -0.03934276 0.105142936 0.25912523 0.08118293 0.17767635 0.0165947 -0.1502964 -0.08741554 0.0007139211 -0.32372254 -0.14244343 0.09099364 0.122567445 -0.087571315 0.09602001 -0.026878411 -0.05247442 -0.11072646 0.043857116 0.25288388 -0.10004211 -0.25254768 -0.04464447 0.06989533 -0.21102718 0.16219996 -0.19034797 0.1462968 0.20169637 0.10422813 0.115862824 -0.15525347 -0.049918234 -0.121102154 -0.00170025 -0.21967894 0.044086277 0.07293476 0.039779935 0.23178968 -0.092268646 -0.28531954 -0.075190075 -0.06823616 0.17702055 -0.1126271 0.2439594 -0.11710981 0.16524673 -0.07605885 -0.0333192 -0.028328346 0.32930645 -0.032604437 0.08161074 0.28197202 -0.04544526 0.14294523 -0.06635338 -0.09890681 -0.18302368 0.22566377 -0.24367127 -0.15113969 0.10064008 0.15485013 0.21278214 0.17868505 -0.07364679 -0.1547108 0.027365513 0.3771724 -0.110063426 0.025839526 0.04872778 -0.06383577 -0.065868415 0.104673624 0.04577505 -0.14455654 0.030465292 -0.119693466 0.06960097 -0.05446189 -0.0103804665 -0.38197303 -0.23721464 0.031788144 -0.14893343 -0.19140391 0.089215614
1398 -0.024376987 0.13733742 0.2375605 -0.0182337 -0.1782566 -0.14118728 0.04581587 -0.11494225 -0.16494164 0.045424737 0.0019092924 0.048488818 0.21306127 0.10068431 -0.056237247 0.0760662 0.056747105 0.08673286 -0.06892925 0.26849383 0.0954502 -0.09338703 -0.026033113 0.3004452 -0.2732329 0.18505073 0.12044359 0.18755133 0.057931453 -0.27925584 0.19874738 0.069406666 0.14877181 0.10922356 0.07797966 0.09847236 -0.11258644 -0.08892877 -0.1759693 0.15535848 0.08083942 0.07069589 0.31490967 -0.12939899 0.003857007 0.2785288 -0.10207734 -0.0014398912 -0.06354276 -0.1006333 -0.0042927014 0.13619336 0.019292127 0.04738698 -0.18501057 -0.01283494 0.19137493 0.012473171 -0.08992037 -0.14536078 -0.10096313 -0.028156023 -0.043237284 -0.26280794 0.17018943 0.124703035 0.035324644 -0.0723966 0.0033223988 -0.030831454 0.059590556 -0.0035444817 -0.112487994 0.110595465 -0.15645687 -0.08156181 0.03120291 -0.068605445 -0.042564515 -0.06568471 -0.13157815 0.02191821 0.0069058863 0.02290023 -0.13609688 0.24460945 -0.18000339 -0.1784034 0.112053126 -0.02712787 -0.28329974 -0.18318535 0.016964085 -0.0025024002 0.0092924815 0.3955884 0.06997461 -0.27380106 0.108341135 0.055301644 -0.18236515 -0.23580293 0.21884523 0.22115247 0.078395344 0.16416693 -0.20237082 0.25053978 0.026258068 0.008504741 -0.01581338 -0.0039954334 -0.08205145 -0.08684209 0.10325099 -0.034782447 -0.07898868 0.26572946 -0.19363405 0.102773264 -0.1574331 -0.0888933 -0.19628961 -0.24272583 0.1595119 0.11328704 -0.06410375 0.17506997
1226 0.15378876 0.106697634 0.021686291 -0.012063132 -0.14773788 -0.053352956 0.06880287 0.123109266 -0.003571486 -0.029100107 -0.018711288 -0.15964676 -0.084195286 0.061239067 -0.0722762 0.021086441 -0.22449702 0.13645904 -0.09777168 0.07017471 -0.1286858 -0.039405845 -0.19367678 -0.10824438 -0.18390334 -0.08618944 -0.19828856 -0.0005733194 0.08848108 0.12963147 -0.031447828 0.07977709 0.07801828 0.039499663 0.029329872 0.08966423 -0.048002556 0.03574719 -0.1088273 0.015311328 -0.28756392 0.24553919 0.25723603 -0.13968939 0.12697847 -0.020984469 -0.111820735 0.017876763 -0.036077186 0.07706645 0.18807526 0.10154559 0.09993382 0.047787935 -0.11337436 -0.075240195 0.110171676 0.011796285 0.05282559 -0.12973525 -0.080518655 -0.026238626 -0.1435839 -0.21969615 -0.056050085 0.08225136 -0.17167297 0.19738862 -0.0039510457 -0.12639605 0.06716509 0.07445776 -0.22505008 0.020931862 -0.03296436 -0.114585884 0.00889533 -0.119504206 -0.23221773 0.0007622138 -0.031787787 -0.10915584 0.09911934 0.083483 0.04590364 0.026369303 -0.14782447 -0.21729246 -0.15601166 0.08126028 -0.052894898 -0.15787904 0.22536673 0.10839367 0.15041867 -0.00784986 -0.038959168 -0.1699263 0.1552294 -0.16127363 -0.011601624 0.09345694 -0.006854976 0.07514222 0.098112084 0.061068572 -0.14145203 0.03899213 -0.04302368 -0.19391043 0.021387858 -0.04919663 0.18035194 -0.03513474 0.050626595 -0.1004815 0.079625495 0.06678621 0.06416859 -0.003043732 0.04079425 -0.13295211 -0.09766519 -0.029227393 -0.046935745 0.08021925 0.080485195 0.13158661
1089 0.14104213 0.0056766975 0.23856162 0.124855965 -0.16156635 0.056507263 -0.1209655 -0.21175301 -0.032339405 -0.010104107 0.13845213 -0.074353516 -0.109444164 0.03328521 -0.04782444 -0.15507378 0.12875424 -0.04905211 0.026099661 0.21036685 0.13696256 -0.10869362 -0.12078087 -0.06382478 -0.21001066 -0.015085056 0.023403676 0.1759654 0.07039454 -0.08229648 -0.18710415 0.22744459 0.09690093 0.058494184 0.037828576 -0.029084072 -0.10987368 -0.20428613 -0.014460134 0.025685156 -0.15237366 0.2365011 0.23954356 -0.34604183 0.08850726 0.30103517 -0.0017976012 0.061578475 -0.023324255 0.06493487 0.17722164 0.011465231 0.103902005 -0.061249077 -0.090346694 -0.035476435 0.06875912 0.08261627 -0.17094547 -0.23654276 -0.2019674 0.028732043 0.041723467 -0.01001272 0.028617987 0.075868815 0.09141831 0.30619362 -0.06762578 -0.02500291 0.17034501 0.067458056 -0.12009284 -0.033287533 -0.25172535 -0.061799996 -0.011711356 -0.15152118 -0.2326148 -0.053686853 -0.2270842 -0.07747393 -0.09808918 -0.10275304 0.016404992 0.037014525 0.06026974 -0.06439988 -0.05794596 0.30467615 0.026289906 -0.10234501 -0.08351586 -0.28379992 0.17523457 0.27607426 0.09686455 -0.14141957 0.022175416 0.02135782 -0.009533344 -0.17955257 0.06868963 0.16875342 0.031161351 -0.07007707 -0.18454684 0.12172757 0.08548382 -0.16512214 0.14593706 -0.07712238 -0.004875277 0.06161607 0.22744846 0.08062905 0.014278656 0.24829003 -0.0429488 0.042659033 -0.06912391 -0.011432375 0.019028258 -0.01451035 -0.07316837 0.13957235 -0.048296843 -0.013038014
1409 0.12650204 0.11264566 0.077516384 0.11352171 -0.12382683 -0.028660493 -0.03898449 0.00649963 -0.22706383 -0.026496345 0.016499365 -0.14423569 -0.013725392 0.088790275 0.1254362 -0.10376302 -0.075742915 0.04385124 -0.14322522 0.1159846 0.07711048 -0.09157325 -0.017985633 0.05339197 -0.083935216 0.11399665 -0.2021825 -0.08199963 -0.013890852 0.14825705 0.018048385 0.16383484 0.09752083 -0.067378186 0.0757017 0.011749702 -0.028296474 0.013730051 -0.22081636 0.11236241 -0.11716191 0.15398665 0.16679958 -0.23179008 0.080978245 0.14942104 -0.030808626 -0.089536816 0.17691748 0.053645268 0.03164746 -0.005005032 0.15989073 0.0137207275 -0.19524711 0.13237184 0.14878517 0.07433813 0.07901488 -0.19350752 -0.12765314 0.012443977 -0.06391634 0.07266229 0.13485526 0.16316766 0.06889352 0.34148175 -0.2490497 -0.1101436 0.16505398 -0.11959039 0.031834047 -0.0893099 0.04968505 -0.06514108 -0.11694894 0.011404542 -0.16952208 -0.04421447 0.0005004543 -0.038414378 0.03506325 0.08441623 -0.07835924 0.06548585 -0.025439195 -0.09748035 -0.03828333 -0.011693754 0.038314126 -0.16842684 0.22152932 0.02374198 0.10666422 0.15224203 -0.05579518 -0.19444884 0.19076148 0.081168815 -0.024577154 -0.07044705 0.115403816 -0.022678375 0.049805876 0.14719006 0.030907892 -0.0056045093 0.10746726 -0.22191866 0.032777596 -0.1366089 0.124025956 -0.12966509 -0.010171724 0.037395403 -0.009515868 -0.11116448 -0.08614155 0.073060036 0.05782316 0.045949977 -0.2723277 -0.098216064 -0.083008915 0.11579979 0.07768172 0.09191441
1117 0.18936847 0.17562568 0.11620679 0.043831278 0.02977018 -0.056815702 0.1408981 -0.0005055167 -0.093614146 -0.1921895 0.054991834 -0.29827252 -0.011225633 -0.0064671854 -0.041493524 -0.010044182 -0.22233956 0.08362522 -0.09357381 0.122471675 0.007181685 0.009200504 -0.19163603 -0.028724087 -0.000501785 0.061231665 -0.05432187 -0.08122733 -0.04101713 -0.057925723 0.031077057 0.10796333 0.006883813 0.22871032 0.059607312 0.0058796904 0.008746764 -0.05562751 -0.027273476 0.11550625 -0.19970483 0.14767972 0.284541 -0.15917479 0.05617076 0.22131549 -0.13274604 -0.19810699 -8.973565e-05 0.12922177 -0.012519662 0.06604935 0.114017725 0.21895117 0.041115135 0.09073044 0.0059078042 0.1997978 -0.013641057 -0.3641217 -0.076129735 -0.0005344377 -0.11697981 0.001958013 0.111798 0.123424865 -0.12095207 0.26511964 -0.16449808 -0.032950226 0.09231444 -0.21721363 -0.26525784 -0.21696398 0.06962408 -0.007875326 -0.04570083 0.009537687 -0.20498759 0.052570444 -0.12187926 -0.0028859791 0.019934548 0.022193018 0.06090116 -0.034417585 -0.05892516 -0.06691649 0.05035384 0.04173647 -0.1652216 -0.0017485459 0.19033144 0.18291767 0.22864607 0.045000754 0.10267615 -0.13962969 0.0423919 -0.013719816 0.04033269 0.0018398713 0.21596013 -0.02303638 -0.07852096 -0.041062053 0.039948173 -0.0017467295 0.030702554 -0.0130157685 0.09764302 0.017054893 0.07702653 -0.016778715 -0.030837646 -0.08322103 -0.027269036 -0.07676355 -0.13118765 0.040245976 0.08923135 0.014410935 -0.09104213 -0.058510058 -0.08356263 0.18601884 0.1073666 0.12986276
1278 0.09488539 0.058208294 0.17239921 -0.14578363 -0.0011802072 -0.02186059 -0.024669217 -0.042939268 -0.080686115 -0.03482092 0.052645814 -0.071462914 -0.14350393 -0.057904348 0.14486444 0.029777296 -0.07919126 0.14455175 -0.086475335 0.12541628 0.072470196 0.07694877 -0.13171746 -0.080722615 -0.038715642 0.121229984 -0.039013214 0.039760996 -0.07043537 -0.003600191 0.025274012 0.12483323 0.07997128 -0.019567689 0.025646498 -0.12978968 -0.13621159 -0.08315454 -0.13688706 0.14032555 0.0061777504 0.021247718 0.02825685 -0.08510536 0.07153407 0.015677067 -0.13795832 -0.02578497 0.09555129 0.038369324 0.0033730564 0.02717348 0.07090754 0.007405256 -0.017914314 0.14332505 0.08968495 0.3618298 0.08315931 -0.088668354 -0.07773972 -0.052521173 -0.08068704 -0.12352024 0.17493606 0.10134775 0.0055621285 0.058625687 -0.09341076 -0.12136846 0.010213436 -0.016551279 -0.1769661 -0.10831537 0.102761835 -0.15086564 0.007296218 -0.19787529 -0.26788375 0.08229869 -0.06863378 -0.099768996 0.08158891 0.1549374 -0.06493953 0.13901865 -0.08663023 -0.15082303 0.061308533 0.18654741 -0.048148964 -0.11126524 0.1546386 -0.011983755 0.17263712 -0.05404686 -0.04401895 -0.10858615 0.08705206 -0.30332106 -0.22591026 0.03382515 0.049383473 0.0948515 0.20199633 0.015193221 -0.10367643 -0.0952989 0.037007406 -0.037174214 0.22986051 0.019976651 0.22078042 -0.06431459 0.057213157 -0.102664985 -0.01357435 0.108857244 -0.25294563 0.03659347 0.02533185 -0.17860761 -0.07843654 0.07819345 -0.0143915005 0.14529307 -0.0076864786 0.124580935
1341 0.04392024 -0.039594356 -0.07757732 0.1112196 -0.034483824 -0.13141185 0.02967498 -0.12121043 -0.26431105 -0.021096189 0.06413827 -0.17598543 0.0029987036 0.104839355 0.15254118 -0.13370712 -0.015754176 -0.06566081 -0.14880289 0.13625826 0.082048915 -0.15236998 -0.02536189 -0.16404514 -0.13052759 0.14085917 0.013319854 0.01870806 -0.04073525 -0.041551027 -0.016376803 0.010142085 -0.01740036 0.07944983 -0.084370226 0.39194277 0.1899984 -0.14731206 -0.025020503 0.040303282 0.074495606 0.1420386 -0.065157436 -0.27534786 0.09941781 0.3055368 -0.37188894 -0.14559731 0.16743323 0.07169333 0.16458109 0.055098213 0.19886017 -0.061518874 0.023158815 -0.2604813 0.17281178 -0.004254364 -0.15378118 -0.3201974 0.23690397 -0.20279953 -0.29571226 -0.24362993 0.360166 0.23793496 -0.039621294 -0.005084332 0.027521582 -0.03953034 0.093049094 0.025858775 -0.10949024 -0.08154797 0.066207714 0.13315937 -0.05096197 -0.024158848 -0.14123432 -0.01837699 -0.2475856 0.30304885 -0.1286268 0.07768576 0.029448414 0.22868046 -0.13187185 0.16067122 -0.064404294 0.17585203 0.06354082 -0.01549176 -0.03378426 -0.020604413 0.22379614 0.24512322 -0.085547686 -0.13651283 -0.09789278 0.018061725 -0.092584535 0.18626347 0.4003722 0.02039169 0.006418863 -0.13523455 -0.32230002 0.2310098 0.14451034 -0.045710865 0.009168873 0.22490534 -0.022117743 0.0022822332 0.09572931 -0.16423915 -0.21675229 0.12428085 -0.013819079 0.06312787 -0.065035954 -0.06947472 -0.04875337 -0.1175832 0.009897064 -0.0021289054 0.23550598 0.20515847
1106 0.19814497 0.19562304 0.08217867 0.10399956 -0.12326744 -0.13373719 0.040680926 0.027386384 -0.10227262 0.025831472 -0.01680078 -0.17315999 -0.15673575 0.11806694 0.1963392 -0.023441264 -0.008967535 0.14866436 -0.037452247 0.021315724 0.021560531 -0.057813782 -0.115258604 0.010154646 -0.025990922 0.052989695 -0.09320769 0.0131384265 0.16954762 -0.08440521 0.026571173 -0.016094802 0.15609016 -0.021388436 0.013501946 0.08699212 0.024660671 0.045126803 -0.12873186 0.075321235 -0.102838196 0.23591273 0.21699102 -0.12578987 0.13328993 0.10450478 -0.09123392 0.065188356 0.00027164535 0.08410469 0.052327644 0.1490908 0.20988607 -0.08198623 -0.07263602 0.000807819 0.17870128 0.025341058 0.098385096 -0.0029884903 -0.24706875 -0.07172222 0.00048915384 -0.18650372 0.2118384 0.07596189 0.1058169 0.22069769 -0.19368792 -0.017599251 0.044957012 -0.028215319 -0.14976656 0.07182797 0.09693278 -0.15480809 -0.0076488825 -0.062915556 -0.34963456 -0.050794225 -0.09809375 -0.058267906 0.10329665 0.08318692 -0.028167617 0.12537035 -0.037064098 -0.1031732 0.033341765 0.06207044 -0.07758536 -0.17429958 0.07130871 -0.17510003 0.097669624 -0.059668213 0.12895264 -0.009856783 0.0146829095 -0.2013975 -0.06122808 0.07257398 0.09677889 0.0493801 0.0027255598 0.16123642 -0.013328689 0.05347023 -0.11086039 -0.12467502 0.0055934764 0.021059014 0.18719988 -0.069068186 0.03519355 -0.09935744 0.090330385 0.14731146 0.0023440777 0.05215064 -0.061896186 -0.17825986 -0.14163351 -0.008374647 0.059317358 0.11267946 -0.051080965 -0.0019937132
